-0.474070 -0.604846 1.156789 -0.717889 0.033375 -0.380187 0.020106 -0.077659 -0.861174 -0.241003 0.189150 -0.120524 -0.169959 -0.499076 -0.599756 -0.358503 0.521665 -0.149473 -0.647099 0.031895 -0.213323 0.374971 0.564729 0.417538 0.437084 0.784313 -0.137034 1.021336 0.121895 -0.718706 0.294538 0.624764 1.109997 -0.446430 0.436479 -0.349527 0.589254 0.061045 0.901302 0.316749 -0.188334 0.488114 -1.045932 -0.374341 0.434234 -0.427020 0.683323 -0.696259 0.861556 -0.501974 0.087610 0.228303 -0.231990 0.642983 -0.292421 0.214915 1.139650 -0.736771 -0.182592 -0.420424 -0.299508 0.274445 0.239045 -0.715258 -0.720287 1.049534 -1.439341 0.203330 -0.194143 0.610901 -0.192928 0.958743 -0.404881 0.297896 -0.087888 0.160990 -0.415876 0.363362 -0.766094 0.318903 -0.533060 0.730148 0.276795 0.017648 0.268682 -1.215604 -0.197037 -1.056976 0.856424 -0.310563 1.197487 0.290579 0.070004 -0.173538 -0.028272 0.161860 -0.600430 0.170112 0.128288 -0.208593 1.156324 -0.140891 -0.170787 -0.688211 -0.845185 -0.239965 -0.093392 -0.053832 -0.135704 -0.477780 -0.579918 0.345556 0.845607 0.046956 -0.179667 -0.420356 -0.665432 0.322973 0.796452 0.103426 -0.182519 0.009381 0.241976 -0.102232 1.266519 0.535850 0.948327 -0.007657 -0.019339 -0.440100 0.202635 1.129895 -0.018272 -0.128236 -0.564635 -0.292901 -0.300263 -0.092680 -0.433170 -0.518102 -0.402826 -0.259493 -0.107899 -0.074868 -0.999888 0.155580 -0.020994 0.098090 -0.724322 -0.160482 -0.847802 0.106216 0.350077 0.043468 0.351965 0.121227 -0.451458 1.391359 -0.085680 0.394533 -0.000432 0.001584 -0.000343 -0.003834 0.001115 -0.006721 -0.005238 0.000507 -0.002126 -0.005506 -0.000844 -0.001723 -0.001984 -0.001487 -0.002244 0.000956 0.003471 0.000543 -0.003512 -0.006739 -0.001251 -0.000191 0.002618 -0.002158 0.001688 0.000222 0.001579 0.000118 -0.000491 0.006389 0.000976 0.001700 -0.005504 -0.002094 -0.004447 0.000604 0.004381 0.000519 0.003131 0.002442 -0.003100 0.003027 -0.001030 0.003658 0.005594 -0.000147 -0.001132 -0.002498 0.142171 0.126100 0.133075 0.127148 0.105729 0.093017 0.075038 0.055845 0.031635 0.012848 -0.003495 -0.003069 0.004005 0.001355 0.001667 0.002125 0.012930 0.012029 0.018461 0.059399 0.083919 0.083202 0.080615 0.073264 0.015127 -0.088556 -0.091824 -0.047695 -0.058140 -0.035527 -0.009543 -0.001093 0.003986 -0.003493 -0.003077 0.003510 0.019699 0.018758 -0.001603 -0.025476 -0.026139 0.008508 0.007087 0.024628 0.035931 0.083899 0.078427 0.066837 