0.000122 -0.002181 0.003747 -0.003605 0.00143 -0.003169 0.001571 -0.000297 0.001354 0.001143 0.000922 -0.000151 -0.001789 0.000248 -0.001368 0.005828 -0.001722 0.001166 -0.001101 0.000889 0.002077 0.005342 0.001926 -0.00041 0.000568 -0.00481 0.000874 0.000281 -0.000508 0.002891 0.001496 -8.9e-05 0.00202 -0.00164 -0.002868 0.001456 0.00182 0.001501 -0.001663 0.005694 -0.001883 0.002698 0.004198 -0.001258 -0.00064 0.002928 0.001627 -0.001328 -0.002613 -0.00114 -0.004062 -0.003208 0.001883 0.000178 0.000257 -0.000617 -0.001024 0.0027 0.001092 0.001477 0.003944 0.003021 -0.003114 -0.001281 0.0012 -0.001794 -0.001 -0.003026 -0.000267 0.005123 0.000218 -0.003375 -0.002501 0.001301 9.4e-05 -0.001033 -0.000532 0.004371 0.005774 -0.005949 0.004456 -0.00169 -0.002206 -0.001372 0.001693 -0.000276 0.002714 9e-05 -0.000749 0.003103 -0.003123 0.00273 0.002344 -0.000699 -0.001138 -0.002178 0.001747 -0.001211 -0.005902 0.000186 0.000825 -0.001956 0.004621 -0.000233 -0.001776 0.000828 -0.000919 -0.001426 0.000961 -0.001581 -0.001582 -0.000218 0.003106 0.001007 0.00114 0.006555 0.00067 0.002615 0.00049 0.001151 -0.006047 0.000758 0.001355 -0.00392 0.00628 0.004215 -0.001772 0.000943 0.000962 9.4e-05 -0.001468 0.002559 -0.000219 -0.00181 -0.000722 -0.000264 0.000702 0.002235 -0.005272 0.003901 -0.003566 0.00094 -0.002136 0.005037 0.001006 -0.001807 -0.001881 0.000718 -0.005455 0.000917 0.000912 -0.001658 -0.001616 -9e-06 0.001229 -0.00294 3.2e-05 -0.006075 -0.000207 -0.001162 -0.00206 0.000917 0.001447 -0.002046 0.001255 0.002885 -0.0042 -0.000154 -0.001185 -0.001121 0.001526 -0.004231 0.000777 -0.003926 0.000972 -0.001854 -0.002247 0.002578 -0.001589 -0.003159 0.000228 -0.00344 -0.001417 0.001691 -0.002206 -2.4e-05 -0.000319 1.9e-05 0.000746 -3e-06 -8e-05 0.000562 -0.001826 -0.000269 -0.002357 0.001592 -0.00088 0.00306 0.002293 0.000856 0.000888 0.00028 -0.00021 -0.000579 -0.001659 0.001593 -0.000318 -0.000817 -0.001295 -0.00332 0.002587 -0.003543 -0.001409 0.001182 0.001098 -0.002338 0.00054 -0.001851 0.006222 0.002465 0.000595 0.005015 0.001553 -0.000299 -0.002061 -0.00047 -0.000834 -0.000339 0.000611 -0.002896 0.001769 -0.004382 0.000313 -0.000109 0.000912 -0.002507 0.002039 -0.004851 -0.000496 0.000754 0.002273 -0.000608 -0.00013 0.002818 0.001115 0.001273 0.000295 0.001657 -0.000477 0.000112 -0.003767 -0.004724 0.001244 -0.000911 0.004933 0.002612 