-0.000807 -0.000434 0.002451 0.001429 -0.003371 -0.001149 -0.002428 -0.003140 -0.001013 0.000638 -0.007373 -0.000440 0.001262 0.002844 -0.001528 0.002684 -0.001020 -0.003208 0.000207 -0.001627 0.001822 -0.001091 -0.000273 -0.001018 0.001662 -0.002595 -0.001622 -0.001277 0.002994 -0.000005 0.001335 0.000671 -0.001318 -0.003984 -0.002059 0.001388 0.005948 0.004455 -0.002544 0.035270 0.076312 0.040404 0.038736 -0.046823 -0.073001 -0.018674 -0.028486 -0.019669 -0.004540 -0.002745 0.000047 -0.001408 0.004364 0.005172 0.003937 0.000106 -0.000785 0.000085 -0.001871 -0.001017 -0.009936 -0.038207 -0.194383 -0.104056 0.006390 -0.030309 -0.125837 -0.284201 -0.065993 0.101680 -0.383422 -0.466430 -0.499427 -0.431123 -0.234414 -0.066775 -0.045365 -0.315726 -0.176987 -0.074693 -0.027537 -0.004198 0.000749 -0.001128 0.002351 0.004533 -0.000500 -0.005465 -0.083426 -0.235451 -0.224462 -0.225380 -0.071940 -0.196855 -0.203038 -0.367925 -0.192551 0.104531 0.108531 0.064818 0.330526 0.221817 -0.370050 -0.771822 -1.041403 -1.158106 -0.889541 -0.528833 -0.206982 -0.042663 -0.001709 -0.000063 0.003251 -0.003023 0.008126 -0.011508 -0.034592 -0.326531 -0.383156 -0.222474 0.145771 0.741654 0.447147 0.051725 0.403533 1.358238 1.272264 0.814515 -0.739575 -0.414834 -0.251997 -1.107737 -1.542193 -1.801299 -1.144504 -1.047292 -0.790681 -0.260716 -0.004267 -0.007079 0.000475 -0.002537 -0.005790 -0.055481 -0.038728 -0.359449 -0.212329 -0.001789 -0.165545 -0.255293 0.187983 0.037661 0.612486 1.926637 3.156237 3.299794 2.666859 2.435554 1.436616 0.504779 -0.386311 -1.357473 -1.479126 -2.107499 -1.216283 -0.566845 -0.098156 -0.018377 -0.006877 0.000651 -0.010580 -0.008005 -0.048272 -0.466000 -0.563687 -0.900454 -1.360343 -1.200356 -0.622696 -0.303581 0.177921 0.767140 1.973538 2.439892 4.040094 3.619114 0.980682 0.913268 0.456975 0.485979 -0.520320 -3.196786 -2.429793 -1.148451 -0.240859 -0.042909 0.001565 0.006074 -0.015990 -0.009939 -0.112489 -0.639409 -1.239556 -1.194194 -1.311280 -1.051707 -0.649069 -0.217339 0.258641 0.694898 1.164172 2.480299 3.883117 3.991228 2.460845 1.279198 0.345234 0.910064 0.527780 -2.149231 -3.219597 -1.888821 -0.342060 -0.011738 0.023712 0.018032 0.091764 0.219194 0.059681 -0.270400 -0.705748 -0.131431 -0.655157 -0.549698 -0.878058 -0.464521 -0.194661 -0.482451 1.594568 3.721132 5.335941 6.159493 5.513593 3.601673 2.741373 1.918305 0.300030 -0.641711 -2.991903 -2.586775 -0.654384 -0.002367 0.001199 0.002053 0.139037 0.525031 0.256336 0.292277 -0.463876 -1.004981 -0.852376 -1.563035 -1.295719 -0.937279 -0.876928 -0.239091 0.734390 2.102263 3.331239 4.737554 5.928463 5.701760 4.039717 2.600810 1.443698 1.261032 -0.871564 -1.824383 -0.296430 -0.000801 -0.006757 -0.001911 0.082771 0.292812 -0.046835 -0.066011 -0.779666 -1.739718 -1.204872 -1.435738 -1.789487 -1.281257 -2.041880 -1.747772 -0.743818 -0.646664 0.874346 4.024265 5.867543 6.329522 6.139711 3.087849 2.769800 2.704284 0.903992 -0.731379 -0.250362 -0.006146 0.000123 0.050390 0.042703 0.079483 -0.407495 -0.730631 -1.131963 -1.285536 -1.133864 -1.436810 -1.569274 -1.536401 -2.937897 -2.693902 -4.062712 -4.017507 -2.482175 -0.043528 3.325352 5.305132 5.110087 3.664332 3.491086 3.813625 2.115590 -0.092478 -0.066071 -0.000095 0.007435 0.030862 0.094763 0.007646 -0.069654 -0.198423 0.116336 -0.870609 -1.584609 -1.282956 -0.545370 -1.400063 -3.022129 -4.367885 -6.049108 -6.366593 -5.130377 -3.381279 1.357495 3.927895 3.229624 2.250157 2.782086 2.964097 1.936412 -0.302854 -0.104291 0.003250 -0.007320 0.003626 0.066364 0.145340 0.124379 0.494498 0.485114 0.418039 0.222753 -0.253496 -0.228663 -2.541119 -3.775357 -4.832716 -4.928158 -5.132161 -3.818688 -2.353553 0.590884 2.522022 2.285879 1.948968 2.218554 1.934374 1.142314 -0.276665 -0.044789 0.001071 0.000811 -0.003315 0.018824 0.067763 0.422777 1.173909 1.194656 2.026519 1.218029 0.538450 -0.316976 -1.128141 -2.397139 -4.005020 -5.009471 -4.225857 -2.391152 -0.375408 1.435957 2.122255 1.964998 1.459706 1.077418 0.326479 0.501033 -0.441660 -0.036258 -0.001800 -0.002689 -0.002127 0.017253 -0.019323 0.477361 2.628554 2.374336 2.868665 1.544091 0.900364 -0.656835 -1.725119 -3.034309 -4.784813 -4.912446 -4.469707 -2.092392 0.921783 1.613439 1.661806 2.173344 0.964312 0.557628 -0.281437 -0.236095 -0.380207 -0.019067 -0.000130 0.001364 0.001145 0.008776 -0.124316 1.276037 3.629115 2.745732 2.162607 1.738131 0.574583 -1.016111 -1.796793 -3.477008 -4.353244 -3.606320 -2.741962 -1.554040 1.724752 0.826106 0.661506 1.638859 0.055982 -0.970576 -0.802433 -0.198672 -0.128806 -0.008075 -0.000033 -0.002787 -0.000201 -0.066914 -0.060444 1.290180 2.624440 1.399402 -0.466588 -0.633334 -0.294449 -0.828866 -1.592817 -2.781273 -2.643395 -1.452013 -1.148541 -0.074047 1.500315 1.104898 -0.048606 0.215422 -0.929122 -1.179018 -0.627163 -0.227466 -0.155728 0.000402 0.002319 0.000404 -0.000486 -0.008464 -0.080731 1.126877 2.422997 0.720963 -0.573034 0.475175 0.970722 0.487409 -1.251469 -2.918464 -1.019568 -0.557611 0.151872 0.441533 1.494051 2.420326 1.710964 -0.371710 -0.379067 0.069030 0.307066 -0.320257 0.147697 0.035313 0.016694 0.002464 0.015596 0.054358 0.007980 1.313883 2.561246 1.529452 0.783391 0.918542 1.974082 2.940414 0.602088 -0.100375 0.001177 -0.297432 -0.213429 1.218254 1.108448 1.361527 0.370625 -0.689677 -0.007651 0.256486 0.270532 -0.232801 0.121345 -0.045675 0.013621 -0.001108 0.024516 0.021857 0.021121 0.869269 1.915867 2.562564 1.427852 1.176818 1.843983 1.985279 2.182120 1.864059 0.787167 -0.250479 -0.567793 -0.164094 -1.253051 -0.752099 -0.537073 -0.283361 -0.019000 0.021573 -0.426771 -0.175301 0.160892 0.036570 -0.002368 -0.001491 -0.000583 0.042806 0.279501 0.225161 0.662461 1.918176 1.442236 1.247566 1.792532 1.689939 2.116568 1.435755 0.000511 -0.966306 -1.071197 -0.319478 -0.918313 -0.768066 -0.520349 -0.910909 -0.904274 -0.391658 -0.522240 0.010671 0.090670 0.026594 -0.000335 0.004748 0.005230 -0.048374 0.092589 0.106028 1.042021 2.248963 2.000077 2.323676 2.670414 2.826475 2.471607 1.096568 -0.164253 0.203088 -0.105408 -1.418901 -1.662775 -0.400034 -0.514161 -1.914217 -1.803342 -0.938956 -0.364165 0.008294 0.000342 0.002709 -0.000029 -0.000150 -0.001123 -0.081022 -0.176303 -0.238131 0.227127 1.656566 2.443917 1.490821 1.299346 1.566825 1.079029 -0.388380 -0.500967 0.392641 -0.533706 -1.273623 -0.530753 -0.925729 -1.796912 -1.760410 -1.042341 -0.629652 -0.343739 0.037723 0.010712 0.011098 -0.001414 -0.003501 -0.002923 -0.057275 -0.061485 0.032294 0.326982 0.750476 1.128323 1.205851 0.797537 -0.069476 -0.373916 0.170033 -0.030733 -0.419997 -0.209647 -0.126805 -0.485107 -0.765880 -1.121718 -0.767312 -0.483886 -0.356740 -0.246456 0.034101 0.029235 0.001613 -0.001465 -0.002192 -0.002759 -0.008888 -0.003273 -0.002410 0.169144 0.295794 0.752663 0.993740 0.502262 -0.967482 -1.510228 -1.392683 -1.009237 -0.383053 -0.906759 -1.134704 -0.917947 -0.247300 -0.394108 -0.246794 -0.115093 -0.018771 -0.060789 0.004069 -0.001799 -0.001057 -0.003007 -0.000287 -0.000959 -0.001019 -0.001530 -0.040077 -0.042972 0.170137 0.382675 0.488009 0.413766 0.165847 0.115463 0.157251 -0.047022 0.302945 0.322061 0.305653 0.142534 0.110312 -0.050443 -0.122648 -0.084667 0.000243 0.005658 -0.001877 0.002185 0.001633 0.000609 -0.003450 -0.001581 0.002739 0.001017 -0.005920 -0.002370 0.008416 0.044274 0.002156 -0.056950 0.017092 0.143432 0.085341 0.011297 0.019508 -0.009860 -0.040863 0.024568 0.086531 0.005545 -0.004790 0.002979 -0.000811 0.001640 -0.003385 -0.001586 0.003617 -0.003977 -0.001192 -0.006479 -0.005985 -0.001753 -0.001269 0.002462 0.001950 -0.000380 -0.004060 -0.003863 -0.005587 -0.001840 0.002030 0.014147 0.000493 0.000839 -0.000733 -0.001933 -0.008631 0.003379 0.002176 -0.002255 -0.001359 0.000787 0.000478 -0.004178 -0.002939 0.004524 0.001318 0.001191 0.001261 0.000731 0.002928 -0.001517 0.008275 0.006098 0.012477 0.020577 0.038550 0.057356 0.020289 0.008214 -0.264849 0.042358 0.131963 0.058130 0.104312 0.068247 0.005900 0.000424 0.002919 0.002712 -0.001270 0.002483 -0.000266 0.000797 0.001936 -0.003035 0.003485 0.007167 0.029282 0.011566 0.031722 0.066456 0.142744 0.104300 0.404596 0.918182 0.837447 0.511324 0.255182 0.001729 0.007033 0.552376 0.475395 0.389112 0.329604 0.380736 0.276283 0.091557 -0.044332 -0.041458 -0.001505 0.001129 -0.004465 -0.001929 -0.001574 0.002043 0.027587 0.008274 -0.028195 -0.163342 -0.012730 -0.101691 0.091536 0.414383 0.525737 0.304391 -0.793870 -0.533742 -0.148509 0.735437 1.148749 1.346757 1.463546 1.403037 1.162278 0.931295 0.389705 0.053051 -0.003478 0.001792 0.005132 -0.001430 0.000489 -0.004033 -0.054537 -0.321585 -0.751723 -1.177419 -0.676063 -0.615789 -0.790245 -0.801087 -0.442247 -0.321364 -1.710090 -1.657701 0.041130 2.095032 2.095155 2.941294 3.341230 3.045589 1.817289 1.298575 0.502750 -0.017423 0.042341 0.019186 0.002634 0.001448 0.001161 -0.087459 -0.474255 -0.928920 -1.760807 -2.487130 -2.107796 -1.226277 -0.594415 -1.172322 -1.386443 -0.776640 -1.213564 -0.266516 0.370486 3.450118 4.319947 3.829255 2.405164 2.718959 1.351060 1.253552 0.905950 0.054365 0.007850 0.013955 0.002352 -0.003133 0.009090 -0.353018 -1.015110 -1.740662 -3.091675 -2.929857 -1.684045 -1.039439 -0.775709 0.079116 0.497611 0.547804 0.924819 1.353224 1.530198 2.030225 4.123011 3.827662 2.544884 1.473920 1.722600 2.021623 1.457920 0.174564 -0.002812 0.007123 0.002893 -0.000325 -0.085110 -0.645315 -1.807490 -2.350557 -3.306592 -2.854720 -1.020619 0.386303 0.691225 1.500852 2.298338 1.390563 1.108408 1.061638 1.123031 2.772133 2.733405 1.946266 0.282331 0.710580 1.147998 2.597844 2.486755 0.812684 0.169910 0.006500 0.008637 -0.013452 -0.179669 -0.881312 -2.328363 -3.149161 -2.640374 -1.054881 1.138085 3.396196 2.056601 1.858221 1.914300 0.521499 -0.626062 -1.437202 -0.251082 0.273885 -1.193460 0.076033 -0.950760 -1.216228 0.154656 2.154440 2.758719 1.239929 0.569815 -0.001652 0.000591 -0.029369 -0.197535 -1.135873 -2.231383 -3.032059 -1.708644 0.238515 3.638773 4.815370 2.667510 2.127594 1.585439 1.261448 -2.019199 -4.691338 -3.939924 -3.227114 -3.536395 -2.807665 -3.209721 -2.361394 -0.994198 1.719811 2.228114 1.054885 0.168131 -0.033133 -0.000997 -0.027486 -0.262751 -1.119324 -1.704887 -1.451927 -0.073598 2.190042 4.490303 4.414974 3.255958 2.535383 3.494528 1.960864 -3.040089 -6.454749 -5.618824 -3.717022 -3.186463 -2.856241 -2.460608 -1.701959 -0.327055 2.060801 1.552056 0.308379 -0.086211 -0.041460 0.000886 -0.120812 -0.435359 -0.947887 -0.993398 0.423684 1.905385 3.760932 4.325755 4.103254 4.295272 3.225499 3.082445 -0.411651 -5.491956 -8.395568 -4.350846 -2.798972 -1.794499 -2.281431 -1.907953 0.085621 1.276425 2.745238 1.239673 0.040760 -0.011340 -0.042069 -0.009602 -0.132238 -0.328611 -0.617556 -0.379925 0.947262 3.464833 4.000093 3.679943 2.805962 1.383482 2.835883 2.471514 -0.431155 -4.988836 -5.053187 -1.265415 0.676958 0.105062 -0.464882 -0.242149 1.585644 3.368188 3.186834 1.430708 -0.008883 -0.085358 -0.082881 0.003464 -0.020552 -0.183108 -0.196417 0.096816 1.848920 3.543975 4.121391 3.971595 2.745629 1.783795 2.886939 2.219444 -1.651702 -3.727733 -1.760757 -0.588684 0.985376 2.545495 1.846968 0.665332 2.170503 3.873093 3.984944 1.732898 -0.272265 -0.417659 -0.075568 0.003327 0.000653 -0.101636 -0.177326 -0.155341 1.277338 3.371021 4.088604 4.104941 2.946121 3.632905 3.982593 0.039454 -1.994960 -2.343317 -1.283083 -0.024092 1.904195 2.577837 1.740716 1.009839 1.477100 2.627450 2.944366 2.133874 -0.212553 -0.267324 0.010381 -0.004521 -0.001678 -0.064188 -0.150589 -0.089608 0.696242 1.775943 3.553154 3.615959 3.975789 6.037287 5.620318 1.763188 -0.271879 -2.544081 -1.950290 0.412516 0.800232 1.768992 0.613237 -0.088326 0.581637 0.782911 1.901494 1.804181 0.040364 -0.245425 -0.084421 0.001105 -0.002914 -0.049985 -0.228530 -0.822899 0.039771 0.612865 3.239379 2.531996 3.898332 5.261728 4.674980 2.158951 -0.990943 -2.616467 -0.792200 0.464842 0.886520 2.250358 0.380136 0.507053 -0.421778 -0.216599 0.931656 1.020966 -0.360873 -0.426072 -0.172533 0.001961 -0.002780 0.000856 -0.780974 -1.630705 0.564090 1.761684 4.085126 4.075050 4.436472 4.913879 4.377791 1.955644 -0.607869 -2.169323 0.046093 1.038426 1.248469 4.223317 2.248801 1.512528 -0.497111 -0.497786 0.201674 0.329017 -0.443232 -0.206973 -0.012225 -0.000406 -0.001153 -0.041839 -1.323989 -2.101045 -0.096866 1.586234 4.048047 5.288508 5.877261 6.171627 4.760350 2.857374 -0.065285 -0.952969 0.659016 1.159495 2.499080 4.623345 1.632573 1.380260 0.350155 -0.222933 -0.080622 -0.074340 -0.482597 -0.115897 -0.112880 0.002310 0.018739 -0.177330 -1.512360 -2.455172 -0.220299 1.123925 2.244340 3.262516 5.532861 5.970002 5.746922 3.884809 1.992756 3.302330 1.611620 1.075968 2.531988 3.306527 1.949746 1.095318 -0.818620 -0.799842 -0.339462 -0.077549 -0.763080 -0.305607 -0.100238 0.000083 0.038060 -0.148288 -1.106428 -2.550738 -0.777307 -0.057386 0.648969 1.921852 4.418102 5.040282 4.033909 3.845982 3.468716 2.178442 1.574826 2.230223 1.860693 0.875025 0.694869 -0.423891 -0.695325 -0.316005 0.255990 0.018450 -0.328166 -0.042086 -0.002499 0.000062 -0.000922 -0.024251 -0.686615 -2.099082 -2.048553 -0.847500 0.628616 1.602735 3.027534 4.255833 3.755706 4.484009 3.460377 2.447977 2.392686 1.703344 0.754074 -1.295441 -0.803551 0.330389 0.555105 0.652696 0.237748 0.135419 -0.007149 0.011240 -0.004371 0.003120 -0.000340 -0.089215 -0.326076 -1.748819 -2.241639 -1.868168 0.246916 0.517948 0.649488 1.404732 0.786623 3.093010 2.322262 1.862725 1.879321 0.804404 -1.552705 -1.168563 -0.487245 0.019311 1.057363 0.390014 0.196757 0.243416 0.126846 0.029736 -0.000587 -0.000354 0.002218 -0.032538 -0.287993 -1.012447 -1.478389 -1.729413 -1.575672 -0.581868 -1.101401 0.250357 -0.208655 -0.340792 0.245283 1.085248 0.128530 0.216728 -1.253715 -0.847941 0.634431 0.910340 0.591230 0.169265 0.146882 0.132158 0.056736 0.003739 -0.000298 -0.000060 -0.001611 -0.003190 -0.063342 -0.313386 -0.708597 -1.320271 -2.094166 -1.796698 -1.328530 -0.544184 0.029091 0.646536 1.389633 0.926714 -0.599613 -1.287431 -0.786930 0.880995 1.308867 0.586268 0.152445 0.349934 0.184169 0.047579 0.016965 -0.002049 0.003448 0.002801 0.003857 0.003555 -0.009102 0.038171 -0.118428 -0.462715 -0.634912 -1.148886 -1.564559 -1.249700 -1.010524 -0.263234 -0.485030 -1.004353 -0.935035 -0.786976 0.100790 0.657953 0.721945 0.403890 0.439329 0.319129 0.070181 0.026782 -0.001152 0.003622 0.001228 -0.002098 -0.000521 -0.001200 0.001668 0.054968 0.126183 -0.117620 -0.426884 -0.655054 -0.745771 -0.457544 -0.190204 -0.361250 -0.658473 -1.260654 -1.001807 -0.513878 -0.226578 -0.176572 0.201871 0.091475 -0.002050 -0.006095 -0.014429 0.001656 0.003345 0.004964 -0.004736 0.005198 0.003934 0.003424 0.000898 -0.004536 -0.000247 -0.008813 -0.029161 -0.091988 -0.121161 -0.041348 -0.078770 -0.024965 -0.025753 -0.094794 -0.028725 -0.004908 -0.066993 -0.162414 -0.044294 0.005278 -0.003336 -0.001868 -0.004753 0.002050 0.002684 -0.000537 -0.001071 0.000610 -0.003669 -0.001436 -0.003367 -0.000234 0.004962 -0.000206 -0.001260 0.001157 -0.002753 0.000259 -0.001024 -0.008093 -0.013757 -0.003997 0.004766 -0.000808 0.000352 0.001195 0.000349 0.002067 0.002525 -0.002376 -0.001770 0.000428 -0.000623 -0.000888 -0.000679 -0.001399 -0.004380 -0.005173 -0.001788 0.004634 -0.003486 -0.008574 -0.006412 -0.014146 -0.027442 -0.016282 -0.029705 -0.057970 -0.038012 0.058508 -0.030664 -0.037632 -0.027635 -0.074964 -0.048483 0.001864 -0.000514 -0.008135 -0.005755 -0.000506 -0.002657 -0.003940 0.001383 -0.002057 -0.001157 0.000088 0.001324 -0.027807 0.016867 0.083738 0.028050 -0.081173 -0.086306 -0.163238 -0.210511 -0.096962 -0.051104 -0.123611 -0.172417 -0.081456 -0.264204 -0.182475 -0.198931 0.021207 0.089386 -0.014719 0.030456 0.019533 0.000481 0.000998 0.000298 0.002575 0.002392 -0.001685 -0.003251 0.005417 0.099869 0.043451 -0.060066 -0.220259 -0.378635 -0.748116 -0.716911 -0.657496 -0.485641 -0.675189 -1.016257 -1.119395 -1.423708 -0.739124 0.135242 0.319922 0.218429 0.178456 0.209128 0.112879 -0.004880 -0.011018 0.000936 -0.002118 0.000381 0.005799 -0.008412 0.002187 -0.004725 -0.079838 0.112702 0.010076 -0.756567 -0.903396 -0.651342 -0.293743 -0.671868 -0.935924 -0.439955 -0.566986 -0.941212 -1.129942 -0.299089 0.293202 -0.444870 0.136248 0.151085 -0.231706 -0.161510 -0.046843 0.008642 0.003206 0.001219 0.000563 -0.034918 -0.060102 -0.214250 -0.486949 -0.816265 -1.328448 -2.158713 -2.362077 -0.752467 0.773107 -0.118687 -0.096179 0.352931 0.152087 -0.034048 -1.299281 -0.875196 -0.441013 -0.389981 -0.407194 0.095178 -0.315190 -0.081543 -0.054588 0.000952 -0.003235 -0.002990 -0.014278 -0.256556 -0.372974 -0.935339 -1.585205 -1.751061 -1.796064 -0.962621 -0.578138 0.364137 0.455845 0.640141 -1.157886 -0.971709 1.265457 0.932920 -0.947825 -0.867299 -1.087118 -2.114181 -1.422649 -0.341643 -0.597452 -0.406277 -0.085740 -0.011226 0.000221 -0.003955 -0.040480 -0.338252 -0.284298 -0.934665 -1.739266 -1.775442 -0.551603 0.902279 0.538683 0.145610 -1.100461 -0.376864 -1.528842 0.112059 -0.730566 -1.844412 -1.274542 -0.169859 0.684378 0.001207 -1.235758 -1.609949 -1.522182 -1.760198 -0.525525 -0.009605 -0.043340 -0.041693 -0.044513 -0.403320 -0.248329 -0.602369 -0.589102 -0.995948 0.696112 2.414081 1.665339 -0.444304 -1.549799 0.079947 -1.328769 -3.274776 -3.591195 -3.912104 -1.238936 0.954756 2.040469 0.536544 -0.626420 -2.352497 -2.569486 -1.565270 -0.893256 0.000057 -0.001303 -0.047493 -0.226884 -0.689338 -1.030602 -0.396130 -0.206653 -0.228835 1.227797 3.614087 3.223905 0.125223 -1.457672 -1.786598 -3.167198 -4.425971 -2.846206 -0.639646 0.805755 2.569759 3.337208 2.328693 0.859065 -2.229346 -2.998256 -1.660563 -0.518683 0.016105 0.000865 -0.048710 -0.309873 -0.833531 -0.976920 -0.953989 0.034658 1.504568 2.828939 3.831708 3.874121 0.233994 0.109115 -1.133629 -3.549061 -2.584962 -0.197053 2.361743 5.093724 4.995100 5.249875 4.930591 2.698663 -0.630769 -1.828426 -1.163234 -0.355524 0.025586 0.002548 0.026762 -0.105939 -0.514823 -0.288511 -0.173935 0.996976 2.145998 3.075203 3.087954 1.908583 -0.201764 -0.215978 -1.408210 -0.847422 0.692176 3.067920 4.429173 6.049911 6.735371 6.907807 5.872491 3.456696 0.399138 -0.812124 -0.655303 0.136342 -0.013715 -0.018339 0.034171 -0.134887 -0.290434 0.215021 1.057259 1.022078 1.417171 1.361793 2.202556 -0.154246 -0.808401 -1.122541 0.442210 1.704566 3.480169 5.205773 5.481554 5.993970 6.554687 6.806414 5.918915 3.447744 1.060813 0.104200 -0.147900 0.084068 -0.017505 0.002633 0.001062 -0.253306 -0.409566 0.460941 1.527433 1.284847 -0.497879 -0.659044 -0.852540 -1.699374 -0.393340 0.158951 2.078457 2.831180 4.354378 5.144568 4.440957 4.552069 2.875162 3.542798 3.200570 0.817351 -0.297043 -0.483928 -0.064901 0.019710 0.072156 0.003645 -0.009967 -0.149482 -0.148885 0.904262 1.565000 2.035672 -0.902638 -2.609194 -2.330485 -1.124118 1.083052 3.191311 3.467022 3.411397 4.514235 4.949347 4.227801 2.385223 -0.331742 -0.013979 0.191231 -1.449090 -0.988927 -0.531034 0.043314 -0.019948 0.003055 0.001214 -0.010569 -0.098216 -0.031905 0.864595 1.650204 1.754717 0.056032 0.144382 0.345730 0.769252 2.261621 4.327902 5.344220 5.168711 6.318297 5.435320 2.113201 -0.288951 -0.780232 -1.163204 -2.609760 -3.533119 -2.159371 -0.568574 0.041071 0.126666 0.027293 -0.001196 -0.002539 -0.085849 -0.162365 0.162313 0.821654 1.119836 1.406942 3.622214 3.457154 2.918957 4.549845 5.366782 4.734042 4.057613 6.040893 4.358770 1.109606 -1.592806 -1.687007 -1.108420 -2.713464 -3.368611 -2.456320 -0.483263 0.050951 0.161055 0.067525 0.001803 -0.003837 -0.051825 -0.191836 -0.716768 -0.621071 0.812355 2.861570 5.044608 5.418679 5.139285 5.979746 5.436913 4.212888 3.602706 5.292962 2.829153 -0.112189 -2.176447 -2.575256 -0.994641 -1.806720 -2.662659 -1.785543 -0.046173 0.081721 0.022122 -0.019532 -0.001556 0.000680 -0.127134 -0.399372 -1.153888 -0.760152 0.947608 1.746816 2.321709 4.055504 5.536854 5.809454 4.903595 2.202563 3.030097 2.113242 1.342193 -1.788844 -2.570711 -2.067665 -2.161500 -2.547959 -2.202435 -1.358752 -0.058908 -0.053061 -0.007727 0.003412 0.002828 -0.012715 -0.154832 -0.487475 -1.053281 -0.657086 0.104985 0.660867 0.709886 1.930726 2.638457 0.600081 -1.162281 -0.738550 0.184655 -0.581408 -0.210526 -1.919795 -2.111424 -2.339230 -2.891106 -2.160409 -0.710275 -0.514884 0.029379 0.048473 -0.000836 0.000355 0.005226 -0.032117 -0.154845 -0.773635 -0.833656 -0.804308 -0.333652 0.693108 0.185680 0.041691 -1.214496 -3.527153 -4.131546 -2.878230 -2.911425 -1.750289 -2.357184 -1.897367 -2.689140 -2.171292 -2.513557 -1.508564 0.002481 -0.198626 0.097204 -0.051179 -0.015002 0.000277 -0.001256 0.002869 -0.095195 -0.820965 -0.963446 -0.410718 -0.475155 1.186490 1.131310 0.091984 -2.342496 -4.801694 -5.125918 -3.660797 -3.523291 -3.386665 -2.605470 -2.265005 -2.248966 -1.599017 -1.420681 -0.594872 0.326499 0.314783 -0.074563 -0.115572 -0.017221 0.000665 0.002805 0.006287 -0.115260 -0.486005 -0.919616 -1.094022 -1.203257 -0.846246 -0.269093 -1.048941 -1.847983 -3.365416 -4.114085 -2.810163 -2.802834 -3.688820 -2.610000 -2.117380 -1.145653 -0.088145 0.426265 1.085136 1.082717 0.477640 -0.189955 -0.112373 -0.023084 0.003446 -0.000179 -0.000780 -0.058414 -0.292982 -0.560269 -1.151658 -1.331149 -1.794012 -1.292902 -0.555396 -0.739245 -0.695039 -1.410640 -0.619598 -2.785532 -3.884415 -2.150012 -0.493160 1.253863 2.107476 2.475797 2.528511 1.884821 0.517335 0.009327 -0.008350 -0.032401 -0.000266 0.000490 0.003318 -0.063609 -0.083942 -0.179312 -0.689836 -1.227391 -1.818213 -1.431579 -0.857518 0.013147 -0.334115 -0.373291 -0.823451 -2.572847 -2.370875 0.274883 0.287806 2.031270 3.476640 2.791193 2.316120 1.364793 0.562629 -0.090400 0.020201 -0.000602 -0.000372 -0.000539 0.001600 -0.007663 -0.013590 -0.024409 -0.045751 -0.486859 -0.672051 -1.323580 -1.237538 -0.169002 -0.856957 -0.733547 -0.945720 -0.766697 0.196113 1.064364 1.278150 1.025766 1.288757 1.477455 0.681162 0.034582 0.087917 -0.128735 0.002923 0.003220 0.007877 0.000645 0.004178 -0.008681 -0.000576 0.089451 0.269397 0.104840 -0.098993 -0.024309 0.487912 0.817998 0.593145 0.123353 0.223460 0.280891 -0.168719 0.459217 0.448230 0.179162 0.518508 0.464037 0.293902 -0.000773 0.027902 0.002388 -0.002981 -0.000170 -0.002192 0.000661 -0.002374 0.003862 -0.000104 -0.000438 0.000112 0.003141 0.025872 0.025244 0.015415 -0.064517 0.024235 -0.031081 -0.041112 0.004597 -0.008634 0.027616 -0.049200 -0.149724 0.001415 0.034401 0.012778 0.013152 0.005236 0.003045 -0.001161 -0.002003 -0.002382 0.001481 0.003371 0.001734 -0.003399 0.003544 -0.000595 0.001253 0.002750 0.000676 -0.005707 0.005712 -0.001003 -0.004654 -0.012501 0.000774 -0.002229 -0.000152 0.005485 -0.008300 -0.003003 -0.002442 -0.003615 -0.002978 0.004193 -0.003733 0.000300 0.003264 -0.005101 0.001315 -0.002862 0.001492 0.000503 -0.004267 -0.000006 0.008118 -0.003573 0.002652 -0.004010 0.001279 -0.000382 -0.008341 -0.010600 0.001444 0.002992 -0.001857 -0.003654 -0.000724 -0.000329 0.001731 0.003155 0.002221 -0.000995 0.000232 -0.000697 -0.000426 -0.002272 0.002441 0.001901 0.000319 -0.003264 -0.002636 -0.001991 -0.002276 -0.004656 -0.010653 -0.070165 -0.111000 -0.054952 -0.015348 -0.071251 -0.129216 0.007165 0.168642 0.176374 0.135653 0.096354 -0.033414 -0.003895 0.166915 0.083597 0.039082 -0.001821 0.004851 -0.001172 -0.000525 0.000602 -0.002426 0.009066 0.061004 0.003768 0.022382 -0.073534 -0.238535 -0.546715 -0.586799 -0.200721 -0.367277 -0.286198 0.013842 0.443872 0.095511 0.546407 0.161109 -0.329207 0.047197 0.118830 0.098375 -0.086004 -0.194958 -0.010157 0.016389 0.002443 -0.002061 0.001819 -0.001480 0.014103 0.001838 0.123184 0.068364 -0.535930 -1.425706 -2.164170 -1.669708 -1.186363 -1.482603 -1.191742 0.330320 1.549482 2.583882 1.542218 1.368236 0.192854 0.076437 1.257051 0.903580 0.617546 0.375630 0.163582 0.010809 -0.001761 0.003802 -0.000553 -0.000603 0.105001 0.015608 0.121328 -0.397971 -0.936539 -1.337807 -0.902664 -0.729191 -0.862790 -0.758277 -0.188442 -0.552235 -0.690669 0.286073 0.085065 0.782483 1.822397 1.647867 2.122099 2.369193 1.649073 0.720612 0.366209 0.018330 0.013612 0.000772 -0.000385 -0.036876 -0.422756 -0.430743 -0.123138 -0.207065 -0.627334 -0.386406 -0.842624 -0.194368 0.435270 0.124815 0.291408 0.318959 -0.478470 -0.035342 1.537969 3.301180 2.518914 1.933029 2.189596 1.941813 1.977162 1.329342 0.575550 -0.027323 0.003481 0.000820 -0.001485 -0.063869 -0.543564 -0.625296 0.054652 0.034959 -0.232182 -0.297647 -0.772554 -1.047789 0.453952 2.201846 1.828318 2.100401 1.022496 1.363819 2.859017 3.595193 3.193920 2.002910 0.816764 0.827194 1.503445 1.617984 1.290833 0.371713 0.003655 0.000756 -0.040144 0.052245 -0.359922 -0.804156 -0.234465 -0.620788 -0.857678 -0.494360 -1.201529 -0.440045 1.397277 1.394367 0.558202 -0.584075 1.504163 0.301618 0.398517 1.330078 1.116389 0.693610 0.956739 0.021577 0.143860 1.031236 1.254608 0.479449 0.006919 -0.003414 -0.020672 -0.233447 -0.468015 -1.035448 -0.795279 -0.803762 -0.524775 -0.461365 -0.272042 0.064183 -0.026497 -0.242616 -1.697881 -2.451764 0.179560 -0.353487 -0.213459 -0.489558 -1.449838 -0.080193 -1.120374 -1.673811 -1.476740 0.047945 0.503986 0.170592 0.004770 0.003921 -0.020446 -0.381873 -0.451667 -0.920976 -1.238630 -1.566141 -1.303533 0.248542 0.642944 0.414442 0.731520 0.495646 -1.289473 -1.207917 0.790850 0.413055 0.790806 -1.763527 -3.177761 -3.300193 -3.802530 -3.427572 -2.408917 -0.433189 0.400080 0.112000 0.003631 -0.000587 -0.164115 -0.603547 -0.705392 -1.230801 -1.183716 -0.920256 0.047938 0.280190 1.128279 0.664905 0.952831 1.452052 1.032736 3.140532 4.653339 2.611984 1.539927 -0.567572 -3.307549 -3.447592 -4.013284 -3.807297 -2.936465 -0.984996 0.145731 0.025777 0.015091 0.002815 -0.129151 -0.455737 -0.745618 -1.144440 -0.912757 -0.199590 0.872071 0.978791 1.551641 1.202057 1.308667 3.038246 5.031904 7.526247 5.909741 3.481866 2.349163 1.055393 -1.822344 -1.908323 -2.766350 -3.295861 -2.732957 -1.164819 -0.079894 -0.040809 0.022258 -0.001939 -0.015213 -0.283527 -0.469027 -0.743713 -0.585906 -0.516154 0.666686 0.801231 1.413454 0.918475 0.643100 2.642907 6.061932 7.802956 6.723538 4.134687 1.792768 -0.645955 -0.355724 -0.668870 -1.281404 -2.506888 -2.489809 -1.319186 -0.418076 -0.172487 -0.051762 -0.004994 0.001040 -0.095725 -0.232559 -0.765316 -1.068307 -0.881047 -0.958776 -0.822107 0.669178 1.690160 1.945470 4.816993 6.784628 7.545433 5.611776 3.317198 0.458865 -1.005233 -0.404756 -0.323974 -0.682662 -1.330229 -1.702459 -1.268824 -0.637509 -0.378690 -0.039722 0.002701 0.001731 0.046625 -0.027076 -0.503054 -1.907201 -3.001301 -4.111105 -3.829518 -2.053355 1.184899 3.714782 5.146950 6.246678 5.284990 3.563927 0.835234 0.285423 0.376387 -0.267069 -0.467167 -0.177524 -0.108116 -0.938409 -1.453774 -1.202470 -0.481266 -0.071147 0.002975 0.000323 0.098336 0.140599 -0.283207 -2.087052 -3.515965 -5.701517 -6.870448 -5.706464 -3.570026 -1.292732 0.657998 1.227138 1.004105 0.217935 -0.937540 -0.947183 1.845913 0.541470 -0.274766 0.031934 0.141787 -0.523878 -1.538015 -1.224339 -0.565226 -0.156699 0.001005 0.004465 0.100996 0.214898 0.587470 -0.435739 -2.574196 -5.289695 -7.424580 -7.938163 -7.521368 -7.239856 -4.942636 -5.276172 -5.085003 -2.317728 -1.061864 0.114419 0.933532 1.311881 0.351956 0.323771 -0.467002 -0.553925 -1.265224 -0.808440 -0.183389 -0.026645 0.000958 -0.003229 0.150752 0.509917 1.362940 0.545423 -0.420465 -3.249106 -5.613635 -6.712497 -7.883715 -7.031467 -5.650267 -5.641571 -4.333187 -2.415929 0.721059 1.055042 0.542300 -0.374345 0.208466 -0.189621 -1.207197 -1.700473 -1.310475 -0.350055 -0.063007 -0.006143 0.006625 -0.001879 0.258747 1.041224 1.923785 1.557533 1.557778 0.822007 -0.528483 -3.079198 -5.034226 -2.996255 -2.230276 -3.534351 -3.158735 -0.941215 0.708819 1.524094 0.809716 0.081439 1.376665 -0.125842 -1.713174 -1.905176 -1.338071 -0.511473 -0.078146 -0.002949 0.005742 0.004297 0.181431 1.110381 1.796818 1.600242 1.928963 2.222955 2.836071 0.756545 -0.606930 -0.105136 -1.271236 -1.290612 -0.337398 1.007272 1.316589 2.600355 0.949283 0.453041 0.850640 -0.441099 -1.693988 -2.081849 -1.617146 -0.679624 -0.122073 -0.004646 -0.000455 0.001018 0.056231 0.702451 1.620613 2.014539 2.006087 1.647212 2.530323 1.796527 0.469635 0.455298 0.866759 1.022533 0.845138 1.120949 1.005600 0.440176 -0.012736 -0.567366 0.070343 -0.532055 -2.105062 -2.355602 -1.274542 -0.575444 -0.073587 0.003616 0.000557 0.000282 0.179891 0.485719 1.355213 1.888226 1.678836 0.842083 -0.052832 0.828602 0.494345 0.085713 0.782076 0.923267 0.238453 -0.128145 0.439617 0.863364 -0.721155 -0.434343 -0.051158 -1.176181 -1.427796 -1.267879 -0.635220 -0.192301 -0.005176 0.004380 -0.003200 0.002465 0.146610 0.528616 1.172798 2.251224 1.800914 0.409172 0.549837 1.210281 0.951674 1.176597 2.925814 1.922636 0.905987 -0.121053 0.039033 -0.165427 -0.825814 -0.126764 -0.139362 -1.049577 -0.954982 -0.642659 -0.319734 -0.072899 0.025208 0.002302 0.000560 -0.000894 0.146567 0.203936 0.487100 1.003732 1.812550 2.249423 1.707754 1.602622 1.112018 0.774757 0.712653 0.506959 0.111618 -0.923665 -1.159939 -0.610069 -0.546959 -0.551205 -0.227297 -0.466925 -0.577415 -0.412624 -0.288021 -0.165796 -0.001418 -0.001858 0.001054 -0.002015 0.020806 0.023076 0.056867 0.142989 -0.020154 0.244202 0.643129 0.973244 0.948969 1.215248 2.281765 1.949277 0.861533 -0.012096 -0.059934 -0.238412 -0.480914 -0.568314 -0.162812 0.209393 0.209654 0.030935 0.001761 0.000017 -0.002484 0.003550 0.000475 -0.000178 0.002898 0.001212 0.038560 0.108728 -0.011266 -0.082733 -0.175095 -0.005496 0.310442 0.292882 0.159151 0.380660 0.438449 0.188560 0.385199 0.300073 -0.001615 -0.143707 -0.101851 -0.035008 -0.008089 -0.004891 -0.001174 0.000941 0.003929 0.001859 -0.005340 -0.000105 -0.001814 -0.003439 -0.003887 0.000068 -0.004486 -0.003757 -0.032301 -0.046805 -0.078389 0.017864 0.043481 0.048092 0.031737 -0.000097 -0.003020 -0.018137 -0.083547 -0.049806 0.002839 -0.000724 0.003567 0.002676 -0.000406 0.000659 -0.000369 -0.003141 0.001844 0.000001 0.000378 0.000924 0.000089 0.000807 0.005033 0.000653 0.002318 0.002073 -0.002359 0.000492 0.000462 0.002123 0.001794 -0.001513 -0.000523 -0.000815 -0.000544 0.000867 0.001703 0.000347 0.001457 -0.002518 -0.000412 -0.000588 -0.001480 -0.001151 0.001230 0.001803 0.002379 0.000761 -0.001307 0.000587 0.001325 0.003196 0.003155 0.015836 0.002657 0.008413 0.023265 -0.006157 -0.095992 0.012837 0.007147 0.008595 0.060367 0.040402 -0.001156 -0.001230 -0.002437 -0.002978 -0.004079 -0.001353 0.001881 -0.001670 0.001266 -0.001956 -0.001576 0.000794 -0.001481 -0.002013 0.006822 0.028764 0.054238 0.008600 0.028414 -0.033103 0.042148 -0.097960 -0.021601 0.131867 -0.026607 0.057687 0.164330 0.049700 0.000623 0.038662 0.152252 0.028836 0.013807 0.002723 0.002111 -0.001728 -0.000390 0.001703 -0.000563 0.004907 0.016315 -0.002104 -0.015616 -0.041989 0.144357 0.045510 0.272782 0.326811 0.414986 0.455278 0.612593 1.021186 1.181263 1.513007 1.216672 0.399784 0.177515 0.118192 0.093809 -0.060854 -0.127791 -0.049375 -0.001283 -0.000676 0.002633 -0.001438 -0.001732 0.002278 -0.013353 -0.014436 -0.109391 -0.356872 -0.263303 0.058523 0.112730 0.321233 0.314360 0.243137 0.631587 1.299453 1.841798 1.420013 1.181545 0.623406 0.138076 0.327239 0.125240 -0.031823 -0.133698 -0.037788 0.032913 -0.004357 -0.002368 0.001466 -0.001264 0.007478 -0.126058 -0.042299 -0.147720 -0.434048 -0.262115 -0.203142 -0.727470 -0.776112 -1.487503 -1.829032 -1.753820 -1.139168 -0.823655 -1.343594 -1.717965 -1.807350 -1.366734 -0.978679 -0.648488 -0.352556 -0.094391 -0.007049 0.038335 0.006972 -0.000070 -0.000523 0.025090 0.184860 0.156548 0.185953 -0.211975 -0.638722 -0.398181 -0.808161 -1.385991 -2.546066 -3.821220 -4.749524 -3.847367 -3.162539 -4.283844 -4.000901 -3.693849 -3.303412 -2.369208 -1.677023 -1.211175 -0.063451 0.421339 0.123322 0.076150 0.024717 -0.003542 0.001008 0.065033 0.344898 0.378229 0.137761 -0.208856 -0.220998 -0.241935 -0.834870 -1.780231 -3.146405 -3.917374 -4.459962 -4.093837 -4.992495 -3.315421 -3.508137 -3.064365 -2.479357 -1.390452 -1.166336 -0.638507 1.064559 1.159542 0.665314 0.177369 0.003399 0.015149 0.082578 0.206632 0.620974 0.641368 0.614994 0.325887 0.801371 0.131201 -0.168733 -0.911892 -1.022800 -1.260403 -1.210532 -1.608672 -0.752814 -0.496293 -0.235557 0.171515 0.450047 1.298810 1.610977 1.413434 2.401933 2.473971 1.265803 0.578515 0.002779 -0.006612 0.068536 0.539663 1.339268 1.543641 1.213736 1.180206 2.014661 0.804922 1.089325 0.295625 0.647591 1.574393 1.788960 2.592418 3.266514 3.250601 3.676835 3.100415 2.272053 3.589605 2.679968 2.744457 3.004878 2.888154 1.850440 0.579160 -0.001939 0.003353 0.057935 0.671843 1.409923 2.220532 2.011802 1.691733 1.794253 1.194224 1.226164 1.117003 2.341982 2.321295 4.640614 5.877582 5.822363 4.525340 3.943611 3.031589 2.624728 3.274246 2.713855 1.917850 2.157887 2.282322 1.310883 0.386296 -0.000743 -0.002408 0.139190 0.654450 1.265997 1.877104 1.935152 1.459099 1.586505 1.498810 1.318228 1.859789 3.087994 2.879562 4.344902 5.186652 3.975318 2.540316 3.633182 3.297942 2.434258 2.049834 1.032442 0.980344 0.618372 0.964662 0.767966 -0.079405 -0.001859 0.024402 0.119597 0.567635 1.082869 1.215210 1.348507 0.601822 1.792636 1.238577 0.822106 1.414558 -0.104695 -0.633552 0.169630 0.726189 -0.072041 0.077468 2.143410 1.888364 1.331586 0.442759 -0.502226 -0.688103 -0.861359 -0.554939 0.223825 -0.025778 -0.010000 0.002268 0.018036 0.498182 0.855826 0.806533 -0.022894 -0.124661 0.920945 0.557160 0.644892 0.802861 -2.112587 -2.556370 -2.332718 -2.014280 -1.587567 -0.907748 1.018758 2.054684 2.083111 0.061904 -1.380732 -0.985579 -0.653626 -0.333797 0.092655 -0.049625 -0.093768 0.002111 -0.000366 0.262756 0.497967 0.267643 -0.576381 -2.031067 -1.155473 -0.594879 -0.641376 -2.090718 -3.770702 -3.726875 -3.085475 -3.172099 -3.010887 -1.586997 0.701455 2.247891 2.544334 0.098132 -1.079158 -0.692810 -0.361718 -0.195470 -0.198634 -0.015561 0.003400 -0.000801 0.003756 0.118697 0.210479 -0.139532 -0.926669 -1.949280 -1.345313 -2.186130 -3.517600 -4.332372 -3.994620 -3.386634 -3.301086 -3.358923 -3.051608 -1.576718 -0.309389 1.155624 1.823529 0.870436 0.328825 0.688377 0.842202 0.213534 -0.112749 0.019527 0.000755 0.001486 0.007846 0.069444 0.085705 -0.403694 -0.930459 -0.859958 -1.598278 -3.277795 -4.095343 -3.978155 -3.966174 -2.966523 -2.610773 -2.298995 -1.417684 -0.398014 -1.178818 -0.205539 0.991750 0.184281 0.102396 0.769551 1.018488 0.268608 -0.198076 -0.008766 0.000276 -0.002812 0.001874 -0.040769 0.099317 0.173380 0.388874 0.720152 -0.269155 -1.730122 -2.014708 -2.009236 -1.691793 -1.655540 -0.767711 -0.593956 -0.062676 0.045458 -0.468434 -0.311033 -0.175320 -0.585082 -0.689773 0.231265 -0.062163 -0.473418 -0.172764 0.001988 0.016407 -0.001613 0.000618 0.028514 0.445188 0.479091 1.007205 1.838195 2.649361 2.276420 0.770232 0.116656 -0.133186 -0.181456 1.833658 1.238461 1.485104 -0.115207 -0.423942 -0.163931 -0.498259 -0.341483 -0.307971 -0.191613 -0.202317 -0.480271 -0.000250 0.053784 -0.001265 0.002336 0.002515 0.066321 0.294968 0.295573 1.322578 1.712297 3.228008 4.111865 3.171453 1.306057 0.753791 1.971065 2.590894 1.415906 0.593911 -0.932552 -0.862912 -0.099303 0.123986 -0.026819 -0.950914 -1.283308 -0.665719 -0.341016 -0.146237 -0.000828 0.003601 0.000186 0.002407 0.001342 0.241311 -0.113885 0.798500 1.202137 1.786191 2.987481 3.273978 2.350910 1.936164 2.761375 1.729164 0.623030 -0.846950 -0.118896 0.331026 0.314602 0.006330 -0.722363 -1.515722 -1.295742 -0.813658 -0.240665 -0.138419 0.000448 0.001888 -0.004067 -0.002056 -0.026978 0.080588 -0.198562 0.215207 0.612710 0.680925 0.579987 1.298193 1.457358 1.644334 1.140047 0.555786 -0.227677 0.149235 0.084719 0.615734 0.414892 -0.868089 -1.390343 -1.555225 -0.871513 -0.729519 -0.141290 -0.047807 -0.002813 0.003157 0.000010 0.000474 -0.045504 -0.013654 -0.256995 -0.042155 -0.167401 0.431914 -0.218626 -0.279497 -0.397917 0.077054 -0.849584 -1.724166 -0.984098 0.103705 -0.199548 0.280249 -0.452448 -1.246163 -1.550630 -1.383924 -0.715643 -0.446217 -0.106584 -0.021216 -0.002366 0.003081 0.000907 0.001960 -0.060654 -0.086725 0.161846 0.335062 0.400643 0.041420 -0.990596 -2.239883 -1.485367 -2.132218 -2.485670 -3.663557 -0.949462 0.216149 -0.795990 -0.479710 -0.973403 -1.181174 -1.331500 -1.254021 -0.692318 -0.248320 -0.017137 0.004507 0.002706 -0.000047 -0.005931 -0.004364 -0.063437 -0.009553 0.187261 0.948843 1.268035 0.910066 -0.070239 -1.059858 -1.464090 -1.838802 -2.377645 -1.770128 0.931687 1.099208 0.183258 -0.198865 -0.722130 -1.332342 -1.202197 -0.813722 -0.457303 -0.208446 0.034979 -0.001512 -0.004628 -0.000449 0.001082 -0.002683 -0.007568 -0.017540 -0.057844 0.189516 0.683694 0.745807 0.996329 1.135335 0.266176 0.414230 -0.132371 1.263547 2.070595 1.351788 0.513732 0.024474 -0.026336 -0.689731 -0.877103 -0.373077 -0.037873 -0.032705 0.088405 -0.000015 0.001479 0.001209 -0.000434 -0.002128 -0.001748 0.000947 -0.119619 -0.407095 -0.150963 0.203248 0.465210 0.367391 -0.171132 0.050836 0.563529 0.404055 0.897807 0.922255 -0.044388 -0.072618 0.421350 -0.072677 -0.225139 -0.116990 0.001082 -0.025398 -0.002705 -0.001051 0.000520 -0.002837 0.001405 -0.000876 0.000223 0.005625 0.001321 -0.003976 0.006775 0.036096 0.101946 0.109569 0.061543 -0.116172 -0.055226 0.119695 0.240733 0.041774 -0.032885 0.143162 0.405297 0.127897 -0.018935 -0.028035 -0.011742 0.002668 0.001616 -0.002268 -0.001156 0.000824 0.000583 0.001111 -0.003455 0.001010 0.002703 0.003875 0.001104 0.001475 -0.003031 0.003027 -0.001609 0.000093 -0.007336 -0.014368 -0.000134 0.001914 -0.004223 -0.000358 0.000121 0.000537 0.000537 0.000864 -0.001146 0.003814 0.000124 0.002149 -0.003958 0.002954 0.001673 -0.000122 0.000302 -0.000760 -0.001336 -0.006692 -0.010801 -0.015352 -0.002385 -0.023230 -0.023360 -0.023913 -0.008670 -0.145217 0.091884 -0.132852 -0.104673 -0.068347 -0.208162 -0.119211 0.001473 -0.000749 -0.007056 -0.015187 -0.001381 0.001250 0.002917 0.002757 0.002261 -0.002288 -0.002053 0.001456 -0.065743 -0.015432 -0.100240 -0.193690 -0.244736 -0.166317 -0.422198 -0.953683 -0.888230 -1.245870 -1.136350 -0.905946 -0.495515 -0.780584 -0.547339 -0.566401 -0.771815 -0.674300 -0.270821 -0.092982 0.015783 0.030950 -0.001755 0.003619 -0.001074 -0.002838 0.000532 -0.002921 0.006031 -0.107742 -0.184832 -0.548765 -1.039047 -0.879137 -1.118452 -1.583312 -1.982329 -2.021266 -1.987991 -2.215918 -1.792384 -1.175515 -1.144048 -1.153245 -1.481996 -1.127225 -0.594308 -0.352401 -0.124392 -0.012987 0.000617 0.001809 0.003754 -0.002995 -0.003504 0.004917 -0.020685 0.008972 -0.131759 -0.522713 -0.958504 -1.252112 -1.740416 -1.987819 -1.983361 -2.345007 -2.141297 -2.222082 -2.516853 -2.313917 -2.021647 -1.306670 -1.293264 -1.390825 -0.931802 -0.094047 0.344167 0.122763 0.018506 -0.014685 0.000315 -0.003837 0.000230 0.050271 0.018137 0.200609 0.091568 0.062773 0.325047 0.328320 -1.142549 -1.610564 -2.564992 -2.443751 -2.358492 -2.834541 -2.951339 -3.640222 -3.664519 -3.210728 -1.864520 -1.175626 -0.621021 0.045051 0.112613 -0.069896 0.006156 -0.000833 -0.001314 0.002261 0.020817 -0.009918 -0.020913 0.473932 0.483956 0.396535 0.100104 0.308207 -1.123675 -2.623944 -3.203837 -2.004774 -2.808381 -3.441671 -3.364296 -2.677654 -2.110612 -1.129369 0.455336 1.998955 1.466108 0.765074 0.415851 0.362945 0.138095 0.023434 0.002302 0.003265 0.030293 0.001761 -0.278911 -0.066908 -0.164675 -0.061349 -0.376775 -0.763111 -1.685057 -2.821927 -2.076447 -1.373535 -1.959063 -3.218318 -1.951495 -0.318593 0.799966 1.271344 2.357202 3.733599 3.039567 2.243255 1.449229 1.084743 0.414802 0.008793 -0.012643 -0.018115 0.060506 -0.073692 -0.786175 -1.085879 -0.770473 -0.790709 -1.142106 -1.557592 -1.511259 -1.406617 -1.915212 -2.077294 -1.978076 -1.178090 0.452927 1.870236 2.644112 3.303026 3.425602 3.844718 2.360602 2.689127 1.608973 0.716678 0.519316 -0.008425 -0.001028 0.008050 -0.140929 -0.278125 -1.434803 -1.180106 -0.753299 -1.074853 -1.703344 -1.651217 -0.289127 -0.507294 0.484261 0.315160 0.889130 1.610568 3.903637 4.343889 5.086890 4.997205 3.535716 1.976994 1.766843 1.104213 1.003041 0.191468 0.051983 0.000212 0.002148 0.015069 -0.173586 -0.397154 -1.246880 -0.595083 -0.286700 -0.686242 -1.065332 -0.253761 0.110476 0.887885 2.286815 0.519829 0.466232 2.537928 2.604649 2.893780 2.221232 1.688235 0.723201 -0.375825 -0.218245 -0.688905 0.350812 0.305013 0.129106 -0.004186 -0.001558 0.005000 -0.124805 -0.575450 -1.272585 -0.175006 0.013055 0.223142 0.873010 1.142943 1.111711 1.104724 2.903477 -0.841839 -1.657040 1.127841 1.959305 2.453355 0.269579 0.273445 0.069144 -0.820384 -1.372892 -1.829922 -0.025974 0.463188 -0.065917 0.005492 -0.003524 -0.066981 -0.186359 -0.735714 -0.688472 -0.143412 1.212137 2.639877 2.556873 1.468093 1.578998 2.061265 3.063960 -0.936276 -1.638305 0.512373 0.320027 -0.669637 -0.695423 -2.226333 -2.461178 -2.031982 -2.174158 -2.133016 -0.881240 0.022572 0.094994 0.014634 0.003138 -0.005628 -0.250292 -0.638272 -0.124483 0.743315 3.408202 4.439914 2.820634 1.963583 2.853431 3.531301 2.407825 -0.454627 0.640249 0.632640 0.600101 0.586250 -0.723590 -2.391532 -1.397908 -0.676782 -0.878622 -1.319472 -0.188388 0.023680 0.067531 -0.060515 0.001251 -0.003292 -0.136448 -0.423759 0.491626 2.201634 5.400158 5.590831 3.536794 3.989456 3.917857 3.893584 1.594043 1.127434 1.604394 2.593748 1.601953 1.258618 0.345944 1.136515 0.967127 -0.307640 -0.455185 -0.789996 -0.562684 -0.057981 0.096512 -0.002877 0.002550 0.001407 -0.060791 -0.094410 1.031760 2.921109 4.911826 4.563204 5.333888 5.074046 3.473871 2.471999 1.535706 0.398816 1.665724 3.183316 2.707554 3.708174 3.755336 1.145179 -0.238881 -0.969882 0.157072 -0.353818 -0.605751 -0.010969 0.326240 0.028965 0.002102 0.001801 0.008451 0.126192 1.013808 2.749156 3.995106 5.250615 5.871000 3.579677 1.713943 1.423308 1.245106 1.383701 2.968926 4.904925 4.445020 4.821614 3.566694 -0.362369 -0.949825 0.355164 1.301492 0.301656 -0.363713 0.297384 0.308098 0.061210 -0.006805 0.001384 0.120332 0.131259 0.670853 2.732981 4.172380 3.878794 3.522832 1.175382 0.739477 1.094029 2.184229 3.518020 4.402978 5.185705 3.613922 4.640360 1.689429 -1.771428 -1.653465 0.325017 0.504114 -0.144443 -0.564107 -0.153073 0.076877 -0.008449 -0.001562 0.001104 0.028654 -0.051220 0.554597 1.942461 2.608252 1.498780 -0.263868 -1.078653 -1.379406 -0.966216 0.908286 1.897167 3.025304 3.083706 1.757342 1.112617 -1.164988 -2.162017 -2.603451 -1.635943 -0.844791 -0.536671 -0.408553 -0.407526 -0.137004 0.000521 -0.001468 -0.002520 -0.089765 -0.289401 -0.154146 1.342343 1.006553 -0.803124 -2.176247 -2.815041 -2.824342 -2.140144 -2.045759 -1.371457 0.393104 -0.585152 -1.934779 -1.807193 -1.258729 -1.897162 -2.729278 -1.807470 -1.365635 0.072310 0.298587 0.225073 0.028690 -0.000810 0.005719 -0.006893 -0.106438 -0.186027 -0.421193 0.304177 -0.391738 -2.277926 -3.847770 -3.901092 -3.778533 -2.280011 -3.495162 -2.672818 -1.674188 -2.552751 -2.967497 -1.999450 -1.677506 -1.923166 -1.868832 -0.947598 -0.514471 0.453107 0.484238 0.239488 0.024026 0.002288 0.000876 -0.000212 0.015152 -0.057341 -0.270511 -0.573105 -1.728850 -2.748735 -3.969898 -3.467037 -3.466342 -2.145061 -3.299749 -3.977893 -3.822137 -2.738993 -3.130840 -3.023307 -2.113407 -1.453243 -0.783711 -0.133137 0.425073 0.472475 0.589493 0.258466 0.026492 0.004111 0.002465 0.000788 -0.002270 0.002104 -0.262799 -0.712801 -1.672025 -1.928809 -2.677467 -2.391679 -1.415112 -2.305143 -2.927853 -4.264654 -3.116944 -2.978053 -2.605770 -1.548729 -1.084079 -0.479573 0.040573 0.632325 0.127743 -0.042324 0.291936 0.206151 0.033162 0.001566 0.001495 -0.000046 -0.002616 -0.017887 -0.050059 -0.437656 -1.222513 -2.087872 -1.662057 -1.161519 -1.161633 -1.360311 -3.154212 -4.574836 -2.601605 -3.479327 -1.281082 -0.064055 0.464586 0.807244 0.885129 0.392300 -0.146884 -0.170627 0.112753 0.095361 0.017227 -0.002507 0.004050 0.003104 0.000426 -0.045555 0.062280 0.192885 0.407412 0.175848 0.015125 0.100548 -1.797296 -1.667608 -2.400309 -2.363629 -1.907230 -1.984186 -0.838199 0.131602 0.396556 0.655470 0.398426 0.013520 0.021346 -0.091476 -0.073719 0.002380 0.000804 0.005159 -0.001152 0.007106 -0.002139 0.002386 0.101355 0.321505 0.142946 0.046945 -0.221413 -0.080050 -0.572746 -0.152281 0.075896 -0.301987 -1.305003 -1.208412 -0.967182 -0.749731 -0.812683 -0.306103 -0.128029 0.155233 0.238667 0.087753 -0.020043 -0.001628 -0.001661 -0.000327 0.003219 -0.002637 -0.005282 0.000963 0.053726 0.224225 0.196981 -0.244358 -0.506350 -0.524455 -0.026807 0.093793 -0.317700 -0.428258 -0.603667 -0.479759 -0.306890 -0.375001 -0.501287 -0.071847 -0.088907 -0.011431 -0.023661 -0.014528 -0.011147 0.000598 -0.004039 -0.002058 -0.002176 -0.002153 0.000987 -0.000426 0.002703 -0.001274 -0.004379 -0.040397 -0.041382 -0.018989 0.005513 -0.016929 -0.012536 -0.077390 -0.159242 -0.010989 0.023703 -0.039368 -0.195414 -0.127763 -0.035123 -0.006397 -0.006633 0.005082 -0.001071 -0.004217 -0.001993 -0.006755 -0.002889 0.000085 -0.001936 0.001429 0.001803 0.004103 -0.003511 0.000512 -0.003966 -0.000220 -0.000726 -0.000213 -0.001658 0.001292 0.001314 0.002619 -0.002612 -0.002142 -0.004729 -0.001901 -0.001144 0.002276 -0.004620 0.003530 -0.000414 0.002203 -0.000122 -0.002464 0.001398 0.001871 0.000584 0.001911 -0.001038 0.001712 -0.000247 0.005098 0.023650 0.017495 -0.038454 -0.072895 -0.001441 0.092185 0.228514 0.063880 0.004030 0.001436 -0.003435 0.008621 0.000479 -0.000581 0.006535 -0.000954 0.000461 0.000765 0.001187 0.004146 0.001889 0.002130 -0.002465 -0.000574 -0.004411 -0.009472 -0.065417 -0.032853 0.022579 0.019809 -0.162153 -0.379829 -0.007382 0.485261 0.717748 0.519229 0.604445 0.457957 0.223450 0.043165 -0.071440 -0.153976 -0.304451 -0.182664 -0.064791 0.002474 0.003237 0.001952 -0.001373 0.000756 0.002388 0.002152 0.016089 -0.067680 -0.057660 0.152878 0.378219 0.515219 0.377455 0.083877 0.311290 0.625215 1.964491 2.035389 2.237877 1.695141 0.492019 -0.249900 -0.457365 -0.291896 -0.746844 -0.746870 -0.328370 -0.069445 -0.001318 -0.006381 -0.010036 -0.000588 0.001967 0.002504 0.031541 0.160699 0.582504 0.797817 0.601279 0.902969 0.672786 0.158820 0.172085 1.706156 2.939281 3.372352 2.776335 1.973935 0.922015 -0.067116 -0.876344 -0.216494 -0.698861 -1.294773 -0.664309 -0.067423 -0.017217 -0.020781 -0.003415 0.001202 0.000700 0.020240 0.147389 0.386452 1.291901 1.598891 1.732591 1.790257 2.037887 1.987606 1.542870 2.152306 2.094510 1.996125 2.812988 1.359555 1.143929 1.479137 1.299400 -0.287043 -0.503452 -0.983231 -1.263132 -0.389380 -0.066632 -0.027590 0.002601 0.003194 0.025283 0.197480 0.779585 1.124563 1.746856 2.455517 2.369509 3.645452 4.467834 2.656715 2.496884 2.742694 2.298790 2.414334 1.925683 3.404527 3.442165 3.994223 2.521653 1.346800 -0.572975 -2.094213 -1.659128 -0.470077 -0.032972 -0.003540 -0.000566 0.001041 0.085274 0.377214 0.895905 1.496568 2.135985 2.747752 2.675159 2.929850 4.004546 3.621227 3.811792 3.553990 3.406167 2.856713 3.223273 3.426911 4.715232 4.703966 3.611049 2.698138 0.591721 -2.188138 -2.023189 -0.929092 -0.299317 0.001547 0.009212 0.002336 0.002822 0.260179 0.656957 1.753496 1.886426 1.696332 1.374553 0.051204 2.043530 3.274092 1.491874 -0.966497 -0.150184 2.168810 2.730428 3.582591 3.264919 2.535382 2.457019 2.024199 0.078293 -2.212977 -2.230362 -1.033444 -0.225080 -0.000245 -0.002198 0.003846 -0.018364 0.142312 0.340992 0.701818 0.390973 0.113339 -1.195868 -3.088366 -2.370606 -3.000093 -3.834566 -6.447349 -4.665308 -0.016733 2.897243 1.986006 0.788536 2.098827 1.562313 0.664586 -0.548662 -1.913442 -1.992556 -0.924910 -0.083829 0.001973 0.000658 -0.000987 -0.022061 0.072676 -0.116616 -0.546555 -1.216415 -2.782036 -3.318372 -5.453778 -7.262285 -7.984438 -10.578670 -12.687304 -7.118040 1.287143 4.824456 2.667032 0.396086 2.407187 0.416983 -0.457286 -1.662588 -2.570978 -1.390664 -0.411972 -0.101844 0.000028 0.004260 -0.003469 0.005915 -0.119127 -0.661437 -2.077207 -3.645435 -5.657702 -6.301420 -8.900525 -11.843403 -10.300913 -10.775243 -10.219759 -4.448043 3.104682 3.895215 2.575781 1.645508 1.987686 -0.113750 -1.081561 -2.034782 -2.269538 -0.914601 -0.301786 -0.245521 -0.004364 0.001541 -0.001002 0.002628 -0.284554 -1.436708 -3.379600 -5.689296 -6.850629 -6.793458 -8.919716 -8.629991 -8.171806 -5.791353 -5.186934 -1.177984 2.082527 1.080881 0.366883 0.776075 0.813094 -0.109696 -2.189369 -2.782024 -2.328915 -0.933673 -0.158375 -0.119747 0.003856 -0.000062 -0.002864 -0.001258 -0.452481 -1.746688 -4.272440 -5.306730 -6.066360 -5.649541 -5.027943 -4.087938 -3.527381 -3.076857 -0.846797 0.602214 1.437816 1.363662 1.279541 -0.468077 -0.788684 -1.142331 -1.107612 -1.292048 -1.713249 -0.745719 0.151537 0.107801 -0.002271 0.002570 0.004742 -0.000793 -0.422844 -0.804263 -2.907299 -3.781613 -2.922584 -1.512448 -0.515292 -0.263029 -0.856439 -1.449052 1.329029 1.474147 1.698843 1.333414 1.624242 1.431753 -0.517442 -0.699315 0.151387 -0.405596 -1.500139 -1.376634 -0.083479 0.109182 -0.003617 -0.000276 0.010116 -0.010137 -0.303322 0.003194 -0.516051 -0.884808 0.129400 0.936725 0.507818 -0.362693 0.056824 -0.174969 0.439120 0.991357 0.136401 0.472314 1.804015 0.755296 0.368338 -0.811253 -0.663595 -1.181134 -1.650438 -1.448414 -0.292238 0.075508 -0.001442 -0.000796 0.005992 -0.008430 0.161230 1.250794 2.104494 2.092950 0.494516 0.652683 -0.033423 -0.564018 -0.383480 0.039450 -0.073045 0.747606 -0.115135 0.932448 1.322211 -0.410122 0.544231 -1.491854 -0.705885 -1.393382 -1.985366 -1.020349 0.301891 0.092733 -0.001835 -0.001735 0.003763 -0.008715 0.827033 2.475296 2.975895 2.181495 -0.277758 -1.608786 -1.820769 -0.981216 -1.075857 -1.201262 1.976701 2.848805 0.008290 0.568199 2.403778 0.522169 0.226638 -1.462428 -0.334065 -1.368714 -1.441914 -0.581156 0.516447 0.094441 0.019552 0.000664 0.001200 0.075204 1.500138 2.801408 3.059087 3.301921 0.632255 -0.778597 -1.558470 -1.857015 -0.677887 1.228813 4.327521 1.423056 -0.646051 1.846141 3.308923 2.247889 2.941062 0.565174 0.291118 -0.750115 -0.515162 0.509613 0.841320 0.123706 0.003086 0.001392 -0.026654 0.173302 1.899925 3.067514 3.495627 3.796089 3.046023 1.962763 0.791950 0.168772 1.008950 1.986684 3.113581 0.144116 1.322582 2.350633 1.999702 1.732816 2.623672 1.493113 1.601619 0.484466 1.198207 1.355050 0.745703 0.200687 0.002203 -0.001310 -0.065877 0.261294 2.067516 3.182787 3.025183 4.291775 3.976214 3.836394 1.797233 -0.039986 1.392607 2.439915 1.023545 2.083067 2.375681 2.245750 1.324054 2.137544 1.440230 1.791453 1.099857 1.321925 2.452950 1.668475 0.487795 0.096111 0.001825 0.001032 0.000566 0.133118 1.677126 2.763416 2.040359 3.512452 3.722536 3.931977 2.534961 0.685683 -0.900201 -1.956635 -2.015861 -0.247316 0.274423 1.218017 0.989311 1.814067 1.715550 1.356492 1.283692 1.660886 1.793618 0.949311 0.155569 0.037297 -0.001676 -0.002156 0.000533 0.044257 0.804509 2.507604 2.395105 3.269066 3.052839 3.726224 2.579891 0.647163 -1.351122 -3.968572 -4.418634 -2.180363 -0.585010 0.679402 1.589706 0.512688 0.836603 1.597512 0.995404 0.883710 0.419618 0.096959 -0.113333 -0.045005 -0.002959 0.000699 0.002782 -0.013848 0.207188 1.113348 1.491601 1.898075 3.727828 2.509601 1.430413 -1.174349 -1.352024 -3.219331 -3.615465 -2.409748 -0.552008 -0.282974 -0.123481 0.027616 -0.533295 -0.404225 -0.161672 0.082283 0.286984 -0.079261 -0.136020 0.003867 -0.002387 -0.001308 0.002865 -0.028898 -0.014271 0.398845 0.863180 1.548398 2.612882 2.439865 2.123143 0.419221 -0.555035 -1.281447 -1.873384 -1.785778 -0.840410 -1.240446 -1.620565 -2.101714 -2.017672 -1.219045 -0.816964 -0.248001 0.124085 0.129705 -0.010228 -0.002230 -0.001107 0.000394 -0.005469 -0.007352 -0.008683 -0.000474 -0.141030 0.147305 0.629181 1.362667 2.088452 1.546079 1.203031 0.802074 0.463479 0.457553 -0.263443 -1.284533 -2.131945 -2.060096 -0.836770 -0.773730 -0.797797 -0.370174 -0.053371 -0.000711 0.001713 -0.001462 -0.001392 -0.002201 0.000435 -0.000983 0.000483 -0.041188 -0.194332 -0.069633 0.356661 0.364962 0.187986 0.256750 0.337625 0.275236 0.186334 0.452530 0.299962 0.024139 -0.406505 -0.515789 -0.129126 -0.026712 -0.031438 -0.008156 0.004052 -0.002930 -0.000947 0.001510 -0.005817 0.001536 0.000055 -0.001668 0.001503 -0.001903 -0.000850 0.000009 -0.003829 -0.001306 -0.003541 0.004044 0.001615 0.003793 0.004072 -0.004396 -0.001951 -0.000104 -0.008155 -0.039520 -0.004316 -0.016459 -0.012204 -0.006611 -0.000594 -0.002379 0.001307 -0.000462 0.005783 0.000469 0.003585 -0.002604 -0.001464 0.000013 0.002564 -0.000790 0.001482 -0.000480 -0.002764 -0.001170 0.003817 0.000191 0.005168 0.003853 0.001853 0.000573 -0.003643 0.000705 0.000849 -0.004524 -0.000403 -0.001427 -0.002053 -0.000609 0.004358 0.002150 0.002233 0.002151 -0.000912 -0.002788 0.002400 0.002365 0.000215 -0.002381 0.002560 0.029979 0.031628 -0.011523 -0.036998 0.016566 0.050680 0.113930 0.020309 -0.058793 -0.002675 0.009002 -0.002876 0.001218 -0.003783 0.004150 0.004226 -0.000076 0.000084 0.000025 -0.004417 0.001930 -0.001814 0.002607 -0.003752 0.006703 -0.001160 -0.001601 0.043966 0.091214 0.078698 0.088868 -0.079243 -0.222790 -0.145814 -0.003554 0.046460 0.125313 0.120143 0.019310 -0.129649 -0.157419 -0.114128 -0.126713 -0.085250 0.028643 0.046286 -0.003313 -0.004287 -0.002998 0.005087 0.001581 -0.003058 0.013950 0.028164 0.000425 0.131199 0.374662 0.590132 0.640378 0.185754 0.097420 -0.128769 0.399377 0.462449 0.118392 -0.210871 -0.312609 -0.355394 -0.365206 -0.178430 0.024626 -0.112256 -0.008053 0.039204 0.001654 0.001469 0.004794 -0.006196 0.001111 0.008373 0.045447 0.142917 0.378130 0.736368 0.842953 1.212833 1.168066 0.996991 0.907827 0.959157 1.905184 1.970316 1.337293 0.440971 0.200607 0.282003 -0.338351 -0.390689 -0.421932 -0.431580 -0.112886 0.062675 -0.007138 -0.008853 0.002759 0.000216 -0.002937 0.030311 0.173419 0.259448 0.958449 1.165030 1.597103 1.260132 1.197803 1.759608 1.359221 0.278175 0.903985 1.097710 2.080721 0.815021 0.258778 -0.294135 0.121009 -0.408095 -0.628478 -0.446042 -0.319721 0.034560 0.026807 -0.013134 0.000259 -0.001439 0.040435 0.248345 0.432083 0.562233 1.234267 2.026522 2.312202 2.567866 1.978673 1.119948 1.135410 0.232813 -0.843506 -1.115852 -1.338954 -1.223751 -1.284057 0.391283 1.002272 0.339313 -0.595873 0.009338 -0.023456 0.279977 0.107301 -0.005274 0.000107 0.000896 0.096190 0.320962 0.434621 0.771378 1.649405 1.968825 2.198063 1.406943 1.595892 1.797103 0.824246 -0.509893 -1.298142 -1.052599 -1.301654 -1.658278 -0.413655 0.490022 1.178680 1.637524 0.765079 0.516729 0.251144 0.334398 0.044394 -0.002782 0.012299 0.006592 0.148102 0.295993 0.774214 1.659142 2.184229 2.029876 1.511812 0.997369 2.956050 3.225887 1.983412 0.748840 0.257126 0.105641 0.277131 0.048170 -0.578329 -0.619456 0.347681 1.632466 2.186196 0.898345 0.634527 0.751990 0.088220 0.005661 0.002920 0.033330 0.307353 0.530662 1.201221 2.066051 2.053868 2.067878 1.860485 2.412507 3.670837 3.724405 3.191728 2.219593 1.461445 0.994443 -0.737806 -1.168460 -0.708492 -0.432259 0.943121 1.845972 2.138374 1.079457 0.278163 0.436093 0.126124 0.006131 -0.005149 0.033329 0.358809 0.642337 0.965988 1.379208 1.075225 1.424872 1.496879 2.178177 1.832911 1.955578 0.888371 0.401069 0.654775 -0.186656 -1.666471 -2.929703 -0.851731 -0.088202 0.327796 1.495294 1.104447 -0.070862 -0.341406 0.320261 0.227176 0.011334 -0.001243 0.006968 0.093126 0.313394 0.281301 -1.045888 -1.471293 -1.084118 -1.004909 -1.455503 -3.050389 -3.353488 -3.971177 -3.010516 -1.646132 -1.258388 -1.615474 -1.789164 -1.451268 -1.132668 -0.784412 -0.388736 -0.334840 -1.520658 -0.816748 0.195815 0.095950 0.000342 -0.001200 -0.004107 0.005636 -0.058050 -0.715113 -2.625225 -4.110646 -4.359315 -3.834692 -4.452639 -5.683616 -7.118341 -6.412423 -4.395557 -2.484717 -1.273425 -1.640019 -0.815653 -1.859485 -0.728582 -0.157056 -1.200819 -1.765046 -2.428482 -1.208289 0.159228 0.062329 0.011342 0.002121 -0.001448 -0.001621 -0.214093 -1.412667 -3.914648 -5.531258 -6.233225 -5.921915 -5.425223 -5.254774 -4.628258 -3.173180 -0.966535 -0.274361 -0.710946 -0.940758 -0.130766 -0.035439 0.523968 -0.754487 -1.298279 -1.711855 -2.279827 -0.903561 0.576359 0.412418 0.099729 -0.001227 -0.002542 0.003046 -0.308521 -1.023866 -3.615084 -5.145827 -6.004735 -5.560782 -4.730303 -2.909541 -2.098346 -0.750447 1.484850 1.772666 0.978138 0.079478 -0.562485 0.390315 0.656614 -0.079619 0.135466 -0.945763 -1.644269 -1.058671 0.616641 0.579985 0.009575 -0.001484 0.001678 -0.008486 -0.183410 -0.550801 -2.851831 -3.716977 -4.793486 -3.906549 -3.495828 -2.590301 -1.092342 1.331113 2.416967 2.757381 2.207817 1.009742 -1.140976 -1.228383 -0.367496 0.416993 0.874170 -0.493207 -0.845888 -0.508847 0.782850 0.514620 0.068683 -0.001588 0.003117 -0.028034 0.263877 0.157194 -1.117143 -0.932112 -2.760582 -2.579251 -1.889883 -0.289045 1.642575 3.417953 3.663285 3.868699 2.937343 2.495981 0.194231 -0.807795 -0.106758 -0.048235 0.708198 -0.182174 -0.549151 0.205832 1.162904 0.591627 0.115535 0.001974 0.001748 -0.007344 0.617727 1.494273 0.584913 0.305320 -0.457016 -0.077504 -0.286154 0.632178 2.702775 3.449617 4.496195 4.984688 2.895033 2.065651 1.079456 0.184462 0.946090 -0.247640 0.447739 0.481664 0.463266 0.876962 1.198348 0.286765 0.025363 -0.000529 -0.001846 0.045178 0.906745 2.028492 1.695867 2.180909 2.639024 1.873579 1.632774 1.893777 3.520461 4.698271 5.996809 3.743697 2.205589 0.360285 0.618742 0.937511 1.225048 0.585736 -0.050535 0.873265 1.279576 1.470203 1.045174 0.139032 0.048060 -0.003406 -0.026504 0.039597 0.853812 1.762387 1.817353 2.395559 2.992948 2.085924 1.683952 1.521227 2.066420 3.426947 4.751883 3.211170 2.055448 0.146251 0.823649 0.287974 0.656821 -0.434288 0.773804 1.273520 1.940719 1.397402 0.783222 0.148522 0.036801 -0.005054 -0.068034 0.045110 0.586731 1.566385 1.376143 1.578536 2.651186 2.135121 1.323099 0.887942 1.130636 2.872892 2.422776 2.610032 0.982651 0.189433 -0.104585 0.492005 0.287060 -0.356816 0.458999 2.032124 2.725143 1.520184 0.453986 0.100876 -0.001571 -0.003235 -0.001190 0.040662 0.352833 1.238750 1.354196 0.840593 1.681639 1.840716 1.842571 0.963969 0.306852 0.183456 -0.113448 0.177965 -0.302989 -0.425945 0.094843 0.420774 0.470178 -0.175591 1.018539 2.013010 1.866513 1.218958 0.368511 0.038662 -0.000365 -0.005613 -0.004086 -0.061104 0.157163 0.875028 0.696821 0.685664 1.341288 2.169824 1.571010 0.526571 -0.603875 -1.565684 -1.940473 -2.047827 -0.394061 0.473149 0.064717 -0.158796 0.549625 1.470423 1.341338 0.730310 0.634892 0.534353 0.127590 -0.017699 -0.002264 -0.001358 -0.003119 -0.055860 -0.081097 0.263594 -0.216136 -0.605023 0.210394 0.524659 0.271610 -0.117570 -0.021747 -1.047182 -1.949336 -1.972545 1.377400 0.712688 -0.600479 -0.007777 0.191968 0.216264 0.145399 0.136012 0.008731 0.096901 0.053557 -0.007291 0.001061 -0.000183 -0.002750 -0.029763 -0.069721 -0.123643 -0.245800 -0.450532 -0.505321 -0.404692 -0.204847 0.128890 0.082899 -0.490878 -0.622355 0.539541 1.623156 0.130750 -0.838633 -0.963274 -1.348946 -0.921909 -0.867447 -0.788771 -0.506086 0.001206 0.031767 -0.000879 -0.005099 -0.001377 -0.000099 -0.007474 -0.001432 -0.098092 -0.177576 0.369353 0.257740 -0.007138 0.121939 0.472043 1.282257 0.533737 0.784132 1.254944 0.909056 0.183921 -0.810932 -0.915783 -0.693155 -0.949983 -0.835562 -0.519248 -0.244701 -0.024483 -0.002836 -0.002686 0.004354 -0.005989 -0.001376 0.004052 -0.004038 -0.029261 -0.121075 -0.066926 0.236190 0.385560 -0.096101 -0.590872 -0.327008 -0.025339 -0.103975 -0.159312 0.166145 -0.468011 -0.574140 -0.335173 -0.468200 -0.236531 -0.067366 -0.012290 -0.003405 0.002265 0.001755 -0.002055 0.000128 0.001478 -0.000426 0.004134 0.000163 -0.003871 -0.000731 -0.000985 0.003093 0.001516 0.006254 0.033503 0.003498 0.071818 0.114414 0.141199 0.071162 0.028645 0.001275 -0.000471 0.001115 -0.006222 -0.010535 -0.004446 0.000170 -0.006312 0.000435 0.004795 0.003441 -0.000987 -0.000664 -0.001747 -0.000593 -0.001995 -0.002542 0.001690 0.004071 0.002552 0.001380 -0.003718 0.002090 0.003413 0.010529 -0.001837 -0.000027 -0.000587 0.003833 -0.001650 0.002394 -0.001504 0.001263 -0.002434 0.000732 -0.002929 -0.006319 -0.002624 0.004531 -0.001624 -0.000396 0.002247 0.000112 0.003410 0.005081 -0.003815 -0.001772 -0.045157 -0.007981 -0.001384 -0.004120 -0.025262 -0.004277 0.005008 0.024941 0.003684 0.016052 0.013062 0.000520 0.004346 -0.001290 0.005125 0.005168 -0.000455 -0.003985 -0.000437 -0.002399 0.000938 -0.002878 0.001644 -0.005372 0.038702 -0.003590 -0.001544 -0.017571 -0.038304 0.020694 -0.023917 -0.015365 -0.025881 0.130533 0.371978 0.511212 0.425940 0.260039 0.086507 0.163500 0.219785 0.142811 0.012380 0.008102 -0.013817 -0.011536 -0.000323 -0.003522 0.000646 -0.000987 0.002560 0.006734 -0.000548 0.002143 -0.041919 -0.203158 -0.292054 -0.185595 -0.502259 -0.931181 -1.035268 -0.735885 -0.700130 -0.011512 0.176311 -0.225853 -0.012099 0.130162 0.396751 0.275425 0.067039 0.081355 0.132389 0.021670 -0.002046 0.002137 -0.000493 -0.000896 0.000167 -0.001162 -0.014811 -0.168330 -0.470234 -0.715202 -0.942996 -1.080864 -1.345627 -1.487211 -0.976278 -0.061134 -0.532907 -0.406247 0.086493 1.120810 0.812044 1.483874 1.613984 1.377198 0.893690 0.730566 0.252253 0.012093 -0.027501 -0.002056 0.003358 -0.000795 -0.002972 -0.068921 -0.105772 -0.442112 -0.640166 -1.209926 -1.416950 -2.069182 -2.789474 -2.417226 -1.324315 -1.452503 -0.575525 -0.965487 -0.496803 -0.327508 0.341983 2.482734 2.179263 2.194156 2.183407 2.188604 1.259704 0.313948 0.073043 0.016119 0.001267 -0.003138 0.009127 -0.021751 -0.177180 -0.429825 -0.913629 -1.073905 -1.382740 -1.568962 -1.623544 -1.292234 -0.993293 -1.588238 -0.806209 -2.147589 -2.033262 -1.710809 -1.181929 0.827822 1.476905 1.786769 1.245436 2.225926 1.456886 0.348310 0.177811 0.025195 -0.002565 -0.000913 0.023606 0.000633 -0.550578 -0.449537 -0.892787 -1.045909 -1.197026 -0.555481 0.448525 -0.323492 -0.753544 -0.803597 -0.958030 -0.177202 -1.225203 -1.225540 -1.311839 -0.160445 1.398311 2.191329 1.189207 1.536891 1.012447 0.413297 0.125583 0.001856 -0.008485 -0.004365 0.004112 -0.114594 -0.677742 -0.391757 -0.616007 -0.864093 -0.524284 0.139625 0.657407 -1.026528 -0.328175 2.006667 1.637505 0.599427 -0.899080 0.171778 -0.494697 -0.018835 0.424677 0.948416 1.583839 1.479644 1.437186 0.596959 0.004629 0.002700 -0.003405 -0.002000 0.027676 -0.347462 -0.812893 -0.512907 -0.572969 -0.033812 0.638228 1.247558 1.443730 0.605009 1.232013 3.081478 3.674290 1.817413 -0.672286 -0.617481 -0.702100 -1.092928 -0.939283 0.206527 1.006771 1.059633 1.155872 0.510991 0.023244 0.007245 -0.000433 0.001489 0.043266 -0.230657 -0.501082 -0.002708 0.177833 0.440949 1.512764 2.166884 1.808781 0.725286 0.866056 1.831473 2.445472 0.890003 -0.587186 -2.443231 -1.104582 -2.112907 -2.057891 0.341466 0.760334 0.580651 0.359736 0.304562 0.081434 0.009160 0.002366 -0.014427 0.000355 -0.237036 -0.089761 0.321319 0.066764 0.196430 1.678851 1.879148 1.667815 -0.022336 -0.908714 0.595438 1.984368 0.896161 0.548663 -2.268973 -2.380389 -2.948967 -1.888923 -0.073028 0.310500 0.193014 -0.241358 -0.014295 -0.000443 0.012390 -0.001597 -0.006404 -0.001146 -0.085556 -0.055452 -0.058726 -0.321738 -0.282307 0.747157 0.353881 -0.382951 -1.906420 -1.946924 0.934861 1.968862 2.597352 1.190711 -0.934938 -3.197080 -2.815777 -1.059304 -0.114597 0.141721 -0.179829 -0.320138 -0.002475 -0.038860 0.007266 0.000876 0.002006 -0.001366 0.003655 -0.099789 -0.335036 -0.861955 -1.495108 -1.251420 -0.884022 -2.300651 -2.155582 -1.338510 1.928589 4.358880 5.064468 1.809624 -3.141505 -2.317329 -2.068810 -1.336557 -0.665002 -0.700988 -0.688364 -0.216530 0.155577 -0.001193 0.083348 -0.002391 -0.006713 0.000836 0.068283 -0.003795 -0.547457 -1.137089 -2.219275 -2.365637 -2.917566 -3.074744 -2.762353 -0.202391 3.277958 6.100168 6.050302 0.977951 -3.377099 -3.234500 -2.982713 -2.165843 -1.185524 -1.148243 -0.840979 -0.131439 0.342657 0.162227 0.020250 0.004122 -0.007682 0.016596 -0.009051 -0.173434 -1.336241 -1.589534 -2.596553 -2.717183 -2.408371 -3.196310 -1.339947 2.111580 4.750059 6.306785 3.742237 0.071092 -4.176623 -4.250688 -3.002366 -3.151120 -1.975798 -1.648672 -0.763305 -0.002990 0.421211 0.144654 -0.000912 0.002308 -0.006620 -0.001776 -0.081379 -0.728618 -1.791298 -2.052230 -2.979599 -2.906472 -0.961143 0.355827 2.544805 3.916313 5.286436 4.242729 1.020039 -1.254256 -3.436620 -3.346889 -3.343037 -3.246317 -2.763539 -2.332055 -1.266863 -0.274112 0.108972 0.066566 0.009198 -0.002481 0.000883 -0.020367 -0.222578 -0.883855 -1.728970 -1.911266 -2.282776 -1.591711 1.628688 3.670099 5.409256 6.273013 6.161840 4.795837 0.184534 -2.692449 -4.258211 -2.407809 -2.769765 -3.250496 -2.642172 -1.891564 -0.972386 -0.149379 -0.111151 -0.057887 -0.002987 -0.004491 0.004436 -0.066084 -0.356977 -1.210294 -1.493713 -1.498953 -0.454470 1.294498 4.084404 5.135278 6.231942 5.739815 4.913145 3.304892 -0.714076 -3.844705 -3.690977 -1.937631 -1.684820 -2.324782 -1.945165 -1.529215 -0.462062 0.340233 0.005674 -0.044235 -0.032827 -0.006843 -0.012347 -0.161428 -0.741073 -1.666664 -1.468438 -0.771486 0.431635 1.196011 3.335821 4.477805 3.876628 3.479744 3.067884 1.971419 -0.538786 -2.222805 -2.805245 -1.246111 -0.847590 -1.836404 -1.088957 -0.689840 0.374693 0.713035 0.033660 0.010408 -0.029651 -0.005476 -0.032694 -0.171345 -0.992139 -1.696840 -1.217744 0.469251 0.778395 1.483698 2.031510 3.182672 2.635930 2.385938 1.494208 0.944344 -0.133537 -1.402066 -1.175851 -0.840982 -0.135544 -1.015222 0.021390 0.549950 0.812288 0.476348 0.086083 0.054718 -0.002649 -0.001714 -0.000627 -0.025137 -0.674332 -0.897976 0.304866 1.066189 1.581060 1.771060 2.170485 2.285999 1.219248 0.544446 0.079853 0.292981 0.709366 -0.326811 0.641212 0.635070 0.452190 0.177671 0.359106 0.457929 0.417044 0.346266 0.135348 0.024224 -0.004743 0.005097 0.001173 -0.100426 -0.317806 -0.663579 0.472130 1.179903 1.833674 2.228110 1.099335 0.202494 -0.600793 -1.297522 -0.773421 0.053289 1.035057 0.850087 1.299233 0.889141 0.882330 0.875268 0.447918 0.014320 -0.036897 0.029878 0.006587 0.003280 0.000424 -0.003469 0.002124 -0.054423 -0.231516 -0.438854 -0.055231 0.005528 0.273219 0.770265 0.231047 -0.348255 0.279595 -0.381031 -0.919917 -1.484410 1.380161 1.014629 1.004698 0.608764 0.488151 0.192887 0.082904 -0.060506 -0.004465 0.065486 0.057736 0.023665 -0.001943 -0.000043 -0.002339 0.002431 -0.017301 -0.223728 -0.320413 -0.374039 -1.617127 -1.671682 -1.633765 -1.273790 -1.137885 -1.476586 -2.041359 -1.255298 0.280760 -0.637997 -0.378553 0.490834 0.468972 0.038222 -0.045481 -0.203216 -0.142551 -0.013351 -0.003664 0.000221 -0.000801 0.002823 -0.000981 -0.000011 -0.002472 -0.099522 -0.145999 -0.032439 -0.651000 -1.461351 -1.905451 -1.318068 -1.161061 -1.455774 -1.627283 -1.151209 -0.332932 -0.533514 -0.415170 0.085250 0.032204 -0.230909 -0.211975 -0.091145 -0.029578 -0.002817 -0.001793 -0.001314 -0.002344 -0.001878 0.001594 -0.000744 0.001612 -0.007730 -0.084022 -0.207086 -0.193255 -0.120066 -0.206056 -0.346994 -0.215959 -0.252151 -0.551378 -0.676536 -0.334698 -0.531462 -0.419570 -0.289195 -0.087429 -0.107330 -0.049055 -0.007170 -0.001209 0.000471 -0.000397 -0.001035 0.000439 -0.003580 0.000421 -0.001088 0.001349 -0.002441 0.001547 0.000265 -0.002713 0.006321 0.009019 0.000168 -0.024688 -0.050627 -0.067108 -0.112838 -0.009323 -0.002147 -0.004114 -0.016075 0.001511 -0.002619 -0.004588 -0.007455 -0.002159 0.002478 0.000375 -0.001575 -0.003273 -0.001286 -0.004182 0.003481 0.000293 -0.003564 0.001451 -0.000931 -0.007025 0.001243 0.000065 0.000675 -0.000363 0.000505 0.010119 -0.003858 -0.002594 0.003621 0.000936 -0.004604 -0.001526 -0.001950 -0.003554 -0.000702 0.001431 0.000187 0.004764 0.000614 -0.001427 -0.001722 0.000129 -0.005552 -0.002277 0.004021 -0.004403 0.001477 -0.000819 0.023182 0.023857 0.010184 0.028909 0.056249 0.064065 0.069950 -0.032593 -0.083535 -0.000760 0.011022 0.000431 0.000108 0.001413 -0.000285 0.003110 0.003167 -0.004953 0.000784 -0.002211 -0.003275 0.003626 -0.003713 0.001922 0.011736 -0.024878 -0.158628 -0.055352 0.093614 0.073507 0.255743 0.303767 -0.197852 -0.202168 -0.330566 -0.312886 -0.527792 -0.496943 -0.356904 -0.510709 -0.470008 -0.430185 -0.131008 -0.089632 0.025468 0.037604 0.003382 0.002523 -0.000868 -0.001859 -0.000033 -0.000278 -0.027538 -0.189442 -0.171004 0.076836 0.553120 0.466542 0.718992 0.819648 0.499322 0.095316 -0.294407 -0.583112 -0.396864 -0.372984 -0.887457 -1.849783 -1.752949 -1.521905 -0.598482 -0.190677 -0.016620 0.052998 0.009550 0.007599 0.007567 0.001384 -0.000057 0.013657 -0.024210 -0.323787 -0.116517 0.124777 0.378228 0.780461 1.109643 1.930304 1.752788 1.440730 1.582844 1.037754 0.017301 0.236765 -0.128116 -1.723505 -1.990617 -1.549093 -0.859348 -0.553133 -0.052926 0.105787 0.020665 -0.000788 0.002790 0.000149 -0.002547 0.000462 0.007567 -0.473030 -0.181788 0.117542 0.199790 1.197309 2.546693 2.659939 2.034733 1.592479 2.841356 3.690916 4.447517 4.428661 2.913323 0.969075 1.330992 0.601903 -0.326606 -0.945877 -0.179489 0.250736 0.023796 -0.019661 -0.005063 -0.000099 -0.024621 -0.296052 -0.590027 -0.742323 0.020708 0.842352 1.619592 1.602949 1.706575 1.339997 1.988304 3.020760 3.101664 1.582139 2.002392 2.729840 3.746017 3.217838 2.020271 0.341867 0.564900 0.087193 0.138249 -0.037436 -0.085749 -0.021953 -0.000236 -0.000883 -0.076808 -0.431021 -0.745462 0.014857 0.977177 1.630999 1.864753 0.750540 0.289128 3.449810 2.098008 2.333110 1.232929 0.876643 0.379773 1.518994 2.400305 2.329577 1.489656 1.083392 2.581039 2.642629 1.369952 0.728003 -0.015173 -0.002029 0.039464 0.000674 -0.338191 -0.406884 -0.400039 0.439757 1.458963 1.364593 1.263639 0.892962 0.489000 1.393487 2.662819 1.734468 1.594256 1.492934 2.403520 2.738501 2.721989 2.925391 3.053993 2.276259 3.946421 3.823863 2.530164 1.432080 0.555436 0.004054 0.000222 0.002207 -0.313268 -0.190781 0.209978 0.996472 1.849343 1.016501 1.731902 0.447251 1.258386 1.792686 1.487028 0.876425 -0.656417 -1.361448 -1.379064 -0.441406 2.898232 4.247375 3.579657 3.457225 4.090169 4.722855 3.402492 1.678598 0.631995 0.024484 -0.000729 -0.001608 -0.121615 -0.509450 0.037680 1.618167 1.430471 0.657379 -0.493052 0.954681 2.728544 3.010240 0.501976 0.083273 -0.129076 -1.872225 -1.960370 -0.585665 4.137799 6.157142 3.589171 1.565794 2.791625 4.796624 3.172959 1.310231 0.520947 0.036603 0.003575 0.034575 -0.003951 -0.130887 -0.063688 0.203055 0.709759 -0.866448 -2.185249 0.422378 0.735133 -0.231985 -1.336963 -0.016512 -0.120917 -1.722528 -2.732835 -1.090846 3.140849 3.414300 1.502287 0.511178 1.642475 3.091953 2.775860 1.073820 0.274121 -0.011582 -0.004892 -0.007682 -0.001356 0.040910 -0.562231 -0.772931 -1.708588 -2.890706 -2.284334 -1.035842 -1.764438 -0.756625 -0.041937 0.492597 -0.370103 -3.111616 -4.353132 -2.597814 -0.246486 1.253317 0.166794 -1.031275 0.371711 0.486149 1.348829 0.394363 0.107091 -0.015363 -0.003493 0.002645 -0.005154 0.071260 -1.059337 -1.867372 -3.721362 -3.280810 -2.611092 -0.922571 -2.418369 0.346948 2.232130 2.555462 0.895957 -2.729436 -4.278597 -2.341814 -0.659750 0.463456 -0.589750 -1.441059 -0.488843 -0.221677 0.663702 0.381289 0.292737 0.081116 0.000393 0.004501 -0.028263 -0.202815 -1.350661 -1.868120 -3.255327 -2.794565 -1.516823 -0.961612 -0.656152 1.864549 2.752005 1.482588 0.147917 -2.602145 -2.696819 -3.199062 -1.994442 -3.751444 -3.891476 -2.596012 -1.357882 -0.111087 0.559950 0.235162 0.327508 0.009979 -0.000104 0.002654 -0.052061 -0.255263 -0.636618 -1.026619 -1.589043 -1.053459 -1.700754 -0.457641 1.203405 2.460446 3.683738 1.987475 -0.096835 -0.843346 -2.235995 -4.027450 -4.461660 -4.952085 -3.658623 -2.718109 -1.574465 0.042838 0.797291 0.329881 0.248090 0.039569 0.002131 0.001507 -0.044102 0.101475 0.825037 0.441813 1.006070 0.008552 -1.314736 1.137955 2.517033 2.190870 1.403829 -1.484401 -1.810019 -1.570238 -1.280228 -1.865236 -4.004911 -2.189787 -1.533184 -1.234512 0.502252 1.612044 1.703208 0.932029 0.398752 0.080942 0.000780 0.001018 0.095311 0.246214 1.613826 2.834678 3.462478 2.480468 1.550455 1.880219 2.105631 2.673436 -0.237466 -2.956219 -2.872514 -3.192301 -1.537993 -2.735514 -1.942014 0.517548 0.445656 0.232944 2.546009 3.317844 2.409458 0.855526 0.289031 0.018054 0.001849 -0.002449 0.170314 0.180042 1.926758 4.505369 5.170270 5.828065 5.783696 4.551010 4.569873 3.120332 0.848951 -1.745438 -3.182886 -1.449007 -0.293556 0.790783 1.180321 2.555389 1.206721 1.871701 4.192953 4.333707 2.383697 0.744955 0.166749 0.075957 0.000170 0.002020 0.143224 0.217683 1.707797 4.809145 5.842297 7.256988 6.299263 6.265256 4.269428 2.573687 0.818780 -0.783022 -1.887336 0.160747 1.305424 2.787339 2.365517 2.287978 1.481944 3.399373 5.080594 3.340043 1.412828 0.485594 0.148828 0.055933 0.004147 0.007865 0.220990 0.354623 1.136882 3.724312 5.825244 7.784083 6.661171 5.836487 3.882083 2.203396 1.364692 1.129501 0.920364 1.056674 1.748872 2.059527 1.757343 2.246515 2.767580 4.394251 4.827985 2.419052 0.905629 0.346424 0.083069 -0.000153 0.000046 0.004196 0.117878 0.353104 0.763781 1.907753 3.826946 6.574828 5.166092 3.584744 2.101911 1.392470 2.759099 2.431072 1.716582 0.100344 0.451103 1.412304 2.039465 2.432129 3.021374 3.433548 3.140268 1.805926 1.009756 0.313141 0.042434 0.001518 0.002318 0.002516 0.155955 0.122070 0.221362 0.158716 2.082511 4.512131 5.349753 5.120480 3.694297 2.536847 3.443920 3.972278 2.295710 1.181253 1.146600 1.321940 1.966727 2.373221 2.978381 2.049544 1.432496 1.432388 0.937884 0.201633 0.005746 -0.001805 -0.000981 -0.000443 0.143602 0.149984 -0.433305 -0.743084 -0.232780 1.228983 2.309752 2.736514 3.682413 2.977997 3.958091 4.773153 3.098207 2.846476 2.076209 0.943982 1.418287 0.984557 0.630450 -0.011973 0.110293 0.543864 0.342543 0.048842 -0.030164 0.000339 -0.000419 0.004877 0.118094 0.019888 -0.451044 -1.268569 -2.152300 -1.862423 -0.569122 0.134172 0.632813 0.779950 1.818061 3.264888 2.533326 1.420043 1.073503 0.222468 0.463615 -0.227733 -0.939333 -0.894775 -0.535788 -0.366799 0.109765 0.008536 0.003164 -0.000777 -0.003223 -0.001226 0.019061 0.018363 0.033912 -0.378535 -0.891484 -1.185538 -1.350405 -1.638395 -0.889682 -0.468445 0.244349 -0.146093 -0.412349 -0.466274 -0.396199 -0.400853 0.635443 0.459788 -0.324647 -0.455906 -0.315572 -0.215919 0.093444 0.004158 -0.005194 0.001048 0.000851 0.001424 0.001141 0.000567 0.022047 0.081243 -0.132049 -0.228089 -0.562022 -1.042778 -0.579233 -0.125679 -0.049349 -0.463072 -1.340363 -0.908988 -0.863512 -0.187727 -0.053263 -0.107309 -0.089956 -0.186192 -0.031204 -0.030750 0.003775 0.000662 -0.000239 0.005379 0.001727 -0.003002 -0.000673 -0.000397 0.000066 -0.002092 -0.000521 0.000308 -0.084216 -0.153002 0.033807 0.161006 0.127327 0.000016 -0.048754 -0.012422 -0.005774 -0.009347 0.000191 0.025734 0.005283 -0.002788 -0.004857 -0.005050 -0.000484 -0.005378 0.002935 0.001301 -0.003156 0.000830 0.004350 -0.000999 0.000340 0.003207 0.001196 0.001537 -0.002020 -0.002929 0.000137 0.001070 -0.001505 -0.001480 -0.001277 0.001200 -0.000771 -0.000680 -0.003171 -0.000569 -0.001130 0.003118 -0.004099 0.001110 -0.000718 -0.002260 -0.004290 0.002074 -0.000549 -0.002301 0.002047 -0.002415 -0.001307 -0.001621 -0.000364 0.000473 0.002726 -0.004531 -0.025448 -0.048157 0.014089 0.013062 0.000717 -0.007903 -0.004342 0.003252 0.010818 0.007077 0.005369 0.004083 0.001130 0.005064 -0.006201 0.003656 -0.001721 -0.005079 -0.001869 -0.000769 -0.000614 0.002093 0.000369 0.000142 0.005195 0.003448 -0.004058 -0.017141 -0.187232 -0.223715 -0.012241 -0.049945 -0.078630 -0.124045 -0.215306 -0.305071 -0.236852 -0.182876 -0.192423 -0.123410 -0.006974 -0.001456 -0.003991 -0.001483 0.001439 -0.000796 0.001695 0.004709 0.004183 -0.009875 0.003911 -0.002818 -0.012725 -0.059960 -0.079792 -0.115672 -0.105316 -0.261142 -0.172467 -0.405862 -0.571466 -0.681963 -0.852069 -0.433593 -0.407116 -0.673822 -0.704462 -0.362264 -0.066975 0.005986 0.017748 0.082590 0.019552 0.004631 0.002217 -0.007593 -0.001854 -0.010065 0.007929 0.049754 0.110973 -0.044147 -0.307654 -0.434298 -0.471210 -0.829756 -1.188208 -1.395828 -1.466128 -2.319270 -2.933488 -2.797721 -2.343125 -1.828070 -1.799193 -1.290320 -0.427199 0.270188 0.518053 0.234730 0.006129 0.001715 0.000034 -0.002510 -0.004693 -0.013854 0.045437 0.341425 0.419861 0.176944 -0.412711 -1.317955 -0.460790 -0.544611 -0.011223 -1.059022 -3.155288 -4.652500 -6.967406 -6.086903 -4.150682 -3.951263 -3.014089 -2.909847 -1.715837 -0.486480 0.454506 0.267559 -0.000382 0.005529 -0.004496 -0.001388 0.028675 -0.005589 0.111426 0.582320 0.471842 -0.228911 -0.615198 0.039778 0.836709 2.216938 3.179128 3.437969 4.195219 4.944681 2.248142 1.178421 0.768831 0.231556 -1.473191 -2.365140 -1.789704 -1.288380 -0.279060 -0.128966 -0.055345 -0.003078 0.003787 -0.002588 0.033204 0.098707 0.053592 0.156465 0.182552 0.166626 0.563078 1.692799 3.093375 5.035725 7.266330 7.902364 9.539728 8.922764 8.917740 5.450961 4.111779 2.160074 0.353399 -1.649319 -2.230373 -1.907626 -0.603872 -0.122977 -0.093264 -0.001127 -0.012918 0.028015 0.098767 0.138182 0.227779 0.236123 0.776487 2.184180 2.062450 1.961304 4.880877 6.972290 7.151922 7.109570 8.559718 9.189831 8.006906 4.521291 3.526351 1.671466 -0.837385 -1.448445 -1.894451 -1.731396 -0.534742 0.109471 0.023232 -0.001660 0.001474 0.040951 0.347432 0.737966 0.908865 1.108828 2.139336 2.864826 2.847206 3.757045 5.087487 5.553284 5.532400 5.897931 6.801656 5.181252 3.304174 1.255368 1.080166 -0.341208 -1.179578 -2.039955 -1.681390 -1.967284 -0.720796 -0.345868 0.054632 0.037779 0.006317 0.041727 0.389186 0.860594 1.398844 1.337269 2.774688 3.368889 4.032037 2.867058 2.431186 2.309512 1.465571 2.445723 2.083052 0.507546 0.526507 0.834459 1.474262 -0.101819 0.995886 -0.564514 -0.904359 -1.466199 -0.510878 -0.272683 0.050714 0.038705 0.002767 0.097296 0.280628 0.792154 1.088144 1.397690 2.222854 2.536223 2.630770 0.343471 -1.460325 -2.025412 -3.279408 -1.421315 -0.116817 0.304763 0.135073 1.029556 2.632453 2.123599 2.246780 0.000188 -0.059982 -0.666198 -0.565327 -0.048966 0.029200 0.003219 0.003050 0.061370 0.235724 0.624064 0.874988 1.574177 1.235809 0.725642 -0.285527 -3.113542 -3.644817 -5.993498 -7.551045 -3.006277 -0.666753 0.337234 -0.209964 1.513889 3.525445 3.288806 1.429133 0.132789 -0.301513 -0.640500 -0.858759 0.089051 -0.008034 0.008854 0.001327 0.010129 0.356935 0.410062 0.823339 1.196167 0.913039 0.331125 -1.249574 -3.682721 -3.512177 -6.432045 -5.536478 -2.378272 -0.389503 0.946730 -0.519202 0.546160 1.956369 1.859649 0.994981 -0.245750 -0.839263 -1.192593 -0.877134 -0.092194 0.035879 -0.015162 0.005143 -0.003267 0.197502 0.264666 0.041245 0.046289 -0.616924 -0.390124 -0.914652 -2.046799 -2.643799 -3.525432 -2.655780 -0.949308 -0.365063 -1.053993 -1.093180 1.400759 1.635104 1.099888 0.462906 -0.251047 -0.368908 -0.996978 -0.598238 0.004531 0.078732 -0.006151 0.001714 0.004519 0.014945 -0.046635 -0.695461 -1.351959 -1.359437 0.205060 -0.096704 -1.397636 -0.438780 0.612919 -0.223510 -1.533873 -4.320957 -4.158861 -1.528909 2.073012 0.968886 0.811280 0.986232 0.502051 0.170203 -0.177929 -0.612593 0.099603 0.179450 0.059185 0.003308 0.001116 -0.018570 -0.252966 -1.473735 -1.979573 -2.189952 -1.403148 0.285356 0.092072 0.278883 -0.182498 -0.892197 -3.454807 -4.988271 -3.570835 -0.599719 1.931305 1.519164 1.900892 1.234495 0.364480 0.610267 0.280898 0.134317 0.708982 0.418336 0.097006 0.003940 0.001112 -0.194431 -0.218087 -0.952713 -2.144519 -2.762638 -3.036218 -0.823349 1.599806 0.973878 -0.853247 -0.337362 -2.346503 -3.654495 -0.859161 0.437099 2.024621 1.287324 1.176829 0.478149 0.185789 0.574135 0.190134 0.505815 0.721440 0.197784 0.014405 0.000046 0.000002 -0.183944 -0.160863 -0.108032 -1.431080 -1.985778 -2.358581 -1.177604 -0.324210 -0.259760 -1.621622 -1.711358 -2.593321 -1.330736 -0.596105 -0.346638 0.092332 0.557610 1.502380 1.720454 1.148050 1.195696 0.875039 0.479232 0.543780 0.049578 0.001350 0.005478 -0.012549 -0.129342 -0.112997 -0.146648 -0.722244 -1.322677 -1.759339 -1.734685 -1.822509 -2.699119 -3.285893 -2.288532 -2.686695 -1.589886 -0.613149 -0.799875 -1.355616 -0.080058 0.170303 1.374377 0.425094 1.022113 1.012811 0.546089 0.287418 0.024341 0.000300 0.003256 -0.019649 -0.122573 0.160438 0.231484 -0.026390 -1.244054 -2.205107 -1.855344 -2.878449 -2.895735 -2.289811 -1.229122 -1.428824 -0.157834 0.634561 -0.790575 -1.404115 -0.944257 -0.526808 0.574805 0.157619 0.420914 0.546433 0.475358 0.250886 0.009644 -0.000088 -0.004163 0.001081 -0.020089 0.054322 0.066465 -0.004310 -0.573960 -1.171695 -1.549089 -1.555291 -0.419521 -0.209576 -0.935920 -0.931517 -1.152365 -1.671876 -1.705334 -2.136541 -1.008827 -0.351163 -0.167985 0.407436 0.331385 -0.081211 0.219111 0.144992 0.001733 -0.001215 -0.003538 -0.001987 -0.052157 0.082018 0.183207 0.047358 0.033670 -0.406931 -0.628803 0.462943 1.498821 0.817710 0.284149 -0.281596 -1.097876 -1.663243 -2.263402 -1.009084 -0.273679 -1.071301 -0.447053 -0.409803 -0.289897 -0.213297 -0.016176 0.026833 0.008812 0.000849 0.003263 -0.000510 -0.082785 -0.010160 0.327037 0.410911 0.579774 0.411442 0.117727 0.243923 0.796854 0.864543 0.751133 0.477792 -0.642976 -0.497518 -1.034456 0.076017 0.026338 -0.600567 -0.243517 -0.121794 0.057461 0.170713 0.255696 0.018721 0.005288 -0.002115 -0.000018 0.003969 -0.087110 -0.048071 0.254687 0.863424 1.229596 2.025443 1.464963 1.062318 0.389278 0.416308 1.990002 2.111450 1.392083 0.551401 -0.211961 -0.195180 0.465853 0.093922 0.649647 0.928446 0.363736 0.368697 0.364259 0.000330 0.000441 -0.000170 -0.001063 -0.000998 -0.015028 -0.007332 -0.011750 0.271297 0.674945 1.295364 2.597140 3.368398 2.445754 3.011702 3.222775 2.674811 2.727074 1.125157 0.988156 1.794644 2.203302 1.548450 1.634393 1.163849 0.270237 0.363673 0.247023 -0.002130 -0.006256 0.006887 0.001444 -0.000614 0.001092 0.002719 -0.095033 -0.294140 0.114771 0.336351 0.461331 0.801628 1.236790 1.611126 1.680394 1.749216 2.740269 1.709062 1.199019 1.005337 1.335498 1.026418 0.593470 0.180297 0.047765 0.043218 0.025601 -0.001665 -0.000421 -0.000629 -0.001587 0.000947 0.004654 -0.002676 -0.002281 -0.003834 0.005178 0.005401 0.056795 0.099066 0.050223 -0.028869 -0.035105 0.199845 0.428055 0.042927 0.016898 0.136827 0.528681 0.378472 0.082800 0.000864 0.002017 -0.000588 -0.000048 -0.000303 -0.000830 -0.002569 0.001146 0.000632 -0.002044 0.002202 -0.000595 0.001082 -0.001848 0.000741 0.000661 0.003320 -0.000783 0.003371 -0.002714 -0.002914 -0.001074 0.003165 0.001558 0.001025 0.005500 0.000367 0.001500 -0.002291 -0.002212 -0.002077 -0.000270 -0.002204 -0.001093 0.001976 -0.001190 -0.001290 0.002790 0.003630 -0.000387 -0.006696 0.001616 -0.002361 -0.024737 -0.033479 -0.004386 0.018222 0.012068 -0.010622 -0.003465 0.003713 -0.005520 -0.004045 0.003311 -0.005009 -0.002344 0.000251 -0.001663 -0.000818 -0.002902 -0.000049 -0.000511 0.001929 0.000375 -0.000642 -0.000161 -0.000620 -0.004332 -0.004724 -0.051296 -0.067428 -0.082749 -0.113468 -0.233414 -0.296591 -0.041649 0.054616 -0.081462 -0.000278 0.030295 -0.113511 -0.146805 -0.179274 -0.119656 -0.145043 0.010550 0.033597 0.014369 -0.001503 0.000854 0.001572 0.002648 -0.002005 -0.000797 -0.007369 -0.006092 -0.042696 -0.043038 -0.104434 -0.093273 -0.408518 -0.604386 -0.110633 0.306979 0.731322 0.800747 0.831020 0.643626 0.331028 0.262403 0.166882 -0.088861 -0.597039 -0.356732 -0.176192 -0.135774 -0.054584 0.002485 -0.001792 -0.004622 0.003747 0.004076 0.006647 -0.006204 -0.114775 -0.152838 -0.208264 -0.793495 -1.693734 -1.307412 -0.853942 -0.695184 -0.491203 0.357530 1.087560 0.906531 -0.493092 -0.381952 -1.570574 -1.625563 -1.584121 -0.737917 -0.353829 -0.208268 -0.076194 -0.032901 0.004558 -0.007579 -0.001146 -0.001457 0.080869 0.082587 0.129158 -0.374043 -0.318300 -1.317723 -1.974837 -1.842821 -1.474569 -0.344539 -0.729665 0.081806 0.226164 -0.142188 -0.933816 -2.102417 -2.003280 -1.476206 -1.684648 -0.996714 -0.689092 -0.087870 0.187667 0.014001 0.004396 0.001036 0.003369 -0.008903 0.162928 0.368721 0.415919 0.225361 -0.392149 -0.351462 -0.577757 0.055871 0.918502 1.414477 0.814221 0.438004 1.106422 2.141763 1.405939 -0.653359 -1.702299 -1.597792 -1.583007 -0.811363 -0.850076 -0.276327 -0.082188 -0.068391 0.005734 -0.001179 0.003177 0.053400 0.321224 0.949158 0.736877 0.657460 0.469089 0.171793 0.744586 0.438525 0.704130 0.905768 0.999328 1.400545 3.023226 3.519008 1.682999 0.916040 0.925214 0.683980 -0.533821 -0.552018 -0.750421 -1.030015 -0.699841 -0.140741 -0.003190 -0.006038 0.027228 0.195173 0.554040 1.403762 1.589773 1.587242 1.025751 0.234426 0.702658 -0.302060 -0.407867 1.168937 3.178573 3.696801 3.919675 2.877627 1.878606 3.723825 3.145155 2.760158 1.978835 1.311400 -0.380038 -0.825385 -0.474134 -0.340497 0.006957 -0.001731 0.010983 0.238452 0.812625 1.383976 1.671933 1.488382 1.089999 0.645604 0.372123 -1.253100 -1.806847 -0.405880 0.952003 3.159404 3.603319 2.836252 3.933856 3.975735 3.904037 4.451280 4.034801 2.845050 0.740011 -0.014426 -0.028191 0.046846 0.039747 -0.001573 0.009764 0.254200 0.728568 1.193131 0.669464 0.314753 0.874578 0.405236 -0.248184 -1.393762 -1.058221 -0.420312 2.238118 3.897204 4.016607 4.268798 5.136588 5.706147 4.748972 5.648906 4.839091 3.598129 1.750493 0.772482 0.378625 0.146328 0.056367 -0.001395 0.118245 0.408430 0.914344 0.806086 0.515177 1.027101 1.389397 0.804392 0.038628 0.206930 1.651987 1.741110 5.396777 7.622533 6.432096 4.031822 5.263032 5.381172 4.317665 4.978363 3.692192 3.062659 1.607187 0.652833 0.161767 0.113382 0.010809 -0.002987 0.136260 0.347574 0.906204 0.615687 1.279926 1.289823 0.936988 0.240684 0.972982 1.918612 1.999494 1.573565 5.018891 7.096330 5.253465 4.072529 3.640241 3.336729 3.448189 3.389356 2.695101 1.776773 1.120216 0.219720 -0.063790 0.039321 0.018681 -0.002889 0.018310 0.214795 0.547852 0.633064 1.178842 0.533754 0.353924 -0.138216 -0.209263 -0.244966 -0.144628 0.535120 2.784058 3.892857 4.180314 3.764790 2.045167 0.871541 1.119137 1.940582 0.661225 0.068811 -0.226598 -0.781638 -0.333543 -0.035118 -0.025821 0.001455 -0.004089 0.096832 0.318073 0.457261 0.502222 -0.627890 -1.381024 -1.832444 -1.921560 -2.374718 -1.413878 2.167185 2.025612 1.798430 1.753398 1.723178 1.297892 -0.740742 -0.422153 0.348492 0.081120 -0.360965 -0.698023 -0.511385 -0.640476 -0.264910 -0.029087 0.002260 0.001107 0.027937 0.131359 0.008729 0.247096 -0.869507 -1.563081 -2.287505 -2.226410 -2.187337 -1.237057 0.342211 0.943606 1.783377 1.042914 0.364064 0.108984 -0.527865 0.565812 1.706779 0.723510 0.521719 0.095976 -0.608223 -1.011796 -0.362123 -0.020645 -0.002989 0.000810 0.035475 -0.141915 -0.004158 -0.475367 -1.003103 -0.863072 0.402539 0.025737 -1.346147 -0.871607 0.219017 0.861982 0.196295 -1.249192 -1.823409 -1.503938 -0.500188 1.519419 1.713463 0.698914 0.169893 -0.165001 -0.566795 -1.140408 -0.361326 -0.038419 0.004187 0.003343 -0.067806 -0.009058 -0.213128 -1.356697 -1.589934 -0.385262 0.643050 1.427747 -0.249270 -0.927446 0.008329 -1.321147 -1.952231 -1.676336 -1.565979 -1.379277 -1.226122 0.908221 1.364951 0.331715 -0.390457 -0.858902 -0.799552 -0.900231 -0.194436 0.003292 -0.000972 -0.000659 -0.008217 0.329488 -0.272102 -1.039926 -1.518348 -1.672885 -0.581396 0.691767 -0.124759 -0.763575 -1.626994 -2.514791 -1.767193 -1.581420 -1.328330 -1.757603 -1.344606 0.851448 0.495105 -0.324817 -0.714054 -1.800834 -1.747520 -0.776596 -0.076614 -0.005805 -0.001555 0.013630 0.140547 0.413773 0.163741 -0.790002 -0.830084 -0.610417 -0.334192 0.041431 -0.650920 -1.326611 -1.666566 -2.404722 -2.598010 -1.724894 -0.831681 -0.677164 -0.377697 0.154244 0.395686 -0.648521 -1.334968 -2.670749 -2.060792 -0.686034 -0.152678 -0.002157 -0.001748 0.033360 0.073664 0.178920 0.274422 -0.305247 0.275072 0.660844 0.292991 0.307745 0.278130 -0.726153 -1.793044 -2.091003 -1.136550 -0.332980 -1.051014 -0.096366 -0.584595 -0.946845 -0.417383 -1.334218 -2.531673 -3.835621 -2.109290 -0.457993 -0.125969 0.000851 -0.001877 0.003806 -0.101516 0.021329 0.262945 0.394452 0.812286 0.967258 0.381312 -0.054442 -0.132756 -0.491637 -0.494037 0.233561 0.885240 -0.039389 0.231851 -0.816856 -0.994166 -1.306706 -1.212552 -2.235895 -3.091190 -2.951677 -1.390165 -0.360643 -0.069528 0.000145 0.002540 0.003524 -0.052306 -0.119282 0.126328 0.643870 0.925862 0.420559 0.109573 -0.033286 0.526719 2.272312 2.000794 2.113276 2.252655 0.739309 -0.580049 -1.092111 -1.057884 -0.661723 -1.918731 -2.901287 -1.834644 -1.088578 -0.679768 -0.178439 -0.003334 -0.000344 0.001113 0.002744 -0.000205 0.058583 0.196448 0.772182 1.605361 1.783474 1.151714 1.779453 1.949948 2.092269 3.038856 3.785054 2.419008 0.907812 -1.231237 -0.516490 -0.547451 -0.614185 -1.047778 -1.369565 -0.904896 -0.426798 -0.104365 -0.061145 -0.008987 0.000677 0.000049 0.002437 0.030373 0.167822 0.343067 0.697928 1.398450 2.496036 2.904717 3.172682 3.858914 3.497810 2.625836 2.075212 1.496184 1.080267 0.852551 -0.034162 -0.257255 0.476221 0.251275 0.061096 -0.160622 -0.062378 -0.081268 -0.092776 0.000642 0.000224 0.002937 -0.001848 0.003040 0.010476 0.039090 0.309700 0.634417 1.159058 1.974324 2.293460 2.123881 1.543598 1.166575 1.314999 1.889489 1.356076 0.897256 0.851425 0.907800 0.629566 0.518841 0.189421 0.016476 0.078101 0.093123 -0.000745 0.005229 0.000881 0.002691 -0.007089 0.006078 0.001810 -0.026296 -0.021082 0.101833 0.348947 0.518650 0.775587 0.647886 0.508744 0.618634 0.892686 1.358703 0.845867 0.619646 0.448987 0.501915 0.285773 0.191993 0.062490 0.022939 0.011625 0.003728 -0.001663 -0.004437 0.003352 -0.003109 -0.000586 -0.001919 -0.002793 0.004889 -0.000337 0.006348 0.048893 0.066866 0.043805 -0.052034 -0.006709 -0.051521 0.026551 0.165472 0.005934 -0.026984 0.043480 0.206454 0.132043 0.033202 0.001570 -0.002611 0.001377 -0.004109 -0.003588 -0.000503 -0.000717 0.000327 -0.000980 -0.003055 0.000870 -0.002894 -0.000641 -0.001592 0.001449 -0.001884 0.000591 -0.001632 -0.002209 -0.003395 -0.011847 0.001575 0.004742 -0.000508 -0.002156 0.001205 -0.001091 -0.002368 0.000744 -0.002684 0.003239 0.002350 -0.002306 0.006803 -0.001816 0.002286 0.002023 0.000139 -0.002270 0.001582 -0.001362 -0.015919 -0.015486 -0.021929 -0.027464 -0.011614 -0.014150 -0.020623 -0.086058 -0.013407 0.000310 -0.001838 -0.001533 -0.000722 0.001707 -0.006600 0.000291 -0.009841 -0.015752 -0.000385 -0.002330 -0.000107 0.000729 -0.001484 -0.001624 0.003726 -0.000397 -0.055032 -0.005993 -0.017511 -0.113761 -0.194434 -0.173402 -0.450450 -0.909334 -0.782496 -0.938558 -0.944105 -0.559175 -0.268913 -0.160812 0.095346 -0.088673 -0.261263 -0.137796 0.043638 -0.036632 -0.011708 0.001380 0.000396 0.000313 0.004206 -0.004783 0.001899 -0.002885 0.037121 -0.032215 -0.086909 -0.404292 -0.802615 -1.064496 -1.137644 -1.362116 -1.435760 -1.627969 -1.806300 -2.360136 -1.721974 -0.530725 -0.413002 -0.920461 -0.607637 -0.806805 -0.639085 -0.300048 -0.164326 0.038305 0.022799 0.004822 -0.000219 -0.000545 0.001483 0.016621 -0.019848 -0.087043 -0.279225 -0.847807 -1.481074 -2.162714 -1.946295 -1.930944 -2.596014 -2.562944 -1.160036 -1.421010 -0.845577 -0.312901 -0.213780 -0.779035 -1.303242 -0.877855 -0.700294 -0.043823 0.542660 0.211644 0.043046 0.006685 -0.002248 -0.004676 0.001833 0.096626 0.041327 0.159589 -0.194544 -0.562742 -0.448807 0.092884 0.031657 -0.078762 -0.733067 -0.786745 -1.137863 -1.041874 0.587184 1.207479 0.634970 -0.400752 -0.613155 0.147013 0.990236 0.789759 0.826093 0.423006 0.102240 0.004154 -0.001236 0.001481 0.006147 -0.016605 -0.226268 0.472666 0.872101 0.551379 1.333561 2.669909 2.483267 1.127384 0.071170 -0.673457 -0.959565 -0.120285 1.209300 1.770015 2.430437 2.156425 2.232557 2.957396 2.896690 2.766636 2.090189 0.906914 0.153604 0.010342 0.001892 0.001886 -0.044935 -0.140392 -0.239116 0.789089 1.556345 1.862157 3.016268 3.544462 2.001985 0.108576 -0.854868 -1.924786 -2.478224 -0.982098 0.246118 1.996268 4.710135 4.197849 4.118535 4.189738 3.711931 3.798555 3.226306 1.805324 0.452037 0.008973 -0.004961 -0.006434 -0.007552 -0.023432 0.029387 1.049591 1.824119 2.370894 2.784466 3.506895 1.764199 0.447160 -0.858970 -2.113966 -2.156281 -1.938692 0.061712 1.899013 3.407541 3.082096 3.147444 3.665041 3.329591 3.055057 2.779274 1.792771 0.469646 -0.001232 -0.000184 0.010171 0.058633 0.126644 0.138635 1.097532 2.050591 2.860486 2.928412 2.933860 1.192991 -0.903902 -1.694090 -2.979863 -3.317401 -2.482130 -0.306323 1.681936 2.179397 2.235030 2.760860 2.060101 2.054237 1.419384 1.651035 1.250570 0.305862 0.037975 0.000356 0.012053 0.088009 0.224857 0.553244 1.344388 1.988416 3.542254 2.889834 2.845438 0.346108 -1.026932 -1.934698 -2.310710 -2.777864 -1.424078 -0.591058 1.091104 0.215437 0.086658 0.780601 0.321815 0.453369 -0.301063 0.858569 0.909027 0.303635 0.044718 0.003462 0.016267 0.116602 0.182676 0.331588 1.459100 2.893488 3.823251 2.959925 2.859307 1.677309 0.869484 0.525724 -0.318548 -0.758419 0.161189 0.007136 0.973034 -1.368990 -2.050703 -1.721223 -1.671857 -1.364009 -2.181122 -0.686642 0.161264 0.062504 -0.014324 0.004612 0.030772 0.093225 0.160167 0.205241 1.515488 2.900775 3.939628 3.632830 2.917731 3.185224 2.861177 2.610217 0.758165 -0.182432 0.731761 0.408805 0.196229 -1.349204 -2.469242 -1.948173 -1.069591 -1.914523 -1.908856 -1.334885 -0.270477 0.083710 -0.021829 0.000685 0.004313 0.008755 0.067537 0.150505 1.491001 2.820037 3.903251 2.614547 2.678611 3.702356 4.708416 4.034390 1.045603 0.410059 0.527012 0.492906 0.748382 -0.022513 -1.110284 -0.573339 -0.260954 -0.783515 -1.590766 -1.493422 -0.495779 -0.206900 -0.084167 0.001342 0.000011 0.011007 -0.011099 0.357181 1.357142 2.352821 1.868622 0.771136 0.927196 2.655224 2.937567 2.676288 1.644775 1.017181 0.954161 1.035102 1.849504 1.351156 1.612459 0.841742 -0.385772 -0.226511 -0.912302 -1.511426 -0.863136 -0.324516 -0.001788 -0.001337 0.000272 0.034298 0.133778 0.444766 0.419706 0.010402 -0.805789 -0.908497 -0.532562 0.754761 0.621421 1.073226 1.116275 0.898508 0.993647 0.657032 2.643522 3.658729 2.769324 0.185925 -0.470925 0.994682 -0.342226 -1.361105 -1.133462 -0.283317 -0.059609 0.004838 0.001155 0.044806 0.110169 0.024229 -0.672119 -1.111857 -1.483980 -0.903238 -1.294196 -2.161371 -1.464586 0.867673 0.621538 0.415593 0.336836 0.243021 2.568166 3.260879 2.372298 0.276237 0.427405 1.339925 0.288327 -0.944432 -0.840921 -0.375442 -0.123999 0.000638 0.000438 0.093881 0.142642 -0.103780 -0.537614 -1.001719 -1.909945 -1.826031 -2.718270 -3.904611 -3.062278 -0.801348 -1.910181 -1.933317 -0.607331 0.218331 2.002781 1.909163 0.799262 -0.931246 0.059972 0.146986 -0.050061 -0.927855 -0.895605 -0.099576 -0.022283 -0.001602 -0.001329 0.086402 0.250217 -0.344273 -0.109657 -0.715434 -2.613559 -3.804324 -4.178423 -4.865455 -4.290482 -3.112973 -2.957182 -2.112711 -0.132528 0.106906 0.521539 -0.908416 -2.306362 -2.416000 -1.136199 -0.719550 -0.611572 -1.001897 -1.072930 -0.078414 -0.001968 -0.001293 0.008314 0.014414 0.226722 -0.649589 0.494695 -0.420590 -1.760500 -3.320471 -4.068173 -4.625302 -3.224367 -2.275869 -2.246849 -1.127893 0.067745 -0.805777 0.365784 -0.173770 -1.614147 -1.391090 -0.506630 -0.434200 -0.421489 -0.412060 -0.616077 -0.021917 -0.001084 0.002533 0.017671 -0.046470 -0.061867 -0.619368 0.214085 -0.524755 -1.325248 -1.901711 -2.924472 -2.376590 -1.478406 -1.707957 -1.361632 -0.592070 -0.423093 -0.831749 0.574770 -0.226184 -1.013699 -0.714442 0.068716 0.232159 -0.340572 -0.551041 -0.265638 -0.088719 0.002126 -0.000221 0.000900 -0.056690 -0.124761 -0.567776 -0.475225 -0.405508 -0.097130 -0.872885 -1.940611 -2.167789 -1.209547 0.411697 0.655899 0.628110 -0.182081 -0.432493 -0.195623 -0.558993 -0.316329 0.424478 0.914034 0.295115 -0.466976 -0.283600 -0.134405 -0.031839 0.000540 0.003108 -0.005695 -0.031371 -0.088942 -0.310625 -0.578777 -0.669988 0.199816 -0.119083 -0.262915 0.058531 0.749138 1.911602 1.627929 1.501688 0.896285 1.453057 1.178708 0.706148 0.978798 1.006618 0.724958 -0.209401 -0.292490 -0.111363 0.093485 0.043806 -0.001911 0.000555 -0.001022 -0.015060 0.034000 0.216652 0.371417 0.045517 0.533821 1.043546 1.160053 2.607841 3.014400 2.997395 2.706623 3.553309 3.774394 3.275412 1.676287 0.977509 1.617042 0.549677 -0.472510 -0.543668 -0.137702 -0.031641 0.069722 0.007908 0.001546 -0.001220 0.002720 -0.015158 0.072430 0.208837 0.521159 0.935664 1.403167 0.893574 1.178048 2.278681 3.341087 2.276919 2.441231 3.468019 3.529952 1.855258 0.494560 0.247435 -0.047548 -0.830824 -0.928580 -0.350147 -0.126650 -0.117516 -0.061917 -0.000083 -0.000496 0.004695 0.000709 -0.000396 0.002324 0.039048 0.111970 0.283469 0.531492 0.827329 1.177896 1.646115 2.160432 1.055787 1.254402 1.223208 0.839543 0.313627 -0.414330 -0.970273 -1.216855 -1.126235 -0.548978 0.016268 0.009139 0.028085 -0.000190 -0.001519 0.000723 -0.002931 0.004669 0.003379 -0.000455 0.009407 -0.018405 -0.057348 -0.027787 -0.043066 -0.098809 -0.261044 -0.236356 -0.311566 -0.250923 -0.233423 -0.204295 -0.595933 -0.636183 -0.493037 -0.525187 -0.322956 -0.158432 -0.017709 -0.020455 -0.008541 -0.001352 0.001578 0.004278 0.000065 0.004193 0.000160 -0.001230 -0.004696 -0.002677 -0.002182 -0.036400 -0.012885 0.036406 0.004368 -0.013991 -0.019220 -0.064224 -0.110839 -0.018685 -0.039644 -0.022111 -0.022158 -0.046934 -0.018240 -0.006762 -0.004386 0.001365 -0.004102 -0.001249 -0.006737 0.000791 0.001088 -0.005170 0.001625 -0.003546 0.001079 0.003074 -0.000458 -0.002913 -0.000087 0.002496 0.003677 -0.000745 0.007427 0.007090 -0.000382 0.001549 -0.003391 -0.000324 -0.004429 -0.002216 -0.000532 0.000844 0.001405 0.002903 0.002209 0.002847 -0.006852 -0.003579 0.001109 -0.001039 0.003386 -0.001285 0.001153 -0.003080 0.004154 0.004085 0.024553 0.040541 0.009234 -0.020585 -0.049198 0.002115 0.005206 0.009689 -0.022980 0.000631 0.018652 0.008467 0.001751 -0.001017 0.001282 0.003843 0.002776 0.003744 -0.001428 -0.000784 -0.000254 0.000811 0.000299 0.003674 -0.008502 0.026224 0.140303 0.124364 0.095126 0.143385 0.240755 0.274235 0.198603 0.230672 0.344023 0.351905 0.431493 0.435462 0.157501 0.141846 0.250224 0.272383 -0.072690 0.002280 0.002450 0.002012 0.003122 0.001893 0.001250 -0.001934 0.000511 0.008203 0.049939 0.187894 0.267872 0.567929 0.737864 1.037653 1.208565 1.454279 1.499900 1.119229 1.733763 1.719486 1.127710 0.652185 0.908260 1.590440 1.104918 0.887769 0.322475 0.168185 0.076780 -0.017913 -0.011148 -0.005996 0.001374 0.001978 -0.004004 0.011864 0.060888 0.407586 0.900800 1.711329 2.057511 2.596039 2.780010 2.444459 1.873038 0.839755 1.206163 1.319709 1.793960 0.744032 0.274553 0.436377 0.017827 -0.595907 -0.469498 -0.578378 -0.432567 -0.131501 -0.040755 -0.001391 0.001562 0.009541 -0.002064 0.062578 0.236364 0.584363 1.423993 2.713498 3.013800 3.032103 2.429399 2.250583 2.139736 1.785234 2.381529 2.614068 2.516148 0.509118 0.187070 0.585363 -0.197782 -1.561177 -1.485565 -0.967259 -0.940103 -0.235470 -0.039871 0.000309 0.000298 -0.004857 -0.022433 0.197809 0.818534 1.132659 2.182696 3.200874 2.640925 2.665922 2.438695 2.022616 1.979954 2.040569 1.604966 2.421155 1.635979 0.142292 -0.913862 -1.376006 -1.892390 -2.128898 -2.412868 -2.791050 -1.665051 -0.232327 0.024000 0.003718 -0.000993 0.002260 0.059181 0.361138 1.349723 1.871767 2.953550 3.227669 1.990325 1.481565 1.078771 0.802394 0.444791 0.573143 1.859463 0.913626 -0.744442 -1.879761 -2.318721 -2.091011 -2.230185 -2.331814 -3.155557 -4.065483 -2.451567 -0.645312 -0.136413 -0.000491 -0.017798 -0.017732 -0.096972 0.160883 1.257167 2.112901 2.124883 1.188149 0.864684 -0.543696 -0.321843 -0.597992 -1.026866 -1.523082 -0.188348 -0.800230 -2.094884 -2.637402 -2.010021 -1.581429 -1.246872 -1.685266 -2.967598 -4.286705 -2.909807 -1.037158 -0.262736 -0.002466 -0.000591 -0.013201 -0.231747 -0.200753 0.855941 1.542589 0.997313 0.280003 -1.200577 -2.438633 -2.424666 -2.017811 -2.191011 -1.211380 0.490098 1.308376 1.048657 -0.791960 -0.714839 -0.635441 0.171180 -0.794646 -2.382293 -3.373421 -2.458729 -1.172255 -0.205482 -0.007203 0.002336 -0.016729 -0.236819 -0.202651 0.162549 0.052630 -0.308447 -1.783203 -2.270448 -3.547960 -3.414494 -3.398844 -2.112175 0.050932 1.914587 3.506573 3.000501 1.528158 0.517246 -0.108051 -1.212713 -1.225509 -2.477611 -3.075961 -2.164996 -1.093104 -0.314095 -0.010202 -0.000845 -0.159614 -0.393145 -0.229907 -0.000419 -0.967141 -2.042688 -3.680381 -3.023392 -3.175255 -4.648575 -4.220320 -0.532208 0.548227 2.041307 3.008276 3.186271 1.911088 1.314089 0.741113 -1.206631 -1.641200 -1.866600 -2.074035 -1.785079 -0.738650 -0.250682 0.000163 -0.011776 -0.043648 -0.296063 -0.464644 -0.599961 -2.106669 -3.130011 -3.051062 -1.479309 -0.776135 -0.892643 