-0.163601 -0.298929 0.003705 1.230063 -0.601792 -0.156633 -0.593290 -0.379751 -0.178556 -0.186959 -0.095068 -0.226966 0.020608 -0.319067 -0.072557 -0.602282 -0.054676 1.038576 -0.114317 -0.150329 -0.380168 0.831458 -0.179956 0.319934 0.082139 0.723413 1.122079 0.275216 0.419666 -0.407635 0.457012 0.401213 -0.390010 -0.382129 -0.553253 0.319955 0.118813 -0.202702 -0.193952 -0.259426 0.374526 0.746220 -0.096587 1.120520 -0.510254 0.044306 -0.762267 0.559738 -0.115145 -0.457574 0.732820 -0.582447 0.406198 -0.342054 -0.353553 1.045005 -0.022920 -0.428590 -0.308586 0.569850 -0.348049 -0.404720 -0.394590 -0.263947 -0.568650 0.444064 0.027848 -0.729984 -0.788513 0.126501 0.171470 -0.432362 -0.295318 0.306805 0.007851 -0.415754 0.138402 1.366165 0.302677 -0.198414 1.516910 -0.255474 -0.743127 -0.113056 -0.003627 -0.074538 0.341986 1.218318 0.260066 -0.560961 0.062332 -0.374326 0.350995 -0.261491 0.222115 -0.128734 -0.158688 -0.072544 -0.549062 0.174902 -0.453512 -0.082838 0.138597 -0.758661 1.246415 -0.385551 -0.100266 -0.644221 -0.097417 -0.399108 0.154196 0.055637 0.271290 -0.245745 0.296618 0.345437 0.729072 0.213957 -0.511944 -0.435655 -0.291626 0.246258 -0.059339 0.398830 0.481041 0.410845 -0.034990 1.168538 -0.220695 0.083344 0.397837 -0.246097 0.071107 -0.379317 1.070204 -0.616145 -0.193010 -0.330433 -0.496947 0.249136 -0.589851 -0.740162 -0.181625 -0.292066 -0.124947 0.153704 0.507466 -0.251180 0.888676 0.065155 0.106766 0.308665 -0.971639 -0.146839 -0.033435 -0.966262 0.116422 0.711035 0.309172 -0.705756 0.002073 -0.001626 0.003934 0.002094 -0.002160 -0.003602 0.001101 0.002222 0.000324 0.002684 0.000303 0.002458 -0.002840 -0.003627 0.006016 -0.005492 -0.005315 -0.001377 -0.002568 0.000311 0.000383 -0.000269 0.000776 -0.002083 -0.003338 -0.002114 0.000008 -0.003248 -0.002005 -0.006105 -0.000236 -0.000725 -0.002861 -0.000466 0.001475 -0.002693 0.004936 -0.000635 0.003010 0.001045 0.000511 0.001311 0.001185 -0.002156 0.002557 -0.000940 -0.002570 -0.001331 -0.003766 -0.003733 -0.012483 -0.012266 -0.009003 -0.004103 -0.003021 -0.002785 -0.000710 -0.001073 -0.005999 -0.000512 -0.003712 0.002617 0.000022 -0.000177 -0.006392 -0.017546 -0.022889 -0.030698 -0.026173 -0.048561 -0.060185 -0.034202 -0.034275 -0.035433 -0.033805 -0.022020 -0.005795 -0.002311 0.006423 -0.001266 0.004153 -0.004749 -0.009278 -0.030567 -0.046371 -0.078465 -0.104857 -0.108330 -0.103174 -0.031535 0.014606 -0.014842 0.037653 0.070195 0.073186 0.024374 