0.003736 -0.003664 -0.005809 0.000715 -6e-06 -0.003463 -0.003454 0.003266 0.001665 -0.0012 0.001216 -0.000714 -0.000929 0.001689 -0.002666 -0.001535 -0.002719 0.001797 0.000412 -0.002685 -0.002001 -0.002506 0.000226 -0.000228 -0.000554 -0.002904 -0.003436 -0.001471 -0.003372 0.000395 0.002903 0.001132 -0.004915 0.001633 0.00122 0.000843 -0.00063 0.005454 -0.004666 0.002748 0.000385 0.00224 0.002256 -0.000643 -0.004396 0.00215 -0.001888 -0.003526 -0.000118 0.00079 -0.001266 -0.00039 -0.002706 -0.002794 0.003179 0.001287 0.003013 -0.002042 0.002325 0.000782 -0.002537 -0.001381 -0.002498 0.000961 -0.003473 9.7e-05 0.002082 -0.000971 -0.000587 -0.00058 -0.001373 0.00162 0.003756 0.000498 0.001763 -0.000602 0.000243 0.001757 0.001797 0.004661 -0.003228 0.005102 0.004157 -0.000435 -0.004273 -0.001118 -0.000832 -0.001528 0.000211 -0.001105 -0.002553 -0.000804 -0.002011 -0.004986 -0.002157 0.002405 0.002973 -0.004266 0.001046 -0.001947 -0.002055 0.000363 -0.003024 0.001599 0.003593 -0.006471 -0.000612 -0.004574 -0.002866 0.000601 0.001383 -0.000887 -0.001762 0.00066 0.002829 0.002711 0.001617 0.000306 0.00381 -0.000145 0.00013 -0.003397 -0.000319 -0.006602 -0.001524 0.001494 0.000746 -0.001702 -7.7e-05 0.000859 0.00137 0.002499 0.000571 0.003964 0.004205 -0.002146 0.003272 -0.001466 -0.000723 0.00161 0.002773 -0.001167 0.001982 -0.004986 0.001372 0.004285 0.000494 -0.003077 -0.003675 -0.000637 -0.001742 0.00345 -0.005394 -0.000789 0.002117 -0.000959 -0.003818 -0.000385 -0.000459 -0.002597 -0.002793 -0.002499 -0.003309 4.9e-05 0.002294 -0.004399 -0.000667 -9.3e-05 -0.004721 0.000329 0.00076 -0.000508 -0.000981 -0.000448 -0.000429 0.000353 0.001222 0.00378 -0.00126 -0.00182 -0.000664 0.002177 -0.002311 -0.003867 -0.002271 -0.000165 -0.003961 0.000737 0.000676 -0.002048 -0.000194 -0.000796 0.000704 0.002961 -0.001933 0.004167 0.000822 0.000431 -0.000308 -0.003233 0.00058 -7.1e-05 0.002423 0.001003 -0.002672 -0.003057 0.001004 -0.002059 0.000983 -0.001666 0.001852 0.001163 0.001328 9e-05 0.000954 0.003769 0.000309 -0.00031 0.000403 0.000109 0.001075 0.004822 0.00298 0.001005 0.002419 -0.004135 -0.000286 -2.1e-05 -0.00426 -0.000533 -0.00539 -0.002007 0.004508 0.003507 -0.004754 -0.003431 0.000957 0.001801 0.003548 0.00445 -0.004028 -0.002366 -0.00321 -1.6e-05 0.004815 -0.000999 -0.003201 0.000352 8.9e-05 -0.001002 -0.001151 0.003795 -0.004343 -0.000875 0.002351 -0.001181 