-0.002886 -0.002735 -0.001927 -0.003561 -0.002133 -0.004763 0.000737 -0.006688 0.000376 -0.000977 -0.001788 -0.00413 -0.002072 0.00143 0.000102 0.003444 -0.000414 -0.003521 -0.001304 0.001975 -0.000923 0.001744 0.00207 0.00264 0.002451 0.004497 0.002197 -0.001797 -0.001736 0.001245 0.000549 -0.00152 0.000411 -0.002952 -0.001967 0.001687 -0.004933 0.000184 -0.006809 0.000512 -0.004383 0.000218 0.000287 -0.001535 -0.002706 -0.002155 3.4e-05 -5.4e-05 -0.001919 0.004457 0.000505 -0.00076 -0.004591 0.000913 0.003587 0.00085 0.005626 0.004748 -0.002218 -0.001301 0.000644 0.005371 -0.003624 0.003449 -0.002604 0.001392 -0.004603 0.00785 -0.002948 0.000579 -0.000451 -0.002476 -0.002061 -0.001421 0.004347 -0.004778 -0.003711 -0.004899 -0.005083 0.00266 0.001823 0.002235 -0.003022 -0.001766 -0.001848 0.007414 0.00104 -0.00156 -0.001239 0.00498 0.00324 -0.001577 0.003842 -0.001405 0.000908 0.001042 0.003835 -0.001821 -0.002046 0.003473 -0.003148 -0.000567 0.000247 0.00516 -0.002404 -0.000908 -0.002545 0.002058 -0.003655 -0.00516 -0.003095 0.002585 -0.003115 0.002675 -0.000114 0.000161 -0.001085 0.00291 0.001939 0.002864 0.0002 -0.001796 0.000143 0.000931 0.000135 -0.00183 -0.000902 0.001603 -0.000365 -0.004811 -0.002198 1.8e-05 -0.006238 -0.003924 0.002108 -0.000107 -0.002127 0.000873 -0.004462 0.001646 -0.001178 -0.000211 -0.005577 -0.00024 0.0022 0.000954 0.000307 -0.002303 -0.000145 0.001117 0.001141 -0.002354 4.2e-05 -0.001415 -0.004694 -0.001084 -0.003235 -0.002147 0.00194 0.000947 0.006473 0.001457 -4.3e-05 -4.3e-05 0.001006 -0.000567 0.003653 -0.003809 -0.002702 -0.008068 -0.003045 0.001902 -0.00424 0.001046 -0.000816 0.002521 -0.000528 0.000675 -0.0034 0.001777 -0.000742 -0.000878 -0.000531 -0.002352 0.003492 0.00423 0.001594 -0.00268 -0.002051 0.000852 0.004048 -0.001071 0.001726 -0.001599 0.000132 -0.001511 -0.007331 5.5e-05 0.001798 0.000231 0.002872 0.000613 -0.001093 0.000663 0.003195 0.00119 0.001736 -0.001103 -0.002488 0.00297 0.001427 -0.000499 0.002246 1e-06 0.00203 0.001093 -0.003238 0.00064 -0.000355 0.002772 0.002381 0.001143 -0.000533 0.003087 0.000169 -0.001448 0.002065 0.000102 -0.002656 0.004958 -0.001566 -0.001689 0.004721 0.001052 0.003181 -0.001486 0.004643 0.0025 -0.001874 -0.000458 -0.001381 -0.002045 0.002128 0.002378 -0.004647 0.001174 0.000781 -0.00545 -2.8e-05 -0.000974 0.001626 8.8e-05 -0.002101 -0.001801 0.004603 0.003047 