-0.001809 0.001760 -0.002663 0.002555 -0.002773 0.002949 0.000181 0.001955 0.000477 0.000773 0.001500 0.001691 -0.001181 -0.000629 -0.000373 0.000416 -0.000087 0.000222 -0.003036 -0.003569 0.003013 -0.001228 -0.000615 -0.002989 -0.003853 0.001146 0.000261 0.002265 0.001457 0.001063 0.002388 0.001612 -0.001783 -0.003183 0.001881 0.003773 -0.007213 -0.001483 -0.011384 -0.022151 -0.004964 -0.005253 0.005792 0.003443 0.005499 -0.003057 -0.006290 -0.002450 -0.008297 -0.009625 -0.001481 0.003118 0.008086 0.000364 0.007154 -0.006757 0.000171 -0.002223 -0.000604 0.002467 0.000999 -0.002055 -0.003346 -0.005198 0.001077 -0.004255 -0.031764 -0.016887 -0.007681 -0.012347 -0.015681 -0.004863 0.019952 0.003953 -0.016636 -0.048916 -0.028187 -0.029964 -0.022447 0.002506 0.006627 0.006642 0.000551 -0.000636 0.005887 0.002258 -0.001411 -0.000899 -0.005328 0.013896 0.013317 0.019092 0.022046 0.040599 0.021882 0.056005 0.064597 0.036454 -0.029189 -0.057699 -0.072703 -0.084838 -0.107885 -0.114801 -0.084999 -0.083538 -0.066978 -0.039201 -0.011606 0.003303 -0.005004 0.000347 -0.003702 -0.001069 0.001774 0.002200 -0.000325 0.028929 0.041893 0.072453 0.100568 0.142268 0.133462 0.158873 0.171978 0.147400 0.106025 0.057970 0.015427 -0.036228 -0.036446 -0.076587 -0.063361 -0.094855 -0.104445 -0.121304 -0.055502 -0.004415 0.001245 -0.004885 0.000174 -0.006090 -0.000966 0.002810 0.001843 0.027439 0.042727 0.081722 0.041731 0.032683 0.091725 0.148549 0.122984 0.147567 0.165146 0.109742 0.116528 0.013528 0.023377 -0.065557 -0.114161 -0.085234 -0.118830 -0.167463 -0.087738 -0.017555 -0.000910 -0.000984 -0.002091 0.004680 0.001414 -0.000596 0.005776 0.002408 -0.000178 -0.036837 -0.047622 0.053886 0.114864 0.101957 0.067056 0.120481 0.093255 0.147281 0.094992 0.015612 0.028431 -0.046453 -0.028158 -0.063702 -0.140805 -0.177485 -0.137665 -0.039009 -0.008122 -0.003945 -0.001690 0.009300 0.003344 0.016327 0.033205 -0.008395 -0.000327 -0.039536 0.025479 0.041496 0.076837 0.126949 0.120856 0.192785 0.155881 0.145880 0.112642 0.070975 0.081172 0.043768 0.033923 -0.002195 -0.079191 -0.217807 -0.176670 -0.091832 -0.017048 0.000506 -0.004973 0.004387 0.002397 0.034027 0.066428 0.000364 0.002977 0.083404 0.074428 0.013271 0.123741 0.138881 0.155863 0.146896 0.234461 0.138636 0.100748 0.079552 0.136817 0.190884 0.093378 -0.006542 -0.018913 -0.212528 -0.228606 -0.103553 -0.011877 0.001031 -0.002217 0.000694 0.004965 0.033107 0.050928 0.022633 0.020677 0.092621 0.083252 0.025136 -0.002357 -0.005021 0.054030 0.014747 0.056998 0.047384 0.114429 0.103840 0.105910 0.134464 0.057804 -0.060575 -0.008917 -0.147552 -0.217907 -0.077647 0.003091 0.000003 0.000491 0.000061 0.004140 0.026070 0.013512 -0.041422 -0.015062 -0.008082 -0.002301 -0.152795 -0.154848 -0.276134 -0.318063 -0.381604 -0.253894 -0.062755 0.121318 0.086546 0.097894 0.109289 0.004045 -0.062096 -0.055104 -0.069240 -0.123409 -0.049944 -0.000298 0.003578 0.001584 0.000090 -0.001255 -0.003598 -0.082095 -0.198065 -0.229857 -0.236261 -0.334228 -0.436735 -0.494400 -0.536185 -0.570141 -0.523687 -0.124212 0.022657 0.057279 -0.008473 -0.010259 0.035510 0.060949 -0.035463 -0.049622 -0.028117 -0.026528 -0.001787 -0.002806 0.003495 0.000756 -0.001925 0.001436 -0.048919 -0.152474 -0.337667 -0.420378 -0.503649 -0.610087 -0.658941 -0.611673 -0.566185 -0.492689 -0.273002 0.104060 0.058773 -0.055523 -0.182608 -0.129998 0.020062 0.037285 -0.122063 -0.176470 -0.116747 -0.019770 0.051316 0.027446 0.000103 -0.001547 0.001404 0.000463 -0.071608 -0.228752 -0.429876 -0.541939 -0.537724 -0.603273 -0.440963 -0.317379 -0.211122 -0.035253 0.233247 0.286848 0.041081 -0.121408 -0.107949 0.018050 0.052429 0.024614 -0.102727 -0.251414 -0.190030 -0.054653 0.050431 0.024467 0.002132 -0.000386 -0.001696 0.000781 -0.069113 -0.205306 -0.409404 -0.445258 -0.324798 -0.228563 -0.054196 -0.019284 0.142621 0.289609 0.361557 0.275925 0.032080 -0.065992 -0.042986 0.057002 0.043106 -0.032431 -0.099140 -0.198881 -0.181218 -0.038878 0.072767 0.060466 0.003559 -0.000273 0.000317 -0.001478 -0.043841 -0.117377 -0.235499 -0.184085 -0.062468 0.047370 0.053607 0.079482 0.188922 0.196065 0.294135 0.196130 0.097986 -0.055968 -0.066355 -0.060991 -0.135126 -0.232869 -0.082356 -0.075568 -0.085770 0.082066 0.122544 0.065420 0.008309 0.001403 -0.004279 0.009070 0.013393 0.016949 -0.036016 -0.006882 0.050467 0.098966 0.089400 0.116526 0.127699 0.205318 0.282623 0.162356 -0.012374 0.024942 0.011263 -0.069935 -0.107964 -0.201590 -0.050661 0.007611 0.052359 0.150455 0.181947 0.067916 0.010300 0.003173 0.001259 0.013818 0.067557 0.146234 0.090695 0.073608 0.057334 0.090037 0.108622 0.063115 0.091546 0.188018 0.249774 0.209557 0.048680 0.005898 0.025477 0.001856 0.015595 -0.120942 -0.058891 0.009231 0.068085 0.190548 0.186686 0.048978 0.007450 -0.001147 0.003141 0.006719 0.127160 0.233051 0.175176 0.139935 0.180554 0.055623 0.078523 0.006204 -0.039586 0.032549 0.177560 0.122734 0.028033 0.051074 0.080138 0.029481 0.102490 -0.001049 -0.027463 0.026156 0.152771 0.221949 0.148565 0.019010 0.002990 0.001316 -0.002204 -0.002059 0.106947 0.249281 0.153087 0.102265 0.179036 0.109251 0.025756 -0.111761 -0.177040 -0.121858 0.085650 -0.049734 0.045862 0.061120 0.047722 0.065939 0.116781 -0.013165 0.045475 0.053101 0.180254 0.206129 0.140867 0.028024 0.005176 0.000175 -0.010259 0.008515 0.134933 0.271289 0.163726 0.211663 0.199203 0.059526 0.046509 -0.096987 -0.133919 -0.077684 -0.044223 -0.103946 -0.040300 -0.068014 -0.172212 0.028442 0.032323 0.004399 0.044533 0.120348 0.190763 0.161204 0.071499 0.010779 -0.001929 0.001596 0.003666 0.020710 0.108210 0.176257 0.156569 0.177229 0.125826 0.039154 -0.043905 -0.041469 -0.120586 -0.194573 -0.156511 -0.107490 -0.068137 -0.105876 -0.139145 -0.018312 0.032119 0.011571 0.051710 0.124287 0.161185 0.092868 0.023531 0.001714 0.002024 0.000726 -0.003600 0.017993 0.048393 0.104198 0.164187 0.178943 0.174300 0.025736 -0.064164 -0.125581 -0.106228 -0.169991 -0.173199 -0.091804 -0.074299 -0.083836 -0.056959 -0.003958 0.043855 0.043281 0.054472 0.055439 0.038705 0.030807 0.004839 -0.004148 0.002201 0.000926 0.006669 0.010259 0.014972 0.045432 0.073763 0.142135 0.214769 0.115809 -0.039576 -0.163150 -0.069201 -0.041925 0.008959 -0.037116 -0.003494 -0.000666 -0.060561 -0.035582 0.003395 -0.041360 -0.029088 -0.032248 -0.008889 -0.004857 -0.008826 0.003319 0.001706 0.001037 -0.003000 0.003870 0.002916 0.007987 0.021383 0.034974 0.038749 0.042397 -0.002166 -0.104185 -0.076168 -0.075952 -0.090346 -0.075829 -0.048213 -0.108000 -0.054153 -0.100953 -0.136623 -0.124098 -0.081604 -0.068633 -0.038026 -0.002345 0.009695 0.004990 0.000916 0.000664 0.002425 0.004012 0.001018 -0.008137 -0.019268 -0.002388 0.014748 0.056881 0.040251 0.025023 0.032288 -0.003571 0.001377 0.052829 0.044231 -0.017958 -0.042960 -0.099335 -0.108059 -0.088683 -0.060908 -0.044541 -0.026303 -0.006445 -0.000937 -0.003014 -0.000997 -0.001825 0.001187 0.002338 -0.000040 -0.001836 -0.023111 -0.027256 -0.004070 0.002455 0.001956 0.001106 -0.006065 -0.039034 -0.021661 -0.000361 -0.004054 -0.011535 -0.002708 -0.026391 -0.033060 -0.030019 -0.011340 -0.004777 0.001504 0.004187 -0.002434 -0.003232 -0.002239 0.000699 0.000017 -0.001422 -0.000677 -0.003210 0.003456 -0.001635 -0.001009 0.002687 0.000604 0.012640 0.001934 0.000353 0.002456 -0.003442 0.000731 0.001940 -0.003988 -0.005680 0.002178 -0.008420 -0.007207 0.001699 -0.006869 0.002592 0.004216 0.002928 0.003905 -0.006325 -0.001825 0.005000 -0.002339 -0.000432 0.001584 -0.000343 -0.003834 0.001115 -0.006721 -0.005238 0.000507 -0.002126 -0.005506 -0.000844 -0.001723 -0.001984 -0.001487 -0.002244 0.000956 -0.001749 -0.003618 0.002384 0.003161 -0.000697 -0.006052 -0.003398 0.003172 -0.003114 0.004061 -0.003406 0.000795 0.002694 0.000339 -0.002655 -0.012152 -0.012720 -0.006356 0.001372 0.005686 -0.004687 -0.003641 0.000193 -0.011720 -0.014342 -0.003268 -0.003685 0.002025 -0.000511 -0.002803 -0.003508 -0.004801 0.002231 0.001997 0.002039 0.000937 -0.004015 -0.002436 0.004621 0.001279 0.001524 -0.001978 -0.004948 -0.017804 -0.013807 -0.003386 -0.008611 -0.020806 -0.040846 -0.047362 -0.037437 -0.037753 -0.036978 -0.024345 -0.000184 0.005819 0.007724 0.003921 0.004299 -0.000039 0.004532 -0.001836 0.002436 -0.000745 0.001003 -0.003425 0.001671 0.001139 0.001090 -0.003686 0.000274 -0.020924 -0.026022 -0.040816 -0.042111 -0.081208 -0.123388 -0.166688 -0.142587 -0.125738 -0.095039 -0.061031 -0.004640 0.052785 0.075801 0.079904 0.052932 0.012596 -0.001435 0.005724 0.001741 -0.001127 0.001695 0.001155 0.004244 -0.006976 -0.008275 -0.021929 -0.051462 -0.085258 -0.134638 -0.160577 -0.135268 -0.113327 -0.153269 -0.233344 -0.244651 -0.147946 -0.072326 -0.025403 -0.004215 0.003343 0.057587 0.137259 0.169521 0.173403 0.086609 0.002753 -0.002255 -0.003533 0.000334 0.003642 0.003867 -0.010881 -0.029664 -0.063690 -0.105266 -0.152367 -0.153958 -0.059063 0.001882 -0.032793 -0.101121 -0.205101 -0.157612 -0.132232 -0.057803 -0.023386 0.107297 0.037811 0.077884 0.141976 0.262973 0.310797 0.181193 0.050197 0.015671 0.001988 0.001642 -0.000543 0.000955 -0.025875 -0.039177 -0.067558 -0.138454 -0.071715 -0.016032 0.052081 0.035987 -0.008512 -0.091865 -0.145138 -0.207216 -0.229311 -0.185270 -0.073946 -0.022168 0.110309 0.068803 0.132822 0.362636 0.403517 0.338226 0.145439 0.050914 0.008535 0.000400 0.002716 -0.004855 -0.031747 -0.092738 -0.099063 -0.137666 0.022329 0.111307 0.071682 0.097619 -0.057919 -0.233221 -0.202993 -0.181414 -0.164928 -0.082119 0.075119 0.124748 0.213438 0.135346 0.135576 0.274224 0.387948 0.343773 0.205799 0.064351 0.001610 -0.000613 -0.000367 0.000734 -0.030190 -0.125817 -0.121559 -0.126562 0.019671 0.099010 0.102395 -0.040104 -0.041123 -0.120906 -0.158888 -0.181601 -0.149941 -0.117331 0.040294 0.045966 0.137724 0.110989 0.103526 0.134396 0.312286 0.348251 0.203265 0.037892 -0.007162 -0.000725 0.004924 0.001422 -0.040976 -0.097273 -0.113341 -0.089040 0.004155 0.116572 0.125255 0.026958 0.091767 0.105926 -0.087925 -0.409361 -0.286094 -0.193859 -0.194593 -0.165199 -0.108813 -0.043856 0.013829 -0.019209 0.081382 0.139466 0.137686 0.019807 0.004040 -0.004190 0.001713 -0.004037 -0.036416 -0.033173 -0.082717 -0.086211 0.063361 0.148472 0.240609 0.184588 0.201446 0.215775 -0.060846 -0.448027 -0.205154 -0.194062 -0.371221 -0.405899 -0.390928 -0.399708 -0.330244 -0.335269 -0.272959 -0.117837 0.094211 0.018941 -0.001756 -0.001780 -0.002720 -0.009018 -0.027428 -0.011810 -0.017930 0.037482 0.114752 0.182711 0.259359 0.243989 0.224946 0.362513 -0.090668 -0.334786 0.049657 0.067070 -0.184269 -0.323077 -0.451894 -0.575387 -0.498547 -0.515594 -0.414064 -0.273200 -0.027835 0.003005 0.002373 0.000344 -0.004514 -0.006455 -0.020557 -0.027352 0.007903 0.155830 0.170742 0.175253 0.123192 0.326441 0.357711 0.289113 -0.070900 -0.222575 0.100909 0.094861 -0.027484 -0.138727 -0.194348 -0.286240 -0.362347 -0.417731 -0.401436 -0.215595 -0.067729 -0.021193 0.000844 -0.002239 0.001692 -0.005484 -0.020953 -0.016664 0.130586 0.290818 0.189156 0.124095 0.142290 0.336216 0.389504 0.233167 -0.162730 -0.229011 0.003472 0.004885 -0.010719 0.016205 0.115155 0.099969 -0.011580 -0.167746 -0.250709 -0.171348 -0.088128 -0.029766 -0.008353 0.003931 0.001929 -0.001704 -0.001649 0.047414 0.186637 0.254513 0.197787 0.211264 0.238053 0.319028 0.173872 0.085951 -0.089374 -0.134751 0.035508 0.077066 0.140559 0.085570 0.216874 0.196740 0.087349 0.049653 -0.062360 -0.080095 -0.087058 -0.025782 0.000894 -0.001571 0.002514 0.004818 -0.013685 -0.010859 0.054058 0.127012 0.098617 0.118691 0.230282 0.233135 0.190193 0.142956 -0.062668 -0.054179 0.007872 0.113224 0.215799 0.157362 0.157020 0.007291 0.049426 0.080521 0.030465 -0.092462 -0.086267 -0.035623 -0.004286 -0.003704 0.003229 -0.007156 -0.060975 -0.115482 -0.085192 -0.016730 -0.005712 -0.001342 0.066463 0.035248 0.062166 0.069985 -0.030243 0.102103 0.158573 0.132216 0.146677 0.085647 0.036021 -0.031589 0.018483 -0.016717 -0.037805 -0.110337 -0.139521 -0.075934 -0.001370 -0.000266 -0.003468 -0.009462 -0.070311 -0.083610 -0.118060 -0.109925 -0.102186 -0.107272 -0.064592 -0.030438 -0.106136 -0.174690 -0.048550 0.170658 0.132982 0.111401 0.106031 0.106717 -0.084923 -0.074168 -0.084266 -0.115829 -0.086433 -0.103526 -0.116297 -0.052604 -0.005095 0.004041 -0.003022 -0.009603 -0.047322 -0.095021 -0.110332 -0.068182 -0.160718 -0.204411 -0.157399 -0.250160 -0.258134 -0.254014 -0.119034 0.007442 -0.026973 0.036332 -0.003145 -0.133491 -0.140816 -0.070930 -0.159037 -0.190324 -0.085899 -0.025794 -0.071742 -0.013205 -0.005108 0.000279 -0.003205 -0.006865 -0.036459 -0.040581 -0.033968 -0.042740 -0.150009 -0.232830 -0.243505 -0.311508 -0.276505 -0.361746 -0.275269 -0.087759 -0.073820 -0.106161 -0.126029 -0.120870 -0.080846 -0.121936 -0.167435 -0.168060 -0.064546 -0.010021 -0.043098 -0.011112 0.000351 -0.003548 -0.000131 -0.007276 -0.051536 -0.077791 -0.055574 -0.130941 -0.206455 -0.138114 -0.163593 -0.206022 -0.121313 -0.093011 -0.097740 -0.006272 0.015402 -0.006560 0.024436 -0.010891 -0.079965 -0.173361 -0.079888 -0.005511 -0.013240 0.005864 -0.000084 -0.004632 0.000786 -0.000324 0.003860 -0.000464 -0.018748 -0.020262 -0.030857 -0.140841 -0.141671 -0.016451 0.016761 -0.065276 -0.036267 0.017055 0.005161 -0.003906 0.080109 0.081404 0.124424 0.021356 -0.071987 -0.025384 0.067365 0.063230 0.024932 0.008481 0.008590 0.002937 -0.002375 0.000608 -0.005411 -0.001077 -0.022615 -0.009891 -0.026319 -0.166162 -0.106630 0.088446 0.116223 0.067343 -0.001130 0.017697 0.011823 0.092425 0.141599 0.175702 0.128813 0.054507 0.051952 0.054946 0.082198 0.027140 0.018526 0.008437 0.009324 0.007735 -0.000053 0.000509 -0.005273 -0.007383 -0.017785 -0.019942 -0.019549 -0.060606 -0.087125 0.076868 0.171267 0.120626 0.107756 0.005717 -0.048507 0.076981 0.080363 0.194984 0.108141 0.109258 0.108315 0.093200 0.047667 0.007441 0.011393 0.009360 0.008612 0.001526 -0.002210 -0.004721 0.005296 -0.003827 -0.004615 -0.012195 -0.006253 -0.020685 -0.040108 -0.006342 0.077552 0.091659 0.046244 -0.001243 0.000125 0.051465 0.038266 0.072129 0.045530 0.083985 0.066630 0.019955 0.002340 0.016254 0.013683 -0.002548 0.000141 0.002666 0.000375 0.000649 0.003848 0.002677 0.000185 0.004046 -0.008504 -0.001511 -0.008712 -0.047238 -0.053930 -0.063796 -0.056597 -0.082984 0.003828 -0.011374 0.003879 -0.062679 -0.097008 -0.089612 -0.116382 -0.051765 -0.008884 0.025761 0.022615 0.008907 0.000148 -0.003562 -0.000332 -0.000154 0.004008 -0.000380 -0.000586 0.002224 -0.004905 -0.011570 -0.012648 -0.021370 -0.037484 -0.034863 -0.055555 -0.073851 -0.077004 -0.121280 -0.100828 -0.112479 -0.103841 -0.076201 -0.059633 -0.030458 -0.004012 0.005070 -0.000096 -0.004489 0.004004 -0.000820 -0.003008 -0.003326 -0.000155 0.001066 -0.000223 0.000000 -0.000763 -0.002593 -0.003100 -0.000160 0.003982 -0.000103 -0.000066 -0.009705 -0.005796 -0.014213 -0.004360 -0.000103 -0.001387 -0.001544 -0.006264 0.004489 -0.001688 0.000750 0.000685 -0.001566 0.002877 -0.000114 -0.002192 -0.004410 -0.002728 -0.000494 -0.000505 -0.003056 0.003512 -0.002033 -0.002003 0.000333 0.002337 0.002597 -0.005691 -0.001169 -0.002415 0.003964 0.004906 0.001276 -0.002679 0.001091 0.001353 -0.001333 -0.001445 0.000041 -0.001438 0.002091 0.001417 0.003471 0.000543 -0.003512 -0.006739 -0.001251 -0.000191 0.002618 -0.002158 0.001688 0.000222 0.001579 0.000118 -0.000491 0.006389 0.000976 0.001700 -0.002573 0.006077 0.026842 0.006034 -0.005224 -0.004468 0.000392 -0.000722 -0.002522 -0.002937 -0.003424 -0.002422 0.003195 -0.001101 0.000086 -0.000951 0.001990 0.005124 -0.003388 0.001675 -0.003625 0.003731 0.002520 -0.016701 -0.002176 -0.002936 -0.003149 -0.030603 -0.043279 -0.036816 -0.038583 -0.048073 -0.048260 -0.050890 -0.033347 -0.018405 -0.000786 -0.002148 -0.000755 -0.000343 -0.001208 -0.002593 0.002676 0.002997 0.000761 0.000614 0.000963 -0.015281 -0.012842 0.002091 0.009057 0.014210 0.030686 0.036895 0.065448 0.058079 0.053786 0.024474 0.003283 0.035592 -0.060646 -0.086646 -0.064325 -0.083489 -0.059255 -0.015470 0.002391 0.006203 -0.002071 -0.001807 -0.001890 0.000864 -0.000006 -0.002541 -0.001474 -0.025910 -0.009861 0.025489 0.003261 0.044987 0.096320 0.174442 0.153750 0.148615 0.141690 0.189858 0.142020 0.219808 0.132768 -0.026995 -0.073844 -0.049777 -0.071020 -0.069224 -0.035976 -0.000213 0.003109 -0.005735 -0.000581 -0.002572 -0.000829 -0.005705 -0.015129 -0.054751 -0.028639 0.018509 0.054344 0.020118 0.107708 0.178810 0.150730 0.160995 0.168297 0.127810 0.166579 0.287153 0.183476 0.007929 0.068025 0.098754 0.060961 -0.052133 -0.014619 0.031291 -0.000649 -0.003731 0.001277 0.000228 0.002699 0.003164 -0.031313 -0.049382 -0.045710 0.003001 0.036117 0.007853 0.027135 0.032584 0.076872 0.208595 0.237584 0.307391 0.218633 0.289644 0.322346 0.238679 0.196040 0.210391 0.102041 -0.015122 0.042215 0.037502 -0.002324 -0.009148 -0.000984 0.004529 -0.004578 -0.018064 -0.053460 -0.045206 -0.044435 -0.061447 -0.027052 0.007843 0.034247 0.129110 0.141993 0.166269 0.254237 0.340221 0.370892 0.314613 0.367847 0.228792 0.158860 0.164598 0.118500 0.071373 0.075554 0.065833 0.009156 0.003755 0.006104 0.002509 -0.001191 -0.007027 -0.067086 -0.060223 -0.084578 -0.081900 -0.019281 -0.011155 0.048264 0.086446 0.154030 0.052667 0.213289 0.286731 0.456244 0.272750 0.283115 0.197679 0.218596 0.150960 0.169177 0.197499 0.129688 0.078998 0.037108 0.008304 -0.003959 -0.001953 0.005485 -0.013354 -0.065770 -0.056658 -0.074107 -0.062299 0.045204 0.045363 0.053120 0.065489 -0.008371 -0.041704 -0.056623 -0.006847 0.119886 0.199409 0.270761 0.142750 0.103379 0.077950 0.069387 0.236858 0.249233 0.092204 0.022797 0.006538 0.000114 -0.003972 0.001720 -0.021496 -0.061936 -0.035434 -0.035143 -0.030101 0.113579 0.101440 -0.070866 0.016575 0.005279 -0.084957 -0.097412 -0.251454 -0.116766 0.038148 0.075909 -0.018452 0.073210 0.105768 0.140500 0.217508 0.181999 0.047277 0.017361 0.003724 -0.000105 -0.001246 -0.001305 -0.022877 -0.082731 -0.095009 -0.073228 -0.048017 0.076644 -0.015600 -0.176047 0.003750 -0.059671 -0.027331 -0.152062 -0.472169 -0.414968 -0.318776 -0.205643 -0.006681 0.010941 0.005212 0.119496 0.199336 0.134671 0.035649 0.035356 0.004687 -0.000478 0.000879 0.001225 -0.036005 -0.113724 -0.121714 -0.075030 -0.047909 0.053776 -0.025882 0.003662 0.090390 0.002347 -0.022401 -0.257648 -0.442382 -0.439641 -0.350436 -0.046297 0.066013 -0.079088 -0.141515 0.038442 0.173415 0.084432 0.007434 0.008508 0.000734 -0.000356 0.003260 -0.001964 -0.032456 -0.114923 -0.071815 -0.054007 0.066950 0.057044 0.122343 0.140255 0.103776 0.054130 0.022490 -0.114195 -0.342749 -0.349167 -0.282036 -0.039802 -0.006129 -0.148420 -0.163120 0.019740 0.112879 0.046757 -0.027317 -0.008744 -0.004008 -0.003418 -0.004200 -0.003828 -0.037667 -0.104848 -0.022029 -0.034082 -0.006116 0.040769 0.209797 0.147229 0.039096 -0.029333 0.040979 -0.064851 -0.165042 -0.289675 -0.149223 -0.123883 -0.243622 -0.162191 -0.082489 -0.047755 0.065961 0.032968 -0.054426 0.011669 0.000780 0.000569 0.001720 -0.004966 -0.056973 -0.046961 0.079000 -0.070379 -0.060503 -0.039400 0.101654 0.011555 0.002091 -0.105546 -0.176077 -0.193765 -0.190203 -0.179607 -0.140749 -0.211527 -0.269711 -0.153193 -0.090896 -0.070544 0.095735 0.075192 -0.021848 0.014271 -0.000743 0.002340 -0.002368 -0.002615 -0.029246 0.017985 0.073730 -0.087830 -0.120952 -0.012370 0.030056 0.127982 0.081583 -0.059430 -0.113549 -0.200882 -0.217274 -0.153412 -0.118338 -0.204711 -0.163325 -0.158002 -0.106301 -0.043107 0.092338 0.075725 0.040711 0.007538 0.002372 -0.002139 0.000133 -0.013443 0.011255 0.109701 0.094554 -0.037140 -0.089555 -0.108733 -0.006437 0.001877 -0.062945 -0.110274 -0.224846 -0.310770 -0.077301 0.004629 -0.108574 -0.179400 -0.153574 -0.154037 -0.093823 -0.017320 0.018934 0.055723 0.055612 0.012538 0.001912 0.001331 -0.002244 -0.013813 -0.014729 0.131243 0.120273 0.035248 0.007439 0.003941 -0.045591 -0.138308 -0.240407 -0.372554 -0.342670 -0.289399 -0.031957 -0.026321 -0.028363 -0.080889 -0.088285 -0.133508 -0.030863 0.064371 0.078502 0.057130 0.053687 0.011199 0.003244 -0.001188 0.002104 -0.004095 -0.034905 0.110174 0.105927 0.203324 0.191441 0.177565 0.084711 0.028679 -0.110982 -0.085419 -0.113817 -0.134224 -0.064686 -0.057493 0.019781 0.001867 -0.108654 -0.043938 0.050269 0.173673 0.110975 0.051796 0.010216 0.000185 0.001425 -0.002736 0.004870 0.004489 -0.001333 0.093136 0.189833 0.192073 0.240839 0.259842 0.272645 0.177740 0.161681 0.143597 0.099823 -0.025124 0.012348 -0.023272 -0.033660 -0.134466 -0.082628 -0.035173 0.101998 0.181766 0.094081 0.024306 0.000244 -0.002415 -0.001736 0.001520 -0.000580 0.000864 0.012539 0.044198 0.053893 0.132120 0.199003 0.169313 0.146457 0.122283 0.190823 0.135889 0.076384 0.108371 -0.014573 0.029470 -0.139220 -0.152841 -0.046789 -0.047981 0.082810 0.144585 0.118457 0.035349 0.007130 0.007143 0.000531 -0.000296 -0.003040 -0.000242 0.005644 -0.013375 0.019347 0.052365 0.155368 0.237381 0.223337 0.083631 0.196868 0.121191 0.090126 0.114857 0.118439 0.093315 0.027454 -0.016408 -0.058320 -0.080633 -0.022353 0.091114 0.075621 0.016950 0.005780 0.004066 0.003779 -0.004971 -0.003063 -0.001808 0.013336 -0.026410 -0.037974 -0.017261 0.065709 0.127056 0.186727 0.233070 0.244556 0.178915 0.112838 0.151999 0.140332 0.111037 0.040557 -0.042820 -0.087739 -0.080880 -0.017477 0.037380 0.030282 0.000265 -0.005643 -0.004793 -0.003742 0.000703 -0.000862 -0.007000 0.004005 -0.029919 -0.064058 -0.062564 -0.021321 0.005698 0.071539 -0.012921 0.040003 0.182015 0.219328 0.132143 0.142808 0.153565 0.067096 0.087032 0.011835 -0.007884 -0.015855 0.017403 0.004811 0.017612 0.006119 0.000269 0.002748 0.002649 0.002818 0.000758 -0.000217 -0.010592 -0.031720 -0.023596 -0.005248 0.004314 0.051728 0.052861 0.091422 0.076535 0.043807 0.003420 0.100779 0.105380 0.112948 0.104409 0.073576 0.010084 0.003602 0.014340 0.001499 0.003156 0.001231 0.002957 0.000131 -0.000604 -0.003885 -0.000300 0.001165 -0.003297 -0.010664 -0.012846 -0.007291 -0.000262 -0.004376 -0.000057 0.031805 0.046844 0.043566 0.046706 0.041795 0.052679 0.026537 0.019398 0.025021 0.018455 0.005620 -0.003085 0.000322 0.000301 0.000285 -0.000463 0.001233 -0.004274 -0.001552 -0.001203 -0.000291 0.003228 -0.005257 -0.001563 0.002415 0.004715 0.002378 0.001919 -0.003320 -0.003977 -0.001764 -0.000003 -0.001990 -0.000456 0.000754 -0.002444 -0.002621 -0.003980 -0.001302 -0.006238 -0.004806 -0.003728 0.003057 -0.002060 0.003449 0.002128 0.000813 0.000325 0.002164 0.001546 0.002828 0.001604 0.000107 -0.000876 0.000835 -0.002383 0.001193 -0.003048 0.000403 -0.001802 0.003222 -0.000137 0.005226 0.003050 0.000028 -0.003190 -0.005599 -0.004486 -0.000694 -0.001514 0.003848 -0.000264 0.001773 -0.002808 0.001021 0.001318 0.000850 -0.001791 0.000534 0.002423 0.002706 -0.004545 -0.000221 0.002439 0.004444 -0.002767 -0.007382 0.000188 -0.005882 -0.014611 -0.010251 -0.000800 0.001353 -0.005504 -0.002094 -0.004447 0.000604 0.004381 0.000519 0.003131 0.002442 -0.003100 0.003027 -0.001030 0.003658 0.005594 -0.000147 -0.001132 -0.002498 0.003368 -0.007908 -0.010431 -0.017191 -0.014892 -0.022936 -0.020243 -0.007488 -0.019626 -0.025552 -0.006574 -0.006602 -0.014985 -0.018283 -0.001362 -0.001528 -0.004320 0.002400 0.000700 -0.000785 -0.001177 -0.001214 -0.006714 -0.000288 0.002659 -0.001580 0.001084 -0.002907 -0.010159 -0.034379 -0.048447 -0.051529 -0.053751 -0.063057 -0.060226 -0.039991 -0.058030 -0.059086 -0.000445 0.003351 -0.012553 -0.026545 0.005194 0.008303 0.004199 0.000077 -0.003339 0.001416 -0.000536 -0.002493 -0.001236 -0.004384 -0.001686 -0.006133 -0.011257 -0.020176 -0.015492 -0.026690 -0.020727 0.004447 0.089028 0.105384 0.143653 0.091284 0.111681 0.038435 0.010581 0.016753 0.032027 0.003954 -0.000330 0.016920 0.039494 0.027865 0.009228 0.001515 -0.000454 -0.003711 -0.003814 -0.002670 -0.009509 -0.031909 -0.028293 -0.027395 -0.054189 0.000190 -0.072028 0.132704 0.197351 0.114184 0.057042 0.047545 0.072407 0.050847 -0.046910 0.062847 0.134420 0.063369 0.019116 0.015247 0.048791 0.041809 0.015349 0.000224 0.000863 -0.000216 -0.003121 -0.019986 -0.039630 -0.044141 -0.056970 -0.058684 -0.008350 0.050186 -0.007133 0.113203 0.114352 -0.000433 0.002805 0.057142 0.065314 0.066513 -0.049486 0.099955 0.126781 0.059165 0.098754 0.153537 0.111771 0.066573 -0.003198 0.003466 0.000760 -0.001397 -0.004014 -0.034900 -0.058962 -0.062487 -0.053663 0.007860 0.121902 0.099920 0.045594 -0.017367 0.006825 0.024397 -0.015945 0.136679 0.088148 -0.004103 0.090798 0.078789 0.105126 0.162212 0.144076 0.238694 0.204464 0.075426 -0.020352 -0.006784 0.001551 -0.006072 -0.007527 -0.041399 -0.056248 -0.011064 0.084885 0.108122 0.144406 0.140707 0.107633 0.026417 0.135953 0.208578 0.058914 -0.015597 -0.018293 0.008733 0.183369 0.140482 0.037017 0.141456 0.142863 0.212891 0.275853 0.104668 0.018566 0.006108 0.001330 -0.010923 -0.021689 -0.043777 -0.044943 0.034359 0.136387 0.150595 0.120021 0.119298 0.086965 0.121347 0.082929 -0.017649 -0.088840 -0.219862 -0.215706 -0.081328 0.001501 0.008988 0.044626 0.100260 0.125846 0.238489 0.225932 0.097687 0.039816 -0.009916 -0.002178 -0.004665 -0.022859 -0.044608 0.015785 0.033331 0.099296 0.126946 0.102149 0.175454 0.204849 0.118270 0.062039 -0.099665 -0.068105 -0.121984 -0.216433 -0.177370 0.048255 0.022737 -0.000507 0.062622 0.127249 0.240977 0.161374 0.074329 0.036551 0.009261 -0.001093 -0.009318 -0.021864 -0.041697 0.017968 0.040074 0.091560 0.174885 0.175777 0.205779 0.175424 0.095673 0.001966 0.007417 0.156580 0.114421 -0.055075 -0.046099 -0.020396 -0.052845 -0.014685 0.051642 0.149671 0.136755 0.134859 0.086728 0.045480 0.006353 0.003909 -0.003346 -0.012927 -0.024315 0.001521 0.061632 0.028350 0.126960 0.041481 0.130592 0.050986 -0.029034 -0.089127 0.209268 0.373654 0.298274 0.143842 0.056043 -0.054227 0.004462 0.182328 0.171498 0.030033 0.036023 -0.008681 0.026663 0.010558 -0.002066 -0.001958 -0.002414 -0.006255 -0.016025 -0.037146 -0.033549 -0.070656 -0.072636 -0.023671 0.027916 -0.096229 0.017064 0.064986 0.356787 0.365622 0.424747 0.194669 0.084349 0.025483 0.138937 0.179210 -0.035219 -0.156553 -0.170903 -0.132914 -0.018457 -0.007345 -0.004012 -0.001465 -0.003457 0.002750 -0.006787 -0.063727 -0.077434 -0.144513 -0.235979 -0.187478 -0.149568 -0.047474 0.080567 0.108506 0.338071 0.417478 0.322517 0.166519 0.142984 -0.027836 -0.066157 -0.149489 -0.268505 -0.283916 -0.329704 -0.159590 -0.030350 -0.017869 -0.000305 0.004093 -0.001827 -0.006968 -0.010408 -0.103473 -0.173835 -0.164772 -0.204772 -0.158719 -0.061440 -0.037007 0.069621 0.272336 0.472470 0.441865 0.266398 -0.009477 -0.093429 -0.136607 -0.211008 -0.315150 -0.363326 -0.298566 -0.278314 -0.181012 -0.031593 -0.022997 -0.006121 -0.002431 -0.000172 -0.002192 -0.006515 -0.117514 -0.211734 -0.139292 -0.138165 -0.102202 0.040374 0.045730 0.029652 0.292090 0.391009 0.223561 0.165114 0.046290 -0.132776 -0.243416 -0.404945 -0.401605 -0.347499 -0.237695 -0.158251 -0.142034 -0.073268 -0.040304 -0.008455 0.005114 0.001615 -0.006655 -0.017889 -0.132472 -0.179385 -0.039447 -0.061331 -0.011214 0.091177 -0.044913 0.064329 0.244692 0.299732 0.157651 0.006068 -0.030436 -0.185784 -0.301141 -0.242581 -0.241821 -0.186858 -0.111847 -0.035220 -0.059852 -0.107545 -0.029948 -0.003724 0.001420 -0.002017 -0.000243 -0.037130 -0.175613 -0.073303 0.074111 -0.042113 -0.071981 0.005484 -0.007309 0.075622 0.171894 0.116936 -0.023299 -0.139829 -0.224526 -0.264242 -0.258577 -0.195088 -0.113478 -0.142497 -0.033831 0.002893 0.008762 -0.072699 -0.013907 0.000572 -0.002975 -0.001740 -0.004754 -0.064937 -0.162530 -0.008841 0.085375 0.016170 -0.023126 0.062367 0.032627 -0.113809 -0.047872 -0.036014 -0.107353 -0.090500 -0.156016 -0.086125 -0.159343 -0.136397 -0.065071 -0.031680 0.077276 0.081857 -0.022235 -0.055609 -0.006284 -0.000781 -0.000203 -0.006623 -0.010506 -0.075678 -0.123903 0.007897 0.114054 0.156231 0.114964 0.075290 0.088157 -0.059075 -0.058264 -0.043449 -0.113931 0.016994 -0.087654 -0.027073 -0.101985 -0.127714 -0.022100 0.075414 0.143569 0.035588 -0.063658 -0.038056 -0.007142 -0.003957 -0.001741 0.002250 -0.008848 -0.025186 -0.092773 0.018153 0.174048 0.205594 0.085476 0.141769 0.034384 -0.054759 -0.051561 0.017172 0.000134 0.058590 -0.032540 0.025000 -0.078861 -0.085068 0.044655 0.084082 0.074974 -0.057113 -0.076991 -0.019560 -0.006758 0.000401 -0.002789 0.003755 -0.006280 -0.007277 -0.018766 -0.059002 0.045185 0.104211 0.101161 0.064525 0.083959 0.075248 0.090363 0.110945 0.130873 0.019778 0.018978 0.037630 0.061974 0.011362 0.051102 0.104143 0.010954 -0.033821 -0.023899 -0.012824 0.002618 0.004900 -0.001272 -0.002905 0.004732 -0.004098 -0.028020 -0.118434 -0.139337 -0.108091 0.103753 0.015644 -0.049537 -0.049444 0.020166 0.243986 0.138555 0.077527 0.109385 0.104108 0.119004 0.129441 0.124119 0.076600 0.010256 0.022040 -0.016173 -0.006909 -0.008298 0.004206 0.001550 -0.004935 -0.000759 -0.008157 -0.053821 -0.130658 -0.155761 -0.109149 -0.050456 0.051573 0.161727 0.157540 0.075363 0.069986 0.040452 0.115553 0.142907 0.052503 0.123512 0.159278 0.073020 0.032450 -0.007041 0.015433 -0.003470 -0.004589 -0.001193 -0.000331 0.002623 0.002489 -0.000551 -0.007581 -0.026624 -0.044907 -0.054665 -0.065658 -0.062262 -0.008971 0.076866 0.042199 0.073490 0.056193 0.118421 0.107332 0.126783 0.153603 0.097271 0.059141 0.030403 0.025325 0.005989 -0.000563 0.005975 -0.004368 0.003263 0.001945 -0.001704 -0.002629 -0.000050 0.003037 0.003650 0.011947 0.002136 -0.006981 -0.007627 0.006059 -0.013097 -0.017657 -0.006171 -0.009021 -0.001746 0.004204 0.024827 0.041549 0.027414 0.003716 0.014863 0.004012 0.004051 0.003402 -0.000154 -0.004493 0.000680 -0.002829 -0.003620 -0.000106 -0.001691 0.002569 -0.001869 0.002523 0.000855 0.000075 0.002219 -0.004903 -0.009608 -0.001599 0.004155 -0.000490 0.003069 -0.002245 0.000795 0.001155 -0.002997 -0.002106 0.001733 0.001501 0.004410 0.003011 0.000008 0.004896 -0.001248 0.000733 -0.003593 0.000937 -0.000738 -0.004159 -0.003503 0.002824 0.005989 -0.000883 -0.001721 0.002448 -0.000492 -0.001903 0.005063 0.008020 -0.001350 -0.002353 0.000720 0.004776 -0.000973 0.002284 0.000264 0.001810 -0.000500 -0.004881 -0.000746 -0.000263 0.000350 0.001128 -0.000082 0.000360 0.002476 -0.003381 0.001753 0.002637 0.006401 0.017038 0.019494 0.010984 0.012768 0.009911 0.026906 0.021360 -0.002915 0.006788 0.009454 0.011142 0.009254 0.007585 0.006268 0.008361 0.007450 0.004063 0.001686 0.000017 -0.003206 -0.001672 0.002085 0.001301 0.002823 0.001416 -0.001740 -0.000222 0.015316 0.039736 0.053852 0.058746 0.100672 0.111089 0.115569 0.122182 0.142171 0.126100 0.133075 0.127148 0.105729 0.093017 0.075038 0.055845 0.031635 0.012848 -0.003495 -0.003069 0.004005 0.001355 0.001667 0.002125 -0.001760 -0.000413 0.003122 -0.005875 0.011822 0.025607 0.061302 0.127573 0.154310 0.137863 0.128121 0.193492 0.153396 0.107929 0.136342 0.145548 0.115609 0.065218 0.058691 0.114142 0.077368 0.046372 0.009492 -0.003813 0.004224 -0.000022 -0.000580 -0.000827 0.000831 -0.000364 -0.003577 -0.012785 -0.001202 0.030100 0.089498 0.176276 0.164935 0.102846 0.104566 0.003087 -0.016594 -0.052892 0.001014 0.052702 0.098687 0.065405 0.091730 0.091001 0.031756 0.006212 -0.071356 -0.028538 -0.001424 0.006955 0.002333 -0.001544 0.002313 -0.005382 -0.013943 -0.078714 -0.046870 0.023787 0.153549 0.193100 0.117432 -0.041648 -0.038815 -0.090172 -0.002704 -0.057208 0.004946 0.064010 0.044391 0.052460 0.023840 0.010324 -0.014899 -0.030666 -0.070002 -0.036383 0.000917 0.002054 0.001496 -0.002303 -0.003145 -0.003913 -0.017470 -0.080334 -0.063858 0.005252 0.018801 -0.108308 -0.249602 -0.251445 -0.222321 -0.234055 -0.191920 -0.139630 -0.218016 -0.228101 -0.223552 -0.187448 -0.182307 -0.171488 -0.122935 -0.136938 -0.081404 -0.046719 -0.003690 0.003927 0.003914 -0.000740 0.008612 -0.007061 -0.006665 -0.102120 -0.099837 -0.080392 -0.065482 -0.239287 -0.253082 -0.194913 -0.249782 -0.211818 -0.168989 -0.198902 -0.327235 -0.271968 -0.261682 -0.303481 -0.328567 -0.285329 -0.166850 -0.217648 -0.113092 -0.082107 -0.007352 0.001310 -0.001324 0.000090 -0.000470 -0.012153 -0.003548 -0.075076 -0.144079 -0.141564 -0.124645 -0.193467 -0.158560 -0.141549 -0.161506 -0.129143 -0.150466 -0.227047 -0.252087 -0.219157 -0.296458 -0.255518 -0.227345 -0.281160 -0.261464 -0.287395 -0.231694 -0.136132 -0.031055 -0.008123 -0.003186 -0.004394 -0.002935 -0.014688 -0.041313 -0.104229 -0.184242 -0.131460 -0.155891 -0.097318 -0.113722 -0.026687 -0.067981 -0.120283 -0.160522 -0.256570 -0.250915 -0.301695 -0.273578 -0.268130 -0.229157 -0.263306 -0.242189 -0.286525 -0.235821 -0.148435 -0.039901 -0.011947 0.003191 0.001772 -0.006061 -0.031945 -0.059898 -0.124473 -0.149613 -0.092130 -0.066998 -0.127483 -0.037619 -0.068645 -0.158898 -0.199717 -0.235122 -0.317447 -0.265414 -0.259463 -0.208903 -0.228101 -0.138473 -0.172343 -0.186936 -0.190292 -0.150798 -0.136962 -0.042411 -0.008053 0.001879 0.003945 -0.003628 -0.019610 -0.056619 -0.101815 -0.138336 -0.097310 -0.107214 -0.102318 -0.153205 -0.205230 -0.209226 -0.264485 -0.298333 -0.338971 -0.168631 -0.235262 -0.161600 -0.071706 -0.104149 -0.061320 -0.092046 -0.002393 -0.026212 -0.068701 -0.042035 -0.004239 -0.001376 -0.002974 0.001567 -0.012952 -0.076739 -0.132193 -0.154063 -0.139604 -0.127042 -0.140875 -0.155379 -0.018643 -0.033318 -0.068526 -0.162762 -0.157311 -0.022951 -0.128826 -0.071699 -0.018705 0.009147 0.027419 0.048509 0.106484 0.117673 -0.018474 -0.024576 -0.001569 0.000454 -0.000384 -0.002861 -0.005389 -0.108829 -0.157883 -0.182335 -0.166001 -0.069726 -0.011356 0.129989 0.152958 0.182309 0.146878 0.032114 0.064049 0.033148 -0.062086 0.077732 0.133976 0.015926 0.037245 0.117173 0.197177 0.155390 0.015153 -0.001437 0.009396 0.001266 -0.002484 -0.002415 -0.001959 -0.102778 -0.150441 -0.097256 -0.019740 0.099359 0.157966 0.220042 0.326678 0.227748 0.211674 0.101312 0.133601 0.097893 -0.059203 0.068006 0.082061 0.007558 0.012360 0.078008 0.085754 0.089907 0.048400 -0.003564 -0.000953 0.003756 -0.003519 -0.000130 0.007437 -0.032171 -0.009942 0.043653 0.140028 0.194267 0.161564 0.225844 0.268537 0.159783 0.204679 0.222926 0.178362 0.083542 0.021067 0.000663 0.051206 0.004361 0.041614 -0.093106 -0.033310 0.077821 0.089621 0.007195 -0.000606 -0.002580 -0.000832 -0.003867 0.012993 0.003998 0.062266 0.158005 0.191251 0.151756 0.191336 0.252409 0.333178 0.186680 0.182710 0.279790 0.250188 0.240812 0.088139 0.016904 0.066205 0.038394 0.045980 -0.073304 -0.022565 0.090285 0.128142 0.034854 -0.002016 -0.002031 -0.000004 -0.003214 -0.003815 0.005993 0.101367 0.108285 0.140185 0.130126 0.139506 0.248664 0.253678 0.092073 0.212424 0.252457 0.206401 0.148410 0.059115 0.114830 0.140082 0.156535 0.080126 -0.037965 -0.005440 0.092102 0.121750 0.019548 0.003443 0.001419 -0.000853 -0.001839 -0.024231 0.060857 0.054936 0.031558 0.222437 0.153860 0.088625 0.115955 0.126456 0.302635 0.244191 0.155475 0.087661 0.177515 0.145338 0.221684 0.169527 0.115160 0.066355 0.029969 0.118062 0.117863 0.102741 0.003249 -0.001807 0.000776 -0.000225 -0.006172 -0.027236 0.029643 -0.041920 -0.020693 0.123428 0.144623 0.140895 0.189587 0.290013 0.262053 0.230037 0.155014 0.110585 0.115063 0.174541 0.207522 0.129341 0.123881 0.141305 0.171145 0.180148 0.135519 0.082263 0.013281 0.007641 0.003207 -0.003555 0.002719 0.012691 0.058877 -0.008935 0.000793 0.119959 0.095680 0.124289 0.165120 0.229362 0.250713 0.141418 0.101287 0.011052 0.042228 0.079839 0.207788 0.115651 0.143455 0.209054 0.172595 0.192078 0.146927 0.051614 0.010327 0.002483 -0.003381 0.002103 0.008251 0.017402 0.023127 -0.040770 -0.066900 0.047589 0.029111 0.109302 0.154177 0.200495 0.202196 0.239545 0.162398 0.010138 0.020719 0.158341 0.152199 0.095271 0.033621 0.114890 0.169133 0.176598 0.080381 0.031400 0.004652 -0.000450 -0.001837 -0.000032 0.005009 0.024843 0.013046 -0.028253 -0.139055 -0.095364 -0.079155 -0.020331 0.033096 -0.089020 -0.009998 -0.057422 -0.143758 -0.151021 -0.134437 -0.126409 -0.050717 0.068557 0.104184 0.117547 0.049540 0.009059 0.019360 0.021393 -0.002386 -0.001960 -0.000978 0.001528 0.002248 0.003366 -0.009005 -0.053528 -0.152504 -0.183021 -0.200525 -0.200249 -0.263309 -0.255484 -0.207727 -0.290234 -0.225892 -0.198042 -0.204601 -0.225794 -0.076830 0.009400 -0.012505 0.007603 -0.012642 -0.023273 -0.006878 0.006402 0.002257 0.004396 -0.001239 0.001887 -0.002994 -0.009707 -0.016049 -0.041814 -0.115571 -0.161614 -0.229217 -0.234738 -0.267245 -0.260727 -0.292218 -0.328986 -0.304933 -0.235209 -0.208219 -0.200961 -0.097523 -0.092148 -0.089644 -0.084100 -0.051727 -0.041119 0.023252 0.013364 0.002600 -0.000315 0.000925 -0.006355 0.002623 -0.004168 -0.015985 -0.023109 -0.037422 -0.079314 -0.121270 -0.127628 -0.104511 -0.126809 -0.148937 -0.181001 -0.166381 -0.129345 -0.127507 -0.125702 -0.102133 -0.095414 -0.065066 -0.040015 -0.023624 -0.020707 -0.002004 -0.002184 0.003243 -0.004042 -0.000513 0.002482 0.001916 0.001205 -0.003101 0.000935 -0.000947 -0.014961 -0.017555 -0.016495 -0.019654 -0.018877 -0.032354 -0.038085 -0.039307 -0.033872 -0.033866 -0.030133 -0.031676 -0.033855 -0.015210 -0.005541 0.001606 0.003165 -0.000948 0.000752 0.002618 0.001252 -0.000428 0.001635 0.004402 -0.001115 0.002145 -0.001160 0.002399 0.004478 -0.000982 0.000064 -0.004904 0.002460 -0.003883 -0.003334 -0.002071 -0.004654 -0.003298 0.000694 -0.002407 -0.000991 -0.000699 -0.004453 -0.000987 0.002442 -0.001521 0.001330 0.002367 -0.002301 0.005044 -0.000310 0.003060 -0.000136 -0.002256 0.000260 0.000622 0.000357 -0.002011 -0.000482 0.001739 -0.000015 -0.001996 -0.003731 0.000814 0.003480 -0.001982 -0.002038 0.001690 -0.000838 0.000199 -0.002137 -0.007008 -0.003855 -0.004212 -0.000217 -0.003203 0.000247 -0.001374 0.000354 -0.002157 0.002766 -0.002038 0.002091 0.000299 0.000469 -0.002331 -0.003086 0.002936 0.003348 -0.000088 -0.000309 -0.003998 -0.001232 0.002131 -0.004667 -0.003063 0.002886 0.002379 0.001374 -0.001184 0.001511 0.000080 0.002163 -0.000695 -0.001966 -0.005525 -0.001230 -0.000690 -0.003977 -0.003279 -0.000291 -0.001242 0.000917 -0.002337 -0.002141 -0.001297 -0.001862 0.008466 0.016175 0.017250 0.029251 0.018403 0.002232 -0.010791 -0.001975 -0.000738 -0.004877 -0.001219 -0.003266 0.001683 0.000030 -0.000343 -0.000146 0.004543 -0.003251 0.000462 -0.002787 -0.002348 0.003237 0.001370 0.013355 0.012930 0.012029 0.018461 0.059399 0.083919 0.083202 0.080615 0.073264 0.015127 -0.088556 -0.091824 -0.047695 -0.058140 -0.035527 -0.009543 -0.001093 -0.002631 0.003655 0.004768 -0.001324 -0.000057 -0.000186 0.001666 -0.004250 0.002681 0.017277 0.038461 0.032350 0.052229 0.030358 0.056371 0.078238 0.080735 0.115388 0.088397 0.009120 -0.081141 -0.133739 -0.124849 -0.082347 -0.061108 -0.063042 -0.029906 -0.026311 -0.025168 -0.011880 -0.002367 -0.002142 -0.000989 0.001970 -0.001287 0.007085 0.018412 0.045892 0.058694 0.043801 0.028437 0.018926 0.047032 0.039408 0.075410 0.082684 0.118696 0.107238 0.048301 -0.098200 -0.176160 -0.168716 -0.163211 -0.121112 -0.093020 -0.073949 -0.036700 -0.017330 -0.004721 0.003519 0.001078 0.000056 -0.003023 0.005415 0.018158 0.013462 0.044147 0.002250 -0.020344 0.027661 0.026232 0.024064 -0.015750 0.018233 0.047387 0.055035 0.143411 0.111459 -0.050140 -0.163264 -0.189625 -0.232446 -0.178810 -0.124448 -0.070577 -0.024967 -0.005120 0.003983 -0.003040 0.002329 0.006078 0.015084 0.053128 0.022800 0.041802 0.013850 -0.031127 -0.002779 -0.064285 -0.096909 -0.081405 -0.047273 -0.017117 0.019428 0.132364 0.180664 0.049509 -0.108620 -0.191716 -0.277630 -0.236379 -0.184304 -0.118602 -0.040059 -0.009055 0.002780 -0.000423 0.000593 0.002583 0.020183 0.076330 0.041554 0.027314 0.003323 -0.099123 -0.138983 -0.250323 -0.325441 -0.199987 -0.083304 0.017514 0.142595 0.197706 0.294973 0.151249 -0.155328 -0.297843 -0.297613 -0.249670 -0.209570 -0.139318 -0.070086 -0.020275 -0.001066 0.002267 0.002057 0.001914 0.022050 0.066627 0.022472 -0.015180 -0.048781 -0.148935 -0.266763 -0.385559 -0.359961 -0.173021 0.016935 0.201433 0.395684 0.405526 0.257653 0.018221 -0.158487 -0.236020 -0.253644 -0.211392 -0.167494 -0.116384 -0.053508 -0.011810 -0.002148 0.004211 0.000016 0.000611 0.027102 0.033285 -0.023721 -0.095804 -0.169935 -0.222477 -0.256522 -0.244642 -0.158998 -0.038554 0.110201 0.286844 0.407229 0.284699 0.096084 -0.078488 -0.178233 -0.211694 -0.194338 -0.160225 -0.134749 -0.089149 -0.041592 -0.004874 -0.000350 0.002445 -0.000280 0.006656 0.024774 0.010602 -0.057645 -0.175141 -0.209179 -0.148952 -0.102420 -0.105822 -0.016772 0.083167 0.171041 0.292645 0.334017 0.121047 -0.074787 -0.208061 -0.239342 -0.183903 -0.140239 -0.069646 -0.047405 -0.041809 -0.025117 0.002286 0.001069 0.002683 0.008253 0.001924 0.008693 -0.013135 -0.052137 -0.127512 -0.132668 -0.055864 0.047493 0.055882 0.133550 0.191264 0.202650 0.326691 0.263153 0.112270 -0.115407 -0.226100 -0.197615 -0.139879 -0.074931 -0.031417 -0.013781 -0.006903 0.000007 -0.002713 -0.000281 -0.000091 -0.000847 0.002916 0.000576 -0.016265 -0.044259 -0.050611 -0.060219 0.019578 0.038870 0.023857 0.005188 0.079470 0.198599 0.229831 0.147681 0.079638 -0.033721 -0.109079 -0.103621 -0.020134 -0.018979 -0.059487 -0.024742 -0.015108 0.001195 0.002579 0.005350 -0.002686 -0.003554 -0.001870 0.014024 0.000360 -0.025510 -0.031301 0.014676 0.039799 0.021489 -0.033068 -0.058869 0.086399 0.171994 0.160080 0.104537 0.041698 -0.064915 -0.086935 0.016054 0.045840 0.069154 0.008165 -0.006450 -0.016001 0.001654 0.001058 0.001636 -0.000179 0.001270 0.000721 0.013155 0.012422 -0.013012 -0.039652 -0.011840 0.041073 0.003935 -0.080137 -0.138728 -0.093150 0.138950 0.248374 0.069529 0.004089 -0.156688 -0.128192 -0.003616 0.115520 0.119137 0.053956 -0.014229 -0.021240 0.002711 0.003689 0.003286 -0.001456 -0.000967 0.004102 0.004389 -0.001581 -0.022161 -0.038471 -0.031160 -0.002120 0.023083 -0.067807 -0.079383 -0.081013 0.081664 0.186670 -0.047818 -0.098859 -0.203078 -0.140835 -0.048820 0.085922 0.125148 0.057301 -0.019503 -0.009162 0.003011 0.011250 0.005149 0.004380 0.001081 0.000387 0.001967 -0.025598 -0.065009 -0.088192 -0.086400 -0.064803 -0.045270 -0.017735 -0.081087 -0.043644 0.040693 0.078762 -0.072952 -0.094118 -0.143275 -0.125438 -0.060831 0.011782 0.075404 0.086786 0.023517 -0.026215 0.003504 0.003578 0.002971 -0.000098 0.004007 0.006219 0.007285 -0.026253 -0.088044 -0.140365 -0.122607 -0.128830 -0.073661 -0.092897 -0.165832 -0.150941 -0.087060 -0.011624 -0.024571 -0.081650 -0.063086 -0.007436 -0.005735 0.043097 0.067223 0.045845 0.006421 -0.042087 0.001709 0.003711 0.005795 -0.002980 -0.003584 0.003158 0.017005 -0.032356 -0.104914 -0.148136 -0.127852 -0.169974 -0.110326 -0.146152 -0.149001 -0.203716 -0.073604 -0.032258 0.038992 0.045295 0.021798 0.056347 0.043120 0.039944 0.058384 0.006620 -0.020913 -0.037843 0.005148 0.001770 0.003744 -0.003816 0.002640 0.007794 0.014785 -0.028341 -0.099390 -0.105972 -0.117626 -0.125686 -0.105227 -0.067344 -0.104844 -0.156560 -0.066864 0.073005 0.030976 0.090567 0.031463 0.094587 0.071426 0.089749 0.019459 -0.045955 -0.049291 -0.015722 0.005114 0.002583 -0.001393 -0.001705 -0.001207 0.004064 0.022869 -0.004670 -0.059902 -0.044339 -0.076586 -0.029280 -0.090120 0.018061 -0.022813 -0.102133 -0.069914 0.007815 0.024853 0.002609 0.008188 0.087112 0.085018 0.055864 -0.022925 -0.076569 -0.050263 -0.010930 -0.000822 0.002598 0.000042 0.000036 -0.002451 -0.000298 0.011380 0.004064 0.021112 0.006522 -0.040875 -0.009165 -0.005744 0.042416 -0.005013 -0.135998 -0.114753 -0.085403 -0.089916 -0.007035 0.041153 0.113696 0.066415 0.014799 -0.013335 -0.039435 -0.033005 -0.010483 -0.000986 -0.001118 -0.001378 0.002862 0.003149 0.004434 0.000653 0.017079 0.040117 0.050680 0.050821 -0.000703 -0.004770 -0.045598 -0.082394 -0.078267 -0.042916 -0.072293 -0.032056 -0.012851 0.074363 0.095588 0.056994 0.011937 -0.010168 -0.021266 -0.025706 -0.008289 0.008066 0.005005 0.000445 0.003312 -0.001589 0.001760 0.003345 0.006347 0.011504 0.017695 0.015941 -0.003669 -0.025866 -0.037176 -0.042109 -0.069508 -0.030095 -0.022002 -0.047388 -0.007890 0.021576 0.032749 0.031044 0.020541 0.009211 -0.013476 -0.016864 -0.009674 -0.002742 0.000525 -0.001687 -0.001477 0.001751 -0.001148 0.000277 -0.002776 -0.005945 -0.011822 -0.019049 -0.008302 -0.007494 -0.022235 -0.025062 -0.034543 -0.058802 -0.082005 -0.134864 -0.128258 -0.095360 -0.033592 -0.017928 -0.007824 -0.010243 -0.007562 -0.005828 -0.006182 0.000608 -0.003797 -0.000090 -0.000446 -0.001695 -0.001347 0.004949 -0.004331 0.002014 -0.002647 -0.006086 -0.010338 -0.008917 -0.016682 -0.020269 -0.024279 -0.023325 -0.040398 -0.049855 -0.047136 -0.027827 -0.004086 -0.002683 -0.014098 -0.007376 -0.004040 -0.002666 0.000754 -0.001185 -0.006542 -0.001148 -0.004060 -0.004614 0.003969 -0.003047 0.000008 -0.000879 -0.000935 -0.005425 -0.001767 0.002779 -0.002607 0.000685 -0.003426 -0.003991 -0.002797 -0.003621 0.000495 -0.000715 -0.003388 -0.002765 0.002696 0.002570 0.000828 -0.002902 -0.002877 -0.001000 0.001182 0.001318 0.000253 -0.000657 -0.001057 -0.001258 -0.004003 0.002334 -0.006840 -0.004665 0.001224 0.001062 0.004506 0.001810 0.002240 0.001837 0.001766 -0.003855 0.001111 -0.004011 -0.003100 -0.001314 0.002530 0.002685 0.000865 0.001018 0.000868 -0.003483 -0.000087 -0.001569 -0.001211 -0.002062 0.001022 -0.001961 -0.000632 -0.001422 0.001793 0.002965 -0.002626 -0.001706 0.000296 -0.005160 -0.003140 0.003475 -0.003432 0.000110 0.001182 -0.000080 0.003816 0.004028 0.001335 0.003441 0.000954 0.001332 -0.002558 -0.000562 -0.000795 -0.002735 -0.001083 0.000401 0.004392 0.003572 0.002771 -0.001676 0.002215 -0.001721 0.000036 -0.003261 -0.002581 -0.009408 -0.005175 -0.006486 0.004983 -0.000415 0.000119 -0.002278 -0.001970 -0.003952 0.002139 -0.004929 -0.003223 0.000046 0.004552 0.001347 -0.000146 0.002405 0.000052 -0.001854 0.002541 -0.002404 -0.001079 -0.002076 0.003035 0.001899 -0.028910 -0.018262 -0.034237 -0.032751 -0.032666 -0.023958 -0.020477 -0.014040 -0.017544 -0.030932 -0.043804 -0.035006 -0.011403 -0.001502 0.005251 0.001854 0.002271 0.004988 0.001557 0.003188 -0.002438 -0.000700 0.003986 -0.003493 -0.003077 0.003510 0.019699 0.018758 -0.001603 -0.025476 -0.026139 0.008508 0.007087 0.024628 0.035931 0.083899 0.078427 0.066837 0.051783 0.057612 0.020004 0.015182 0.009109 -0.000098 -0.011799 -0.006192 -0.001886 0.005449 0.000322 -0.000409 0.005345 -0.004559 0.000735 0.024049 0.056165 0.055350 0.056919 0.063486 0.095524 0.126312 0.113166 0.045402 0.043544 0.005574 -0.010423 -0.023676 -0.009450 -0.003742 0.022224 0.008377 0.005642 -0.015266 -0.019246 -0.008827 -0.003594 0.003161 -0.002119 -0.003183 -0.002616 0.006996 0.014491 0.040332 0.103639 0.106618 0.138895 0.195278 0.200983 0.142680 0.100804 -0.014783 -0.058303 -0.068818 -0.066460 0.005948 -0.006124 0.039350 0.046395 0.009945 0.001211 -0.025441 -0.029640 -0.014125 0.000198 -0.003547 0.003041 0.000473 0.009820 0.015813 0.011671 0.024847 0.070299 0.111569 0.180969 0.199954 0.186617 0.184347 0.102063 0.030886 0.018438 -0.012526 0.131069 0.155904 0.150567 0.116706 0.102192 0.036811 0.007791 -0.049523 -0.035160 -0.023381 0.002824 0.007809 0.002203 -0.001754 0.001155 0.006973 0.013245 0.022657 0.010281 0.094414 0.141142 0.085913 0.096477 0.110346 0.058715 0.009270 0.118572 0.126752 0.224526 0.224231 0.146125 0.107200 0.034935 0.004020 0.013462 -0.031858 -0.059854 -0.034921 -0.007670 0.000749 0.000668 -0.000229 0.002676 -0.006391 0.003254 0.011894 0.023121 0.019487 0.063404 0.041120 0.025719 0.026966 -0.055900 -0.080176 -0.020106 0.062357 0.160596 0.165271 0.063648 0.002423 -0.064535 -0.035289 0.009463 -0.030067 -0.038527 -0.017231 -0.002762 0.000437 0.000533 0.004313 0.008857 -0.010461 -0.003406 0.003090 0.000215 -0.008125 0.017626 -0.013134 -0.051808 -0.123474 -0.269205 -0.339759 -0.246280 -0.049359 0.081008 0.058513 -0.013027 -0.077819 -0.061481 -0.045964 -0.056472 -0.039948 -0.021913 -0.004333 -0.000305 0.006291 0.004557 0.000006 0.011141 -0.014588 -0.033239 -0.063694 -0.053915 -0.057265 -0.061096 -0.049823 -0.101154 -0.177834 -0.398126 -0.519963 -0.344658 -0.051879 0.072948 0.038657 -0.063968 -0.113264 -0.077173 -0.104150 -0.099101 -0.072105 -0.033758 -0.009801 -0.001586 0.000137 0.003653 0.001768 0.004228 -0.031270 -0.033042 -0.105168 -0.101030 -0.109590 -0.116675 -0.172268 -0.207474 -0.333606 -0.462528 -0.494887 -0.319041 -0.030319 0.067253 0.005955 -0.063488 -0.171730 -0.156109 -0.151999 -0.140639 -0.088468 -0.025939 -0.010137 -0.003453 -0.003409 -0.004537 0.001963 0.001450 -0.039146 -0.070210 -0.120084 -0.155238 -0.200221 -0.227945 -0.236055 -0.298818 -0.415725 -0.377117 -0.349331 -0.186495 -0.021853 -0.002424 0.005757 -0.060265 -0.130916 -0.159900 -0.116435 -0.118374 -0.078965 -0.013223 0.002373 0.002057 0.004983 -0.000163 -0.002674 -0.002112 -0.044992 -0.089724 -0.159017 -0.185787 -0.243406 -0.264660 -0.280448 -0.332253 -0.328445 -0.318877 -0.244910 -0.130185 0.005485 0.007614 0.018202 -0.009847 -0.049966 -0.108021 -0.111746 -0.079628 -0.066670 -0.021864 0.011593 0.007667 0.000006 0.000062 -0.000265 -0.000856 -0.048117 -0.102518 -0.178022 -0.221851 -0.268825 -0.257099 -0.279117 -0.268896 -0.227043 -0.247640 -0.151611 -0.080092 0.000214 0.048538 0.019865 -0.051729 -0.080673 -0.116378 -0.093901 -0.112753 -0.068859 -0.012345 0.007893 0.006062 0.001348 -0.005883 -0.001405 -0.002996 -0.047641 -0.100284 -0.166659 -0.231020 -0.259837 -0.207025 -0.158363 -0.093290 -0.068302 -0.084837 -0.048152 -0.057275 -0.052134 -0.003397 -0.099049 -0.146933 -0.135387 -0.117151 -0.126894 -0.155963 -0.093387 -0.019721 0.021936 0.003130 0.002222 -0.001921 0.001492 -0.002572 -0.024977 -0.087990 -0.139581 -0.196601 -0.191815 -0.113380 -0.003451 0.064257 0.002712 -0.016511 0.028415 0.038775 -0.103428 -0.161294 -0.235869 -0.232032 -0.196562 -0.184042 -0.181868 -0.157050 -0.067434 -0.011264 0.020019 0.005604 0.000271 0.002116 -0.000497 -0.002692 -0.007085 -0.061166 -0.102632 -0.140821 -0.086836 -0.043624 0.018874 0.003739 -0.018394 0.079861 0.147965 0.039875 -0.106524 -0.180958 -0.213937 -0.229631 -0.170244 -0.148375 -0.110210 -0.064653 0.003451 0.011865 0.016503 -0.000692 0.004411 -0.003498 -0.000468 -0.001733 -0.007499 -0.033242 -0.071358 -0.065748 -0.053137 0.029439 0.033987 0.049319 0.125746 0.200634 0.283115 0.124925 0.043808 -0.067540 -0.162733 -0.177700 -0.076918 -0.025419 -0.008076 -0.018165 0.024885 0.037472 0.032210 0.009102 0.000497 0.000963 0.002935 -0.000632 0.013489 0.002315 -0.014077 0.031150 0.015509 0.043120 0.033827 0.120209 0.205327 0.294504 0.243979 0.220639 0.091930 -0.025341 -0.133965 -0.103696 0.003936 0.072659 0.079933 0.073281 0.097907 0.063702 0.034106 0.005946 0.005646 0.002443 -0.000506 -0.000114 0.002163 -0.002451 0.007857 0.057218 0.025602 0.046779 0.085092 0.112410 0.138934 0.180761 0.180807 0.183886 0.104733 0.006991 -0.022625 -0.014514 0.062629 0.134527 0.134038 0.109975 0.110463 0.056193 0.015211 -0.001096 0.000024 -0.000755 -0.000253 -0.007626 -0.010474 -0.013507 0.025520 0.067235 0.060769 0.061109 0.082766 0.034597 0.026613 0.014854 0.017338 0.083753 0.059046 -0.001123 0.005315 0.042869 0.102089 0.114648 0.113666 0.072457 0.038681 0.017125 0.009713 -0.001414 0.002070 0.000771 -0.001976 -0.000175 -0.016059 -0.010478 0.019639 0.077076 0.085265 0.001266 -0.004784 -0.036740 -0.002046 0.023652 -0.010904 -0.004338 0.016763 0.011404 0.019456 0.043687 0.053163 0.008055 0.015241 0.010915 0.001810 0.010919 0.012304 0.003000 0.001041 -0.002670 -0.000324 0.003319 -0.007194 0.000942 0.035289 0.012974 -0.056654 -0.089181 -0.112896 -0.153531 -0.063068 -0.043604 -0.057356 0.009517 -0.008105 -0.065520 -0.079909 -0.071828 -0.049077 -0.054051 -0.040829 -0.020527 -0.010142 0.003517 0.002839 -0.001598 0.000351 0.002844 0.004566 -0.003484 0.005539 -0.002141 0.008729 0.015784 0.016984 0.016689 0.001984 -0.011061 0.060881 0.068926 0.058337 0.069791 0.079567 0.008677 -0.041918 -0.053726 -0.066969 -0.069823 -0.040456 -0.037147 -0.010235 0.001173 -0.000865 -0.000380 -0.000706 -0.001532 -0.000100 0.001065 -0.001627 -0.005877 -0.010772 -0.017014 0.004463 0.025989 0.031152 0.026612 0.028046 0.029867 0.040820 0.056247 0.052932 0.029360 0.007564 0.000028 -0.007989 -0.022076 -0.013669 -0.002263 -0.007149 0.001418 -0.000755 0.000761 -0.000461 0.001909 -0.000721 0.002268 0.004892 0.003187 0.002429 0.001622 0.001575 0.003563 0.007313 0.006180 0.007492 0.016309 0.014169 0.002413 0.002743 0.008898 0.001701 -0.003407 0.001285 -0.002350 -0.001903 -0.002876 0.002401 0.001513 -0.002130 0.005630 0.003903 -0.000579 -0.001180 -0.007229 -0.004736 0.002514 -0.001233 0.002217 -0.002422 -0.002965 0.002413 0.001055 -0.000570 -0.004475 -0.008362 -0.000431 0.007231 0.000258 -0.003047 -0.000452 0.000754 -0.001897 -0.000360 0.000871 0.004416 0.000381 0.001359 -0.002827 0.003019 -0.002485 -0.004089 -0.004369 0.002982 -0.006772 -0.003622 -0.005314 -0.013007 -0.016677 -0.011088 -0.017191 -0.023306 -0.033290 -0.015104 0.009336 0.000650 0.007829 -0.003165 -0.007040 -0.005303 -0.005784 -0.013453 -0.011284 -0.000198 -0.000954 -0.001178 0.000645 0.003329 -0.000976 0.002828 0.001156 -0.000454 0.001764 -0.000078 -0.006243 -0.036551 -0.050923 -0.048837 -0.072703 -0.064843 -0.067941 -0.050684 -0.050922 -0.060580 -0.052690 -0.059006 -0.046598 -0.028863 -0.025928 -0.031430 -0.020821 -0.010970 -0.003502 -0.002815 0.003099 -0.006091 -0.002450 -0.001760 0.001712 -0.003575 -0.009538 -0.008730 -0.023405 -0.035342 -0.098994 -0.112583 -0.118622 -0.085571 -0.075707 -0.099948 -0.075059 -0.034996 0.012672 -0.013945 -0.067952 -0.095257 -0.093679 -0.086703 -0.053915 -0.042492 -0.015435 -0.001556 -0.003549 0.002750 -0.004225 -0.000339 -0.000205 0.002221 -0.000137 -0.003499 -0.007448 -0.014567 -0.079357 -0.102085 -0.130074 -0.067076 -0.046607 -0.027851 -0.064165 -0.012408 0.096667 0.082961 0.032069 -0.028656 -0.022634 -0.061774 -0.023022 -0.037445 -0.015340 -0.005892 0.000958 -0.002142 -0.000859 -0.002909 -0.001472 0.003324 0.002619 0.041443 0.065680 0.041822 -0.040336 -0.082707 -0.063125 -0.114178 -0.119820 -0.139837 -0.060869 0.051288 0.200486 0.238743 0.290492 0.223350 0.040109 0.019586 0.019842 0.033203 -0.022261 -0.029512 -0.009718 0.001074 0.002066 -0.000814 -0.000265 0.007010 0.023394 0.056910 0.082571 0.060901 -0.032922 -0.033894 -0.061977 -0.186611 -0.170933 -0.174779 -0.241292 -0.100124 -0.003650 0.076908 0.133711 0.171871 0.167397 0.121559 0.164101 0.104959 -0.032483 -0.063780 -0.005516 -0.002870 -0.000726 -0.003740 -0.000789 0.009772 0.044117 0.066501 0.091539 0.009462 -0.062728 -0.065689 -0.107282 -0.123596 -0.150835 -0.121575 -0.252664 -0.345807 -0.272128 -0.057232 0.123723 0.303411 0.266262 0.227915 0.288353 0.119944 -0.018945 -0.060001 -0.021226 0.000540 -0.003497 0.000786 0.003335 0.013012 0.056229 0.075264 0.070933 0.052900 -0.046339 -0.096194 -0.098059 -0.059829 -0.124923 -0.122756 -0.379044 -0.400794 -0.260243 0.087442 0.322742 0.313312 0.228693 0.221107 0.232587 0.057487 -0.124756 -0.094748 -0.040327 -0.002730 0.000525 -0.001177 0.002142 0.016764 0.057451 0.077610 -0.012270 -0.054334 -0.056804 -0.103704 -0.113472 -0.099739 -0.070333 -0.086845 -0.506481 -0.411725 0.003751 0.218235 0.353806 0.335748 0.234609 0.189743 0.175940 -0.062034 -0.277654 -0.142514 -0.036489 -0.005420 -0.002664 0.002146 0.007410 0.014306 0.044042 0.014205 -0.094199 -0.186121 -0.122265 -0.121475 -0.111640 -0.163687 -0.041867 -0.218340 -0.601830 -0.328436 0.093188 0.328583 0.368493 0.342195 0.186918 0.128732 0.041365 -0.184209 -0.274082 -0.142270 -0.034119 -0.000151 0.002428 -0.001459 0.005118 0.020313 -0.006460 -0.094929 -0.182068 -0.269083 -0.174878 -0.082876 -0.065604 -0.115148 0.046592 -0.296198 -0.567854 -0.181828 0.153174 0.289051 0.234688 0.198826 0.145408 0.057115 -0.034499 -0.215239 -0.211569 -0.087301 -0.014580 -0.000376 0.001782 -0.000134 -0.001747 0.001520 -0.036983 -0.119789 -0.144003 -0.217515 -0.098875 -0.066128 -0.013264 0.071250 0.157216 -0.201605 -0.352675 -0.111089 0.098640 0.164490 0.097724 0.122159 0.073389 0.054631 -0.043700 -0.204978 -0.123755 -0.010478 0.001282 -0.001727 0.001789 -0.004741 -0.000325 -0.013115 -0.029349 -0.078283 -0.057889 -0.076438 -0.000897 0.002809 0.113237 0.256257 0.137893 -0.128755 -0.246222 -0.164996 -0.001507 0.205688 0.101430 0.034123 0.114712 0.089443 -0.044492 -0.168681 -0.071269 0.030778 0.024653 0.005977 -0.000702 0.001747 0.001748 0.003166 0.060168 0.038770 0.076407 0.124416 0.063142 0.027056 0.098570 0.211529 0.239448 -0.000709 -0.107565 -0.045326 0.164452 0.307234 0.182419 0.200297 0.089971 0.011146 -0.038434 -0.111052 -0.057328 0.041457 0.013651 0.002306 -0.000594 0.000304 0.007375 0.024199 0.094742 0.186882 0.163007 0.120892 0.050049 0.086742 -0.035416 0.072925 0.059950 0.034303 0.059644 0.123160 0.268550 0.300214 0.154046 0.141890 -0.031638 -0.032435 0.026101 -0.006207 -0.020280 0.031906 0.014579 0.001412 -0.001892 -0.001434 0.004256 0.015459 0.122558 0.209704 0.134108 0.045228 0.051301 0.054429 -0.095140 -0.079135 0.054995 0.155282 0.180573 0.295526 0.376641 0.339021 0.142996 0.100309 0.029353 0.070528 0.027712 0.025621 0.041352 0.066745 0.022501 0.003542 0.001711 -0.000327 0.001455 0.010721 0.145042 0.167609 0.051108 0.079162 0.038981 -0.074743 -0.124940 0.015902 0.127616 0.194709 0.195158 0.206157 0.275685 0.104019 -0.021021 -0.082681 -0.027007 0.041318 -0.030535 0.042876 0.055695 0.072432 0.034770 -0.001105 -0.002391 0.001425 -0.004226 0.051911 0.134739 0.119285 -0.025969 0.008320 -0.101314 -0.195055 -0.258752 -0.125502 -0.042610 0.050775 0.025208 -0.027665 0.004544 -0.033426 -0.144120 -0.079298 -0.077789 -0.050939 -0.069876 0.038041 0.071113 0.053178 0.001327 -0.002896 -0.002953 -0.000980 -0.003886 0.083278 0.114960 0.088356 0.005100 -0.008299 -0.106517 -0.203684 -0.309972 -0.280999 -0.219041 -0.127910 -0.123918 -0.093114 -0.079536 -0.101167 -0.084451 -0.100301 -0.106997 -0.024036 -0.054185 0.024078 0.035726 0.030606 0.003294 0.003777 -0.001155 0.001378 0.011654 0.083195 0.159036 0.060281 0.042209 -0.037286 -0.164085 -0.190086 -0.140245 -0.111319 -0.058180 -0.143088 -0.176820 -0.121060 -0.063826 -0.023701 0.038487 -0.030634 -0.022820 0.015173 -0.022841 0.028711 0.035975 0.002808 -0.000167 0.001092 0.000113 -0.005765 0.016692 0.060692 0.133060 0.085605 0.049645 0.010385 0.041427 0.025489 0.016588 0.064138 0.050404 -0.068721 -0.190051 -0.150688 -0.046591 0.058070 0.047003 0.021665 0.049635 0.076985 0.021477 0.042363 0.018772 -0.012765 0.001709 0.002034 0.003189 0.002091 0.013879 0.023216 0.084782 0.137057 0.154843 0.118277 0.071470 0.085935 0.042205 0.027870 -0.010897 -0.105248 -0.137350 -0.078463 -0.041191 0.016359 0.028522 0.051054 0.071719 0.089564 0.046676 0.003648 -0.028260 -0.014831 -0.002786 -0.005000 0.001850 -0.000098 0.004397 0.004787 0.046104 0.095175 0.142483 0.121846 0.063671 0.084726 0.032154 0.019533 -0.086958 -0.063863 -0.046962 -0.027540 -0.053971 -0.080998 0.030864 0.023702 0.042448 0.040695 -0.005656 -0.027771 -0.017402 -0.005430 -0.001516 -0.004117 0.000437 -0.000824 -0.004019 0.002184 0.010507 0.058778 0.076873 0.057474 0.062411 0.063928 0.091337 0.084836 0.045361 0.019012 0.017838 -0.030428 -0.073319 -0.141673 -0.127974 -0.126298 -0.070896 -0.049708 -0.046957 -0.037070 -0.006538 0.008380 -0.002972 -0.000317 -0.001325 0.002930 -0.003113 -0.002271 0.005774 0.012852 0.013775 -0.004169 0.000252 -0.019785 -0.018042 -0.079427 -0.101357 -0.058160 -0.048756 -0.064038 -0.142140 -0.215331 -0.219660 -0.192675 -0.123842 -0.103159 -0.053632 -0.022838 -0.012520 0.000879 -0.000284 -0.002804 0.003091 0.000803 -0.005661 -0.002799 0.002197 0.010498 -0.001333 -0.004084 -0.013684 -0.021485 -0.017947 -0.070718 -0.091568 -0.079621 -0.094704 -0.088113 -0.107436 -0.088766 -0.074671 -0.071772 -0.050307 -0.028552 -0.006556 0.002463 -0.000356 -0.002355 -0.005220 -0.004634 0.003283 0.001503 0.001781 0.000574 0.001437 0.002154 -0.001365 -0.004033 -0.004214 0.004851 -0.004502 -0.002668 -0.010620 -0.006930 -0.015993 -0.002628 0.004437 0.000412 -0.003163 -0.007128 0.001543 0.001156 0.002594 0.002334 -0.002833 -0.002845 0.002547 -0.002842 -0.002033 0.003048 -0.000506 -0.001823 0.003642 0.002286 -0.004551 -0.002068 -0.003442 0.004176 0.002873 -0.000749 -0.001352 -0.002519 -0.001315 -0.002093 -0.001281 -0.003262 -0.001589 0.001398 -0.005181 -0.000566 0.002372 -0.004246 0.000508 -0.000936 0.000043 0.002368 -0.001032 0.000786 0.005291 0.004462 0.001405 -0.000433 -0.000288 0.000846 0.000180 0.001301 -0.002298 -0.002132 -0.007407 -0.002819 -0.001662 -0.000667 -0.006136 -0.007202 -0.001438 0.001757 0.002326 -0.000602 0.003726 0.004103 0.000731 0.001800 0.001826 0.002065 -0.002135 -0.000741 -0.001079 -0.000390 -0.001195 0.001365 0.002146 0.000781 -0.009404 -0.004497 0.004838 0.012974 0.015806 0.015943 0.004409 0.021405 0.012850 0.001694 0.005304 0.005269 0.002151 -0.008717 -0.004656 0.002396 0.001601 -0.004179 -0.001580 -0.001167 -0.003069 -0.002035 0.001160 0.001602 0.000526 0.004302 0.008469 0.027985 0.030343 0.058885 0.091419 0.136503 0.188235 0.157931 0.187383 0.223535 0.134933 0.095947 0.092746 0.066535 0.046292 -0.017843 -0.025811 -0.009989 -0.007350 0.003387 0.003888 -0.002990 0.001112 -0.000407 0.001125 -0.001559 0.009944 0.041638 0.058426 0.101842 0.188343 0.220113 0.274712 0.263996 0.215806 0.192590 0.243051 0.205149 0.110156 0.051724 0.110144 0.073969 0.010503 0.007447 0.007883 0.002447 0.033907 0.015754 0.006729 0.000175 -0.000504 -0.003429 0.004093 0.017782 0.045240 0.107851 0.122417 0.156326 0.125796 0.153176 0.205980 0.173227 0.065138 0.075591 -0.001407 0.081423 0.123622 -0.073334 -0.000782 0.092170 0.124433 0.058938 0.031551 0.032716 0.054313 0.035098 0.010501 0.000277 0.002482 0.001566 0.009602 0.022793 0.063628 0.122127 0.106152 0.076427 0.069106 0.081197 0.141179 0.149186 0.104715 0.179555 0.149854 0.096566 0.124098 0.079132 0.161940 0.030613 0.118625 0.083992 -0.004316 -0.030127 0.035650 0.037724 0.011167 -0.001269 0.000459 0.003804 -0.003020 0.017179 0.100509 0.146456 0.109280 0.046229 -0.037310 -0.000553 0.003509 0.027774 0.139305 0.168001 0.271868 0.202663 0.141083 0.148583 0.077704 0.123404 0.147749 0.103872 0.008235 -0.050234 0.005188 0.028033 0.010488 -0.003594 -0.002217 -0.002044 -0.000286 0.026325 0.120852 0.107407 0.098205 -0.036790 -0.031418 -0.024242 0.011770 0.017799 0.008489 -0.014823 0.132151 0.059466 -0.069064 -0.033498 -0.063619 -0.055744 -0.052349 -0.028406 0.038956 -0.079096 0.011014 0.028330 0.001176 -0.000517 -0.003958 -0.001554 0.013322 0.064456 0.128098 0.054396 0.021839 0.042258 0.032623 -0.022690 -0.115841 -0.197825 -0.185807 -0.150292 0.004563 0.087684 -0.061575 -0.165568 -0.251016 -0.241972 -0.113035 -0.134521 -0.019879 -0.088953 -0.026260 0.013494 -0.004429 -0.003215 -0.005361 -0.003417 0.009771 0.086713 0.043012 -0.026820 -0.075628 -0.085394 -0.145216 -0.209138 -0.270917 -0.323269 -0.286335 -0.113548 0.071706 0.056024 -0.014367 -0.059512 -0.168049 -0.188073 -0.159510 -0.256341 -0.234289 -0.218092 -0.107076 -0.000009 0.002721 0.002061 -0.002191 -0.004182 0.000811 0.061045 -0.018617 -0.136077 -0.203361 -0.253111 -0.268987 -0.233313 -0.216368 -0.154172 0.004139 0.127748 0.197001 0.077358 0.042021 0.200555 0.173345 -0.070432 -0.164431 -0.361392 -0.374549 -0.329859 -0.156195 -0.021237 0.000852 0.000904 0.000489 -0.005239 -0.004687 0.001161 -0.085428 -0.190809 -0.212237 -0.145342 -0.142716 0.018226 0.086279 0.122812 0.138711 0.148737 0.255644 0.052148 0.012600 0.062410 0.053996 -0.078607 -0.182644 -0.357220 -0.457523 -0.355540 -0.170236 -0.028652 0.003875 -0.004252 -0.000849 0.002445 -0.001905 -0.010441 -0.113873 -0.222222 -0.260418 -0.130784 -0.054128 0.077305 0.118044 0.019124 0.041525 0.212548 0.250794 -0.019114 0.036698 0.086473 -0.121425 -0.122039 -0.166035 -0.208786 -0.372858 -0.333126 -0.140714 -0.036193 0.001947 -0.000206 -0.001192 0.002136 -0.000080 -0.010688 -0.100001 -0.253017 -0.291593 -0.222063 -0.102483 0.015504 0.013005 -0.063244 0.024644 0.112405 0.205996 0.034956 -0.011024 -0.053684 -0.089976 -0.083859 -0.125666 -0.010788 -0.199469 -0.235697 -0.094278 -0.025910 0.003235 -0.001055 -0.000693 0.002225 0.005094 0.012909 -0.088679 -0.252250 -0.278615 -0.299102 -0.388996 -0.190641 -0.081874 0.026094 0.134538 0.147487 0.133745 -0.036304 -0.021315 -0.113960 -0.017352 0.035195 0.109285 0.110886 0.062779 -0.041753 -0.013914 -0.012596 0.011403 -0.001172 0.001966 0.004167 0.024248 0.063408 0.016938 -0.126239 -0.251785 -0.433342 -0.647970 -0.493039 -0.373762 -0.215460 -0.072697 0.008388 -0.048039 -0.158931 -0.186612 -0.067345 0.155131 0.163157 0.089209 0.126764 0.194923 0.121557 0.052980 0.005991 0.011189 -0.000299 -0.003453 0.003387 0.034198 0.118623 0.100069 -0.025177 -0.167455 -0.380098 -0.522280 -0.829162 -0.839650 -0.779860 -0.623413 -0.433990 -0.227670 -0.087714 -0.037790 0.105119 0.104653 0.171402 0.022400 0.157462 0.166153 0.128148 0.029592 -0.011374 0.012134 -0.003834 -0.000708 -0.003023 0.034433 0.208434 0.210267 0.126725 0.003381 -0.249786 -0.329666 -0.469150 -0.573685 -0.653660 -0.716798 -0.402096 -0.134699 0.061473 0.137265 0.117121 0.126113 0.171277 0.130437 0.208313 0.153500 0.123651 0.069789 0.008227 0.011718 0.001772 -0.001300 0.001343 0.025181 0.214497 0.247231 0.261227 0.096656 0.005066 -0.062353 -0.132489 -0.064858 -0.159943 -0.280837 -0.134063 -0.038757 0.024240 0.040924 0.100456 0.103497 0.048078 0.119780 0.226406 0.131448 0.093352 0.019756 0.006058 0.001770 0.007500 0.001497 0.000058 0.023516 0.195724 0.268126 0.256159 0.256151 0.175943 0.242150 0.205751 0.128856 0.197064 -0.059117 0.002592 0.012266 0.010851 0.098468 0.119977 0.192004 0.085186 0.168229 0.137576 0.118101 0.025141 -0.029653 -0.002308 0.005550 0.002669 -0.003576 -0.000027 0.012340 0.102215 0.194986 0.200076 0.234672 0.193535 0.185960 0.162468 0.118229 0.087960 0.125219 0.049274 0.025048 0.079658 0.127745 0.162342 0.200345 0.164904 0.164597 0.065859 0.004390 -0.051286 -0.047851 -0.004344 -0.000052 0.002785 -0.001450 -0.002374 0.009835 0.060572 0.133213 0.103152 0.117773 0.094561 0.010075 0.110372 0.096164 0.055316 -0.073827 -0.049135 0.013198 0.082408 0.098553 0.167348 0.127738 0.169952 0.104567 -0.027082 -0.017685 -0.023069 -0.024361 -0.008323 -0.000158 0.000500 -0.000115 0.001094 0.012265 0.046739 0.103686 0.162782 0.178851 0.146769 0.012967 0.113371 0.175654 0.139767 0.023698 0.040018 -0.069593 -0.040095 -0.044610 0.031572 0.079912 -0.000403 -0.067046 -0.086527 -0.050563 -0.016614 -0.002737 0.001202 -0.000303 -0.005470 0.002689 -0.002228 0.009161 0.024126 0.065099 0.128393 0.229189 0.321016 0.280326 0.271662 0.247437 0.188914 0.132136 0.175300 0.106439 0.006064 0.033204 0.075931 -0.054079 -0.160751 -0.108519 -0.042979 -0.026954 0.001757 0.002526 0.002956 0.006297 0.000314 0.002660 -0.000446 0.002065 0.001025 0.022540 0.042707 0.091593 0.151303 0.190988 0.199910 0.213544 0.205812 0.235057 0.211513 0.086887 0.051258 0.059496 0.002587 -0.013416 0.002548 0.002682 -0.005278 -0.005034 -0.001761 0.000607 0.001672 -0.001020 -0.002379 -0.000765 0.001170 0.006097 0.006349 0.007602 0.007751 0.011014 0.011325 0.013349 0.006944 0.027179 0.034679 0.038320 0.035018 0.031598 0.035309 0.036899 0.035800 0.016767 0.005165 -0.004076 -0.003577 -0.000967 0.001600 -0.003171 -0.004522 -0.001142 0.003854 -0.001887 0.001341 -0.001359 -0.001321 0.002892 0.003911 0.001132 0.001272 0.001064 -0.001530 0.000323 -0.000961 0.008257 0.000507 0.005734 -0.001140 0.001283 0.003315 -0.000838 0.002570 -0.000945 -0.003019 0.001002 -0.002881 -0.001016 0.001590 -0.001779 0.004014 0.003148 -0.000595 -0.004934 0.004868 -0.001823 -0.000386 0.003074 -0.001819 0.002760 -0.000973 0.001682 -0.000354 -0.005258 0.001324 0.000471 -0.003249 -0.002747 0.004183 -0.001984 0.005215 0.000299 -0.002308 -0.001096 -0.004429 -0.000632 -0.001141 0.000580 0.001450 -0.004352 -0.000745 0.000879 -0.001461 -0.000466 -0.004800 0.000035 0.000602 -0.002189 -0.008380 -0.002939 -0.001694 0.001765 0.001192 -0.000168 0.005567 0.004175 0.006127 0.000868 -0.004710 0.002482 0.000766 -0.001672 -0.002173 0.000330 0.002273 0.000985 0.000711 -0.000659 0.001205 -0.003172 -0.002875 0.001030 -0.000172 0.002501 -0.002573 0.001480 -0.003475 0.003935 -0.002702 0.001372 0.019710 0.009172 0.021755 0.008669 -0.009290 -0.014071 -0.005099 0.000501 0.000758 -0.006513 -0.003155 0.002651 0.003665 -0.001626 -0.000200 -0.000950 0.003131 0.000976 0.001002 0.003706 0.001827 -0.001156 -0.006017 -0.021759 -0.009699 -0.015486 -0.034154 -0.022482 -0.002064 -0.003589 0.002051 -0.015786 -0.047308 -0.055759 -0.028689 -0.024934 -0.007741 -0.004023 -0.009946 -0.000165 0.002776 -0.004458 0.002640 -0.001998 -0.000083 0.001488 0.004078 0.002980 0.004766 0.004676 -0.011310 -0.035299 -0.036406 -0.022681 -0.004981 0.023462 0.074862 0.102459 0.079979 0.012135 -0.013893 -0.018002 0.021943 0.022927 0.031756 0.034026 0.007893 -0.012271 -0.009172 -0.004254 0.002152 0.000565 0.004763 0.000589 -0.002586 -0.003085 0.001435 -0.005831 -0.039650 -0.066489 -0.077720 -0.047491 -0.026447 0.013306 0.046248 0.110120 0.102836 -0.006055 -0.058732 -0.027033 0.000108 0.023423 0.050445 0.043017 0.030348 0.010835 -0.009621 -0.004386 -0.002100 0.000328 -0.000129 -0.001559 -0.008452 -0.014106 -0.030776 -0.048127 -0.067178 -0.099829 -0.120228 -0.048810 0.011844 0.015468 0.017434 0.044616 -0.010057 -0.056062 -0.045127 -0.016872 -0.037753 0.015595 0.016330 0.004902 0.000901 -0.018145 -0.010874 -0.001214 -0.005171 0.002291 -0.000149 -0.003005 -0.011993 -0.032585 -0.070551 -0.096516 -0.093298 -0.120305 -0.100919 -0.053529 -0.017048 0.019897 0.013653 0.017644 -0.066586 -0.056927 -0.063765 -0.068041 -0.040261 0.005782 -0.019738 -0.035343 -0.058084 -0.054038 -0.027362 0.000759 -0.000561 0.001044 0.003949 -0.001022 -0.012549 -0.051784 -0.069663 -0.096972 -0.091723 -0.107486 -0.087139 -0.062155 0.007347 0.051417 0.057839 0.047335 0.003825 -0.091947 -0.039289 -0.088529 -0.092173 -0.038045 -0.075366 -0.081396 -0.086354 -0.066453 -0.025923 -0.003573 -0.003140 -0.003845 -0.002479 -0.004710 -0.004619 -0.058465 -0.087270 -0.096800 -0.101734 -0.093019 -0.066201 -0.010401 0.061008 0.081529 0.118254 0.130070 0.152820 -0.029885 -0.107455 -0.115759 -0.107195 -0.081867 -0.104197 -0.103273 -0.092932 -0.069591 -0.026587 -0.007182 -0.003287 -0.001528 0.002116 0.001302 -0.020885 -0.048390 -0.047329 -0.070497 -0.053311 -0.028427 0.005647 0.060383 0.089170 0.152248 0.132537 0.206695 0.239550 0.037026 -0.160813 -0.159814 -0.088523 -0.122410 -0.121907 -0.112422 -0.085367 -0.050558 -0.015441 -0.002837 0.003803 -0.001169 0.002603 0.001228 -0.016903 -0.030089 -0.032294 -0.058706 -0.043113 -0.009852 -0.007049 0.008055 0.009448 0.058869 0.076563 0.240059 0.239727 0.052908 -0.160193 -0.163204 -0.121417 -0.110934 -0.092303 -0.073068 -0.042380 -0.026455 -0.012313 -0.007407 -0.002875 -0.002883 -0.004252 -0.001260 -0.005480 -0.009187 -0.021587 -0.052880 -0.044888 -0.007374 -0.017381 -0.054139 -0.087921 -0.012434 0.053233 0.255449 0.245640 0.073009 -0.129091 -0.134981 -0.118865 -0.098979 -0.057911 -0.030970 -0.022027 -0.001054 0.010631 0.002361 -0.000067 0.000191 -0.000793 0.000200 -0.000604 -0.005796 -0.018065 -0.047689 -0.063836 -0.006176 -0.014019 -0.094595 -0.140053 -0.061861 0.098283 0.270039 0.244738 0.072717 -0.088527 -0.146755 -0.149231 -0.100819 -0.040362 -0.025467 -0.004431 0.008026 0.014253 0.007966 -0.000886 -0.001997 -0.002526 -0.002411 0.001781 -0.006749 -0.026128 -0.046818 -0.055319 -0.033906 -0.035679 -0.112341 -0.153019 -0.051330 0.099087 0.235018 0.231554 0.091723 -0.154317 -0.206230 -0.192278 -0.128884 -0.058003 -0.013169 0.018998 0.014350 0.010154 0.014522 0.001150 -0.002625 0.003654 -0.000360 -0.002395 -0.006346 -0.017622 -0.047974 -0.049430 -0.028302 -0.039658 -0.079329 -0.079533 -0.017889 0.117080 0.233022 0.130951 -0.017283 -0.267922 -0.264565 -0.195711 -0.142466 -0.083472 -0.015472 0.015121 0.024396 0.025702 0.011138 0.005299 -0.004373 0.003991 0.001961 -0.001460 -0.005087 -0.023879 -0.043588 -0.043911 -0.024102 -0.001533 -0.006430 0.011572 0.013765 0.145242 0.273835 0.042239 -0.095323 -0.277313 -0.225118 -0.161512 -0.110512 -0.072855 -0.028252 0.005808 0.038407 0.035755 0.018891 0.001777 0.005258 -0.002176 0.005196 -0.001772 -0.010888 -0.043130 -0.063773 -0.061757 -0.030091 0.022243 0.084289 0.037261 0.063775 0.197581 0.233904 0.041083 -0.143825 -0.233495 -0.204721 -0.137184 -0.054403 -0.023065 -0.000637 0.032202 0.074953 0.042887 0.010225 0.001355 0.002499 0.000483 -0.000393 -0.003477 -0.009850 -0.062701 -0.100931 -0.053674 0.016732 0.095418 0.059084 0.028118 0.061920 0.124879 0.143953 0.003865 -0.147806 -0.131691 -0.120055 -0.079777 0.011999 0.017169 0.032102 0.072394 0.064765 0.035266 0.008899 0.000344 -0.000427 -0.002747 -0.002551 -0.002669 -0.019086 -0.054336 -0.041052 -0.016430 0.030606 0.080282 0.028640 0.015047 -0.005548 0.091198 0.025774 -0.044642 -0.027970 -0.051805 -0.060301 -0.024670 0.019242 0.024122 0.040924 0.068156 0.055032 0.038757 0.005048 0.007052 -0.001963 0.001890 -0.003668 -0.000003 -0.015604 -0.037013 0.012459 0.031133 0.048008 0.021376 0.003398 0.010972 0.020451 -0.020111 -0.011005 -0.063491 0.001715 0.018445 0.023397 0.064410 0.066175 0.054290 0.031710 0.034689 0.032362 0.014525 0.003940 0.002127 -0.000378 -0.001085 -0.001432 0.000826 0.001817 0.006016 0.042239 0.061680 0.061715 0.007066 0.010800 -0.056419 -0.110166 -0.114296 -0.069160 -0.039526 0.016570 0.046732 0.066448 0.065560 0.061370 0.061160 0.005295 0.008267 0.020770 0.003655 0.002314 -0.002405 0.000059 -0.000986 -0.001016 0.003118 0.008569 0.056131 0.048329 0.020063 0.016824 0.004882 -0.047026 -0.129651 -0.222778 -0.157117 -0.071716 -0.021069 0.065449 0.078234 0.075480 0.055597 0.051501 0.021736 -0.016330 -0.005771 0.002192 -0.004508 0.000749 0.001316 -0.000460 -0.000143 0.004349 -0.003845 0.013522 0.054728 0.049924 -0.014213 -0.050720 -0.054757 -0.083379 -0.094750 -0.083069 -0.116108 -0.100982 -0.003192 0.059772 0.051593 0.021717 0.019383 -0.009275 -0.022844 -0.012799 -0.014916 0.000570 -0.000050 0.000150 0.000891 -0.002269 0.001466 0.000583 -0.007179 -0.000190 0.011244 -0.002009 -0.058045 -0.107496 -0.108091 -0.071322 -0.095445 -0.143706 -0.184821 -0.156799 -0.130504 -0.092874 -0.040788 -0.017331 -0.011921 -0.010495 -0.000810 -0.001997 -0.004469 0.000396 -0.000897 -0.003211 -0.002080 0.000542 -0.001502 0.001467 -0.003312 -0.003051 0.001065 0.000031 -0.016826 -0.026156 -0.033721 -0.065309 -0.081587 -0.081232 -0.109862 -0.112955 -0.114726 -0.096270 -0.070064 -0.029337 -0.025252 -0.008082 0.004759 -0.002981 -0.000575 0.004988 -0.003862 0.004451 -0.001375 0.003820 -0.000345 0.001689 0.002728 0.000155 0.002227 -0.000524 0.003213 -0.004390 0.000007 -0.010063 -0.015785 -0.017915 -0.025363 -0.023305 -0.028441 -0.034268 -0.026708 -0.020058 -0.006173 -0.002874 -0.003309 0.001238 0.005291 0.003861 -0.001978 0.000914 0.000935 -0.005314 -0.003533 0.000475 0.000274 0.002095 0.003937 0.000545 -0.001841 -0.001497 -0.003217 -0.002330 -0.005613 -0.005731 0.002312 -0.006542 -0.004344 0.003086 0.004469 -0.002349 0.001227 0.005713 0.004850 -0.003273 0.001096 -0.000800 0.001959 -0.003548 0.001952 0.003803 -0.005719 -0.002416 -0.001682 -0.001159 -0.001524 0.001299 0.001754 -0.001420 -0.000795 -0.001726 -0.004379 0.001811 0.004815 0.001193 -0.002346 0.002062 -0.001178 -0.000251 -0.001042 -0.004693 0.001957 -0.001732 0.004785 -0.000763 -0.001790 -0.001430 -0.004457 0.002332 -0.001009 0.000092 0.000889 0.000419 0.001395 0.000267 -0.002064 -0.002614 -0.001961 -0.003405 0.003845 0.001112 -0.003113 0.004497 0.002873 -0.007866 -0.001228 0.002216 -0.002702 0.004030 -0.000233 -0.000497 0.003577 -0.002854 0.000243 -0.001723 0.000766 -0.002813 0.000919 -0.003590 0.000604 -0.000290 -0.001356 -0.001251 0.000651 -0.008231 -0.001540 -0.007661 -0.010615 -0.011534 -0.020831 -0.015273 -0.014258 -0.017589 -0.015299 -0.007092 0.001114 0.002286 0.000875 0.006688 -0.002771 0.000656 -0.003298 -0.002648 0.000147 -0.002932 -0.000486 -0.002057 0.001724 -0.002480 -0.004388 -0.004914 0.002411 -0.002793 -0.026069 -0.033479 -0.054098 -0.047801 -0.077169 -0.092710 -0.083916 -0.072250 -0.056849 -0.039674 -0.041632 -0.007376 0.017138 0.024735 -0.004100 -0.013103 0.008166 0.001026 -0.002938 0.000898 -0.000459 -0.004114 -0.002175 0.000804 -0.008684 -0.005631 -0.011903 -0.021943 -0.063625 -0.107853 -0.126585 -0.142221 -0.135148 -0.111893 -0.143206 -0.132588 -0.095718 -0.091222 -0.044507 -0.026534 0.033884 0.072153 0.070788 0.025416 0.004920 0.001216 -0.000096 -0.002099 0.000874 0.002772 -0.003076 -0.002859 -0.003793 -0.016961 -0.044314 -0.072150 -0.102088 -0.155977 -0.145950 -0.191897 -0.184277 -0.155239 -0.221258 -0.233153 -0.256463 -0.254230 -0.188867 -0.121282 -0.071942 0.043773 0.086722 0.036276 0.012058 0.004758 -0.002793 -0.003882 -0.002142 -0.000925 -0.000624 -0.003396 -0.011667 -0.037308 -0.064623 -0.090671 -0.086053 -0.088890 -0.052962 -0.119747 -0.141780 -0.103547 -0.169970 -0.166792 -0.137095 -0.146372 -0.130193 -0.093243 -0.066757 0.031769 0.062404 0.042373 0.016686 0.016262 0.001602 -0.001174 0.001086 -0.006476 -0.002909 -0.009158 -0.037421 -0.076329 -0.075139 -0.099938 -0.067943 -0.013264 0.014841 -0.009319 -0.057308 -0.050945 -0.145076 -0.078337 0.013827 -0.038549 -0.037223 -0.006246 0.035739 0.104470 0.124609 0.033970 0.048282 0.025757 0.002640 -0.000329 -0.000383 -0.002653 -0.006175 -0.018589 -0.041485 -0.076331 -0.079973 -0.093965 -0.082971 -0.049562 -0.050926 -0.118872 -0.080315 -0.007704 0.017096 0.067355 0.175947 0.148785 0.141717 0.144979 0.167411 0.207410 0.190947 0.118603 0.103909 0.045044 0.001910 0.000400 -0.002326 0.000564 -0.014927 -0.019787 -0.036932 -0.075257 -0.105018 -0.119354 -0.114251 -0.122067 -0.163503 -0.125180 -0.005140 0.135169 0.210969 0.222337 0.265919 0.258457 0.219399 0.168033 0.201696 0.195714 0.197856 0.261419 0.159132 0.027230 0.008724 0.002821 -0.001947 0.001481 -0.011661 -0.012873 -0.043418 -0.112819 -0.138460 -0.137019 -0.093835 -0.146084 -0.151883 -0.110694 0.060664 0.201268 0.217615 0.174942 0.136900 0.065946 0.108114 0.122410 0.113803 0.084727 0.176885 0.239819 0.178728 0.060606 -0.003356 -0.001353 0.008863 0.000428 -0.001694 -0.016202 -0.071356 -0.157305 -0.145039 -0.085997 -0.122205 -0.137974 -0.051148 0.014978 0.132608 0.155920 0.177080 0.048843 -0.014148 -0.014159 -0.030179 -0.027880 -0.028618 -0.048843 0.036482 0.089821 0.094555 0.020514 -0.000583 -0.000760 -0.001490 0.006256 0.001185 -0.020216 -0.097714 -0.141718 -0.124784 -0.062211 -0.043468 -0.000712 0.069110 0.059303 0.067701 0.115729 0.051508 -0.146472 -0.156917 -0.158092 -0.207261 -0.218829 -0.223726 -0.199237 -0.139132 -0.049472 0.009960 0.012256 -0.001504 -0.000410 -0.002205 0.001795 -0.000121 -0.015521 -0.070291 -0.095606 -0.078009 0.003021 0.052838 0.102341 0.093139 0.047429 0.048257 0.050653 -0.038943 -0.117488 -0.142961 -0.212867 -0.245137 -0.271192 -0.247572 -0.214968 -0.142163 -0.057161 -0.025609 -0.000491 0.000320 0.000452 -0.002042 0.001799 -0.008401 -0.016179 -0.030388 -0.091277 -0.088382 0.029869 0.106409 0.144333 0.052602 0.091240 0.082599 0.058873 0.002299 -0.040396 -0.054367 -0.128443 -0.226915 -0.209325 -0.196877 -0.148161 -0.093136 -0.047795 -0.020883 -0.006151 0.002111 -0.001011 -0.000462 -0.003246 -0.008514 -0.016146 -0.037889 -0.034673 -0.064370 -0.008172 0.007965 0.072160 0.073273 0.105161 0.030746 0.006024 0.058410 0.080416 0.081185 -0.036778 -0.189044 -0.178275 -0.178262 -0.136784 -0.091882 -0.079524 -0.043973 -0.009147 -0.005161 -0.001202 0.001821 -0.009434 -0.017379 -0.018717 0.001018 -0.015442 -0.085717 -0.134324 -0.152371 -0.107589 -0.029234 -0.055723 0.011772 0.030488 0.036295 0.059117 0.017023 -0.032366 -0.171759 -0.169509 -0.181570 -0.144642 -0.121834 -0.093129 -0.048836 -0.014283 0.001518 0.001027 -0.002208 -0.010712 -0.028663 -0.001777 0.052102 0.057002 -0.038307 -0.075899 -0.096628 -0.097967 -0.122237 -0.083495 0.060812 0.084381 0.028505 0.022356 0.020085 -0.041798 -0.213849 -0.203192 -0.163628 -0.118016 -0.095166 -0.074630 -0.033095 -0.007981 -0.000113 -0.000746 -0.001636 -0.005108 -0.042569 -0.028723 0.045113 0.045723 0.013360 -0.021501 -0.061338 -0.129199 -0.076450 0.039654 0.164117 0.111795 -0.002032 -0.065544 -0.035174 -0.088590 -0.199896 -0.244887 -0.205369 -0.167563 -0.115749 -0.058997 -0.010273 0.000243 -0.001113 -0.006963 0.003008 -0.003294 -0.050478 -0.033548 0.000170 0.011829 -0.032612 -0.028809 -0.013130 -0.058052 0.061049 0.139176 0.180115 0.070646 -0.040854 -0.086043 -0.086812 -0.094676 -0.163608 -0.190769 -0.163960 -0.146829 -0.103890 -0.035832 -0.007709 -0.004894 -0.003495 0.002524 0.004412 -0.004036 -0.049914 -0.080822 -0.004834 -0.031566 -0.057815 0.020065 -0.006213 0.022462 0.104592 0.109254 0.110429 0.086719 -0.065428 -0.059871 -0.078644 -0.108398 -0.162428 -0.156305 -0.130931 -0.110804 -0.084475 -0.033467 -0.010551 0.005159 0.000979 0.002100 -0.004702 -0.010755 -0.035890 -0.053071 -0.044331 -0.030613 -0.035311 -0.043037 -0.053429 -0.039293 -0.044051 -0.007692 -0.006239 -0.063145 -0.096006 -0.119832 -0.120009 -0.173581 -0.223848 -0.153006 -0.110601 -0.071994 -0.047962 -0.031275 -0.001150 0.000102 0.000717 0.002815 0.002609 -0.002006 -0.013644 -0.030286 -0.028165 -0.002187 -0.018358 0.003790 -0.045314 -0.064234 -0.126919 -0.132058 -0.162855 -0.174256 -0.166784 -0.114199 -0.081781 -0.136790 -0.170695 -0.116152 -0.064246 -0.036672 -0.019137 -0.007656 -0.003564 -0.001217 0.001363 -0.002418 0.002726 0.000125 -0.010883 0.011896 0.048624 0.055114 0.035911 0.015167 0.024170 -0.006351 -0.119611 -0.094958 -0.164611 -0.172616 -0.140324 -0.104536 -0.091258 -0.119783 -0.121934 -0.095338 -0.062270 -0.024941 -0.015076 -0.001849 0.000707 0.000944 -0.004113 -0.006066 0.002574 0.000568 -0.000209 0.017768 0.055967 0.079948 0.049961 -0.001161 -0.011967 -0.040250 -0.048970 -0.096992 -0.103697 -0.107673 -0.101326 -0.083006 -0.063460 -0.045318 -0.025541 -0.015647 -0.012985 -0.011407 -0.006346 -0.005810 -0.005291 -0.006837 0.006676 -0.002397 0.000689 0.005165 0.002698 0.017524 0.034325 0.040973 0.059733 0.057481 0.066587 0.034279 0.059122 0.082716 0.074504 0.039196 0.016167 0.003069 0.014316 0.009089 -0.006768 -0.006028 -0.003012 0.004187 0.003801 -0.003925 -0.002069 -0.001248 -0.001886 0.001894 -0.003152 -0.003842 -0.001240 0.004371 -0.004302 0.002449 0.015892 0.013934 0.018955 0.008968 0.027853 0.049252 0.062337 0.051611 0.041383 0.024828 0.021453 0.004834 0.000524 -0.001943 0.000848 -0.001084 -0.005708 -0.001846 0.005003 -0.001362 0.000005 0.000304 0.001924 -0.000097 0.000357 -0.000482 0.000207 0.001663 -0.000821 0.001386 0.002672 0.008319 0.002423 0.009728 0.003839 0.009237 0.000959 -0.003325 -0.001899 0.003176 0.002000 0.003630 0.001985 0.003493 0.002256 -0.001978 0.002546 -0.001795 -0.000478 -0.001732 -0.000540 0.000669 -0.001342 0.002391 -0.000577 0.000421 0.000428 -0.001561 0.001525 -0.005309 0.000017 -0.001265 0.001156 0.004345 0.006094 0.001648 0.000411 -0.002189 -0.000796 -0.000420 0.003207 0.003946 0.001201 -0.000074 -0.002158 0.001954 -0.000595 -0.000123 0.001390 -0.000373 -0.001495 -0.001155 -0.001246 -0.000517 -0.004723 -0.003176 -0.002833 -0.001647 0.002591 -0.003056 0.000147 0.006351 0.007402 0.001752 -0.002763 -0.002449 0.003964 -0.002236 0.000503 0.001697 -0.000463 0.000763 -0.003542 0.000277 0.003861 0.000001 -0.000331 0.005741 -0.002126 0.000644 0.001541 0.000553 0.004581 -0.010043 -0.006195 -0.005724 -0.005604 0.003859 0.001302 -0.003441 0.006735 -0.007001 -0.007386 -0.006255 -0.005221 -0.000645 0.003022 0.000215 -0.002468 -0.001653 0.000669 0.004180 0.000081 0.002273 0.000782 -0.003477 0.002325 -0.002667 0.000806 0.001792 -0.004102 -0.009035 -0.022337 -0.036252 -0.043013 -0.029320 -0.041925 -0.060165 -0.049031 -0.048031 -0.032287 -0.041477 -0.019042 -0.004503 0.012985 0.009001 -0.008080 -0.007614 -0.000518 0.001228 0.000459 0.006155 -0.000147 -0.000204 -0.000595 -0.002523 0.003851 -0.001689 -0.013320 -0.026098 -0.062267 -0.092026 -0.089121 -0.071349 -0.024535 -0.016168 -0.041706 -0.039781 -0.028208 0.022776 0.075788 0.063381 0.066203 0.055931 0.022752 -0.008245 -0.015332 -0.005020 0.003990 0.001452 0.000133 0.000842 0.001193 -0.000974 -0.007576 -0.015805 -0.028839 -0.083354 -0.122227 -0.148199 -0.128206 -0.116594 -0.101755 -0.047924 -0.044507 -0.047876 -0.025550 0.011735 0.058542 0.069541 0.070231 0.069516 0.057016 0.015788 -0.017396 0.002535 0.000249 -0.001833 0.002172 0.001250 0.002749 -0.002870 -0.016769 -0.046697 -0.080987 -0.122356 -0.157457 -0.165518 -0.155720 -0.170412 -0.151192 -0.072277 -0.088983 -0.064076 0.000655 0.024044 0.023279 0.065686 0.049129 0.047072 0.031166 0.003084 -0.010072 0.001314 0.002141 -0.000995 -0.003350 -0.001003 0.000946 -0.003300 -0.031963 -0.077139 -0.096532 -0.118090 -0.125684 -0.152082 -0.175153 -0.138351 -0.111461 -0.040586 -0.120036 -0.055668 0.009787 -0.008620 0.015913 0.035640 0.022502 0.015677 -0.010401 -0.041109 -0.024231 0.003211 0.004746 0.002145 -0.003686 0.000222 -0.000217 -0.019231 -0.029678 -0.061078 -0.075880 -0.096223 -0.109145 -0.132918 -0.164071 -0.123296 -0.109907 -0.069499 -0.050621 -0.032574 0.061229 0.027020 -0.003706 -0.004490 -0.019551 -0.028320 -0.041086 -0.044675 -0.013695 0.000427 0.002194 -0.000459 0.001729 -0.003922 0.000517 -0.013575 -0.026031 -0.037721 -0.054458 -0.063865 -0.083551 -0.093122 -0.139648 -0.163699 -0.152518 -0.062094 0.075061 0.056497 0.055675 0.019195 -0.036912 -0.047674 -0.037950 -0.043609 -0.035425 -0.012120 -0.001864 -0.002575 0.001312 0.003592 -0.001407 0.004501 -0.006487 -0.008451 -0.014382 -0.037772 -0.056229 -0.046279 -0.045916 -0.074780 -0.130466 -0.162112 -0.154714 0.014703 0.188250 0.123969 0.060822 0.002728 -0.007340 -0.048304 -0.038835 -0.052594 -0.028426 -0.001991 0.008746 -0.000600 0.000881 -0.001712 -0.001556 0.002173 0.002865 0.000051 -0.011500 -0.035728 -0.054439 -0.041863 -0.062333 -0.089147 -0.165516 -0.155276 -0.048973 0.160010 0.214394 0.107191 0.021616 0.017155 -0.025534 -0.034938 -0.031915 -0.021285 -0.003980 -0.000356 0.001678 -0.007270 -0.000744 -0.000885 -0.001083 -0.002707 -0.001020 0.001087 -0.016127 -0.027594 -0.046629 -0.046189 -0.044189 -0.086082 -0.150056 -0.082382 0.057013 0.232643 0.158941 0.040140 -0.019097 -0.042806 -0.062880 -0.059177 -0.029475 -0.027709 -0.009320 -0.007421 -0.002102 -0.005326 0.001673 -0.001033 -0.000360 0.000903 -0.000136 -0.005014 -0.014906 -0.017016 -0.025541 -0.018076 -0.024357 -0.067535 -0.118776 -0.051539 0.140390 0.223663 0.115845 -0.019057 -0.030770 -0.098079 -0.104305 -0.061928 -0.032375 -0.032175 -0.017384 -0.020123 -0.011289 -0.006468 -0.003372 -0.002358 -0.001549 0.001978 0.002910 -0.000196 -0.006112 -0.013262 -0.014953 -0.009413 -0.033606 -0.071547 -0.094613 0.034740 0.164991 0.186027 0.058865 -0.030830 -0.087086 -0.125870 -0.091584 -0.061869 -0.042795 -0.032133 -0.022765 -0.017301 -0.004815 -0.001849 0.000702 -0.000226 0.003528 0.003103 -0.002423 -0.007017 -0.021808 -0.023682 -0.020094 -0.030250 -0.064598 -0.071978 -0.005211 0.110460 0.203581 0.158099 -0.035183 -0.096675 -0.171607 -0.140229 -0.109409 -0.080543 -0.052276 -0.032284 -0.016707 -0.013818 -0.007043 -0.004330 -0.001621 -0.000579 0.000909 0.001238 -0.002595 -0.010614 -0.012994 -0.029221 -0.061092 -0.077021 -0.064490 -0.042731 0.065742 0.105952 0.200222 0.081051 -0.126122 -0.186549 -0.211544 -0.139122 -0.093582 -0.075533 -0.054970 -0.028191 -0.020579 -0.016306 -0.010025 -0.004251 0.002879 0.006739 0.002348 -0.004228 -0.003530 -0.014388 -0.009696 -0.032599 -0.078091 -0.078682 -0.055228 0.031519 0.044694 0.120910 0.158985 -0.005419 -0.210449 -0.230748 -0.205023 -0.131079 -0.090808 -0.066574 -0.043471 -0.036496 -0.021039 -0.024345 -0.013976 -0.000476 0.002659 0.003508 0.002064 0.000518 0.000116 -0.014884 -0.028690 -0.052170 -0.053312 -0.031425 0.005270 0.016083 0.091387 0.124934 0.086220 -0.075525 -0.275182 -0.267284 -0.156283 -0.118062 -0.085909 -0.043723 -0.042058 -0.040795 -0.038664 -0.023638 -0.003851 0.002466 0.002219 -0.000590 -0.001525 -0.002770 -0.002098 -0.019405 -0.051265 -0.022294 0.000428 0.002430 0.013652 0.010234 0.111388 0.114604 0.056840 -0.125119 -0.237428 -0.194862 -0.120486 -0.095930 -0.060984 -0.042711 -0.057739 -0.054565 -0.034667 -0.012044 -0.002086 -0.000008 -0.003514 -0.001832 0.002061 -0.004455 -0.005297 -0.016658 -0.021272 0.021673 0.025729 0.037039 -0.006314 0.025234 0.114121 0.094390 -0.024377 -0.101146 -0.183667 -0.140702 -0.114337 -0.103996 -0.068678 -0.054864 -0.056731 -0.052224 -0.028748 -0.008019 -0.001975 0.001472 0.000783 0.002019 -0.000158 -0.002922 -0.006650 -0.002301 0.013317 0.045538 0.020710 0.002342 -0.034403 0.010525 0.003638 -0.037605 -0.095784 -0.102610 -0.094613 -0.109704 -0.100021 -0.091818 -0.091562 -0.080529 -0.050160 -0.036199 -0.027637 -0.016083 -0.000373 -0.000374 0.000501 0.000088 -0.005344 -0.004267 -0.002212 0.005410 0.061270 0.058689 0.016460 -0.015783 -0.012504 -0.036283 -0.103815 -0.164843 -0.124187 -0.088719 -0.061990 -0.041588 -0.032727 -0.040746 -0.070000 -0.076101 -0.051535 -0.027584 -0.007650 -0.009048 -0.003186 -0.000663 0.000394 -0.000761 -0.000467 0.006069 -0.010668 0.012914 0.069673 0.067560 0.023900 -0.000495 -0.020497 -0.025634 -0.074677 -0.080443 -0.089146 -0.095082 -0.020341 0.013548 0.030385 -0.030510 -0.053364 -0.056507 -0.043706 -0.023478 -0.011426 0.004589 0.004010 0.003089 -0.000081 0.001723 0.000926 -0.001628 -0.002207 0.002591 0.023470 0.017915 -0.018546 -0.047804 -0.055070 -0.047511 -0.079309 -0.098060 -0.110599 -0.105773 -0.090781 -0.064616 -0.012864 -0.011528 -0.011282 -0.011633 -0.009609 -0.004936 -0.002923 -0.004728 -0.001409 0.002805 0.002868 -0.006212 -0.004598 0.000757 0.001493 0.001229 0.004865 -0.001959 0.000105 0.008922 -0.011616 -0.042764 -0.046360 -0.037677 -0.045912 -0.058490 -0.056072 -0.036149 -0.016018 -0.005338 -0.010120 -0.003566 0.003878 -0.002050 0.000443 -0.002269 0.000045 0.002799 -0.000267 0.002974 0.005811 0.000218 -0.001987 0.005066 -0.000577 0.002426 0.003594 0.000887 0.004415 -0.007133 -0.004078 -0.011852 -0.011109 -0.011601 -0.011957 -0.004918 -0.002244 -0.000796 -0.000096 -0.001710 -0.000520 -0.000423 -0.000821 0.002470 -0.001540 0.006807 0.002811 0.000862 0.001806 -0.001522 0.003085 -0.001185 -0.000785 0.004712 0.003213 0.001687 0.000954 0.002130 -0.004552 0.002008 0.001647 -0.002240 -0.001124 -0.001663 -0.003181 -0.004147 0.000452 -0.001035 -0.001464 -0.000619 0.000823 0.001786 0.001377 0.002146 -0.000782 -0.003723 0.002375 -0.000365 0.007593 0.003459 -0.000607 0.000613 0.000934 0.000526 -0.005012 0.000748 -0.000486 -0.000829 0.000475 -0.002246 0.001719 0.001711 -0.001366 -0.002213 -0.000730 0.000394 -0.002792 0.000149 -0.000068 -0.000136 0.002339 0.001060 -0.004272 -0.001182 -0.000102 -0.000383 -0.001948 0.001095 0.002055 -0.002985 -0.001205 0.000702 0.003463 0.000396 -0.002414 -0.002026 0.000733 0.000011 0.001822 -0.002529 -0.002450 -0.002243 0.000886 -0.003964 0.000087 -0.000714 -0.001261 0.000754 0.003451 0.002457 0.001941 -0.001600 0.001751 -0.002363 0.001648 -0.005659 0.001558 -0.002995 -0.002587 -0.005471 -0.001895 -0.003632 -0.006778 -0.005547 -0.002251 -0.002605 -0.004465 -0.001441 -0.009998 -0.005656 0.000833 -0.000982 -0.005474 0.001457 -0.000523 0.004361 0.005429 0.005724 0.000936 0.000893 -0.003195 -0.002215 -0.001495 -0.000648 0.000192 -0.002711 -0.009918 -0.021475 -0.018318 -0.027235 -0.027922 -0.017184 -0.019231 -0.020938 -0.014948 -0.018304 -0.006614 -0.013128 -0.016347 -0.010140 -0.008709 -0.004977 -0.001852 0.000773 -0.002202 0.005058 0.001283 0.001038 0.004208 0.000705 -0.004532 0.001255 -0.004819 -0.009352 -0.020464 -0.035035 -0.046400 -0.044776 -0.056489 -0.045554 -0.048965 -0.059084 -0.048017 -0.063897 -0.042856 -0.023215 -0.025979 -0.034860 -0.016074 -0.019526 -0.001861 -0.001381 0.003286 0.002679 0.003561 0.000433 0.002402 -0.000605 0.005348 -0.002852 -0.011259 -0.013668 -0.031197 -0.025944 -0.045407 -0.082158 -0.099872 -0.097107 -0.103163 -0.089889 -0.088439 -0.141024 -0.159464 -0.148666 -0.109579 -0.082218 -0.052643 -0.031000 -0.033917 -0.010019 -0.000995 -0.000877 -0.002924 0.000154 -0.000558 0.003860 0.023055 0.042916 0.062560 0.094618 0.077984 0.029993 -0.029854 -0.080743 -0.113965 -0.119019 -0.176107 -0.164924 -0.130451 -0.071698 -0.049075 -0.077114 -0.065051 -0.065186 -0.010209 -0.037642 -0.052178 -0.024055 -0.021306 -0.004895 -0.005684 -0.004235 0.000813 -0.000268 0.063597 0.094698 0.099665 0.144483 0.148728 0.046402 -0.002842 -0.061978 -0.069783 -0.079061 -0.167217 -0.229210 -0.235121 -0.131660 -0.033601 0.019501 0.029667 0.023300 0.037805 -0.002214 -0.056909 -0.052272 -0.028823 -0.007906 0.001447 0.003675 0.003306 0.012502 0.072755 0.145474 0.118401 0.136517 0.193786 0.099468 -0.002061 0.029948 0.018287 -0.026432 -0.093534 -0.092528 -0.137588 -0.138480 0.020791 0.140759 0.106670 0.078098 0.126620 0.087115 0.022341 -0.034448 -0.029811 -0.006174 -0.001801 -0.002509 0.004707 0.010760 0.062645 0.134399 0.121752 0.145442 0.098253 0.002520 0.022817 0.076990 0.063890 0.050231 0.038597 0.039778 -0.042811 0.006777 0.200883 0.274478 0.207669 0.177241 0.197592 0.162808 0.062195 -0.004073 -0.009564 -0.007748 0.003146 -0.002293 0.009792 0.020380 0.065463 0.127220 0.139558 0.107000 0.018540 0.025699 0.090733 0.172544 0.129112 0.086917 0.175781 0.110204 0.068357 0.088340 0.174006 0.251899 0.175524 0.241855 0.237435 0.201175 0.015850 -0.007090 -0.005327 -0.006447 -0.002813 0.001532 0.010901 0.048126 0.091400 0.117250 0.088125 0.061163 0.139762 0.112502 0.195725 0.234241 0.232353 0.146470 0.083525 -0.031694 -0.019529 -0.014683 0.146060 0.256742 0.138330 0.192158 0.130127 0.068303 -0.027612 -0.031500 -0.001933 0.001665 0.000914 0.004685 0.020872 0.056666 0.092967 0.137847 0.064056 0.026788 0.175892 0.220111 0.157120 0.214715 0.165541 -0.071026 -0.233408 -0.196328 -0.063843 0.068456 0.181067 0.139930 -0.021659 0.055727 -0.003445 -0.049602 -0.063496 -0.018973 0.007964 0.004533 -0.000359 0.006902 0.009342 0.028163 0.078349 0.057433 0.021178 0.023970 0.055817 0.038736 0.081082 0.099487 -0.021435 -0.320432 -0.463632 -0.300163 -0.145804 0.013219 0.055330 0.050723 -0.100259 -0.027345 -0.049679 -0.083825 -0.086334 -0.022949 0.010010 -0.002128 0.001020 0.002141 0.003843 0.017600 0.032453 -0.020373 -0.004118 -0.033591 -0.039258 -0.025517 -0.027829 -0.062557 -0.294956 -0.509536 -0.527882 -0.344972 -0.158759 -0.095442 0.002641 0.073120 0.020267 -0.042949 -0.024124 0.006692 0.006694 -0.010914 0.015396 -0.002944 -0.000866 -0.001013 0.004818 0.012216 0.021721 -0.030967 -0.076859 -0.050024 -0.065253 -0.115432 -0.165986 -0.271306 -0.445480 -0.498396 -0.379574 -0.186256 -0.090144 -0.052437 0.099759 0.145467 0.117836 0.054524 0.063065 0.088171 0.012805 0.000160 0.004190 -0.001475 -0.001666 -0.002975 -0.001602 0.003904 0.017564 -0.003661 -0.086670 -0.075478 -0.041568 -0.131924 -0.274958 -0.352609 -0.448251 -0.412349 -0.252722 -0.089723 0.016325 -0.024760 0.086236 0.106531 0.141176 0.055162 0.112143 0.059902 0.015153 -0.005060 -0.001177 -0.000118 0.000105 -0.006699 0.000881 -0.001591 0.009333 0.012081 -0.079153 -0.117353 -0.120427 -0.193060 -0.285859 -0.356710 -0.340976 -0.302948 -0.086307 0.042583 -0.005558 -0.038694 0.044445 0.092099 0.028752 -0.001066 0.009830 -0.018332 -0.017766 -0.012979 0.009858 -0.001549 0.001905 -0.004385 0.000524 0.001019 0.011407 0.009652 -0.101218 -0.177944 -0.217487 -0.260928 -0.345148 -0.362553 -0.303078 -0.214912 -0.018185 0.037432 -0.035700 -0.061952 -0.036412 -0.013116 -0.086131 -0.060774 -0.064293 -0.103676 -0.086808 -0.033431 -0.000271 0.002009 0.001849 0.001162 0.002148 0.004408 0.002885 0.017186 -0.074969 -0.173340 -0.236404 -0.241624 -0.296206 -0.286867 -0.188124 -0.057523 -0.022199 0.017078 -0.024634 -0.076568 -0.098309 -0.112910 -0.078897 -0.111705 -0.140877 -0.141483 -0.077535 -0.014488 0.000077 0.001869 0.002186 -0.002877 0.004613 -0.001749 -0.008257 -0.010606 -0.061957 -0.144838 -0.216921 -0.230522 -0.234800 -0.121131 -0.035576 0.000634 -0.024482 0.055651 -0.072678 -0.123483 -0.066152 -0.087658 -0.076588 -0.149842 -0.157680 -0.138488 -0.084667 -0.020208 -0.003611 0.001410 -0.003297 0.002808 0.004647 -0.000920 -0.003622 -0.032280 -0.068617 -0.123073 -0.159540 -0.134657 -0.073172 0.019791 -0.003722 -0.016265 -0.001841 -0.032899 -0.094916 -0.057516 -0.013982 -0.016490 -0.056200 -0.129502 -0.152836 -0.134468 -0.069674 -0.003094 -0.002128 0.004750 -0.002966 -0.000528 -0.000572 0.000252 -0.008865 -0.034253 -0.028728 -0.058720 -0.056431 -0.002625 0.080611 0.082313 0.010035 -0.023043 0.021743 0.003329 0.023620 -0.028121 0.028228 0.024732 -0.030586 -0.098890 -0.112509 -0.081706 -0.043753 -0.000353 0.003329 0.003534 -0.003368 -0.001061 -0.000498 0.000168 -0.012075 -0.012440 0.013018 0.044718 0.086856 0.083184 0.118106 0.088072 0.006613 0.016467 0.007998 0.023446 0.027117 -0.009634 0.086256 0.045763 -0.049992 -0.102131 -0.086469 -0.047331 -0.037452 0.006922 0.007751 0.001033 0.000598 -0.000123 0.006361 0.000879 -0.000709 0.014716 0.037483 0.062988 0.103281 0.124399 0.092830 0.077676 0.098564 0.107751 0.052062 0.027545 0.024699 -0.002213 0.068301 0.017623 -0.033742 -0.055564 -0.043832 -0.046783 -0.040082 -0.002896 -0.004185 -0.002141 -0.000773 0.001193 -0.002624 0.003731 0.000073 -0.005144 -0.017707 0.037749 0.102167 0.123874 0.146159 0.084187 0.146383 0.177610 0.134094 0.124633 0.121375 0.112401 0.098212 0.062669 0.001038 -0.030902 -0.017022 -0.005804 -0.002743 0.003148 0.002306 -0.000872 0.002576 0.000340 -0.001960 0.000344 0.001619 -0.006510 -0.038695 -0.033484 0.025406 0.052361 0.022522 -0.004167 0.000106 -0.010995 0.015732 0.061543 0.092757 0.047426 0.059098 0.038741 0.021077 -0.015936 -0.005213 0.007856 -0.007730 0.004074 -0.000115 0.005162 -0.000655 -0.003805 0.001312 -0.004837 0.000978 0.005503 0.000229 0.002096 0.001016 0.000073 0.009194 0.030022 0.003848 0.002670 0.027566 0.012675 0.007925 0.022582 0.018959 0.016505 0.012833 -0.004453 -0.001692 0.005809 0.000330 0.003392 0.002757 0.004114 -0.002015 0.000507 -0.000970 0.002954 -0.005473 0.003549 0.002510 0.000373 0.001616 0.002638 -0.002818 0.001282 0.000126 -0.005491 -0.007051 0.000184 0.001175 0.002162 -0.003353 0.001018 -0.001379 0.000788 0.001856 0.002071 -0.001624 0.002921 0.000346 0.005490 0.000417 0.001941 -0.003909 -0.001896 0.002476 -0.001112 -0.001813 -0.006070 -0.014465 -0.014240 -0.002894 -0.005428 -0.007860 -0.015518 -0.019450 -0.002669 -0.011033 -0.024147 -0.013315 -0.005723 -0.003539 -0.002115 0.001901 -0.009602 -0.006317 0.001177 -0.000103 -0.000941 0.003054 -0.003058 0.000442 0.003349 -0.002503 0.003530 -0.004454 -0.005416 -0.018840 -0.024855 -0.023312 -0.041153 -0.031029 -0.050291 -0.066143 -0.062700 -0.059860 -0.059160 -0.038099 -0.020813 -0.014725 -0.001812 0.002841 -0.006232 -0.003275 -0.001666 0.003117 0.000926 -0.001986 0.001287 -0.003867 0.000453 -0.001956 0.001104 -0.004004 -0.007214 -0.020614 -0.046751 -0.057431 -0.074691 -0.091367 -0.131637 -0.183024 -0.173437 -0.150039 -0.102298 -0.063524 -0.025220 -0.018831 -0.018075 0.000750 0.001043 0.000206 -0.001291 0.005363 0.002664 0.000505 -0.001599 0.001218 0.000999 -0.002438 0.003288 0.000123 -0.009360 -0.031329 -0.059468 -0.099418 -0.118816 -0.141865 -0.237792 -0.283319 -0.348714 -0.387662 -0.270680 -0.169373 -0.113913 -0.104676 -0.088617 -0.040998 -0.017132 0.002649 0.006069 -0.006786 0.004737 -0.001455 -0.003898 -0.003897 0.004516 -0.007927 -0.008390 -0.016846 -0.020288 -0.039404 -0.055157 -0.070821 -0.058972 0.034108 0.054032 0.010960 -0.132563 -0.150243 -0.267717 -0.307866 -0.226429 -0.199776 -0.180108 -0.179923 -0.132279 -0.041676 -0.006926 -0.003654 -0.001859 0.001541 -0.001997 -0.002356 0.002360 -0.003173 -0.005147 -0.021329 -0.024174 -0.019226 -0.004023 -0.020641 0.032385 0.133185 0.147672 0.211586 0.254744 0.244551 0.197263 0.111916 0.077141 -0.068688 -0.122873 -0.137659 -0.169627 -0.130150 -0.063629 -0.035160 0.000870 0.002537 -0.003803 -0.003502 0.006764 0.008031 -0.032898 -0.089318 -0.073875 -0.068398 -0.042365 0.070706 0.143814 0.156474 0.226352 0.296858 0.358301 0.412175 0.382965 0.234855 0.070494 0.100615 0.069233 -0.084103 -0.204894 -0.177834 -0.137181 -0.062214 -0.000486 -0.006866 -0.003500 -0.007125 0.003889 0.003335 -0.036813 -0.104463 -0.053931 -0.095790 0.052333 0.094945 0.094560 0.061598 0.013294 0.077460 0.240980 0.311464 0.165029 0.100277 0.110608 0.104122 0.059549 -0.069379 -0.155047 -0.201659 -0.170765 -0.060465 -0.005201 -0.001336 -0.000026 -0.007646 -0.008082 -0.015571 -0.058537 -0.086885 0.015451 -0.071309 0.037444 0.034227 0.077636 0.070142 0.051387 -0.005802 0.064473 0.150347 0.061445 0.129363 0.076592 0.082480 0.090623 -0.069096 -0.119679 -0.216696 -0.183823 -0.080776 -0.010909 0.004944 0.000713 -0.006517 -0.013365 -0.026321 -0.079463 -0.017348 0.054127 -0.076927 0.015325 