18.724659 8.135710 -9.590680 -13.409800 6.915479 -1.384627 -9.504985 -9.520062 -8.031121 15.017548 4.010832 0.281952 -6.717035 -13.615234 1.976922 2.458272 -4.210295 -17.266705 3.435042 3.691115 -0.923339 -2.129899 13.837212 6.172835 19.203200 -6.447234 -4.418361 1.378526 -8.726213 1.935569 1.616630 3.788842 6.886053 -2.403699 3.495086 -16.332977 -7.591204 8.944436 20.350515 16.320833 -3.786461 8.025360 3.909256 -12.848248 -10.269911 4.251429 -2.684416 8.060497 -4.137837 -14.806206 -8.291079 12.934446 4.543320 -8.418286 13.743855 -2.823233 -12.608552 8.404220 7.942523 7.441296 4.526481 15.223945 -9.590172 -0.845123 -4.301399 -0.049170 12.323182 5.308885 -19.045334 15.295427 -6.023848 -2.855641 2.766666 -14.657183 -19.666698 -6.196324 8.626068 1.189461 7.900547 -1.167490 -10.881411 5.595230 -14.397439 12.350026 12.321171 8.059867 0.867226 -0.437374 -0.802681 2.056199 3.865984 -5.299294 13.218037 -4.574880 -7.324002 6.526934 -8.428174 21.224024 -1.573777 -4.024213 -0.096697 -12.212399 -12.882904 1.399588 2.719639 -3.210030 -13.286428 -7.317530 -10.929462 9.471653 8.695904 16.848415 10.124222 -10.603019 -6.973599 -10.100896 16.117210 -1.413549 10.565817 8.523925 1.334884 -15.497182 13.750755 7.598372 5.092914 -2.705135 15.469250 -5.999070 -7.779912 4.337120 12.076961 -3.473879 -5.243231 -16.482615 -19.687241 0.796614 6.961920 14.885358 -7.342509 9.035461 -1.912806 -7.581095 -12.840482 -12.451719 4.002670 5.843850 9.505593 13.072607 -6.989644 9.731847 -11.258331 -17.582543 -7.752415 -8.588910 11.229267 5.933651 7.086005 -3.595398 -3.200918 -17.195850 -0.001269 0.002462 0.001950 -0.000380 -0.004060 -0.003863 -0.005587 -0.001840 0.002030 0.014147 0.000493 0.000839 -0.000733 -0.001933 -0.008631 0.003379 -0.000888 -0.000679 -0.001399 -0.004380 -0.005173 -0.001788 0.004634 -0.003486 -0.008574 -0.006412 -0.014146 -0.027442 -0.016282 -0.029705 -0.057970 -0.038012 0.001731 0.003155 0.002221 -0.000995 0.000232 -0.000697 -0.000426 -0.002272 0.002441 0.001901 0.000319 -0.003264 -0.002636 -0.001991 -0.002276 -0.004656 -0.021601 0.131867 -0.026607 0.057687 0.164330 0.049700 0.000623 0.038662 0.152252 0.028836 0.013807 0.002723 0.002111 -0.001728 -0.000390 0.001703 -1.039047 -0.879137 -1.118452 -1.583312 -1.982329 -2.021266 -1.987991 -2.215918 -1.792384 -1.175515 -1.144048 -1.153245 -1.481996 -1.127225 -0.594308 -0.352401 0.001967 0.002504 0.031541 0.160699 0.582504 0.797817 0.601279 0.902969 0.672786 0.158820 0.172085 1.706156 2.939281 3.372352 2.776335 1.973935 -1.250897 -1.118605 -0.174717 -1.689173 -0.436408 -0.391858 -1.133611 0.198188 -1.253312 -0.438795 -0.533207 -0.596873 -0.762898 -1.398825 -0.717697 -1.110377 1.236979 0.671770 1.594060 -0.420901 0.130324 0.312131 0.270885 0.038442 0.445547 0.817997 0.489593 0.495639 0.406458 0.233625 0.077103 0.408718 0.214689 0.239573 -0.291708 -1.270558 0.176726 -0.795716 0.198150 -0.783085 -1.023521 -0.310201 0.295842 1.273206 -0.364983 0.551558 0.634108 -0.338221 -0.370566 0.106720 -0.706690 0.839734 -0.295549 -0.565807 -0.378192 0.163983 1.681979 -0.177275 -0.293755 0.899708 -0.143995 1.399983 -0.324660 -0.622617 0.330317 0.176569 0.401739 0.278404 -0.373389 0.895125 1.364407 -0.812422 0.237502 0.458556 -0.038741 -0.732139 -0.123460 0.268559 0.921958 0.592042 0.206323 -0.449177 0.389046 -0.130598 0.590239 -0.327532 -0.476364 1.321939 0.763436 -0.336761 0.405563 0.178213 0.902035 -0.598960 0.334363 -0.046001 -0.294054 -0.131005 0.204857 -0.146906 1.494030 -0.199334 0.261811 -0.195624 -1.287142 -0.358718 -0.798090 -0.252427 0.261740 -1.229701 -0.263021 0.017733 0.241313 -0.115464 -0.690591 0.967057 -0.387612 0.834528 0.137048 0.235537 -0.114099 -0.025339 1.055700 0.585718 -0.581188 0.439363 0.219406 0.316816 0.045915 0.725069 -0.502416 0.328685 0.008134 -0.297451 -0.322201 -0.084441 0.183210 -0.504925 -0.215525 0.032065 0.304312 0.133508 -0.506272 -0.266995 -0.349734 -0.114647 -0.239181 1.245407 -0.902039 0.544379 0.088391 -0.082436 0.353427 0.885407 -0.366931 -1.885448 0.108505 0.211151 -0.377708 1.048505 0.000576 0.005212 -0.002052 0.003350 -0.005151 0.000570 -0.000394 0.001868 -0.004696 -0.006491 0.003065 -0.005396 -0.008483 -0.003764 0.002131 -0.001341 -0.000775 0.001894 0.001286 0.001040 -0.001084 0.000454 -0.000117 0.000017 0.000476 -0.004122 0.001264 -0.003450 0.002859 0.000701 0.001805 -0.000027 -0.003748 -0.021630 -0.024169 -0.002564 0.001279 -0.001377 0.004541 0.003379 -0.002245 -0.001734 -0.000871 0.001927 -0.000564 0.002499 -0.007964 -0.053041 0.276748 0.215542 0.245022 0.153808 0.095769 0.105337 0.075802 0.115731 0.167312 0.088599 0.004217 -0.002529 -0.003940 -0.002285 0.000793 -0.004427 -0.008064 -0.017038 -0.016024 -0.081603 -0.134585 -0.175970 -0.251429 -0.252258 -0.138350 -0.124756 -0.076919 -0.045690 0.006828 -0.006976 0.043885 0.006258 0.002054 0.000290 0.001506 0.025332 0.014337 -0.000757 -0.000493 -0.048281 -0.072736 -0.168447 -0.083807 -0.218248 -0.551608 -0.832013 -0.810377 -0.617299 -1.250897 -1.118605 -0.174717 -1.689173 -0.436408 -0.391858 -1.133611 0.198188 -1.253312 -0.438795 -0.533207 -0.596873 -0.762898 -1.398825 -0.717697 -1.110377 1.236979 0.671770 1.594060 -0.420901 0.130324 0.312131 0.270885 0.038442 0.445547 0.817997 0.489593 0.495639 0.406458 0.233625 0.077103 0.408718 0.214689 0.239573 -0.291708 -1.270558 0.176726 -0.795716 0.198150 -0.783085 -1.023521 -0.310201 0.295842 1.273206 -0.364983 0.551558 0.634108 -0.338221 -0.370566 0.106720 -0.706690 0.839734 -0.295549 -0.565807 -0.378192 0.163983 1.681979 -0.177275 -0.293755 0.899708 -0.143995 1.399983 -0.324660 -0.622617 0.330317 0.176569 0.401739 0.278404 -0.373389 0.895125 1.364407 -0.812422 0.237502 0.458556 -0.038741 -0.732139 -0.123460 0.268559 0.921958 0.592042 0.206323 -0.449177 0.389046 -0.130598 0.590239 -0.327532 -0.476364 1.321939 0.763436 -0.336761 0.405563 0.178213 0.902035 -0.598960 0.334363 -0.046001 -0.294054 -0.131005 0.204857 -0.146906 1.494030 -0.199334 0.261811 -0.195624 -1.287142 -0.358718 -0.798090 -0.252427 0.261740 -1.229701 -0.263021 0.017733 0.241313 -0.115464 -0.690591 0.967057 -0.387612 0.834528 0.137048 0.235537 -0.114099 -0.025339 1.055700 0.585718 -0.581188 0.439363 0.219406 0.316816 0.045915 0.725069 -0.502416 0.328685 0.008134 -0.297451 -0.322201 -0.084441 0.183210 -0.504925 -0.215525 0.032065 0.304312 0.133508 -0.506272 -0.266995 -0.349734 -0.114647 -0.239181 1.245407 -0.902039 0.544379 0.088391 -0.082436 0.353427 0.885407 -0.366931 -1.885448 0.108505 0.211151 -0.377708 1.048505 0.000576 0.005212 -0.002052 0.003350 -0.005151 0.000570 -0.000394 0.001868 -0.004696 -0.006491 0.003065 -0.005396 -0.008483 -0.003764 0.002131 -0.001341 -0.000775 0.001894 0.001286 0.001040 -0.001084 0.000454 -0.000117 0.000017 0.000476 -0.004122 0.001264 -0.003450 0.002859 0.000701 0.001805 -0.000027 -0.003748 -0.021630 -0.024169 -0.002564 0.001279 -0.001377 0.004541 0.003379 -0.002245 -0.001734 -0.000871 0.001927 -0.000564 0.002499 -0.007964 -0.053041 0.276748 0.215542 0.245022 0.153808 0.095769 0.105337 0.075802 0.115731 0.167312 0.088599 0.004217 -0.002529 -0.003940 -0.002285 0.000793 -0.004427 -0.008064 -0.017038 -0.016024 -0.081603 -0.134585 -0.175970 -0.251429 -0.252258 -0.138350 -0.124756 -0.076919 -0.045690 0.006828 -0.006976 0.043885 0.006258 0.002054 0.000290 0.001506 0.025332 0.014337 -0.000757 -0.000493 -0.048281 -0.072736 -0.168447 -0.083807 -0.218248 -0.551608 -0.832013 -0.810377 -0.617299 -0.334067 0.564125 0.349765 -0.577754 -0.283559 -0.677651 -0.146683 -0.258906 -0.107634 -0.178166 -0.238595 -0.321156 -0.779910 0.392571 -0.566297 1.343835 0.026119 -0.189377 0.191674 -0.483213 0.707732 0.041962 1.226228 0.894665 0.838468 0.386728 -0.504563 -0.078651 0.300622 -0.157016 0.433577 -0.301328 0.183654 -0.025347 -0.990270 -0.228099 0.291384 -0.483801 -0.325155 0.895336 -0.719357 1.038099 0.078481 0.270552 -0.593355 0.371179 0.876567 0.413241 0.158099 0.129678 -0.355381 -0.301048 -0.532640 -0.324272 -0.359460 -0.155286 -0.205864 0.331719 0.324916 0.597601 1.166498 -0.081658 -0.259724 -0.325079 -0.596305 -0.397769 0.043376 1.366527 0.493232 -0.015376 0.081546 0.086854 0.089181 -0.093349 -0.436755 -0.025170 -0.046488 0.111936 -0.286710 -1.246549 0.736735 -0.615375 0.870254 -0.035618 -0.963523 0.636142 -0.057312 -0.682925 0.332205 -0.093583 -0.168111 0.096969 0.422412 0.189918 -0.405787 0.535014 -0.459410 -0.429400 -0.084097 -0.889472 -0.085974 0.473354 -0.012561 -0.163160 -0.100441 -0.632194 -0.299886 -0.602493 -0.742892 1.049074 -0.167042 0.198813 0.723487 -0.265842 0.135900 0.730604 0.116704 -0.589955 -0.039475 0.294333 0.238267 0.924195 0.784445 -0.487821 0.224780 -0.775756 0.732740 0.213382 0.024962 0.601204 -0.328252 -0.328173 0.129923 0.703333 -0.293192 -0.691419 -0.381645 -0.780358 -0.525858 0.940771 -0.458090 -0.202525 0.236967 -0.589950 -0.452990 0.618908 0.151431 0.747398 0.131177 0.244729 -0.063611 -0.219411 0.003848 -0.893144 0.986376 -0.392941 0.512949 -0.887464 -0.596712 -0.241777 0.000576 0.005212 -0.002052 0.003350 -0.005151 0.000570 -0.000394 0.001868 -0.001035 0.001578 0.003123 -0.005394 -0.008483 -0.003764 0.002131 -0.001341 -0.000775 0.001894 0.001286 0.001040 -0.001084 0.000454 -0.000117 0.000017 0.000476 -0.004131 0.000805 -0.003814 0.002628 0.001220 0.001711 -0.000125 -0.006559 -0.004552 -0.009513 -0.010231 0.001279 -0.001377 0.004541 0.003379 -0.002245 -0.001734 -0.000871 0.000526 -0.001047 0.001882 -0.008386 -0.034220 0.014123 0.024880 0.014740 -0.004025 0.002144 -0.002939 -0.000949 0.002914 -0.000693 -0.001836 -0.007215 -0.002080 -0.003940 -0.002285 0.000793 -0.004427 -0.034527 -0.071022 -0.078583 -0.101145 -0.061162 0.002832 0.009928 0.060345 0.061577 0.063851 0.113731 0.099480 0.083383 0.095448 0.089281 0.036536 0.002285 0.000346 -0.000233 -0.007376 -0.000951 -0.006635 -0.025560 -0.075866 -0.103782 -0.083129 -0.044339 -0.005155 -0.002595 -0.022170 -0.013955 0.001379 -0.334067 0.564125 0.349765 -0.577754 -0.283559 -0.677651 -0.146683 -0.258906 -0.107634 -0.178166 -0.238595 -0.321156 -0.779910 0.392571 -0.566297 1.343835 0.026119 -0.189377 0.191674 -0.483213 0.707732 0.041962 1.226228 0.894665 0.838468 0.386728 -0.504563 -0.078651 0.300622 -0.157016 0.433577 -0.301328 0.183654 -0.025347 -0.990270 -0.228099 0.291384 -0.483801 -0.325155 0.895336 -0.719357 1.038099 0.078481 0.270552 -0.593355 0.371179 0.876567 0.413241 0.158099 0.129678 -0.355381 -0.301048 -0.532640 -0.324272 -0.359460 -0.155286 -0.205864 0.331719 0.324916 0.597601 1.166498 -0.081658 -0.259724 -0.325079 -0.596305 -0.397769 0.043376 1.366527 0.493232 -0.015376 0.081546 0.086854 0.089181 -0.093349 -0.436755 -0.025170 -0.046488 0.111936 -0.286710 -1.246549 0.736735 -0.615375 0.870254 -0.035618 -0.963523 0.636142 -0.057312 -0.682925 0.332205 -0.093583 -0.168111 0.096969 0.422412 0.189918 -0.405787 0.535014 -0.459410 -0.429400 -0.084097 -0.889472 -0.085974 0.473354 -0.012561 -0.163160 -0.100441 -0.632194 -0.299886 -0.602493 -0.742892 1.049074 -0.167042 0.198813 0.723487 -0.265842 0.135900 0.730604 0.116704 -0.589955 -0.039475 0.294333 0.238267 0.924195 0.784445 -0.487821 0.224780 -0.775756 0.732740 0.213382 0.024962 0.601204 -0.328252 -0.328173 0.129923 0.703333 -0.293192 -0.691419 -0.381645 -0.780358 -0.525858 0.940771 -0.458090 -0.202525 0.236967 -0.589950 -0.452990 0.618908 0.151431 0.747398 0.131177 0.244729 -0.063611 -0.219411 0.003848 -0.893144 0.986376 -0.392941 0.512949 -0.887464 -0.596712 -0.241777 0.000576 0.005212 -0.002052 0.003350 -0.005151 0.000570 -0.000394 0.001868 -0.001035 0.001578 0.003123 -0.005394 -0.008483 -0.003764 0.002131 -0.001341 -0.000775 0.001894 0.001286 0.001040 -0.001084 0.000454 -0.000117 0.000017 0.000476 -0.004131 0.000805 -0.003814 0.002628 0.001220 0.001711 -0.000125 -0.006559 -0.004552 -0.009513 -0.010231 0.001279 -0.001377 0.004541 0.003379 -0.002245 -0.001734 -0.000871 0.000526 -0.001047 0.001882 -0.008386 -0.034220 0.014123 0.024880 0.014740 -0.004025 0.002144 -0.002939 -0.000949 0.002914 -0.000693 -0.001836 -0.007215 -0.002080 -0.003940 -0.002285 0.000793 -0.004427 -0.034527 -0.071022 -0.078583 -0.101145 -0.061162 0.002832 0.009928 0.060345 0.061577 0.063851 0.113731 0.099480 0.083383 0.095448 0.089281 0.036536 0.002285 0.000346 -0.000233 -0.007376 -0.000951 -0.006635 -0.025560 -0.075866 -0.103782 -0.083129 -0.044339 -0.005155 -0.002595 -0.022170 -0.013955 0.001379 