0.00096 0.000578 -0.002693 0.002318 0.003101 -0.002056 0.002813 0.001939 0.000143 0.001607 -0.002856 -0.001569 0.00118 -0.005934 0.003551 -0.00267 0.002328 0.001398 0.001391 -0.002538 -9.5e-05 -0.00259 -0.001546 0.001299 -0.000768 -0.003545 0.001355 0.004231 -0.000854 -0.004643 0.001661 0.005617 0.000414 -0.001671 0.005833 0.000926 -0.003889 -0.000404 -0.000713 -0.000745 1e-06 -0.000482 -0.000377 0.000813 -0.003338 0.00291 0.003174 0.002477 -0.004391 0.001872 -0.000575 0.002248 0.002026 -0.001497 0.00415 -0.003117 -0.003053 -0.001349 -0.004266 0.000659 -0.004513 0.002089 0.00231 0.003903 0.001065 0.000669 0.000736 0.003948 -0.001869 0.000929 0.003251 -0.00173 0.000801 -0.00157 -0.002331 0.003019 -0.000552 0.001653 0.001071 0.002297 0.000184 6e-05 -0.001077 0.002364 0.006578 -0.001056 -0.000302 0.00272 0.003143 0.004492 -0.000712 -0.003521 3e-05 0.000389 -0.0016 0.003824 0.001409 0.003026 -0.001783 0.003464 -0.002645 0.000422 6.7e-05 -0.00189 0.001868 -0.003614 -0.003072 0.000496 0.000822 0.000464 0.002407 0.000961 0.002606 -0.000223 0.001279 -0.000948 0.00244 0.001766 -0.002937 -0.003994 -0.001138 -0.00102 0.003064 0.001904 0.002005 0.002135 0.001359 0.001993 -0.001324 8.7e-05 0.00222 0.005954 -0.000839 -0.00331 -0.001557 -0.000531 0.003214 -0.002001 0.00343 0.001599 0.002159 -2e-06 0.003699 0.001861 -0.004675 0.001339 0.00396 -0.002423 0.002922 -0.002002 0.004091 0.000994 0.000867 -0.004373 0.000386 0.000231 -0.00286 0.001254 0.001629 0.003446 -0.001386 -0.002712 -0.002327 0.001848 0.000371 -0.001334 -0.003415 -0.000605 -0.002708 0.000931 -0.003055 -0.002736 0.000951 -0.000412 0.004112 -0.002169 -0.000913 0.002976 0.000607 0.005089 -0.001664 -0.00342 -0.000813 -0.000265 0.002655 -2e-05 0.000551 0.004396 0.000175 -0.001179 0.003431 0.001685 -0.001757 -0.002784 -0.004003 -0.003063 -0.001892 0.001495 -0.004231 0.001437 -0.001155 0.001835 -0.000811 0.001305 0.002618 -0.001933 -0.002855 -0.000953 -0.004136 -0.002414 0.003666 -0.001421 -0.00032 -0.001973 -0.001098 0.002302 -0.004532 -0.000498 -0.002388 0.000143 0.000115 -0.001746 -0.000585 0.000116 0.005727 -0.001482 -0.001013 0.00256 -0.000121 -0.00423 -5.3e-05 -0.001682 -0.000659 0.002591 -0.001936 0.00072 -0.001747 0.002439 0.000123 -0.001318 -0.004356 0.003084 0.002734 0.000531 0.003932 0.00348 0.000227 0.001423 -0.00094 0.000364 -0.002146 0.004194 -0.000478 -0.002571 -0.003807 0.001683 