-0.003614 0.000832 -0.000902 -0.003219 0.004448 -0.006154 0.001821 -0.001354 0.000336 0.001258 0.006452 -0.000204 -0.000480 -0.000131 0.003066 -0.003775 0.004898 -0.003902 -0.000696 -0.001637 -0.003673 -0.001126 -0.001231 -0.002700 -0.000700 -0.001792 0.000200 0.000160 -0.002837 0.002475 0.002148 0.003223 0.004897 -0.000705 -0.002610 0.003995 -0.001176 0.000544 0.003600 0.002463 0.004386 -0.001735 0.005166 0.003334 -0.003260 0.005707 -0.000820 -0.001491 -0.008332 0.001812 0.000195 -0.002876 0.000025 -0.001314 -0.000227 -0.000009 -0.001664 -0.007486 0.000881 0.001754 -0.001549 0.001015 0.001997 -0.001579 0.000437 -0.007366 -0.006635 -0.009055 -0.003817 -0.009381 -0.000814 -0.002362 -0.001473 -0.008837 -0.008615 -0.006355 -0.007961 -0.003859 -0.001705 -0.002747 0.000513 0.001048 -0.004332 0.004128 0.002075 0.005964 -0.001948 -0.000278 -0.001908 0.000258 0.000186 -0.009884 -0.010989 -0.018985 -0.033086 -0.035412 -0.035592 -0.048358 -0.045896 -0.048904 -0.042470 -0.018531 -0.028818 -0.022030 -0.009233 -0.003184 0.013953 -0.009343 -0.013952 0.010267 0.005656 0.001291 -0.000199 0.003589 0.002013 0.003960 -0.001991 -0.003634 -0.002470 -0.010708 -0.023081 -0.037314 -0.057385 -0.076684 -0.076355 -0.066166 -0.096005 -0.117382 -0.101726 -0.080029 -0.083811 -0.094106 -0.090411 -0.046141 -0.023408 0.019199 0.028407 0.022119 0.003687 -0.005885 -0.000748 0.004291 0.003082 -0.001596 -0.005399 -0.001394 -0.018103 -0.020316 -0.038233 -0.056558 -0.089505 -0.126865 -0.153048 -0.131548 -0.125963 -0.166631 -0.168480 -0.221824 -0.245075 -0.216706 -0.154090 -0.102043 -0.042654 -0.011157 0.012469 0.023535 0.006470 -0.000130 -0.001870 -0.002096 -0.002301 0.000913 0.008217 0.000894 -0.008841 -0.017091 -0.051172 -0.044114 -0.040448 -0.093093 -0.173260 -0.161864 -0.094485 -0.140271 -0.188815 -0.238701 -0.264370 -0.180031 -0.112420 -0.061794 0.016309 0.092895 0.119538 0.083112 0.046284 0.004611 0.001352 0.000373 0.003267 0.002392 0.015085 0.016929 -0.009326 -0.015124 -0.039679 -0.020252 -0.011312 -0.041259 -0.033383 -0.032527 -0.016676 -0.146946 -0.109537 -0.084774 -0.089484 -0.086831 -0.004818 0.056515 0.125277 0.151073 0.152705 0.106934 0.052731 0.005712 -0.002310 0.002118 0.008924 0.014644 0.040026 0.040752 0.000034 -0.008725 -0.040627 -0.077435 -0.096529 -0.086244 0.003916 0.064362 0.113752 0.139829 0.130599 0.183829 0.169736 0.144207 0.219826 0.245261 0.210826 0.205936 0.187642 0.105643 0.048125 -0.000904 -0.000255 0.012149 0.011767 0.019317 0.039949 0.036243 0.012680 -0.040119 -0.110370 -0.143606 -0.077496 -0.063708 0.012707 0.176309 0.280777 0.314770 0.320867 0.352423 0.287847 0.187289 0.291188 0.293120 0.239213 0.232630 0.308539 0.193780 0.044959 0.006345 0.003952 0.005399 0.008645 0.012570 0.024449 0.018166 -0.063022 -0.096072 -0.114417 -0.060937 -0.026660 -0.037591 0.021185 0.161975 0.171021 0.221131 0.185101 0.212273 0.199300 0.177978 0.256079 0.246618 0.159382 0.205536 0.294952 0.204067 0.057904 0.005718 -0.004629 0.002856 0.010919 0.013524 0.017687 -0.042761 -0.078935 -0.098225 -0.075518 -0.086800 -0.070107 -0.019168 0.045760 0.070089 0.014543 0.041479 -0.042433 -0.073669 -0.089887 -0.119164 -0.064210 -0.037033 -0.056874 -0.002830 0.072853 0.104278 0.028365 0.004502 0.000562 0.001077 0.011307 -0.002148 0.006259 -0.061097 -0.068269 0.006414 -0.001902 0.009886 0.010956 0.015915 0.006302 0.012035 0.014496 -0.098545 -0.264471 -0.345311 -0.415494 -0.428327 -0.375426 -0.364087 -0.302509 -0.209573 -0.086970 0.021366 0.017747 -0.002642 -0.002763 0.001271 0.006300 -0.014518 -0.000913 -0.021035 -0.044755 0.004609 0.042647 0.102840 0.049466 -0.028216 -0.059969 -0.077739 -0.006732 -0.129548 -0.173930 -0.242677 -0.330045 -0.397550 -0.397769 -0.379313 -0.310993 -0.216710 -0.082316 -0.009894 0.005214 -0.002899 -0.001455 0.004702 0.001859 -0.013934 0.004474 0.009799 -0.055835 -0.014848 0.073890 0.078545 0.012635 -0.081747 -0.113181 -0.102251 -0.052232 -0.055776 -0.072796 -0.055320 -0.170919 -0.277766 -0.339907 -0.298662 -0.203927 -0.122623 -0.042758 -0.000996 0.000222 0.001508 -0.001911 0.001925 0.000883 -0.005476 -0.011382 -0.044296 -0.009295 -0.009343 0.024478 0.059621 -0.037663 -0.078081 -0.065394 -0.140651 -0.118766 -0.035127 -0.022292 0.057246 0.020456 -0.171902 -0.252616 -0.187755 -0.160230 -0.092020 -0.052396 -0.013072 -0.010442 -0.004273 0.001278 0.001445 -0.002255 0.001456 -0.023050 -0.025053 0.016898 -0.054483 -0.062765 -0.026118 -0.048701 -0.087130 -0.099174 -0.140913 -0.161786 -0.104845 0.021390 0.121728 0.056028 -0.136506 -0.162034 -0.160986 -0.147454 -0.088804 -0.051207 -0.019992 -0.012209 -0.002012 -0.004076 0.001979 -0.004130 -0.012791 -0.055321 0.040441 0.068047 -0.038166 -0.068984 0.033562 0.033738 -0.026060 -0.097485 -0.103704 -0.044672 0.006878 0.025528 0.044120 0.006449 -0.117427 -0.122863 -0.135539 -0.093320 -0.050264 -0.041572 -0.018726 -0.003015 0.003931 0.002343 -0.001170 -0.004625 -0.027312 -0.093767 -0.007247 0.068731 0.005582 -0.037844 -0.053144 -0.119567 -0.090842 -0.059680 -0.019220 0.004650 0.026232 -0.049024 -0.041842 -0.043569 -0.034872 -0.066240 -0.111254 -0.092926 -0.065156 -0.045291 -0.012532 0.002030 0.002819 0.002682 0.002867 0.003311 -0.025257 -0.085673 -0.062999 0.003089 -0.009215 -0.015119 -0.047502 -0.117586 -0.130493 -0.044967 0.038856 -0.006441 0.036481 -0.002293 -0.039162 0.004088 -0.008998 -0.060497 -0.082596 -0.090290 -0.057002 -0.032832 -0.009568 -0.001967 0.003337 0.001534 -0.001431 -0.005126 -0.028929 -0.087853 -0.084901 -0.088102 -0.076769 -0.025101 -0.010823 -0.061450 -0.042573 0.032016 0.048196 0.003626 -0.042553 0.028228 0.052003 0.020154 -0.040404 -0.052893 -0.072045 -0.078997 -0.061379 -0.017010 -0.003185 -0.003672 -0.000939 -0.000985 -0.001310 -0.005256 -0.015242 -0.053709 -0.103412 -0.068680 -0.046743 -0.011826 -0.018339 -0.094781 -0.058782 0.004296 -0.042316 -0.059123 -0.039852 0.022083 0.026970 -0.051629 -0.084274 -0.042680 -0.063961 -0.050885 -0.039746 -0.019584 0.000005 0.002961 -0.001054 -0.000318 -0.000408 -0.004140 -0.012607 -0.022313 -0.062604 -0.057035 -0.002235 0.063363 0.038974 -0.066528 -0.033792 -0.003339 -0.041020 -0.005008 0.004644 -0.007880 0.016182 -0.027489 -0.061458 -0.038485 -0.034924 -0.021952 -0.010978 -0.002497 -0.000953 0.000158 0.002447 -0.000848 -0.001114 0.001047 -0.009757 -0.001991 -0.014398 -0.023042 -0.062836 -0.029305 0.021062 0.011483 -0.023536 -0.024476 -0.069758 -0.012098 0.003245 -0.015265 -0.026575 -0.015605 -0.028994 -0.007269 -0.018974 -0.005889 -0.002082 -0.007297 -0.001798 0.001816 0.006827 -0.000776 0.000061 -0.008476 0.000524 0.004858 0.009886 -0.005524 -0.021263 -0.052801 -0.017639 0.003623 0.008556 0.002638 0.008807 0.025434 0.004172 0.004125 0.045966 0.021747 0.011956 0.010339 0.005366 -0.000762 -0.005268 -0.001612 0.000843 0.001546 -0.001381 -0.001884 -0.000997 -0.001268 0.002601 0.018155 0.012124 0.012493 0.024252 0.007089 0.050244 0.014016 0.057260 0.076615 0.036406 0.024983 0.034862 0.036413 0.057102 0.039199 0.022377 -0.005195 0.006088 0.006590 -0.001329 -0.000517 0.001746 0.004277 0.000422 -0.004097 0.000462 -0.003920 0.005684 -0.003109 -0.005370 -0.013352 -0.005313 -0.012261 -0.002208 -0.015621 0.020249 0.024155 0.040722 0.028776 0.036878 0.010600 0.021551 0.008237 0.022893 0.010188 -0.005029 0.003245 0.002239 0.003821 0.003117 -0.005322 0.001560 -0.007287 0.000189 0.000164 -0.002063 -0.001668 -0.001647 -0.001993 0.002675 0.000190 0.003204 0.008542 0.011604 0.006565 0.007734 0.012049 0.003784 0.007461 0.006670 0.009839 0.003902 0.001114 0.002689 -0.002941 0.007707 0.002309 0.003153 0.000104 -0.003474 0.002272 -0.003428 0.002330 -0.002016 0.002073 -0.001626 0.003934 0.002094 -0.002160 -0.003602 0.001101 0.002222 0.000324 0.002684 0.000303 0.002458 -0.002840 -0.003627 0.006016 -0.005492 -0.000412 -0.005641 0.002634 0.001343 0.000375 -0.002284 -0.006131 0.001195 0.000622 -0.000086 -0.000108 -0.000589 0.001006 -0.000987 -0.002172 -0.001221 0.001009 -0.001777 -0.001956 -0.000341 -0.002212 0.000259 0.009251 0.007886 -0.002852 -0.003169 -0.001087 -0.004835 -0.000584 -0.001587 0.006996 0.000158 -0.000981 0.000080 0.002756 -0.002966 -0.004920 -0.002019 -0.000263 0.000726 0.001902 0.000303 -0.002560 -0.002076 -0.003788 -0.009670 -0.014739 -0.010165 -0.004957 0.003826 0.014618 0.060403 0.031540 -0.001849 -0.010024 -0.004544 -0.003799 0.001705 -0.000969 0.001316 0.000194 -0.000720 0.001243 0.003169 0.000465 0.000535 -0.000448 0.002548 -0.004714 0.001527 0.000869 0.000363 -0.014740 -0.027877 -0.047241 -0.072317 -0.051554 -0.021195 0.001205 0.079050 0.061038 -0.007823 -0.022337 -0.024630 -0.035006 -0.023649 0.000820 0.002588 -0.003769 -0.005281 -0.001148 0.001405 -0.002295 0.001645 -0.003074 -0.002984 0.001819 0.010100 0.003376 -0.003664 -0.024894 -0.055091 -0.084397 -0.095274 -0.044865 0.030368 0.078891 0.104996 0.084204 0.007442 -0.005156 0.041539 0.051728 0.040209 0.026069 0.001670 -0.027328 -0.015653 0.002236 0.001551 -0.000205 -0.000603 0.001859 -0.003856 -0.001703 0.019958 -0.000354 -0.036972 -0.097969 -0.139413 -0.163239 -0.126453 -0.054467 0.006295 0.090951 0.130400 0.042568 -0.025631 0.004625 0.068094 0.066393 0.069407 0.038221 -0.007745 -0.027832 -0.014837 -0.000153 -0.000315 0.000325 0.000543 -0.000980 -0.002780 -0.005433 -0.012883 -0.036898 -0.072228 -0.122192 -0.167225 -0.125190 -0.036793 -0.012081 -0.024116 0.033012 -0.011640 -0.044056 -0.079008 -0.033199 0.009140 0.032327 0.011798 -0.006549 -0.028097 -0.040929 -0.018014 0.001177 -0.003986 0.001070 0.001815 -0.003764 -0.001856 -0.019539 -0.052486 -0.066263 -0.104453 -0.160965 -0.127507 -0.090884 -0.024672 0.074334 0.047678 0.038767 -0.037503 -0.106242 -0.097173 -0.118891 -0.056032 -0.025871 -0.026967 -0.040639 -0.060470 -0.070528 -0.023012 -0.000392 -0.003565 0.001950 -0.001924 -0.008140 -0.007278 -0.028053 -0.048164 -0.077390 -0.104050 -0.151405 -0.141468 -0.117957 -0.010998 0.133498 0.134663 0.075998 0.017006 -0.109758 -0.073898 -0.124002 -0.112579 -0.075947 -0.068257 -0.106061 -0.112053 -0.084396 -0.031693 -0.007799 -0.001209 0.002058 0.002590 -0.003609 -0.010325 -0.035689 -0.069935 -0.092564 -0.113024 -0.122036 -0.154501 -0.070654 0.044442 0.137906 0.175235 0.132033 0.095938 -0.051484 -0.107548 -0.113152 -0.110394 -0.097076 -0.089603 -0.120746 -0.103608 -0.079922 -0.033846 -0.005300 -0.000013 0.003521 0.003981 -0.001966 -0.014099 -0.032723 -0.067100 -0.113302 -0.120280 -0.103913 -0.132705 -0.031373 0.051634 0.194043 0.197275 0.138515 0.118432 -0.005250 -0.089052 -0.122493 -0.111037 -0.124551 -0.127841 -0.116636 -0.099340 -0.080565 -0.031616 -0.004724 -0.002812 -0.002505 0.001354 -0.004882 -0.013701 -0.025150 -0.039400 -0.093132 -0.107866 -0.117188 -0.122548 -0.044767 0.006267 0.135963 0.154222 0.180728 0.105866 0.041032 -0.064592 -0.064813 -0.104613 -0.099185 -0.080000 -0.065445 -0.057394 -0.047743 -0.021256 -0.006681 0.003847 0.000716 0.000821 0.001406 -0.001750 -0.012380 -0.032253 -0.044992 -0.081256 -0.083302 -0.076803 -0.061882 -0.015723 0.087572 0.086918 0.195795 0.124650 0.061514 0.007600 -0.034397 -0.089699 -0.065498 -0.040867 -0.047229 -0.026745 -0.021695 -0.019824 -0.009141 0.000042 0.000309 -0.005919 -0.002604 0.000913 -0.002115 -0.022280 -0.030527 -0.057951 -0.037900 -0.015903 -0.103856 -0.111126 -0.061358 0.034462 0.193269 0.192586 0.089251 0.029070 -0.112917 -0.120024 -0.083312 -0.064284 -0.046002 -0.031146 -0.031477 -0.016061 0.000642 0.006721 0.002206 -0.006105 0.002622 0.001163 -0.002620 -0.015227 -0.035306 -0.050807 -0.045182 -0.044610 -0.114797 -0.200366 -0.101227 0.049529 0.167619 0.199342 0.142061 -0.068342 -0.215711 -0.166337 -0.118774 -0.088246 -0.057763 -0.032687 -0.007578 -0.008827 -0.003054 0.003687 -0.000539 0.001487 0.004078 -0.002041 -0.001833 -0.025076 -0.047569 -0.044353 -0.055367 -0.104086 -0.163812 -0.179680 -0.073510 0.111973 0.231438 0.191590 0.137148 -0.180694 -0.238343 -0.177346 -0.116919 -0.071622 -0.050295 -0.033390 -0.016792 -0.007351 -0.007757 0.001605 0.000180 -0.001062 0.000366 -0.000867 -0.005400 -0.037489 -0.066289 -0.082891 -0.088992 -0.091780 -0.151860 -0.146189 -0.115021 0.078500 0.250165 0.181424 0.032209 -0.237337 -0.220874 -0.181486 -0.114945 -0.090328 -0.077652 -0.059718 -0.036598 -0.024626 -0.012208 -0.001359 -0.001493 -0.004366 -0.005495 -0.000315 -0.013963 -0.067633 -0.131507 -0.134344 -0.103855 -0.124390 -0.103721 -0.163445 -0.097127 0.056095 0.210823 0.178808 -0.049758 -0.201569 -0.177436 -0.161685 -0.112464 -0.103786 -0.086593 -0.061620 -0.055019 -0.049891 -0.002474 0.003450 0.005127 -0.001818 -0.005158 -0.003250 -0.013977 -0.093350 -0.195019 -0.177720 -0.122485 -0.081198 -0.140046 -0.135624 -0.118618 -0.007169 0.175453 0.134017 -0.034388 -0.060542 -0.038953 -0.064915 -0.047753 -0.062103 -0.074003 -0.072342 -0.049921 -0.018058 0.003104 -0.001943 0.000488 -0.002306 -0.001909 -0.008033 -0.023932 -0.094717 -0.148474 -0.143297 -0.120929 -0.055892 -0.139051 -0.147557 -0.155863 -0.003732 0.111196 0.161799 0.140918 0.079925 0.034538 0.029595 -0.013126 -0.048021 -0.064381 -0.054054 -0.022561 -0.002054 0.001341 0.002654 0.004151 0.000837 -0.003850 -0.014479 -0.024827 -0.079554 -0.070065 -0.090808 -0.067268 -0.067908 -0.102424 -0.081619 -0.051308 0.020243 0.119105 0.143466 0.184504 0.156093 0.105005 0.065375 0.006215 -0.039353 -0.044399 -0.038410 -0.012742 -0.004804 0.003085 0.001387 -0.001892 0.000651 -0.001331 -0.006397 0.009305 0.010859 0.047082 0.015611 0.021934 -0.036431 -0.042627 -0.089869 -0.053608 0.005712 0.077944 0.122551 0.135099 0.127626 0.105867 0.038525 0.020407 0.000773 -0.044918 -0.035148 -0.008776 0.001204 -0.004050 -0.000585 0.000437 -0.001681 -0.004014 -0.003189 0.001967 0.067461 0.071850 0.028283 0.047462 -0.014113 -0.085784 -0.147893 -0.152853 -0.051901 0.046675 0.072317 0.126023 0.156041 0.116228 0.024989 0.002845 -0.020074 -0.037499 -0.017719 -0.008864 -0.002095 0.001086 0.003191 0.000914 0.000084 0.000948 -0.009376 0.000196 0.043736 0.059386 0.010653 -0.008446 -0.042524 -0.085285 -0.112277 -0.010919 0.013475 0.003167 0.052069 0.092489 0.112479 0.023346 -0.026766 -0.031408 -0.027416 -0.018566 -0.010382 0.002358 0.003136 0.001951 -0.003765 0.002954 0.002184 0.003389 -0.002245 -0.008938 -0.015915 -0.013045 -0.046286 -0.069324 -0.068240 -0.059439 -0.097933 -0.108283 -0.137289 -0.117350 -0.095475 -0.068396 0.000457 -0.003269 -0.011236 0.001262 0.002888 -0.008990 -0.001154 -0.001079 0.002383 0.000625 0.000931 -0.003316 0.002829 -0.003133 -0.000164 -0.005427 -0.008817 -0.016927 -0.033499 -0.031667 -0.035298 -0.088087 -0.115157 -0.091942 -0.109222 -0.105415 -0.111944 -0.079438 -0.013626 -0.005927 -0.010385 0.000048 0.000452 -0.003398 -0.001593 -0.000643 0.000092 0.000880 0.003793 -0.003256 -0.000974 -0.003540 0.000606 -0.007310 -0.004438 -0.004362 -0.002828 -0.004910 0.002022 -0.009013 -0.015039 -0.019142 -0.028683 -0.017427 -0.018409 -0.015256 0.000436 -0.004444 -0.007313 -0.005002 -0.001716 -0.000072 0.000469 0.005876 -0.001713 0.000779 -0.001024 -0.003222 -0.003510 -0.002177 0.001147 0.003643 0.002291 0.000241 0.001305 0.006730 0.002277 -0.005379 -0.004371 -0.002156 0.001571 -0.003947 -0.000617 0.002641 -0.003042 -0.001258 0.000687 0.002079 0.000838 -0.001849 0.001464 -0.001057 0.003245 -0.000685 -0.002016 -0.002287 -0.001774 0.001003 -0.001827 0.000812 -0.004481 0.000835 -0.006818 -0.002353 -0.005463 -0.001770 -0.000598 0.000551 -0.001757 -0.000681 0.000473 -0.001888 0.003968 0.003232 0.001680 0.003029 0.002222 0.001489 0.000132 -0.000372 -0.001020 -0.005315 -0.001377 -0.002568 0.000311 0.000383 -0.000269 0.000776 -0.002083 -0.003338 -0.002114 0.000008 -0.003248 -0.002005 -0.006105 -0.000236 -0.000725 0.008879 -0.000538 -0.010975 -0.009655 0.001442 -0.000227 0.001620 -0.001953 -0.000712 -0.002104 0.000856 0.003180 0.000971 -0.000855 0.000203 0.000848 -0.002260 0.002796 0.000018 0.002912 0.002790 -0.007230 0.002820 -0.008355 -0.016284 -0.014055 -0.014881 -0.009713 -0.003259 0.002864 -0.018113 -0.028754 -0.024935 -0.010598 -0.004413 -0.010134 -0.007395 0.000361 0.003997 -0.002235 0.004840 0.006036 -0.004650 0.000355 0.001969 0.002487 0.005437 -0.000753 0.005053 0.022904 0.029025 0.013751 0.025559 0.071139 0.109506 0.115759 0.148124 0.126939 0.040400 -0.009823 -0.024842 -0.044910 -0.047411 -0.045073 -0.023840 -0.000067 0.000554 -0.000412 -0.005747 -0.004010 -0.001001 0.001974 -0.001367 0.000527 0.008280 0.033569 0.051140 0.076560 0.099248 0.077804 0.086459 0.121388 0.134574 0.175575 0.202883 0.132925 0.031112 -0.075535 -0.036356 -0.073983 -0.092125 -0.110494 -0.096280 -0.063382 -0.018341 0.000814 0.000849 0.003229 0.002025 0.003734 -0.001768 -0.001125 0.035622 0.086521 0.088723 0.098805 0.099391 0.058986 0.001540 0.090712 0.157174 0.210721 0.142567 0.153978 0.012708 -0.193106 -0.170561 -0.086721 -0.114704 -0.140998 -0.162023 -0.145915 -0.038060 0.000299 -0.000678 -0.005537 0.006035 -0.001680 0.000782 0.030533 0.072342 0.110671 0.126935 0.106268 0.079340 0.063739 0.038236 0.162590 0.188630 0.173582 0.131854 0.089377 0.145660 0.024907 -0.038710 -0.150943 -0.121698 -0.114420 -0.231099 -0.224538 -0.126866 -0.043060 -0.007057 -0.006400 -0.002411 0.004427 0.006376 0.046153 0.132831 0.116162 0.137350 0.066421 0.015172 0.017089 -0.029228 0.033271 0.110978 0.104786 0.021416 0.071524 0.050153 -0.015422 -0.086742 -0.050033 0.043890 -0.022453 -0.178626 -0.207376 -0.143469 -0.058624 -0.019856 -0.001174 -0.002697 -0.003483 0.003987 0.048070 0.126950 0.108048 0.120985 0.016580 -0.007282 -0.072172 -0.091610 -0.200156 -0.127109 0.034843 0.131514 0.191355 0.100661 0.054817 0.133598 0.088737 0.072612 0.075740 -0.020239 -0.221277 -0.165206 -0.058530 -0.017589 0.000048 0.000938 -0.005654 -0.006771 0.033375 0.052976 0.036135 0.054435 -0.011081 -0.056675 -0.157070 -0.236043 -0.323051 -0.223826 -0.052797 0.297962 0.483461 0.306054 0.254291 0.248883 0.236268 0.234356 0.198615 0.062976 -0.162602 -0.184732 -0.095171 -0.014987 0.005938 -0.000148 -0.003322 -0.005675 0.031043 0.017143 0.001460 -0.052124 -0.094672 -0.151207 -0.171359 -0.240416 -0.231478 -0.206729 0.108933 0.362012 0.354523 0.246751 0.203747 0.251103 0.290188 0.304040 0.239150 0.108781 -0.121097 -0.188905 -0.098946 -0.014123 0.005563 -0.002130 0.000035 -0.007392 0.030507 0.051111 -0.012240 -0.069564 -0.031233 -0.009175 -0.008541 0.033710 0.108350 0.068209 0.273944 0.384234 0.296349 0.155660 0.230693 0.177390 0.171807 0.361128 0.237955 0.151991 -0.100282 -0.127872 -0.065473 0.002045 0.001038 -0.000865 0.002549 -0.000517 0.018430 0.087871 0.029139 -0.044136 -0.038494 -0.019371 0.112152 0.085844 0.131178 0.061786 0.211240 0.484084 0.391761 0.251125 0.231924 0.121823 0.128712 0.215914 0.209246 0.143335 -0.001200 -0.078802 -0.027911 -0.006122 -0.001528 -0.001984 0.001475 -0.003330 0.017922 0.126631 0.033392 -0.047761 -0.055554 -0.094368 -0.038200 -0.077818 -0.129798 -0.032878 0.252565 0.466488 0.367877 0.337128 0.201112 0.093808 0.008061 0.068411 0.084889 -0.040433 -0.115487 -0.116580 -0.022868 -0.012707 -0.000870 -0.001922 0.001117 -0.005876 0.005311 0.048402 -0.013931 -0.030834 -0.100184 -0.140657 -0.175983 -0.187631 -0.107250 0.093392 0.277234 0.310413 0.287235 0.248097 0.184319 0.024463 -0.050167 -0.034967 -0.031986 -0.120049 -0.176689 -0.117816 -0.023796 -0.013587 -0.004264 0.000832 -0.002294 -0.001742 0.004224 0.017073 -0.056657 -0.069319 -0.130340 -0.129777 -0.189347 -0.127465 -0.077469 -0.005363 0.198319 0.210439 0.194452 0.133101 0.134492 -0.009231 -0.044844 0.048287 0.003855 -0.070652 -0.174559 -0.146580 -0.048861 -0.027703 -0.006159 -0.000927 -0.000325 0.000188 0.017530 0.030073 -0.076189 -0.099293 -0.043683 -0.017894 -0.042444 -0.064538 -0.079555 -0.036700 0.095223 0.057291 0.030546 0.000710 -0.023161 -0.075411 -0.090515 -0.070888 -0.011733 -0.064494 -0.153419 -0.128957 -0.070453 -0.019768 0.002957 0.003546 0.000536 0.002478 0.005783 -0.062544 -0.189515 -0.213309 -0.072922 0.027799 -0.055114 -0.165470 -0.156774 -0.036342 0.018948 -0.065742 -0.094744 -0.033466 -0.059326 -0.128667 -0.094885 -0.114810 0.009370 0.000295 -0.078940 -0.144380 -0.066460 -0.014806 0.000849 0.001325 0.002882 0.009136 -0.005155 -0.099725 -0.197242 -0.225546 -0.193161 -0.149053 -0.205610 -0.230777 -0.199014 -0.234748 -0.134115 -0.062641 -0.076784 -0.026207 -0.062376 -0.063101 -0.082702 -0.026229 0.009315 -0.019133 -0.210161 -0.172457 -0.048816 -0.000809 0.001991 0.000561 -0.001333 0.023561 0.045919 -0.046016 -0.104572 -0.131718 -0.202486 -0.254010 -0.252704 -0.287670 -0.347079 -0.280389 -0.202315 -0.097940 -0.086114 0.032739 0.011859 -0.133886 -0.010609 0.028551 0.054272 -0.065107 -0.187540 -0.129559 -0.039657 -0.014199 0.003740 -0.004788 -0.003290 0.017206 0.049050 0.008535 -0.081500 -0.062154 -0.052463 -0.139913 -0.170906 -0.151707 -0.280287 -0.320264 -0.136006 -0.002815 -0.022278 0.005508 -0.079882 -0.084662 -0.034873 0.075106 -0.022048 -0.134270 -0.212751 -0.093171 -0.020241 -0.007725 0.003131 -0.004270 -0.002247 0.006558 0.026121 0.012483 -0.015209 -0.014702 -0.012948 -0.043698 -0.084120 -0.051627 -0.082543 -0.095831 -0.034783 -0.038828 -0.030159 -0.050253 -0.097636 -0.048328 -0.019162 -0.002450 -0.141652 -0.229980 -0.183401 -0.053247 -0.026351 -0.007601 0.001044 0.002007 -0.000376 0.003656 0.012718 0.016628 0.023298 0.038353 -0.002877 -0.088293 -0.115774 -0.037870 0.032515 -0.023326 -0.056503 0.028253 -0.034961 -0.036960 -0.015038 -0.056820 -0.135769 -0.153516 -0.193281 -0.134331 -0.068300 -0.037475 -0.017354 -0.000022 -0.000000 -0.002719 0.000033 0.003246 0.011561 0.030343 0.085692 0.143272 0.151348 0.043033 -0.072297 -0.038137 -0.050549 -0.001393 0.118561 0.021866 0.058323 -0.001895 0.066317 -0.033467 -0.136137 -0.154751 -0.086259 -0.024188 -0.002348 -0.009183 -0.019339 -0.006071 -0.002854 -0.000550 0.001274 -0.003527 0.008459 0.048199 0.094415 0.148892 0.207704 0.184929 0.087919 0.145752 0.098187 0.034245 0.048951 -0.001623 0.069428 0.020204 0.032875 -0.035883 -0.008611 0.035594 0.053758 0.025827 0.017573 -0.012972 -0.014225 -0.003318 0.005266 -0.000376 0.001231 -0.002033 0.000054 0.015018 0.051752 0.070807 0.100939 0.160741 0.154394 0.140749 0.109155 0.121085 0.067962 0.093049 0.050490 0.109650 0.168104 0.155643 0.164375 0.151413 0.085226 0.002352 -0.003553 0.002888 -0.007392 -0.007512 0.001210 0.001673 0.000227 0.000744 0.003333 -0.000895 0.012504 0.055012 0.072223 0.100274 0.123070 0.137543 0.113687 0.124721 0.140971 0.198117 0.141205 0.141904 0.128464 0.099336 0.075359 0.068616 0.034392 0.009927 0.001591 -0.000248 -0.000391 -0.003597 0.002348 0.003343 0.001930 -0.001040 -0.000174 -0.000720 -0.000285 0.000308 0.006240 0.001101 0.007179 0.001738 0.010041 0.022594 0.027215 0.042542 0.011254 0.004341 0.002184 0.002434 0.003384 0.006805 0.002523 0.010125 0.001255 0.001764 0.004401 0.001528 0.001111 0.002242 0.002875 0.000843 0.001720 0.001151 0.003280 -0.000238 -0.000961 0.001172 0.000918 -0.000354 0.003534 -0.005555 -0.001892 -0.002671 -0.000063 0.002075 -0.001155 -0.000725 -0.001120 -0.000231 -0.001363 0.004492 0.000859 0.001837 0.001175 -0.002241 0.004013 0.001915 0.001856 -0.001135 0.002109 0.001674 0.004103 -0.005442 -0.001976 0.003381 -0.000441 0.001756 0.004759 0.011043 0.003445 0.003429 0.000743 0.002971 0.001705 0.007712 0.000683 -0.002861 -0.000466 0.001475 -0.002693 0.004936 -0.000635 0.003010 0.001045 0.000511 0.001311 0.001185 -0.002156 0.002557 -0.000940 -0.002570 -0.001331 -0.000717 -0.009336 -0.003105 -0.009130 -0.003062 -0.007285 -0.020023 -0.021305 -0.022399 -0.015629 -0.013428 -0.017226 -0.004319 -0.000355 -0.006156 -0.003414 0.001521 0.000760 -0.000302 0.000163 0.001519 0.002739 0.004135 0.000057 -0.000417 -0.017059 -0.018211 -0.020430 -0.022476 -0.035245 -0.047520 -0.026841 -0.031458 -0.029492 -0.040087 -0.012298 -0.019287 -0.028757 -0.072180 -0.072244 -0.056423 -0.053355 -0.048778 -0.015699 -0.004288 -0.004439 -0.003375 0.000674 0.000792 0.003788 0.003582 0.003202 -0.007151 -0.038193 -0.033729 -0.032095 -0.069373 -0.085432 -0.066832 -0.017737 -0.051594 -0.012204 -0.006839 0.081510 0.043575 0.042881 -0.046136 -0.100957 -0.084075 -0.081924 -0.080573 -0.072463 -0.056122 -0.021182 0.000802 -0.001615 0.001756 -0.002450 0.002695 0.000854 -0.017446 -0.055873 -0.060338 -0.053717 -0.056659 -0.105982 -0.029274 0.000719 -0.004764 0.094392 0.135840 0.069220 0.039787 0.162753 0.102851 -0.043220 -0.069883 0.003027 -0.033876 -0.079650 -0.080595 -0.019635 -0.004626 0.002599 -0.003111 -0.001337 -0.000762 -0.007467 -0.021364 -0.040696 -0.018813 0.028212 -0.002354 -0.114245 -0.000527 0.032020 0.061119 0.090331 0.094701 0.022192 -0.008896 0.052432 0.147167 0.107024 0.052859 0.125773 0.087484 -0.078153 -0.114529 -0.065803 -0.032810 -0.002040 0.000416 0.001672 -0.001894 0.005915 -0.016427 -0.028505 0.024013 0.069763 -0.064987 -0.001238 0.105412 0.138814 0.125186 0.104550 0.079223 0.083496 0.094406 0.150457 0.271827 0.201938 0.036717 0.090800 0.121562 0.043267 -0.087932 -0.084662 -0.030877 -0.006122 0.004228 0.004379 0.009148 0.019359 -0.005725 -0.017663 -0.051273 -0.017589 0.003768 0.052601 0.051328 0.095115 0.173933 0.073885 0.162436 0.234279 0.313807 0.262994 0.234869 0.171512 0.160266 0.061939 0.111282 0.147894 -0.035288 -0.083149 -0.023826 -0.002586 -0.000879 0.000283 0.008234 0.018700 0.021190 0.013604 -0.077786 -0.030739 0.055008 0.026782 0.039518 0.041286 0.014854 0.085128 0.109285 0.034688 0.190869 0.259899 0.327805 0.276421 0.120191 0.069187 0.133239 0.201097 0.067898 -0.055117 -0.020645 0.000640 -0.005160 0.006426 0.017337 0.030924 0.027819 -0.031420 -0.058675 -0.017210 0.050657 0.008172 -0.024261 -0.014456 0.002862 0.019045 -0.053985 -0.149542 0.009340 0.260829 0.282467 0.147802 0.158173 0.145441 0.218958 0.272150 0.093599 -0.035073 -0.021825 -0.003859 -0.003584 0.006588 0.011221 0.010383 -0.058236 -0.103145 -0.065052 -0.064890 -0.028468 0.018426 -0.037133 -0.063824 -0.087134 -0.075979 -0.335946 -0.498007 -0.347508 -0.097853 0.042412 0.015752 0.040278 0.134288 0.242150 0.284012 0.121267 -0.030267 -0.019155 -0.003071 -0.004341 0.004487 0.011323 -0.010745 -0.091871 -0.153214 -0.026882 -0.075830 -0.002827 -0.007664 0.014753 -0.023981 0.009805 -0.153506 -0.526432 -0.607233 -0.405725 -0.209256 -0.063174 -0.101011 -0.097670 0.012730 0.206416 0.262745 0.181517 -0.011460 -0.006062 -0.003162 -0.001429 0.003842 0.009889 -0.024043 -0.097946 -0.093932 0.028963 0.003265 0.002462 0.035048 0.128115 0.017970 -0.103964 -0.343425 -0.493325 -0.448517 -0.312635 -0.272943 -0.258657 -0.235640 -0.233100 -0.026202 0.168320 0.215183 0.150582 0.002200 -0.000486 -0.000397 -0.005020 0.000527 0.000660 -0.034386 -0.096689 0.025148 0.051565 0.116693 0.055318 0.105897 0.080085 -0.041394 -0.182453 -0.330300 -0.385384 -0.279737 -0.278992 -0.261183 -0.255458 -0.248890 -0.187728 0.023638 0.147886 0.224294 0.133381 0.008550 0.000573 -0.000333 0.002506 0.005159 0.001876 -0.036674 -0.050473 0.090858 0.041857 0.088464 0.039893 0.099314 0.033731 -0.086542 -0.231138 -0.375995 -0.364182 -0.246777 -0.240856 -0.154537 -0.155109 -0.143557 -0.048026 0.046640 0.037221 0.131334 0.091786 0.006263 0.006502 0.003656 -0.004758 -0.001476 -0.002388 -0.043440 0.009898 0.108302 -0.000896 0.019872 0.129858 0.053561 0.018605 -0.066110 -0.275217 -0.383409 -0.310428 -0.203230 -0.153046 -0.035589 -0.062749 -0.054173 -0.004504 0.020246 -0.017668 0.029194 0.001657 -0.001858 0.003761 0.000232 -0.000503 -0.000514 -0.005762 -0.051538 0.014611 0.081789 -0.035217 -0.065866 -0.032196 0.005336 0.063534 -0.085681 -0.294722 -0.365728 -0.329980 -0.188985 -0.098953 -0.008741 -0.077771 -0.128799 -0.035991 -0.078679 -0.023125 -0.041866 -0.025233 0.013972 0.000714 0.001926 -0.002016 -0.002734 -0.010171 -0.081950 -0.024350 0.018148 -0.049565 -0.067137 -0.028589 0.041224 0.060931 -0.155999 -0.333978 -0.348847 -0.323063 -0.122667 -0.116701 -0.085022 -0.164159 -0.167453 -0.149677 -0.105979 -0.069127 -0.085718 -0.053969 0.011453 0.001053 -0.002561 0.003350 -0.000080 -0.007272 -0.078041 -0.052461 -0.005922 -0.001440 -0.009114 0.046916 0.162116 0.155503 0.028002 -0.053992 -0.186898 -0.173538 -0.139842 -0.121692 -0.122401 -0.178532 -0.159734 -0.156350 -0.065292 -0.054072 -0.093292 -0.046500 -0.003449 0.000289 0.001643 -0.001106 -0.002764 -0.006554 -0.064959 -0.056213 0.052127 0.028038 0.014161 0.076496 0.200951 0.272087 0.265849 0.245755 0.094247 0.046984 -0.037112 -0.157102 -0.171552 -0.253556 -0.169968 -0.069588 -0.035261 -0.053756 -0.072196 -0.030245 0.012128 0.003205 0.002666 0.004903 -0.000770 -0.003290 -0.030867 -0.051981 0.004580 0.003808 0.023994 0.101737 0.211098 0.314720 0.347015 0.258120 0.138360 0.106239 -0.013877 -0.065816 -0.132305 -0.172235 -0.136352 -0.075946 -0.037290 -0.036990 -0.023067 0.008517 0.016854 0.005396 0.000321 0.003569 -0.000552 0.000524 -0.035409 -0.074170 -0.018782 0.024400 0.092062 0.181105 0.257337 0.268698 0.255383 0.207604 0.193661 0.095480 0.072434 -0.018243 -0.051839 -0.100500 -0.112261 -0.127768 -0.048383 -0.006926 -0.010302 -0.004834 0.001349 -0.001787 0.001966 0.000800 0.003783 -0.008395 -0.014742 -0.048808 -0.046224 0.012924 0.139723 0.150535 0.204889 0.277078 0.332291 0.255871 0.169233 0.177949 0.103758 0.023307 0.012232 -0.081509 -0.119822 -0.135564 -0.061729 -0.033537 -0.039720 -0.007825 -0.005448 -0.000078 -0.001599 0.001300 -0.000799 -0.003526 -0.000658 -0.002889 -0.008603 0.001941 -0.021779 0.006096 0.024312 0.035186 0.026705 0.109671 0.093422 0.065110 -0.002257 -0.038279 0.000207 -0.028047 -0.087446 -0.138550 -0.098673 -0.053289 -0.035003 -0.001004 -0.001323 -0.001050 -0.004455 0.004952 -0.003684 0.001017 0.004701 0.008367 0.009188 0.006369 0.019402 0.021087 0.021677 -0.028344 -0.002433 -0.024170 -0.010463 0.002906 0.024850 0.024771 0.018430 -0.014964 -0.040969 -0.076821 -0.068683 -0.030280 -0.010648 0.000796 0.002143 0.001123 0.000603 0.002110 -0.000539 0.000100 -0.003634 -0.003419 -0.017494 -0.019636 0.014779 0.035105 0.032679 0.027453 0.026376 0.040864 0.057167 0.064237 0.105873 0.109234 0.074820 0.033940 0.020407 -0.018414 -0.013950 -0.012766 -0.002742 0.000133 -0.000397 0.001091 0.002700 0.001010 0.001618 -0.000400 -0.001449 -0.005179 0.004498 -0.000800 0.002070 0.000717 0.001659 0.014187 0.016479 0.019237 0.025587 0.024687 0.015211 0.019758 0.021236 0.006823 0.002518 -0.002296 -0.002215 -0.006680 0.000749 0.001355 0.002885 -0.006877 -0.003862 -0.001178 0.005064 -0.002809 0.003717 -0.002409 -0.004369 0.001120 0.003000 0.000760 0.001348 -0.003518 -0.005554 -0.000375 -0.000186 -0.003832 0.001015 -0.004072 -0.002011 0.002920 -0.000890 -0.000693 -0.000861 0.001178 -0.004182 -0.000077 0.004394 -0.001907 -0.002538 -0.001219 -0.001812 0.000781 0.002960 -0.000568 0.000179 0.003078 -0.001768 0.000841 -0.003951 -0.001338 -0.004748 -0.005152 -0.003346 -0.000982 -0.002989 -0.006734 -0.008635 0.002386 0.001795 -0.002207 0.005305 -0.003289 0.000722 0.000216 0.007916 -0.000031 0.001343 0.000049 -0.002019 -0.003291 0.003830 -0.000148 -0.000446 -0.001581 0.003829 0.000819 0.001388 -0.010061 0.000409 -0.002314 -0.004512 -0.003766 -0.003733 -0.012483 -0.012266 -0.009003 -0.004103 -0.003021 -0.002785 -0.000710 -0.001073 -0.005999 -0.000512 -0.003712 0.002617 0.000022 -0.000177 -0.003193 0.000157 -0.004631 -0.001388 -0.005571 -0.001716 -0.003405 -0.004726 -0.019979 -0.019886 -0.006101 -0.022760 -0.023559 -0.032380 -0.040419 -0.035120 -0.025529 -0.018978 -0.019140 -0.015025 -0.006623 0.003059 0.000920 0.004443 0.001589 -0.001435 0.000158 -0.003570 -0.001033 0.001926 -0.004973 0.000766 -0.000974 -0.005577 -0.030352 -0.060503 -0.082750 -0.087869 -0.115972 -0.138390 -0.168513 -0.213663 -0.210114 -0.169076 -0.122093 -0.096871 -0.079844 -0.048830 -0.017877 -0.004215 0.000071 0.003027 0.003767 -0.005202 -0.000796 -0.001343 0.001901 -0.000704 0.003010 0.002073 -0.014773 -0.018126 -0.026122 -0.054869 -0.092961 -0.151607 -0.180972 -0.211117 -0.283336 -0.388059 -0.389196 -0.272121 -0.162941 -0.169599 -0.162893 -0.143936 -0.113306 -0.063449 -0.030645 -0.008278 -0.002097 -0.000186 -0.002002 0.000274 -0.003451 0.001343 0.006957 -0.003958 0.026591 -0.020895 -0.004066 0.021377 0.000484 0.072511 0.138215 0.176196 0.269975 0.251258 0.231973 0.173784 0.132934 -0.027313 -0.094139 -0.111228 -0.211104 -0.214212 -0.109914 -0.037222 -0.002703 0.001360 0.001008 0.003305 0.000724 0.022454 -0.009162 -0.044559 0.016318 0.011483 0.066700 0.097607 0.186725 0.313443 0.415143 0.466543 0.534738 0.475167 0.484453 0.312854 0.192233 0.067431 0.019917 -0.066299 -0.195209 -0.234727 -0.161464 -0.062013 -0.019297 0.003312 -0.005593 -0.002183 0.003037 0.016560 0.004392 -0.052385 -0.018067 0.040794 0.126091 0.143216 0.235943 0.350554 0.350888 0.359509 0.468041 0.383023 0.245972 0.072923 0.036310 -0.027630 -0.073685 -0.069815 -0.061910 -0.164992 -0.132126 -0.080314 -0.018618 -0.002204 -0.000270 0.002943 -0.001212 0.022808 0.016497 -0.048914 0.040318 0.073027 0.088794 0.213222 0.252092 0.265114 0.230073 0.278199 0.291052 0.159972 0.040011 0.011945 -0.082202 -0.064258 -0.036636 -0.006376 0.020362 -0.108714 -0.078808 -0.043160 -0.004184 0.009351 0.001696 0.004932 0.002706 0.037864 0.019515 0.020405 0.121131 0.074347 0.103419 0.184169 0.102904 0.098973 0.044344 0.104514 0.076449 -0.025527 0.035499 -0.062785 -0.029948 -0.031550 0.040320 0.049846 0.073600 -0.021659 -0.055998 -0.022940 0.003738 0.003864 0.005167 0.003878 0.005016 0.028052 0.054787 0.073700 0.180011 0.080237 0.131886 0.114746 0.008674 0.036248 -0.145692 -0.068108 0.014802 0.079144 0.067311 0.120124 0.225359 0.158978 0.231478 0.129049 0.116213 -0.025682 -0.061802 -0.030279 -0.012344 0.001227 0.001977 0.008016 0.005017 0.026759 0.072430 0.097003 0.055338 -0.004171 0.074287 0.054953 -0.143633 -0.320485 -0.570198 -0.366202 0.029760 0.172896 0.154689 0.226755 0.217640 0.239718 0.168275 0.087332 0.039825 -0.086518 -0.089447 -0.003157 0.001048 -0.006102 -0.000272 0.007160 0.005494 0.014960 0.088929 0.025480 -0.045509 -0.072454 -0.104841 -0.160313 -0.195304 -0.398015 -0.501893 -0.184316 0.134192 0.076595 0.192290 0.205554 0.178956 0.172777 0.097321 0.045168 -0.095498 -0.150785 -0.087290 0.013956 0.002029 -0.007529 -0.001626 -0.001350 0.002961 0.000091 0.024694 -0.079126 -0.111499 -0.103706 -0.145277 -0.136480 -0.137938 -0.217725 -0.212535 -0.033962 0.005858 0.069925 0.146336 0.178828 0.184020 0.065646 0.148066 0.087821 -0.035682 -0.101434 -0.067527 0.020560 0.010448 0.001576 -0.000219 -0.000545 -0.005486 -0.016274 0.008194 -0.095585 -0.082097 -0.059752 -0.088197 -0.166849 -0.061131 -0.072574 -0.119582 -0.112880 -0.156746 0.052119 0.060468 0.254262 0.123596 0.101611 0.128838 0.055632 -0.056703 -0.081856 -0.023384 0.020446 0.004071 -0.000011 0.004195 -0.005274 -0.007579 -0.039283 0.005593 -0.081995 -0.123052 -0.003579 0.061267 -0.036373 0.093762 0.054971 -0.028382 -0.120129 -0.191072 -0.039610 0.032501 0.094103 0.096148 0.076103 -0.009217 -0.101918 -0.154043 -0.127736 -0.034933 0.011273 0.013149 -0.001763 -0.002114 -0.000198 -0.012751 -0.050767 -0.057477 -0.107356 -0.147564 -0.090579 0.047974 0.049352 0.096758 0.037217 0.006382 -0.055509 -0.139589 0.053200 -0.041287 0.002555 -0.015751 -0.081381 -0.128604 -0.172294 -0.180428 -0.133567 -0.033247 0.022530 0.005134 0.000144 0.003885 -0.000989 -0.007139 -0.045164 -0.052639 -0.119780 -0.166342 -0.149515 -0.113240 -0.138123 0.004723 -0.007387 -0.135680 -0.132850 -0.019911 0.010660 -0.071298 -0.052144 -0.053483 -0.089448 -0.137478 -0.165821 -0.157686 -0.156051 -0.070764 -0.003996 0.003456 0.003676 -0.001932 -0.002712 0.000199 -0.040087 -0.067364 -0.141242 -0.211989 -0.194328 -0.158832 -0.160338 -0.102216 -0.142529 -0.149815 -0.149544 -0.040870 -0.081037 -0.125186 -0.153537 -0.176180 -0.118888 -0.146688 -0.214967 -0.166188 -0.116720 -0.028347 -0.007144 0.002127 -0.000609 -0.001628 -0.003496 -0.010233 -0.036339 -0.081958 -0.150328 -0.226441 -0.215413 -0.208635 -0.238529 -0.269168 -0.299897 -0.237738 -0.125092 -0.108393 -0.079117 -0.166698 -0.285546 -0.329280 -0.229841 -0.207385 -0.197886 -0.147858 -0.095222 0.007835 0.014761 -0.002967 0.002936 0.000408 0.000484 -0.006694 -0.042014 -0.070435 -0.131603 -0.154802 -0.138116 -0.162496 -0.202840 -0.273922 -0.253071 -0.165977 -0.198441 -0.190273 -0.158503 -0.234093 -0.312979 -0.325112 -0.241009 -0.146850 -0.120546 -0.102366 -0.058337 0.006034 -0.000395 -0.001663 -0.001208 0.002134 -0.001064 -0.009313 -0.029630 -0.034120 -0.047477 -0.025368 -0.032619 -0.060210 -0.128139 -0.132471 -0.122358 -0.089997 -0.183089 -0.121237 -0.183857 -0.186526 -0.207676 -0.257235 -0.217022 -0.127323 -0.071751 -0.021081 -0.023350 -0.002928 0.000687 0.001176 0.005485 -0.000473 0.002319 -0.010983 -0.010106 0.018330 0.060083 0.129481 0.098829 -0.008010 -0.103194 -0.048541 -0.094545 -0.079830 -0.128103 -0.214755 -0.167883 -0.154971 -0.144604 -0.130382 -0.146912 -0.057118 -0.003062 0.037905 0.023226 0.019561 -0.002107 0.002337 0.001748 -0.003765 0.000184 -0.004487 -0.001567 0.050127 0.138964 0.164634 0.139362 0.113283 -0.003977 0.040671 -0.018170 -0.038944 -0.022293 -0.136862 -0.055346 -0.049597 0.011573 -0.001023 -0.055313 0.006564 0.050420 0.038061 0.023514 0.007244 -0.008195 -0.002596 -0.001776 0.000371 -0.004575 0.002979 0.003587 0.039500 0.080788 0.094476 0.121563 0.183026 0.219093 0.161883 0.213418 0.266644 0.242061 0.194608 0.101263 0.172431 0.198115 0.207040 0.166481 0.137591 0.107170 0.005194 0.009082 -0.000321 -0.001266 -0.003334 0.003035 -0.000097 -0.004031 -0.002885 -0.001566 0.002234 0.001202 0.024767 0.059419 0.112354 0.169994 0.186856 0.178509 0.220692 0.243823 0.311262 0.257554 0.221055 0.186626 0.142961 0.119560 0.094822 0.049939 0.012466 0.000906 0.000393 -0.003425 -0.004525 -0.001320 0.001209 0.002116 -0.000986 -0.003776 -0.000963 0.005197 0.000038 0.007023 0.006456 0.008734 0.016885 0.015226 0.031788 0.030934 0.046301 0.019955 0.020512 0.016631 0.025257 0.019554 0.005971 0.006471 0.000732 -0.000686 -0.001394 0.000033 -0.002163 0.000653 0.000346 0.006347 -0.001371 -0.009213 -0.000779 0.004002 0.000154 -0.000487 -0.001896 -0.001028 -0.002759 -0.001299 0.003227 0.004624 0.000227 -0.001040 0.007402 0.001015 -0.002583 -0.004473 0.004357 0.000514 -0.004303 0.002919 -0.003435 -0.001765 0.001663 -0.002198 0.001084 -0.000839 -0.002617 -0.005516 -0.000996 0.001319 -0.001663 -0.000063 -0.001985 0.000142 -0.000403 -0.004163 -0.000278 0.001471 0.006161 0.013062 -0.000998 0.003368 0.000493 0.001901 -0.000349 0.002251 -0.002629 -0.000244 0.002599 -0.003572 0.000838 0.002005 0.001900 0.000350 0.002090 0.001390 -0.002105 -0.002786 -0.002809 -0.004139 0.001603 -0.000960 -0.001901 -0.002946 -0.001856 -0.006549 0.000197 0.007750 0.000142 -0.006161 -0.002277 -0.004075 -0.002203 0.004436 0.003249 -0.002984 0.001337 -0.002207 0.005802 -0.005287 -0.000501 0.002248 0.002686 -0.002410 -0.005010 -0.001943 -0.001008 -0.002017 -0.006392 -0.017546 -0.022889 -0.030698 -0.026173 -0.048561 -0.060185 -0.034202 -0.034275 -0.035433 -0.033805 -0.022020 -0.005795 -0.002311 0.006423 -0.001266 -0.005558 -0.002182 0.000515 -0.001596 -0.002367 0.000649 0.000318 -0.001129 0.000761 -0.001185 -0.000049 -0.003686 -0.013805 -0.048907 -0.067529 -0.059980 -0.046515 -0.018317 -0.026204 -0.034530 -0.032300 -0.036624 -0.021410 0.032322 0.040786 0.040314 0.039207 0.016267 -0.014382 -0.004994 0.000146 -0.002623 -0.003413 -0.002515 0.001051 -0.002882 -0.002702 -0.000100 -0.012424 -0.025773 -0.061964 -0.100241 -0.135260 -0.111683 -0.071814 -0.047922 -0.036189 -0.024092 -0.051461 -0.071129 -0.060220 -0.018105 0.028030 0.062606 0.063555 0.037668 0.010549 -0.011648 -0.002813 0.003400 0.001042 -0.000756 -0.005541 0.003938 -0.002509 -0.011333 -0.040200 -0.063386 -0.108406 -0.141634 -0.144798 -0.092060 -0.084101 -0.085644 -0.044800 -0.080562 -0.059677 -0.030255 -0.011788 -0.024115 0.028464 0.035454 0.047331 0.013350 -0.011376 -0.012051 -0.002102 -0.000954 -0.006603 0.001065 0.001114 -0.003921 -0.009579 -0.027444 -0.060202 -0.076640 -0.113536 -0.112779 -0.115861 -0.088907 -0.050962 -0.054314 -0.021494 -0.083732 -0.045359 0.024115 -0.001788 0.001841 0.032635 0.044237 0.030985 -0.024718 -0.056320 -0.026971 -0.002284 -0.002830 0.002727 0.001255 0.001612 -0.001619 -0.010316 -0.017507 -0.043677 -0.053816 -0.083028 -0.080025 -0.091521 -0.097947 -0.058612 -0.055851 -0.027862 -0.010228 -0.030133 0.073189 0.026127 -0.001816 -0.001292 -0.000546 -0.026042 -0.062894 -0.076660 -0.025696 -0.002383 0.004996 -0.000083 -0.003939 -0.002999 0.000509 -0.009456 -0.021426 -0.031084 -0.044692 -0.060279 -0.068517 -0.082676 -0.127082 -0.135901 -0.090349 -0.027949 0.054566 0.038854 0.046351 0.015815 -0.036362 -0.038741 -0.029177 -0.069706 -0.073984 -0.058100 -0.016845 0.001936 0.000553 0.003392 0.000931 0.002794 0.001471 -0.001561 -0.013177 -0.037286 -0.048491 -0.038918 -0.032481 -0.062936 -0.143327 -0.137409 -0.081888 0.015748 0.116812 0.078739 0.031315 -0.027014 -0.035670 -0.056102 -0.063769 -0.081462 -0.070964 -0.040923 -0.011379 -0.004327 0.002798 -0.004675 0.000177 -0.001202 -0.001077 -0.001991 -0.011903 -0.040524 -0.055346 -0.030712 -0.039070 -0.071611 -0.152931 -0.119539 -0.029618 0.117806 0.150475 0.066908 0.009674 -0.015271 -0.039477 -0.053174 -0.054405 -0.048488 -0.044887 -0.032729 -0.013630 -0.006124 -0.002152 0.000242 -0.001609 0.005959 0.003858 -0.004610 -0.012194 -0.028258 -0.037284 -0.035367 -0.037361 -0.086844 -0.159160 -0.097331 0.021082 0.178235 0.134342 0.042782 -0.008522 -0.037624 -0.046098 -0.051164 -0.026190 -0.027335 -0.014944 -0.010385 -0.007545 -0.001229 -0.002451 0.000392 -0.000611 -0.000713 0.001374 -0.002031 -0.009758 -0.014844 -0.027402 -0.025994 -0.038465 -0.087818 -0.151532 -0.091744 0.081421 0.181079 0.106423 0.009739 -0.001518 -0.053010 -0.048189 -0.027515 -0.014847 -0.016532 -0.015908 -0.003906 -0.004348 -0.002803 0.001420 0.003036 -0.006467 0.002909 0.004132 0.001344 -0.009546 -0.014757 -0.025754 -0.033573 -0.059224 -0.093951 -0.110194 0.002013 0.106461 0.173877 0.089848 0.024768 -0.048463 -0.073408 -0.044314 -0.030406 -0.019914 -0.028212 -0.017676 -0.010113 -0.000651 -0.004919 0.000610 -0.002522 -0.003632 0.000431 0.000792 -0.002350 -0.013509 -0.026530 -0.034736 -0.031865 -0.049964 -0.050732 -0.014762 0.081395 0.180365 0.164149 0.021442 -0.027504 -0.118733 -0.094105 -0.067795 -0.061092 -0.040876 -0.027899 -0.024436 -0.024986 -0.004750 -0.002226 -0.001633 -0.001126 0.001890 0.005033 0.001309 -0.006603 -0.025905 -0.048431 -0.065564 -0.056980 -0.024937 -0.025142 0.044666 0.076521 0.191260 0.118834 -0.073037 -0.144684 -0.156465 -0.105457 -0.063750 -0.061211 -0.041510 -0.037238 -0.026499 -0.024386 -0.013493 -0.006994 -0.001908 -0.006844 0.002535 0.004269 -0.002829 -0.009860 -0.047312 -0.095824 -0.102138 -0.076641 -0.055458 -0.001900 0.009694 0.082916 0.179356 0.059152 -0.158923 -0.229489 -0.165193 -0.109402 -0.063131 -0.048003 -0.034915 -0.031397 -0.026851 -0.026101 -0.020839 0.004300 -0.001578 -0.002007 0.001228 0.004997 -0.001452 -0.017422 -0.072648 -0.141542 -0.120725 -0.078708 -0.035444 -0.022739 0.019677 0.072148 0.124149 -0.016080 -0.229483 -0.246370 -0.138079 -0.112705 -0.073532 -0.046086 -0.045013 -0.043565 -0.033573 -0.021297 -0.001410 0.004985 -0.000966 -0.006839 0.000592 0.002684 -0.002614 -0.013534 -0.070042 -0.092685 -0.103462 -0.092229 -0.047734 -0.054477 -0.001375 0.044671 0.087935 -0.067476 -0.192366 -0.159850 -0.104903 -0.099851 -0.062011 -0.046756 -0.054411 -0.060381 -0.033472 -0.014131 0.000769 0.006186 -0.001563 0.000637 -0.006031 0.000526 -0.001800 -0.007740 -0.027567 -0.019707 -0.045637 -0.035137 -0.075613 -0.072432 -0.003794 0.046551 0.023176 -0.047603 -0.142687 -0.103311 -0.107597 -0.101369 -0.064086 -0.045927 -0.048168 -0.046889 -0.015633 -0.005937 -0.000989 0.002874 0.005072 0.002493 0.001311 -0.003736 -0.001015 0.005383 0.020318 0.038329 0.004041 -0.030739 -0.085931 -0.069619 -0.069193 -0.041056 -0.030558 -0.061598 -0.086883 -0.081395 -0.095613 -0.104674 -0.088203 -0.062978 -0.053545 -0.033778 -0.015418 -0.008534 0.003800 0.001072 -0.003172 0.000922 0.002727 0.002220 -0.000013 0.011313 0.076182 0.072091 0.035724 -0.000939 -0.038381 -0.084848 -0.110204 -0.090258 -0.049794 -0.037432 -0.051232 -0.036638 -0.036997 -0.068502 -0.086814 -0.082027 -0.062019 -0.038290 -0.014134 -0.003894 -0.001043 0.005281 0.000354 0.003155 0.002419 0.001703 -0.003650 0.014250 0.073476 0.094213 0.058901 0.025108 -0.010576 -0.040697 -0.039467 -0.000372 0.014043 -0.014740 -0.002610 -0.002085 0.011377 -0.044581 -0.062517 -0.056326 -0.049132 -0.023888 -0.005162 0.001872 0.002967 0.002646 0.000963 0.001578 0.001386 -0.000075 -0.003177 0.006294 0.023784 0.028922 0.002965 -0.022605 -0.037095 -0.042389 -0.045844 -0.031166 -0.028520 -0.054163 -0.067906 -0.069312 -0.024765 -0.014625 -0.019235 -0.013411 -0.010422 -0.005386 -0.003653 -0.000014 0.004622 0.001497 -0.001192 -0.003691 0.003205 0.001011 0.002236 0.006837 0.001278 0.008975 0.002167 0.004079 -0.001296 -0.032567 -0.022151 -0.013914 -0.023290 -0.043888 -0.058852 -0.044648 -0.019041 -0.008015 -0.005366 -0.002919 0.000926 0.000446 -0.002292 -0.000742 -0.004658 0.004507 0.002861 -0.001662 -0.001273 0.001836 0.000897 -0.001612 0.002990 0.001874 0.000434 0.005781 0.004969 -0.007134 -0.002024 -0.007593 -0.010052 -0.008976 -0.007709 -0.012516 0.003171 -0.001111 -0.001252 -0.001538 -0.000871 -0.000549 -0.003884 0.002152 0.001609 0.004852 0.001612 0.001548 -0.000809 -0.001528 -0.000178 0.003190 0.002573 0.003049 0.002923 0.004312 0.000839 0.003046 0.000680 0.001053 -0.002565 -0.002482 0.001464 0.001989 -0.000909 -0.007019 0.001578 0.004254 -0.003257 0.000727 -0.001195 0.001924 -0.002715 0.000644 0.002086 0.001092 0.000323 0.002038 -0.002607 -0.001777 0.001288 -0.000907 -0.000282 0.001327 -0.004859 -0.000233 0.001040 0.002215 -0.000275 -0.001312 0.004537 -0.002434 0.000197 0.002801 -0.001094 0.003902 0.001569 -0.003464 -0.001014 0.001206 0.001070 -0.001460 -0.005788 -0.002671 0.000912 0.001278 0.000619 -0.006702 -0.000339 0.003772 0.000926 0.002961 0.005579 0.008524 0.005455 -0.002433 0.000431 0.000810 0.000702 -0.008314 -0.003125 -0.000822 0.002028 -0.000636 0.001880 -0.000760 0.002957 0.004205 0.001515 -0.000936 -0.001213 0.001882 -0.003510 -0.002085 -0.001263 0.004153 0.005700 -0.000832 -0.002033 -0.004322 -0.006285 -0.007497 -0.015377 -0.008592 -0.008668 -0.010073 -0.005036 -0.007435 -0.009210 -0.002493 -0.002505 -0.010220 -0.006831 -0.002822 0.000919 -0.007392 -0.000861 -0.001034 -0.001991 -0.000655 -0.001681 -0.000787 0.000451 0.002484 -0.008839 -0.002018 -0.022675 -0.027629 -0.057580 -0.053677 -0.064582 -0.049795 -0.049745 -0.035388 -0.020706 -0.041546 -0.031279 0.008663 0.007386 0.005862 0.023279 0.044922 0.024278 -0.001433 0.002684 -0.001934 0.001739 -0.000724 0.004085 0.004153 -0.004749 -0.009278 -0.030567 -0.046371 -0.078465 -0.104857 -0.108330 -0.103174 -0.031535 0.014606 -0.014842 0.037653 0.070195 0.073186 0.024374 -0.016139 0.016014 0.046201 0.066362 0.076438 0.085474 0.079059 0.034251 0.008077 0.000835 0.001388 -0.004056 -0.001108 -0.002390 -0.026932 -0.081327 -0.103729 -0.115608 -0.144181 -0.127017 -0.125913 0.072256 0.122393 0.011264 -0.083548 -0.114297 -0.058765 0.018561 -0.073238 0.013911 0.156257 0.099825 0.117183 0.128253 0.120371 0.063812 0.007245 -0.003826 0.002850 -0.001713 -0.005319 -0.028253 -0.067608 -0.075180 -0.120762 -0.146010 -0.149018 -0.066064 -0.086447 0.030834 0.035665 -0.107853 -0.102552 -0.089203 -0.093024 -0.030037 -0.083942 0.136235 0.155465 0.101792 0.163560 0.300109 0.289151 0.145227 0.028219 0.000805 -0.001824 -0.000443 -0.013118 -0.061448 -0.130079 -0.065931 -0.129842 -0.086038 0.045244 0.052907 0.068846 -0.019533 -0.033506 -0.065967 -0.052569 0.067284 0.019232 -0.044234 0.066240 0.075685 0.092747 0.156487 0.186321 0.315014 0.336284 0.168459 0.018897 0.003716 -0.003866 -0.003009 -0.014466 -0.069949 -0.150525 -0.070844 -0.038172 0.024011 0.083345 0.155649 0.087769 0.063576 0.146319 0.149915 -0.032112 -0.121432 -0.054595 -0.099332 0.028083 0.037233 -0.001388 0.104515 0.076883 0.280208 0.368898 0.195735 0.045899 0.013730 -0.002993 -0.009215 -0.028284 -0.076412 -0.131301 -0.065026 0.028017 0.037561 0.152373 0.251819 0.180449 0.220671 0.129817 0.011284 -0.187135 -0.381489 -0.320011 -0.156519 -0.169210 -0.153542 -0.110163 0.032510 0.081364 0.311048 0.379405 0.203706 0.058859 -0.001020 -0.004767 -0.009116 -0.032316 -0.071998 -0.070750 -0.050196 0.049883 0.142952 0.231807 0.358250 0.391446 0.349374 0.330453 0.043201 -0.055653 -0.278858 -0.380676 -0.339403 -0.145805 -0.118146 -0.117501 0.012185 0.146006 0.299717 0.313342 0.196936 0.076151 0.006173 0.002211 -0.007443 -0.029668 -0.087783 -0.069689 0.018349 0.133245 0.300379 0.363685 0.418832 0.374170 0.286152 0.180769 0.205179 0.237855 0.041369 -0.132729 -0.193013 -0.112875 -0.101074 -0.124375 0.002346 0.116706 0.173553 0.232684 0.171430 0.066394 0.003473 -0.000197 -0.000495 -0.019793 -0.062015 -0.073861 0.018918 0.096801 0.233041 0.208524 0.309346 0.236377 0.132743 0.108469 0.365824 0.309612 0.138956 -0.059839 -0.030919 -0.121055 -0.039163 0.060737 0.102450 0.010924 0.043932 0.020171 0.032082 0.018040 -0.001658 -0.000395 -0.001274 -0.007951 -0.049153 -0.076745 -0.031108 -0.005481 0.048640 0.141649 0.202811 0.049039 0.141186 0.162326 0.350367 0.225179 0.231461 0.050857 -0.050217 -0.008108 0.083654 0.128186 -0.007715 -0.091549 -0.148337 -0.134785 -0.047503 -0.009771 -0.004395 0.006386 -0.002153 -0.004102 -0.026787 -0.062475 -0.077122 -0.120999 -0.164341 -0.042569 -0.026161 0.047013 0.153849 0.091421 0.272756 0.300748 0.178547 0.061196 0.071617 -0.063737 -0.051207 -0.105944 -0.206365 -0.248316 -0.312362 -0.173308 -0.061925 -0.016183 -0.001664 0.001496 -0.003772 -0.000328 -0.014809 -0.076527 -0.183945 -0.183066 -0.216672 -0.164924 -0.010813 0.027090 0.133800 0.303350 0.360584 0.299243 0.129173 -0.037116 -0.071639 -0.070504 -0.184933 -0.343792 -0.309097 -0.280154 -0.248649 -0.170162 -0.057615 -0.027919 -0.004866 0.005368 0.003953 -0.000232 -0.015305 -0.127213 -0.265577 -0.225452 -0.256798 -0.177518 -0.044865 -0.004056 0.045762 0.216149 0.272200 0.125126 0.122007 0.015368 -0.121288 -0.247491 -0.351401 -0.392400 -0.329748 -0.234060 -0.122008 -0.159671 -0.099239 -0.048617 -0.006742 0.003469 -0.002217 -0.002651 -0.025373 -0.133163 -0.198648 -0.117860 -0.156858 -0.103335 0.052451 -0.026756 0.084224 0.143629 0.114191 0.039210 -0.057533 -0.055077 -0.189399 -0.273372 -0.239170 -0.215263 -0.165753 -0.149220 -0.029773 -0.086264 -0.132849 -0.043443 0.002166 -0.002186 -0.001174 -0.002540 -0.043105 -0.162365 -0.122564 0.012803 -0.055234 -0.012236 0.064392 0.036850 0.068393 0.116848 0.033405 -0.077897 -0.164996 -0.261398 -0.267386 -0.270335 -0.207773 -0.164873 -0.162993 -0.058946 0.019940 -0.020574 -0.085654 -0.009188 -0.000645 -0.002324 -0.004284 0.002864 -0.080552 -0.158636 -0.084811 0.034122 0.016461 0.070463 0.084514 0.041505 -0.103717 -0.059604 -0.158101 -0.138902 -0.142429 -0.203094 -0.117981 -0.194179 -0.185845 -0.142549 -0.125543 0.047848 0.068424 -0.016984 -0.065400 -0.006321 0.000683 0.000031 -0.002528 -0.008854 -0.085284 -0.179648 -0.048589 0.017958 0.080363 0.107212 0.050042 0.051345 -0.039913 -0.062111 -0.056836 -0.204270 -0.046300 -0.180295 -0.090182 -0.138988 -0.168392 -0.152401 -0.014082 0.140165 0.056357 -0.066921 -0.031556 -0.006289 0.002440 0.003122 0.000547 -0.001009 -0.043164 -0.117032 -0.043333 0.084077 0.105681 0.043650 0.106989 0.053753 0.035395 -0.026472 0.003612 -0.046539 -0.048896 -0.123184 -0.057259 -0.182235 -0.201431 -0.095970 0.051692 0.104269 -0.001363 -0.050670 -0.017402 -0.007322 0.001213 0.000012 -0.001933 -0.003045 -0.022920 -0.050426 -0.077046 -0.062987 -0.044891 0.058110 0.082770 0.093416 0.147107 0.160402 0.169119 0.169529 0.015560 -0.013601 -0.039375 -0.067120 -0.118375 -0.070034 0.006655 -0.016218 -0.024694 -0.012140 -0.001424 0.002714 0.001666 0.001337 -0.003405 0.000671 -0.005667 -0.060960 -0.128324 -0.176524 -0.192247 0.103962 0.152442 0.121119 0.096061 0.136710 0.249174 0.206992 0.132300 0.219399 0.032703 -0.002541 0.041276 0.042987 -0.013036 -0.031782 0.021870 -0.002640 0.001179 0.000105 0.000614 0.002462 0.000969 0.006491 -0.005553 -0.063050 -0.151134 -0.191600 -0.152654 -0.047976 0.099399 0.152710 0.185053 0.160948 0.119070 0.113253 0.167616 0.176399 0.030113 0.135671 0.157648 0.075809 0.029643 0.002807 0.014275 -0.001069 -0.000888 -0.001809 -0.001751 0.000145 0.003231 -0.002880 0.003936 -0.024043 -0.054918 -0.056773 -0.055119 -0.060851 -0.000743 0.077648 0.059854 0.060908 0.053123 0.107630 0.140976 0.116853 0.127167 0.084322 0.063655 0.038505 0.026379 0.012052 0.006017 0.006727 0.001586 -0.004141 0.001973 0.004216 -0.003930 -0.000079 -0.002752 0.001223 0.008573 -0.002157 -0.021028 -0.025216 -0.027488 -0.011850 -0.000177 0.003108 -0.018120 0.000586 -0.024886 -0.011552 -0.006045 -0.001959 -0.005204 0.012921 0.010583 0.001695 0.001553 0.002921 -0.002187 0.000282 -0.000562 -0.000402 0.003453 0.001737 -0.003869 0.000346 -0.004179 -0.000823 -0.000041 -0.000278 -0.002441 -0.006434 0.001727 0.001198 -0.005781 -0.005817 -0.008469 -0.003346 -0.004459 0.000542 -0.002416 -0.001187 0.000880 0.002585 0.005684 0.001722 -0.003428 -0.001121 0.002701 0.000682 0.002734 0.002268 -0.004280 0.001625 -0.000247 0.000776 0.001174 -0.000994 0.002486 0.002674 0.006365 0.003024 0.004065 0.000041 -0.003232 0.001590 -0.001137 -0.001320 0.002742 0.000264 0.001012 0.005806 0.001191 0.003542 0.001798 0.003864 -0.001177 -0.000866 -0.003294 0.001106 -0.003201 -0.000294 -0.000386 -0.001023 0.000236 -0.002082 -0.000016 0.001908 -0.004504 -0.010750 -0.006305 0.009964 0.001839 0.002843 0.000592 0.002589 0.001896 0.000080 0.001962 0.001363 0.001914 0.002146 -0.000051 0.002413 0.000884 0.001690 0.003387 0.007049 -0.001645 0.002268 0.002949 -0.000650 0.001915 -0.002278 -0.002968 -0.000281 -0.006768 -0.020424 -0.019291 -0.002860 0.010731 -0.002158 -0.013534 -0.005126 0.003192 0.000916 -0.000233 -0.002627 -0.000533 0.001533 0.002953 -0.000665 -0.001645 0.002484 0.004217 -0.003109 0.002274 0.001261 0.003640 0.003045 0.001498 0.003633 0.017132 0.040917 0.050118 0.071364 0.037625 0.091003 0.102794 0.047326 0.089832 0.113343 0.106185 0.088689 0.016065 -0.012615 -0.007338 -0.003488 -0.001084 -0.001579 -0.000471 -0.000095 0.002318 0.000450 0.001841 0.013872 0.039332 0.032735 0.052272 0.086275 0.049829 0.086029 0.150044 0.163784 0.142581 0.165349 0.169025 0.066937 0.067733 0.095048 0.048417 -0.028568 0.080693 0.073118 0.032212 0.062264 0.017128 0.000865 -0.003985 0.000233 0.000487 -0.002488 0.013804 0.052928 0.088257 0.075651 0.056271 0.024279 0.042269 0.140825 0.106010 0.036112 -0.010952 -0.096676 -0.049008 0.041698 -0.058210 -0.002654 -0.018387 0.079561 0.087988 0.113508 0.128524 0.126692 0.053533 0.008443 -0.005298 -0.000591 -0.001072 0.006877 0.033642 0.083044 0.139119 0.095245 0.064943 0.056037 0.081302 0.120944 0.173011 0.105757 0.173550 0.118848 -0.015274 0.018494 0.065515 0.177787 -0.004843 0.134152 0.177911 0.187307 0.188570 0.233370 0.117754 0.034972 0.005757 -0.003243 0.006395 0.000018 0.032061 0.091538 0.171465 0.059840 0.062985 0.063396 0.095252 0.065145 0.100764 0.127918 0.157930 0.248476 0.084781 0.140192 0.243579 0.231157 0.182278 0.184502 0.110950 0.077249 0.074331 0.150825 0.145886 0.051870 0.001357 0.002749 -0.001052 -0.009007 0.025873 0.076752 0.027849 0.050301 -0.001668 -0.010028 0.076927 0.057008 0.135014 0.057350 -0.011675 0.121209 0.087583 0.093554 0.029398 0.030532 -0.008773 0.012996 0.009486 0.021703 -0.004106 0.123769 0.136451 0.026739 0.002002 -0.000460 -0.000344 0.015461 0.056886 0.068485 -0.029774 0.036606 0.038688 0.064107 0.019616 -0.023778 -0.050246 -0.067664 0.032064 0.065774 0.036433 -0.184462 -0.246117 -0.245992 -0.272422 -0.068291 -0.103956 -0.069606 -0.109845 0.008847 0.064427 0.013662 -0.000234 0.000052 0.003388 0.020374 0.102719 0.060974 0.018771 0.012082 -0.027657 -0.009332 -0.129294 -0.213341 -0.141885 -0.081294 0.071048 0.027485 -0.136718 -0.163313 -0.160382 -0.241168 -0.361603 -0.224409 -0.241392 -0.296490 -0.317545 -0.116119 0.008547 0.005764 -0.005385 -0.002103 -0.002031 0.014646 0.076535 0.070946 -0.014610 -0.053860 -0.187634 -0.192384 -0.153285 -0.060960 -0.037583 0.128353 0.157631 0.152014 0.008061 0.030200 0.119262 -0.029080 -0.191205 -0.302178 -0.358824 -0.407437 -0.371673 -0.163608 -0.002956 0.009500 0.001253 -0.000516 0.000241 0.005017 0.009419 0.018032 -0.042295 -0.092087 -0.129978 -0.123422 -0.021296 0.161494 0.159532 0.143821 0.146276 0.202934 0.005446 -0.010858 0.029797 0.061852 -0.157487 -0.188163 -0.319990 -0.405325 -0.342444 -0.192454 -0.020870 0.007099 0.002392 0.001168 -0.004781 0.000166 0.015781 -0.018457 -0.046045 -0.097385 -0.085954 -0.015029 0.114517 0.065016 0.042076 0.071550 0.148419 0.208289 -0.063997 -0.087089 -0.114405 -0.101814 -0.137022 -0.198142 -0.182300 -0.253902 -0.252019 -0.145433 -0.028351 0.001803 0.000892 -0.000494 0.004394 0.000264 0.008685 -0.025578 -0.095727 -0.121918 -0.135457 0.047000 0.126751 0.005582 -0.119108 -0.065880 0.018889 0.121949 0.017130 -0.091781 -0.226836 -0.201647 -0.165134 -0.138114 0.005010 -0.051302 -0.098173 -0.054288 -0.022445 -0.004249 -0.001332 0.000563 -0.000664 0.007225 0.008334 -0.073541 -0.202399 -0.245650 -0.314086 -0.228573 -0.001145 0.131792 0.160217 0.199241 0.079287 0.034751 -0.100916 -0.064536 -0.137860 0.012063 -0.010006 0.021901 0.073683 0.128418 0.069516 0.023066 -0.028327 -0.001898 -0.000031 -0.003528 0.007630 0.024043 0.031369 -0.059401 -0.226902 -0.478982 -0.623218 -0.672009 -0.362442 -0.065716 0.059127 0.214199 0.102795 -0.066420 -0.161187 -0.156192 -0.035102 0.160826 0.190033 0.061488 0.105818 0.147806 0.157759 0.077492 -0.031341 -0.008206 -0.005158 -0.001709 0.004125 0.037971 0.103438 -0.017344 -0.230467 -0.445959 -0.629839 -0.859860 -1.036950 -0.860337 -0.716259 -0.518902 -0.442723 -0.310303 -0.172228 -0.059898 0.123351 0.104943 0.153882 0.042142 0.148466 0.149463 0.167254 -0.017388 -0.045037 -0.005967 -0.002873 0.003763 0.001163 0.035040 0.169771 0.083402 -0.118581 -0.194256 -0.339794 -0.511966 -0.796232 -0.948143 -0.973058 -0.986620 -0.643907 -0.289849 -0.099794 0.057496 0.056288 0.148031 0.106614 0.068606 0.200401 0.139733 0.063595 -0.055021 -0.033323 0.000909 0.002181 0.002559 -0.003844 0.026104 0.197208 0.183494 0.132976 0.037937 -0.049583 -0.057641 -0.192676 -0.205245 -0.406535 -0.494523 -0.256301 -0.087636 0.020948 0.006608 -0.010048 0.055138 0.066977 0.116481 0.118017 0.068308 0.017032 -0.062483 -0.025511 -0.002840 0.003046 0.002348 -0.000282 0.014410 0.178881 0.208797 0.179652 0.113776 0.042064 0.169668 0.163396 0.081504 0.125768 -0.003184 0.077247 0.070771 0.065400 0.021455 0.077515 0.122067 0.056701 0.089016 -0.011075 0.041078 -0.012637 -0.047389 -0.013966 -0.007183 0.001317 0.005182 0.001535 0.000897 0.109165 0.202487 0.134989 0.077470 0.088880 0.104405 0.155861 0.125717 0.159342 0.221934 0.144905 0.102325 0.106049 0.078269 0.098782 0.093540 0.076169 0.087762 -0.005104 0.000376 0.022805 -0.038849 -0.006567 -0.000107 0.000621 -0.002567 -0.002399 0.006788 0.050233 0.124072 0.121074 0.030099 0.000790 -0.028328 0.027911 0.128111 0.171985 0.046333 -0.029588 0.014919 0.116490 0.187297 0.192592 0.040243 0.094730 0.071095 -0.019306 0.034690 0.041119 -0.029353 -0.013795 0.000569 -0.000980 0.003633 0.002784 0.014386 0.043423 0.116479 0.183419 0.195575 0.090380 0.022536 0.181942 0.246286 0.211672 0.052494 0.026480 0.013551 0.132171 0.183306 0.156395 0.075384 0.016008 -0.015846 -0.044643 -0.002114 0.001409 -0.009960 -0.006156 0.002920 0.000000 0.000335 -0.002280 0.006347 0.022724 0.063039 0.124620 0.243997 0.351632 0.318150 0.290494 0.235164 0.148389 0.128233 0.206297 0.210687 0.064461 0.007925 0.026721 -0.085949 -0.097317 -0.018677 0.013421 0.022789 0.001964 -0.006511 -0.001492 -0.000028 0.003276 0.006873 0.002192 -0.001284 0.000905 0.024091 0.045467 0.107818 0.192203 0.223815 0.241326 0.240847 0.222615 0.225566 0.204944 0.069887 0.056830 0.074704 0.003270 -0.014502 0.029531 0.009721 0.021429 0.036246 0.005173 -0.002851 0.002374 -0.000311 -0.002277 0.000489 -0.004787 -0.002689 -0.003697 0.000336 0.009674 0.023786 0.032593 0.035106 0.029788 0.042247 0.038687 0.045363 0.036514 0.040142 0.044824 0.036704 0.004835 -0.007741 0.006885 0.029453 0.027111 0.006016 0.001697 0.001129 -0.004830 0.001016 0.004475 0.003846 -0.004335 -0.001469 0.003365 0.000279 0.000878 0.003158 0.001134 0.001202 0.002689 0.004084 0.010117 0.007723 0.004867 0.010719 0.007959 0.004424 0.005412 -0.001116 -0.000709 -0.001472 -0.002232 0.001268 0.002751 0.004139 0.005967 -0.003036 0.000992 -0.001124 -0.004849 0.003320 -0.001665 -0.002387 -0.003267 0.002303 -0.001904 -0.002887 -0.001362 0.004125 -0.006681 0.004336 0.007884 0.000008 0.001503 -0.001766 -0.000050 0.001423 0.001536 -0.002764 -0.002622 0.000233 -0.000093 -0.001295 -0.001377 -0.001353 0.003129 0.002817 -0.001452 -0.002734 -0.003820 0.000854 0.003523 0.009403 0.013652 0.008632 0.012084 0.018263 0.024492 0.033462 0.016126 -0.005464 0.008078 0.012221 0.011160 0.008820 0.011227 0.005105 0.013329 0.010876 0.003447 -0.001758 -0.001302 -0.001105 0.000042 0.002958 0.002478 0.002213 -0.000700 -0.001694 -0.003137 0.009845 0.021705 0.027525 0.042751 0.097293 0.117655 0.143424 0.119946 0.113514 0.110329 0.112170 0.116440 0.084177 0.074003 0.065965 0.044841 0.036777 0.013658 -0.009251 -0.006375 0.000879 -0.000636 -0.003726 0.000688 -0.002939 0.000179 0.006753 0.007883 0.021671 0.034691 0.055068 0.108891 0.151514 0.144219 0.120616 0.149678 0.115307 0.066919 0.126350 0.128180 0.088195 0.050856 0.026806 0.089216 0.059194 0.052826 0.027879 -0.010632 -0.000931 -0.001655 -0.000169 -0.000174 -0.001107 -0.000802 -0.013322 -0.008145 0.011301 0.003860 0.068066 0.137161 0.188464 0.120441 0.098118 0.052473 0.053323 -0.037040 -0.017344 0.008705 0.100886 0.105192 0.102783 0.096837 0.061842 0.027982 -0.054350 -0.033133 -0.008008 0.002951 -0.002954 0.000557 -0.001471 -0.009730 -0.014002 -0.035603 0.001983 0.020560 0.091213 0.116666 0.073016 -0.087020 -0.061027 -0.067350 0.013950 -0.050836 -0.059855 -0.051758 -0.061861 0.038615 0.000793 -0.022651 -0.001789 0.006499 -0.050232 -0.027302 0.007277 0.000914 0.002341 0.002966 -0.003152 -0.014147 -0.006230 -0.036675 -0.043589 -0.001811 -0.030314 -0.121980 -0.220296 -0.252456 -0.242278 -0.284012 -0.205050 -0.089568 -0.187583 -0.256647 -0.306536 -0.296959 -0.271455 -0.188258 -0.116064 -0.069446 -0.040548 -0.006547 0.007453 0.005375 0.000287 -0.004527 0.001045 -0.016594 -0.010031 -0.056564 -0.093768 -0.100486 -0.114071 -0.258097 -0.263017 -0.260485 -0.301686 -0.266825 -0.159254 -0.150825 -0.310043 -0.257383 -0.353093 -0.403627 -0.356541 -0.313892 -0.220629 -0.194993 -0.072730 -0.049135 -0.008828 0.000968 -0.001301 0.000513 0.002272 -0.016075 -0.024641 -0.087161 -0.127871 -0.154623 -0.163549 -0.221178 -0.216569 -0.243414 -0.200184 -0.170010 -0.194518 -0.191811 -0.279758 -0.253751 -0.424990 -0.382032 -0.295877 -0.311457 -0.320225 -0.321052 -0.187285 -0.078735 -0.028786 -0.006210 -0.000224 -0.001324 0.000267 -0.009022 -0.036885 -0.128311 -0.186361 -0.122353 -0.151585 -0.174786 -0.228146 -0.149768 -0.116180 -0.167809 -0.078602 -0.109989 -0.196505 -0.302800 -0.367814 -0.323451 -0.268740 -0.275458 -0.311508 -0.327363 -0.221075 -0.130713 -0.043173 -0.004659 -0.002638 -0.002319 -0.002441 -0.019877 -0.063887 -0.105977 -0.148890 -0.075039 -0.049679 -0.166199 -0.114105 -0.121849 -0.150277 -0.106606 -0.093405 -0.112130 -0.160102 -0.229158 -0.244915 -0.224125 -0.194625 -0.178642 -0.224604 -0.190938 -0.170579 -0.139535 -0.055117 -0.011286 0.002695 0.004897 0.002968 -0.018326 -0.072672 -0.095885 -0.126534 -0.035038 -0.061843 -0.061720 -0.090528 -0.155591 -0.120376 -0.104428 -0.127974 -0.158882 -0.094133 -0.137047 -0.177780 -0.128692 -0.125560 -0.043653 -0.087130 0.030310 -0.040130 -0.093052 -0.044959 -0.008188 -0.002024 0.002526 -0.002301 -0.022130 -0.082229 -0.108131 -0.106880 -0.059887 -0.025303 -0.046488 -0.101843 0.009880 0.024435 0.015280 0.003124 0.003413 0.037483 -0.084224 -0.108157 -0.067494 -0.016229 0.073068 0.082556 0.152507 0.107347 -0.026074 -0.027989 0.000708 -0.000152 -0.003122 -0.003928 -0.015887 -0.105273 -0.089650 -0.074559 -0.095466 0.016317 0.031340 0.071765 0.065952 0.098505 0.134460 0.073719 0.156094 0.116059 -0.042577 -0.021589 0.122908 0.028664 0.114514 0.165201 0.279764 0.197262 -0.005986 -0.010594 0.005141 -0.003730 0.000763 0.002019 0.004844 -0.083933 -0.094890 -0.038178 0.006723 0.098381 0.114676 0.105514 0.212789 0.136555 0.146825 0.193941 0.189613 0.146754 -0.036802 0.052285 0.111630 0.061030 0.161775 0.194653 0.222322 0.155051 0.040249 -0.018235 0.004019 -0.001779 -0.000305 0.002863 -0.002728 -0.072912 -0.047167 0.064173 0.163485 0.181285 0.077716 0.154029 0.197092 0.126589 0.205457 0.338605 0.220560 0.128429 0.025628 0.014481 0.099203 0.113547 0.169412 0.077697 0.107888 0.116725 0.054182 -0.013542 0.002378 -0.000035 -0.000166 0.003007 -0.009300 -0.090090 -0.044927 0.119879 0.189236 0.198522 0.223834 0.198529 0.229993 0.129462 0.191767 0.332707 0.213547 0.138469 -0.028400 0.046661 0.108705 0.070001 0.065259 -0.006725 0.048764 0.089370 0.057675 0.004215 -0.000670 -0.000386 0.001553 -0.002622 -0.019738 -0.102454 -0.093874 0.010578 0.063469 0.146070 0.145496 0.240890 0.222931 0.066844 0.145558 0.205299 0.164461 0.054111 0.002902 0.070266 0.056052 0.035740 0.019806 -0.048902 0.007769 0.066909 0.052253 -0.006645 -0.001875 0.002998 0.002269 -0.008824 -0.028593 -0.082659 -0.131170 -0.147240 0.021206 0.077212 0.069082 0.093699 0.123934 0.260523 0.203284 0.087544 0.079598 0.178278 0.142748 0.198078 0.059758 0.003173 -0.010102 -0.055743 0.062230 0.077163 0.053499 -0.010124 -0.004044 -0.002817 -0.001687 -0.003232 -0.040434 -0.072009 -0.172068 -0.249673 -0.109028 -0.072214 0.042296 0.108126 0.209742 0.187121 0.131659 0.083107 0.131991 0.201591 0.159304 0.204268 0.110444 0.027308 -0.034912 -0.024506 0.033780 0.048729 0.019624 -0.009553 -0.003244 -0.001200 -0.004203 -0.000188 -0.024854 -0.046146 -0.154381 -0.249938 -0.124796 -0.101850 0.048290 0.145534 0.152503 0.199066 0.148155 0.200388 0.100135 0.153642 0.128746 0.205375 0.067209 0.001044 -0.051932 -0.107915 -0.029925 0.014347 0.008954 0.003401 0.005323 0.000078 -0.004449 -0.006726 -0.012718 -0.054502 -0.094636 -0.176658 -0.132705 -0.056138 0.078943 0.166730 0.184367 0.203849 0.246771 0.228450 0.135236 0.110758 0.169534 0.121359 -0.018164 -0.092635 -0.097563 -0.098037 -0.047113 -0.016298 0.010866 0.000785 0.002815 -0.000573 0.001192 -0.005814 0.002317 -0.024136 -0.065702 -0.128635 -0.153652 -0.102679 -0.029134 0.021763 -0.104686 0.000250 0.025230 -0.104994 -0.041113 -0.052713 -0.115852 -0.088132 -0.053231 -0.074532 -0.074780 -0.094930 -0.082908 -0.027705 -0.003640 -0.001476 -0.002121 -0.004722 -0.001091 -0.003631 0.002145 -0.006545 -0.035247 -0.083008 -0.125278 -0.192711 -0.240186 -0.309672 -0.294131 -0.259183 -0.257147 -0.207349 -0.147489 -0.178932 -0.208349 -0.131432 -0.108140 -0.091636 -0.049700 -0.044507 -0.049299 -0.032265 0.002033 -0.001479 0.001805 0.001178 0.002163 -0.005955 0.002963 -0.001824 -0.003562 -0.028998 -0.083596 -0.154645 -0.205994 -0.214045 -0.236753 -0.249587 -0.312079 -0.283400 -0.225546 -0.167530 -0.174629 -0.110578 -0.096675 -0.079835 -0.035157 -0.045427 -0.033372 0.002517 0.013481 0.002353 0.001675 -0.000805 0.000338 -0.002476 -0.001987 0.001035 -0.002768 0.003896 -0.019237 -0.070716 -0.087836 -0.052632 -0.071216 -0.089927 -0.176696 -0.188251 -0.139974 -0.144832 -0.145329 -0.130621 -0.116027 -0.073756 -0.049823 -0.025865 -0.012816 -0.002053 0.001052 -0.003135 -0.000173 0.002364 0.002360 -0.001439 0.006484 0.002219 -0.000832 -0.002011 -0.010913 -0.012668 -0.020654 -0.014076 -0.032156 -0.051410 -0.053252 -0.086962 -0.074004 -0.062483 -0.047873 -0.053199 -0.051467 -0.039395 -0.021841 -0.013385 -0.002882 -0.004484 -0.000772 0.001040 -0.003848 0.000579 -0.000625 -0.001132 -0.000160 -0.003867 -0.000215 -0.007524 0.000954 -0.003083 0.002389 -0.005034 -0.004165 -0.009369 -0.004664 -0.014709 -0.004190 -0.001183 -0.001204 -0.002298 0.000101 -0.003012 -0.002440 -0.003198 0.007036 -0.001093 -0.002308 -0.002994 -0.001449 0.001661 0.002086 -0.000584 -0.000120 -0.000480 0.002188 -0.000863 0.004155 -0.000004 -0.003134 -0.002581 0.004483 0.002202 0.000486 -0.003740 0.001316 0.001778 -0.002386 -0.000854 0.001412 -0.003817 -0.004345 0.001124 -0.000106 -0.003825 0.003231 -0.001179 0.002557 -0.007346 -0.000115 0.002383 -0.004192 -0.002794 -0.001047 0.005918 -0.001322 0.002461 -0.000195 -0.001192 -0.000334 -0.002135 -0.000509 0.004450 0.004474 0.002242 -0.002371 -0.001485 -0.005842 -0.000204 -0.000879 0.000115 0.000436 -0.000056 -0.001461 0.002732 0.001908 0.002297 -0.000175 -0.001439 -0.001886 0.000481 -0.002775 0.004098 0.003198 -0.000588 0.005104 -0.000283 -0.003948 -0.001993 0.009675 0.004643 0.012208 0.004525 -0.008820 -0.011029 -0.009326 -0.003573 -0.006828 -0.004286 0.000012 0.005976 0.002020 0.005520 -0.001421 0.006742 0.003118 0.004246 0.002046 -0.002001 0.001135 -0.004671 -0.013817 -0.021518 -0.010493 -0.017747 -0.033415 -0.026285 -0.021500 -0.049699 -0.040096 -0.042667 -0.088456 -0.078635 -0.045414 -0.024729 -0.013393 -0.003197 -0.004571 0.005098 -0.000501 0.000892 0.002136 0.000222 0.003057 -0.005691 -0.000821 0.001800 -0.017476 -0.019217 -0.036495 -0.048115 -0.061186 -0.068788 -0.037416 0.036955 0.069757 0.044871 -0.000521 -0.053022 -0.107267 -0.124068 -0.067994 -0.038577 -0.011933 0.004287 -0.011894 -0.015975 -0.009747 0.003543 0.000584 -0.005202 0.001808 -0.000532 -0.004142 -0.009441 -0.023771 -0.038923 -0.076962 -0.111700 -0.110860 -0.090115 -0.018708 0.049159 0.064416 0.100618 0.060093 -0.056514 -0.130968 -0.106237 -0.106157 -0.088994 -0.043027 -0.025083 -0.019501 -0.014181 -0.014693 -0.002574 0.001532 0.003355 -0.002353 -0.006061 -0.013528 -0.021094 -0.062343 -0.089177 -0.118168 -0.148431 -0.135505 -0.046158 0.067688 0.074919 0.070979 0.065504 -0.006064 -0.023470 -0.040047 -0.038685 -0.110746 -0.119377 -0.084917 -0.057520 -0.047441 -0.033325 -0.015857 0.000013 0.003483 0.001216 -0.000196 0.000663 -0.020862 -0.036859 -0.082886 -0.117139 -0.113911 -0.108758 -0.055678 0.003421 0.074108 0.039876 0.054057 0.069005 -0.017280 -0.001518 -0.000116 -0.022376 -0.089306 -0.132311 -0.118273 -0.082963 -0.077928 -0.059307 -0.024992 -0.001604 -0.004183 0.001304 -0.000427 -0.000989 -0.014196 -0.040081 -0.079704 -0.082020 -0.061226 -0.073681 -0.052776 0.001930 0.076227 0.077485 0.072636 0.116210 0.090669 -0.020883 -0.002640 -0.058509 -0.116990 -0.156696 -0.150218 -0.115882 -0.100165 -0.071335 -0.025881 -0.008115 0.003252 -0.001667 0.002399 -0.005704 -0.006622 -0.033791 -0.068263 -0.054504 -0.037466 -0.036806 0.009389 0.046233 0.117920 0.110485 0.154961 0.210981 0.210318 0.039739 -0.069633 -0.110595 -0.157421 -0.185290 -0.163879 -0.125237 -0.091410 -0.062250 -0.030338 0.002690 -0.001671 -0.000411 0.003486 -0.003559 -0.013490 -0.024359 -0.020823 -0.003931 0.011285 0.029748 0.084044 0.084882 0.077268 0.099654 0.098652 0.218552 0.275362 0.087600 -0.089789 -0.145017 -0.184947 -0.209874 -0.174052 -0.123707 -0.088641 -0.047535 -0.003860 -0.001225 -0.003517 0.001288 0.000790 -0.001291 -0.015512 -0.007988 -0.001492 -0.000216 0.006021 0.039014 0.054946 -0.017215 -0.066568 -0.045005 -0.019195 0.184918 0.270596 0.103852 -0.120692 -0.180726 -0.208495 -0.188410 -0.140927 -0.094297 -0.073478 -0.045385 -0.016743 -0.005282 -0.000114 0.005108 0.002324 -0.001279 -0.005868 0.008549 0.004064 -0.028525 -0.005327 0.018236 -0.034999 -0.128105 -0.157513 -0.108378 -0.055437 0.168102 0.236385 0.102184 -0.122536 -0.154994 -0.180295 -0.133278 -0.080491 -0.035030 -0.030658 -0.002663 0.016732 0.007685 -0.001526 -0.002653 0.000332 0.003484 -0.004729 -0.001241 -0.025667 -0.062659 -0.054398 -0.033596 -0.080020 -0.123220 -0.162304 -0.107026 0.004342 0.179120 0.188840 0.056075 -0.088279 -0.188068 -0.175952 -0.090635 -0.028530 0.004408 0.011631 0.015256 0.033471 0.017461 0.009294 0.002546 -0.001318 -0.000014 -0.003848 0.004389 -0.033765 -0.085671 -0.086275 -0.059613 -0.053035 -0.084285 -0.124286 -0.064397 0.043723 0.109552 0.168816 0.083622 -0.177264 -0.236781 -0.204695 -0.121755 -0.040624 0.015332 0.053358 0.030628 0.024667 0.019827 -0.001685 -0.003148 -0.003590 -0.007027 0.002405 0.000196 -0.020311 -0.061915 -0.065809 -0.008595 -0.026809 -0.012142 -0.038995 0.002677 0.116173 0.114993 0.089295 0.004688 -0.290412 -0.283439 -0.208018 -0.147575 -0.070997 0.005816 0.051797 0.068293 0.050162 0.026529 0.011893 0.000851 0.001450 -0.000959 -0.002654 -0.006201 -0.021693 -0.033490 -0.021151 -0.007305 0.004874 0.004821 0.026037 0.052281 0.128203 0.184911 0.000128 -0.147861 -0.297299 -0.207891 -0.124647 -0.088660 -0.016024 0.056242 0.085791 0.111254 0.085579 0.043798 0.012404 -0.002520 0.001264 0.000120 -0.002843 -0.018592 -0.043604 -0.065818 -0.057039 -0.022887 0.010012 0.076930 0.039171 0.112215 0.233495 0.237003 0.008090 -0.181231 -0.264659 -0.177497 -0.065598 -0.030157 0.006253 0.066218 0.093305 0.123341 0.089355 0.018942 0.002007 0.000652 -0.002586 -0.001555 -0.005947 -0.021841 -0.059014 -0.101441 -0.081501 -0.042226 0.021584 -0.005563 0.004157 0.077830 0.176912 0.147168 -0.037997 -0.176906 -0.202445 -0.165811 -0.092891 0.003619 0.027592 0.048157 0.075788 0.098178 0.060627 0.019489 0.004193 -0.000790 -0.002063 -0.002126 -0.002946 -0.022558 -0.075542 -0.087619 -0.075950 -0.084399 -0.034919 -0.056325 -0.008934 0.018409 0.128124 0.027409 -0.055983 -0.080138 -0.149766 -0.117820 -0.071147 -0.019217 -0.001355 0.008124 0.042399 0.046447 0.053160 0.018721 0.007741 -0.001195 0.000473 -0.002549 -0.008548 -0.016238 -0.062674 -0.051800 -0.073153 -0.072747 -0.089527 -0.062011 0.021567 0.034193 0.000476 -0.013494 -0.058739 -0.059385 -0.058356 -0.018664 0.027064 0.004133 -0.013032 -0.007310 0.015146 0.041125 0.013424 0.005469 0.001954 0.006772 0.000297 -0.000473 0.000139 -0.012070 -0.029592 -0.030527 -0.034748 -0.001838 -0.035992 0.007587 -0.024413 -0.041995 -0.039699 -0.020758 -0.038250 -0.059070 -0.042036 0.024899 0.030334 0.007665 0.007226 -0.017582 0.022649 0.011297 0.000642 0.001133 -0.000348 -0.001663 0.002226 -0.001445 -0.003099 -0.013527 0.001357 -0.028291 -0.056437 -0.015721 0.018090 0.005805 -0.052688 -0.104712 -0.045819 0.004860 -0.007122 -0.026024 0.001850 0.041889 0.054836 0.050485 0.013847 0.001787 0.001695 -0.009920 -0.005967 -0.002949 -0.002033 -0.006024 0.001076 -0.002756 -0.008791 -0.004855 0.010093 0.002096 -0.039283 -0.060346 -0.071751 -0.062716 -0.046194 -0.049938 -0.067888 -0.087335 -0.071840 -0.042894 -0.006678 0.010699 0.004992 -0.011942 0.001458 -0.002714 -0.016322 -0.012813 -0.001472 0.000765 0.002600 -0.002549 0.004716 -0.000750 -0.006030 -0.003592 -0.000764 -0.016503 -0.044171 -0.074277 -0.093247 -0.082497 -0.087286 -0.109643 -0.127967 -0.145234 -0.155505 -0.132390 -0.062136 -0.022729 -0.018090 0.002280 0.003606 0.004794 0.001801 -0.002780 0.003843 -0.000389 0.002453 0.004865 -0.000534 0.001078 -0.000868 -0.001528 -0.000215 -0.004731 -0.018033 -0.019529 -0.019815 -0.041423 -0.056039 -0.071375 -0.096522 -0.117594 -0.113860 -0.091901 -0.063462 -0.033463 -0.025598 -0.013550 0.000018 -0.000021 -0.006476 -0.003567 -0.003741 -0.000152 0.003561 0.000527 0.000136 -0.000615 0.001970 0.002826 -0.000094 -0.000318 0.000839 -0.001241 -0.002776 -0.004672 -0.006657 -0.014433 -0.019985 -0.022278 -0.028756 -0.025864 -0.020805 -0.009898 -0.005184 0.005033 -0.005238 -0.003763 0.000898 0.000852 -0.003084 -0.003084 -0.000545 -0.000260 -0.000119 0.000261 0.002210 0.001569 -0.001706 -0.002397 0.002393 -0.002579 -0.001110 -0.001716 0.003168 0.001253 -0.000643 -0.001620 -0.003878 -0.000031 0.001254 -0.001191 -0.000533 -0.000309 -0.002067 0.001554 0.002588 0.003099 0.000150 -0.001788 0.001568 -0.000423 0.002372 -0.003092 0.004277 0.002661 0.000213 -0.001669 0.002164 -0.000092 -0.001213 -0.001644 -0.000097 0.003310 0.000350 0.001607 0.001728 -0.002573 0.002038 0.004422 -0.000796 0.001101 0.001646 0.000547 -0.003499 -0.001049 0.000551 -0.001119 0.001609 -0.004686 0.004194 -0.004776 0.001822 -0.003809 -0.000011 0.002183 0.000639 0.003537 -0.002155 -0.001697 -0.002837 -0.002992 -0.005094 0.003354 0.010227 -0.005329 0.001958 -0.004123 -0.000274 0.000464 -0.000276 -0.001482 0.001010 -0.002541 -0.001789 -0.001460 0.002438 0.002714 0.001193 0.001245 0.003286 0.002592 -0.000389 -0.001386 0.002291 -0.001898 -0.009871 -0.004017 -0.003671 -0.009864 -0.006173 -0.000087 0.002525 -0.009850 -0.008765 -0.005195 -0.004540 -0.002105 -0.001664 0.002187 0.002394 -0.003172 0.000367 -0.001105 -0.000672 -0.000708 -0.000745 -0.000952 0.002321 -0.000389 -0.000863 -0.001734 -0.003438 -0.007430 -0.013456 -0.016943 -0.023657 -0.029535 -0.053839 -0.052305 -0.028728 -0.028353 -0.033492 -0.029160 -0.011881 0.002020 0.004703 0.008747 0.002756 -0.002578 -0.001751 0.000722 -0.004295 0.004344 0.000189 -0.000228 0.005701 0.000580 -0.001929 0.001281 -0.006420 -0.007431 -0.034660 -0.059484 -0.063993 -0.059030 -0.049064 -0.050435 -0.036212 -0.018212 -0.008571 0.015706 0.049012 0.060945 0.055064 0.041051 0.012813 -0.012745 -0.006416 -0.001693 -0.002150 -0.004436 -0.002976 0.000359 0.005062 0.000111 0.002064 -0.008471 -0.025488 -0.045419 -0.067350 -0.110393 -0.100915 -0.087244 -0.092642 -0.063604 -0.050961 -0.045600 -0.032724 0.009519 0.040956 0.052824 0.070128 0.068864 0.035083 0.013852 -0.008657 -0.001009 -0.006230 0.003697 -0.000337 -0.003471 0.003220 -0.003227 -0.005310 -0.026736 -0.037368 -0.051197 -0.078198 -0.105522 -0.088614 -0.122764 -0.158437 -0.108557 -0.092844 -0.064235 -0.021216 0.038072 0.041897 0.054783 0.043200 0.047881 0.021370 -0.008371 -0.016938 -0.002010 0.000127 0.004339 -0.000539 0.001969 -0.003183 -0.006133 -0.025023 -0.035880 -0.043926 -0.062620 -0.066680 -0.103597 -0.115258 -0.132666 -0.159901 -0.090232 -0.099886 -0.070843 0.003065 0.008250 0.036967 0.049291 0.030967 0.020989 -0.019986 -0.060301 -0.020469 0.000606 -0.002635 0.001892 0.001937 0.002015 0.000957 -0.005211 -0.016115 -0.033860 -0.044152 -0.058914 -0.070967 -0.098264 -0.124004 -0.154611 -0.186205 -0.125356 -0.068262 -0.036318 0.072011 0.042855 0.009095 0.009206 -0.008952 -0.028433 -0.058377 -0.071963 -0.028914 -0.001165 -0.001614 -0.002369 -0.001522 -0.001321 0.002249 -0.005635 -0.014880 -0.029081 -0.040889 -0.054260 -0.065228 -0.090329 -0.134297 -0.205827 -0.217713 -0.148752 0.022805 0.094504 0.107498 0.054191 -0.006116 -0.033577 -0.023998 -0.053388 -0.058796 -0.049294 -0.021504 -0.007594 -0.002042 -0.001364 -0.002028 0.001684 -0.000993 0.000152 -0.010091 -0.030726 -0.039368 -0.041546 -0.053268 -0.079189 -0.145072 -0.225340 -0.239612 -0.087052 0.131909 0.173801 0.119435 0.062987 -0.000249 -0.029423 -0.035700 -0.050660 -0.049628 -0.029610 -0.005974 0.002000 -0.002345 -0.003540 0.001333 -0.001372 0.000152 0.001903 -0.005496 -0.018305 -0.034922 -0.029716 -0.036380 -0.086450 -0.160387 -0.211257 -0.161527 0.064254 0.208690 0.164211 0.117596 0.090751 0.001643 -0.017205 -0.018120 -0.034053 -0.013798 -0.010898 -0.007242 -0.000076 0.003181 -0.004451 0.006479 0.001203 -0.006678 0.000774 -0.007408 -0.013714 -0.027092 -0.026346 -0.027325 -0.084179 -0.163669 -0.170487 -0.046587 0.177893 0.198711 0.129042 0.090696 0.029669 -0.028898 -0.031848 -0.006210 -0.014193 -0.004086 -0.011038 -0.001301 -0.000359 -0.001791 0.000793 -0.000775 -0.004902 -0.003378 0.002171 -0.009279 -0.008065 -0.015695 -0.014039 -0.037776 -0.081412 -0.125226 -0.097497 0.075067 0.180021 0.111987 0.058301 0.057553 -0.036640 -0.042875 -0.024159 -0.011620 -0.020965 -0.010262 -0.011129 -0.002678 -0.000431 -0.000428 0.001102 -0.000591 0.002758 0.006046 -0.001941 -0.003585 -0.008498 -0.014602 -0.013477 -0.029071 -0.065269 -0.060165 0.004038 0.106448 0.143932 0.043555 0.030033 -0.032108 -0.091040 -0.062956 -0.037225 -0.023387 -0.013582 -0.007614 -0.004249 -0.000888 -0.003445 -0.003651 0.000949 -0.004374 0.002251 -0.002840 -0.003104 -0.013635 -0.018449 -0.012092 -0.008309 -0.013549 -0.022077 0.027224 0.072042 0.146697 0.092499 -0.041431 -0.039404 -0.125107 -0.113448 -0.081027 -0.061282 -0.030866 -0.022223 -0.014559 -0.010635 -0.002039 -0.003477 -0.000100 0.002916 0.002018 0.006113 0.001115 -0.005904 -0.021154 -0.037091 -0.042079 -0.033623 0.006696 0.013112 0.093160 0.113156 0.150941 0.010492 -0.094090 -0.122149 -0.141331 -0.095019 -0.060881 -0.048394 -0.030761 -0.026304 -0.011322 -0.017650 -0.004398 0.003118 0.001186 0.000321 0.001023 -0.005974 -0.001927 -0.008966 -0.040971 -0.072795 -0.070004 -0.035756 -0.015680 0.047043 0.107515 0.146316 0.097677 -0.080714 -0.186166 -0.193878 -0.134133 -0.090562 -0.049115 -0.037434 -0.026848 -0.019157 -0.016877 -0.016866 -0.008025 0.005954 -0.003145 0.003801 -0.003882 -0.000857 0.000667 -0.013260 -0.057761 -0.110124 -0.066408 -0.027467 0.008650 0.063115 0.129215 0.116620 -0.000690 -0.160431 -0.232795 -0.210770 -0.107237 -0.077622 -0.055351 -0.028878 -0.029743 -0.025173 -0.019806 -0.014287 -0.006056 -0.000066 0.001903 0.001146 -0.001832 0.001267 0.004028 -0.013252 -0.050840 -0.062506 -0.047198 -0.019142 0.025668 0.049627 0.086165 0.054092 -0.061849 -0.189160 -0.206929 -0.130766 -0.079077 -0.065248 -0.046259 -0.033103 -0.036462 -0.036243 -0.021889 -0.011687 -0.000591 0.005691 -0.000582 -0.002389 -0.002166 -0.003200 0.000302 0.000563 -0.001649 0.020690 0.001195 0.025021 -0.002540 0.037415 0.068586 0.020706 -0.129316 -0.178791 -0.181952 -0.096567 -0.087821 -0.081339 -0.059360 -0.046774 -0.038217 -0.030544 -0.016847 -0.006112 0.001477 0.002905 -0.000316 -0.002762 -0.000654 -0.006604 0.001941 0.012732 0.050429 0.063264 0.027550 -0.007411 -0.022621 -0.000021 -0.031511 -0.080862 -0.137341 -0.171313 -0.134439 -0.078552 -0.072844 -0.084898 -0.075549 -0.054677 -0.039261 -0.017072 -0.007012 0.001930 0.003003 0.000004 -0.003259 -0.002817 -0.003349 0.000902 0.003251 0.013030 0.084813 0.083098 0.036753 0.003856 0.004118 -0.036184 -0.090480 -0.114662 -0.099268 -0.096189 -0.093746 -0.052101 -0.041429 -0.054940 -0.051737 -0.048495 -0.035935 -0.015484 -0.006246 0.002123 0.001506 -0.000819 -0.001949 0.001473 -0.001868 -0.001036 -0.004973 0.008734 0.071891 0.085128 0.039471 0.024395 0.009378 -0.012539 -0.022233 -0.028179 -0.032460 -0.064759 -0.047842 -0.009753 -0.010876 -0.028104 -0.036118 -0.032910 -0.026042 -0.010584 0.003411 0.005800 0.004974 0.005600 0.000149 -0.000956 0.000899 -0.000678 0.001818 0.002810 0.012053 0.019081 -0.017358 -0.031232 -0.044589 -0.062916 -0.056081 -0.032795 -0.026559 -0.049180 -0.036308 -0.024839 -0.015377 -0.013599 -0.010320 -0.013984 -0.004901 -0.000802 0.001722 0.002147 0.003526 -0.000292 0.000407 0.003964 -0.001669 -0.000729 0.002697 0.000239 -0.004555 -0.007972 -0.013034 -0.008199 -0.019258 -0.052620 -0.045079 -0.020528 -0.025336 -0.034407 -0.020548 -0.015934 -0.011857 -0.008236 -0.003164 -0.001707 0.002226 0.002939 0.000772 0.004110 -0.002401 0.001426 0.002516 0.002153 0.003337 0.001881 0.003088 -0.003756 0.003482 0.000590 0.005752 0.004120 0.000860 -0.010195 -0.008672 -0.017843 -0.008247 -0.014199 -0.015157 -0.003289 -0.001299 -0.000865 0.000110 -0.003567 0.001577 0.001208 0.003317 -0.001014 0.000878 -0.000243 -0.000033 -0.001073 0.001803 -0.003081 0.002693 -0.005532 -0.000102 -0.002498 -0.000566 0.000244 -0.001495 -0.003789 -0.000799 -0.000132 0.000846 -0.006064 0.004399 0.000335 0.003081 -0.001426 -0.004235 0.000993 0.001311 -0.000469 0.002851 -0.002609 0.000944 0.005202 0.004024 -0.000969 -0.001666 -0.000255 -0.003918 0.003387 0.004136 -0.005554 0.001891 -0.002220 0.003256 -0.002979 0.002720 -0.000556 0.000561 0.006034 -0.002472 -0.004024 -0.001052 -0.001337 -0.001205 -0.001273 -0.000815 -0.000258 -0.001045 -0.002270 0.000637 0.001272 -0.001290 -0.001511 0.000388 0.002260 0.000890 -0.001127 0.001616 0.001738 -0.000186 0.000765 -0.001032 -0.009810 -0.034818 -0.015064 -0.007565 0.001322 0.007741 0.020198 0.001634 -0.003314 -0.000529 -0.003717 -0.013878 -0.002000 0.003327 -0.003799 -0.001674 -0.003171 0.000603 -0.004327 -0.000086 0.002093 -0.003438 -0.000254 -0.000387 0.000505 -0.000226 0.003319 -0.007968 -0.025202 -0.015678 -0.026332 -0.014803 0.009413 0.023455 0.023953 0.005800 -0.008025 -0.040902 -0.038254 -0.039363 -0.024190 0.001655 0.011311 0.013040 -0.000276 0.003245 -0.002205 0.001857 0.000756 0.000389 -0.003027 0.010334 -0.000348 0.014137 0.011040 0.062208 0.062980 0.119156 0.138211 0.139733 0.100886 0.049151 0.033067 -0.046570 -0.097290 -0.119367 -0.120688 -0.127125 -0.094582 -0.069809 -0.024742 0.005772 -0.006100 -0.003242 -0.001609 0.000485 0.000050 0.004422 -0.000807 0.017670 0.035275 0.091271 0.131775 0.220244 0.231333 0.247851 0.277444 0.274365 0.256215 0.185989 0.166962 0.139863 0.098480 -0.075984 -0.084844 -0.158307 -0.180648 -0.184230 -0.087303 -0.007532 0.001907 -0.001616 0.001254 -0.001122 -0.002464 0.020320 0.039436 0.070871 0.127841 0.216074 0.202485 0.158079 0.180853 0.180995 0.122504 0.102429 0.156237 0.155215 0.231775 0.132747 0.138695 0.079749 -0.015295 -0.072510 -0.173841 -0.241056 -0.113663 -0.009620 -0.001127 -0.002538 0.001463 -0.005571 0.005058 0.028466 0.095846 0.139247 0.172140 0.138784 0.063113 0.069986 0.058066 -0.050768 -0.025710 0.087380 0.070407 0.087320 0.071426 0.027563 0.058560 0.008880 -0.006106 0.002481 -0.125927 -0.216266 -0.173525 -0.042667 -0.007076 -0.004667 -0.000077 0.005820 0.011288 0.039272 0.194680 0.183022 0.203314 0.050112 0.004582 0.011238 0.043069 0.090678 0.118662 0.250483 0.000920 0.042716 0.018077 -0.068733 0.009397 0.013319 0.012872 0.057940 0.055009 -0.152969 -0.168801 -0.075548 -0.014659 -0.003068 -0.008013 0.000642 0.005472 0.048510 0.230227 0.174660 0.173851 0.141023 0.063040 0.050592 0.147852 0.113092 0.226643 0.206105 0.200997 0.017197 0.053448 0.104969 0.165675 0.202002 0.112217 0.048886 0.142315 -0.123255 -0.203036 -0.076379 -0.000112 0.008922 0.003196 0.004501 0.016616 0.042223 0.144373 0.106870 0.079175 0.117799 0.111273 0.080257 -0.025517 -0.007706 0.034453 0.028395 0.052229 0.077539 0.225684 0.230222 0.207624 0.160802 0.098806 0.047299 0.105570 -0.106148 -0.211177 -0.070608 0.000019 -0.002304 -0.002335 -0.003162 0.016371 0.017829 0.012391 -0.069781 -0.052075 -0.121597 -0.147963 -0.291728 -0.290396 -0.352494 -0.457502 -0.426921 -0.138397 -0.051126 0.057080 0.133602 0.265840 0.232634 0.055574 0.025511 0.018622 -0.108293 -0.126645 -0.013830 0.007300 -0.000763 -0.001504 0.003457 0.006041 -0.016598 -0.112132 -0.286994 -0.417568 -0.469448 -0.502793 -0.569156 -0.577000 -0.477818 -0.531577 -0.408430 -0.066190 -0.050833 -0.082128 -0.025078 0.015891 0.109533 0.016970 -0.012894 -0.073440 -0.149871 -0.035560 0.036492 0.010419 0.001857 0.005213 0.000186 -0.003289 -0.069263 -0.208764 -0.464564 -0.693689 -0.723256 -0.617983 -0.481901 -0.373847 -0.335203 -0.344165 -0.273979 0.020011 0.019428 -0.037814 -0.102210 -0.114706 -0.025137 -0.049081 -0.110606 -0.232218 -0.228220 0.000794 0.098013 0.038705 -0.005226 0.001400 -0.002282 -0.007551 -0.092415 -0.319628 -0.591855 -0.753817 -0.644519 -0.422473 -0.194799 -0.151442 -0.189250 -0.131096 0.025658 0.067705 -0.075116 -0.041064 -0.001246 -0.070513 -0.110763 -0.052921 -0.137032 -0.248894 -0.236929 -0.030663 0.101855 0.050355 -0.002776 0.000720 -0.000590 0.004748 -0.092914 -0.242309 -0.483504 -0.492273 -0.272643 -0.181242 -0.099789 -0.149112 -0.051400 0.060390 0.238113 0.183468 0.009173 -0.050436 -0.060213 0.046265 -0.066223 -0.092092 -0.076922 -0.218360 -0.247563 -0.102216 0.066210 0.068150 -0.000141 0.000511 -0.000401 -0.004938 -0.052916 -0.102195 -0.166798 -0.109192 -0.069939 -0.068060 -0.094208 -0.195553 -0.071315 0.007070 0.403067 0.381950 0.150344 0.066008 -0.072801 -0.148237 -0.195512 -0.204190 -0.138228 -0.224514 -0.210376 0.006579 0.113936 0.072632 0.005703 -0.000678 0.003898 0.014034 0.022141 0.065512 0.096669 0.100024 0.012833 -0.015810 -0.024529 -0.066726 -0.040860 0.236178 0.364351 0.272109 0.073747 0.106339 -0.024554 -0.142285 -0.153691 -0.178466 -0.086136 -0.053157 0.001326 0.153502 0.235010 0.088799 0.022681 0.002382 0.000251 0.025171 0.102724 0.231630 0.181767 0.095042 -0.036131 0.001782 0.000573 -0.041607 -0.018261 0.181587 0.216617 0.177013 0.127455 0.098427 -0.089116 -0.089261 -0.057689 -0.167505 -0.069460 0.014621 0.071002 0.227333 0.282916 0.083334 0.008818 -0.002544 0.003148 0.009366 0.162334 0.324798 0.265360 0.131263 0.101660 0.001671 0.020921 0.049279 0.036645 0.141050 0.192326 0.117594 0.197080 0.131386 0.035234 0.024137 0.151082 -0.013380 0.032703 0.126001 0.213800 0.309156 0.248025 0.034944 0.011435 -0.005375 -0.001980 -0.001521 0.123968 0.311130 0.213028 0.090515 0.168868 0.073027 0.145573 0.063484 -0.040284 0.009559 0.145248 -0.034486 0.078992 0.066655 0.006480 0.042717 0.076988 0.058762 0.146938 0.218492 0.247570 0.239924 0.175924 0.040713 0.006117 -0.002558 -0.002274 0.011768 0.161542 0.296316 0.196630 0.240788 0.245541 0.177614 0.177996 0.075163 0.073070 0.018883 -0.073436 -0.122670 -0.039590 -0.009858 -0.090288 0.045703 0.104852 0.052735 0.122607 0.188783 0.299657 0.185293 0.082281 0.014076 0.001498 0.000089 -0.000265 0.022286 0.118156 0.204108 0.146705 0.246737 0.201832 0.125772 0.093310 0.054118 -0.050798 -0.091432 -0.095698 -0.096775 -0.092882 -0.075017 -0.062282 0.018493 0.082753 -0.008604 0.057898 0.201073 0.205427 0.119687 0.049894 0.001489 -0.000184 -0.000394 -0.001268 0.011595 0.069663 0.155045 0.182158 0.288505 0.355305 0.166202 0.070904 0.057027 -0.051127 -0.134135 -0.141714 -0.080736 -0.120779 -0.144934 -0.017288 0.045351 0.079880 0.103973 0.140387 0.159438 0.073962 0.045469 0.012690 -0.004901 -0.001168 0.005915 0.002277 0.010638 0.019857 0.051327 0.078226 0.168042 0.267674 0.149652 0.049264 -0.050731 0.040771 0.027201 0.062500 -0.059661 0.007751 0.054429 0.042683 0.101037 0.075972 0.020633 0.047060 0.046217 0.027390 0.011667 -0.003121 0.000723 -0.002790 0.000686 -0.000501 0.006110 -0.007766 -0.004410 0.002640 -0.004190 -0.025686 -0.026780 0.017288 -0.014756 0.028354 0.050530 0.103434 0.147015 0.118716 0.049987 0.014624 -0.032649 -0.120980 -0.151146 -0.095601 -0.062248 -0.026922 0.020639 0.014547 0.003919 0.001079 -0.002579 0.000455 0.000096 -0.008311 -0.029421 -0.045725 -0.050713 -0.075434 -0.053036 0.011839 0.072943 0.084610 0.098973 0.079305 0.081431 0.046545 -0.023814 -0.061274 -0.130273 -0.154165 -0.132344 -0.113596 -0.066765 -0.022542 -0.004118 0.002179 0.002753 -0.001975 -0.000780 0.000891 0.001993 0.003622 -0.010419 -0.035869 -0.054305 -0.023122 -0.006061 0.010636 -0.007580 -0.034543 -0.034139 -0.022404 -0.048176 -0.035352 -0.021384 0.000308 -0.031406 -0.030172 -0.033049 -0.015888 -0.008285 0.000253 0.002074 0.006431 0.005575 0.002548 -0.003972 -0.000999 0.004249 -0.001425 0.000242 0.004181 -0.000716 0.004310 -0.000740 -0.002487 0.004012 0.003325 0.000473 0.002527 -0.000491 -0.000217 0.000401 -0.002344 -0.003042 0.004040 -0.003971 -0.007998 -0.000926 -0.002458 0.001917 0.000100 0.002467 -0.000959 0.000335 -0.000418 -0.003301 0.000386 -0.002588 -0.001172 0.003466 -0.000276 0.002580 -0.000199 0.001117 0.000455 -0.000944 0.000953 -0.002577 -0.001559 0.001722 -0.002204 0.000476 0.001539 -0.000886 0.003623 0.002028 -0.000981 -0.000990 0.003611 0.000891 -0.003452 0.001578 0.000340 0.001073 0.001318 -0.000314 -0.001113 0.000127 0.006238 -0.003019 -0.004443 0.000128 0.006282 -0.003659 0.000132 -0.001574 0.005264 -0.003956 -0.001993 0.003410 -0.001901 0.003748 -0.004244 0.004463 -0.003671 0.000882 0.003263 0.006813 0.002758 -0.001903 -0.002557 -0.001993 -0.000200 -0.001800 0.005001 0.001675 -0.006270 -0.002153 -0.002375 0.000460 0.002465 -0.001161 -0.009158 -0.008814 -0.001301 -0.011039 -0.015326 -0.006969 0.003342 -0.001597 -0.001414 0.000109 -0.001967 0.000556 -0.000180 -0.002439 -0.001485 -0.000004 0.003657 -0.002931 0.000982 0.001088 0.003296 -0.002400 -0.001109 -0.001920 -0.002337 -0.012119 -0.017573 -0.031482 -0.049865 -0.061307 -0.047612 -0.050463 -0.040096 -0.034611 -0.003400 0.007565 0.000955 0.005496 -0.003653 -0.000616 -0.001939 -0.003283 0.001299 -0.001424 -0.000503 0.002064 0.001903 -0.001181 -0.000885 -0.001168 -0.002303 -0.007121 -0.029561 -0.054541 -0.058999 -0.065202 -0.070007 -0.087433 -0.107705 -0.074636 -0.069971 -0.050384 0.003826 0.002005 0.008809 0.014454 0.017032 -0.004195 -0.006647 -0.004931 -0.003835 0.000784 -0.003750 0.000906 0.003971 -0.001094 0.000957 -0.004389 -0.013161 -0.027204 -0.047145 -0.084575 -0.067347 -0.082461 -0.096197 -0.089255 -0.102207 -0.095092 -0.099767 -0.094121 -0.069034 -0.056428 -0.031269 0.012020 0.021955 0.001625 -0.017976 0.001072 -0.002473 0.003090 0.002641 -0.001202 -0.003299 0.003946 -0.011580 -0.010251 -0.026519 -0.046127 -0.037311 -0.024916 0.001950 -0.022836 -0.067610 -0.073941 -0.087064 -0.065730 -0.026637 -0.018624 -0.040993 -0.023798 -0.006471 0.003293 0.002764 -0.019950 -0.026202 0.004189 -0.000887 0.002198 -0.004201 0.001162 -0.003054 0.000341 -0.011118 -0.023822 -0.036807 -0.046690 -0.006337 0.008118 0.012843 -0.007056 -0.047919 -0.059242 -0.085180 -0.022149 0.030701 -0.010253 0.012065 0.012829 -0.000738 0.006446 -0.019690 -0.065210 -0.028402 0.006382 -0.001312 -0.002141 0.000770 0.003314 -0.001606 -0.011176 -0.006850 -0.016504 -0.009098 -0.015779 0.011151 0.000486 -0.030117 -0.059681 -0.118502 -0.105855 -0.017433 0.020092 0.095776 0.053088 0.044943 0.029820 0.020716 0.021902 -0.013987 -0.056703 -0.024534 0.001358 -0.001586 -0.001356 0.004811 0.002421 -0.000484 -0.011908 -0.008228 -0.016485 -0.017770 -0.018583 -0.001919 -0.045591 -0.092556 -0.171356 -0.212428 -0.129905 0.065552 0.113863 0.126968 0.094018 0.059665 0.053141 0.052953 0.027456 -0.017844 -0.000025 0.003004 -0.000015 0.000004 -0.004592 -0.001819 0.000285 0.000109 -0.007786 -0.012514 -0.029286 -0.031335 -0.025196 -0.020696 -0.062357 -0.140651 -0.224432 -0.224037 -0.062829 0.150456 0.169454 0.129418 0.070537 0.096473 0.084990 0.062396 0.021287 0.007222 0.021876 0.018401 0.002744 0.000521 0.001845 0.002673 -0.000772 -0.002742 -0.003364 -0.023722 -0.044894 -0.046323 -0.014158 -0.045479 -0.079531 -0.114275 -0.136120 -0.072913 0.084800 0.172631 0.144955 0.107970 0.064315 0.072659 0.074123 0.055826 0.003657 0.013000 0.015114 0.003290 -0.005211 0.000454 -0.001523 0.001783 -0.000594 0.003753 0.001624 -0.023765 -0.039635 -0.028039 -0.018549 -0.042357 -0.058333 -0.071032 -0.046594 0.004445 0.120775 0.130274 0.075344 0.042451 0.007520 0.012119 0.004046 -0.000931 -0.027547 -0.020893 -0.005724 0.004097 0.008062 0.001466 0.001487 -0.004300 -0.004152 0.000841 -0.002519 -0.017507 -0.017929 -0.009299 -0.015815 -0.024540 -0.012276 -0.040431 -0.047418 0.043638 0.077341 0.064915 0.025901 0.017028 -0.002255 -0.010947 -0.017903 -0.030305 -0.037872 -0.024004 -0.008911 -0.004278 0.000213 0.000352 -0.000658 0.001946 -0.003135 0.002072 -0.004326 -0.003972 -0.014340 -0.018568 -0.027452 -0.009918 -0.040240 -0.041386 -0.023962 0.000305 0.035763 0.051833 0.048286 0.025695 -0.010272 -0.004394 -0.022847 -0.028884 -0.033690 -0.024438 -0.019123 -0.007719 -0.005890 -0.001628 -0.004321 -0.001963 -0.006024 -0.005733 -0.008404 -0.010779 -0.027707 -0.029149 -0.043570 -0.029364 -0.039437 -0.043089 -0.008924 0.003975 0.056228 0.071706 0.067128 0.003824 -0.027857 -0.026670 -0.035241 -0.021522 -0.023036 -0.020947 -0.030298 -0.023716 -0.007668 -0.003640 -0.000001 0.000328 -0.003225 -0.013568 -0.009017 -0.009322 -0.041473 -0.077696 -0.073588 -0.035383 -0.043074 -0.020692 -0.008342 0.101963 0.082930 0.039288 0.000456 -0.056403 -0.044066 -0.030047 -0.036078 -0.036259 -0.040744 -0.034874 -0.019215 -0.016660 -0.003510 -0.000426 0.001783 0.000311 -0.006711 -0.015888 -0.024713 -0.019405 -0.053476 -0.108398 -0.098212 -0.061868 -0.028845 -0.010392 0.039143 0.139020 0.089720 -0.042545 -0.097075 -0.102340 -0.062908 -0.054544 -0.041369 -0.028426 -0.032193 -0.028425 -0.019700 -0.010396 0.000263 -0.001469 -0.001350 -0.003088 -0.002171 -0.020002 -0.025333 -0.039329 -0.077047 -0.072063 -0.087451 -0.074565 -0.067741 0.011612 0.105388 0.158421 0.033196 -0.147484 -0.185687 -0.125274 -0.087709 -0.079728 -0.055949 -0.059283 -0.054431 -0.035515 -0.017702 -0.001202 -0.000126 -0.000474 0.000400 -0.001710 0.001689 -0.012706 -0.020909 -0.047117 -0.047406 -0.073207 -0.083807 -0.045811 -0.044847 0.062414 0.140052 0.134136 -0.063370 -0.207837 -0.178408 -0.128164 -0.112690 -0.077997 -0.050527 -0.055950 -0.052834 -0.037968 -0.011927 -0.009297 -0.001927 0.000015 -0.000074 -0.006848 0.000854 -0.007010 -0.026785 -0.035519 -0.024644 -0.047557 -0.025530 -0.036580 0.013950 0.086623 0.109745 0.020276 -0.133687 -0.234433 -0.149948 -0.112845 -0.115139 -0.072487 -0.055217 -0.045388 -0.031132 -0.024292 -0.008245 -0.005094 -0.000166 -0.005246 -0.002668 0.003746 0.000380 -0.002654 -0.005616 -0.004186 -0.004735 -0.025760 -0.034597 -0.030920 0.019542 0.025891 0.039037 -0.073348 -0.214750 -0.192877 -0.149120 -0.138658 -0.127517 -0.092101 -0.071077 -0.046137 -0.025066 -0.012778 -0.006917 0.003518 0.001517 -0.003590 -0.000601 -0.001284 -0.003024 -0.003505 -0.003667 0.043509 0.052563 0.023448 0.005358 -0.000019 0.002670 -0.005332 -0.020851 -0.093009 -0.170802 -0.155786 -0.129700 -0.113225 -0.093974 -0.076795 -0.070145 -0.049147 -0.017432 -0.007533 0.002581 0.000341 -0.002113 0.004135 0.001522 0.003215 0.002588 -0.004284 0.009617 0.075277 0.100888 0.075941 0.048281 0.040902 0.032342 0.013838 0.015759 -0.041670 -0.110551 -0.118847 -0.109918 -0.073074 -0.064229 -0.061795 -0.049547 -0.029675 -0.016891 -0.003200 0.004139 0.003023 0.006534 0.002613 0.003959 0.000568 -0.002866 0.002645 0.017419 0.055751 0.081656 0.067731 0.055138 0.038652 0.047425 0.043482 0.002014 -0.034229 -0.077364 -0.101245 -0.083435 -0.054725 -0.034498 -0.023836 -0.016930 -0.009273 0.003108 -0.004773 0.000509 0.001681 -0.002301 -0.001916 -0.003526 -0.001769 -0.000280 0.004106 0.016658 0.023016 0.035733 0.036886 0.050155 0.056061 0.024455 0.017845 -0.004859 -0.019958 -0.055811 -0.059158 -0.045450 -0.031707 -0.021523 -0.013382 -0.004448 -0.000929 0.004179 0.002315 0.000980 0.002379 -0.004501 -0.000296 -0.002447 -0.002401 -0.002135 0.002065 0.002186 -0.009242 0.000759 0.014729 0.001949 0.005028 -0.015591 -0.009542 -0.007722 0.000053 -0.002953 -0.010429 -0.008338 -0.003647 -0.002640 -0.003773 0.000478 -0.003966 -0.004686 -0.003460 -0.001184 -0.002299 0.002527 -0.000381 -0.000361 0.001136 0.001206 0.001507 0.000398 -0.002020 0.003839 -0.001881 0.002975 0.002541 -0.000030 0.007486 0.000301 0.000425 0.000711 0.003019 0.000326 -0.000151 -0.006083 0.000166 0.002670 0.002742 -0.001675 0.001947 0.003017 0.001210 0.001797 -0.005125 0.002245 -0.000941 -0.000965 -0.003392 -0.004014 -0.000276 0.000102 0.002991 0.001036 -0.003254 -0.002975 -0.003987 -0.005670 -0.006146 0.004224 0.001618 0.001173 0.002628 -0.000464 -0.004641 -0.004744 0.000140 -0.004488 0.002715 -0.000505 0.002527 -0.001340 0.000798 -0.002325 0.002043 0.000641 -0.001797 0.001158 0.000543 -0.015651 -0.023021 -0.017174 -0.010272 -0.014132 -0.027037 -0.052625 -0.034262 -0.003916 -0.032218 -0.027619 -0.012293 -0.008743 -0.017475 -0.005104 -0.009576 -0.014904 -0.012454 -0.003020 -0.002453 -0.002583 -0.003867 0.003001 0.006480 -0.003541 -0.002529 -0.002584 0.001617 -0.014049 -0.034715 -0.038223 -0.027502 -0.085304 -0.101008 -0.157577 -0.141342 -0.123334 -0.133891 -0.116969 -0.071234 -0.045204 -0.026097 -0.012698 -0.001270 -0.013635 -0.016087 -0.002206 -0.001275 0.000158 0.003209 0.001711 0.001650 -0.003418 0.003023 -0.000054 -0.002034 -0.021397 -0.046582 -0.081825 -0.101574 -0.146495 -0.193008 -0.298659 -0.367674 -0.320817 -0.255238 -0.191443 -0.142771 -0.100138 -0.023708 -0.011131 0.005994 0.010885 -0.005450 -0.001034 0.000600 0.002498 0.003210 0.001406 0.001002 0.000252 0.003243 0.016646 0.002139 -0.026576 -0.040100 -0.079589 -0.139036 -0.195346 -0.204173 -0.263982 -0.304935 -0.393878 -0.299370 -0.180968 -0.133731 -0.102133 0.011104 0.069874 0.064929 0.061260 0.041640 0.013328 -0.012774 -0.004594 -0.003075 0.002120 -0.002915 0.001813 0.002864 0.020419 0.014357 0.027711 0.005834 0.013847 0.002902 -0.076310 -0.114819 -0.132909 -0.243027 -0.264487 -0.143206 -0.150128 -0.151044 -0.079256 0.025555 0.031629 0.007685 0.116222 0.150672 0.051241 -0.021879 -0.007158 -0.003624 -0.005877 -0.000032 -0.008191 -0.008676 0.020853 0.062387 0.070289 0.124108 0.094761 0.010657 -0.074300 -0.169384 -0.154027 -0.125438 -0.205552 -0.216457 -0.207537 -0.127169 -0.102197 -0.023736 -0.034125 0.072119 0.208643 0.185162 0.028006 -0.016881 0.003085 0.000667 -0.001021 -0.000767 0.001165 -0.002203 0.019957 0.038076 0.039955 0.072302 0.013332 -0.010696 -0.023882 -0.142921 -0.106401 -0.145943 -0.204980 -0.206786 -0.197615 -0.032907 -0.015332 0.022210 0.064817 0.149438 0.175378 0.171207 0.034760 0.014200 0.025293 -0.003250 -0.001428 -0.004678 0.000757 0.000106 0.007310 0.030901 0.012710 0.007355 -0.005193 -0.001823 -0.034184 -0.100964 -0.209993 -0.227400 -0.301921 -0.227271 -0.192010 0.014314 0.105515 -0.015072 -0.021733 0.079718 0.117610 0.102134 -0.030500 -0.008064 -0.007216 -0.009472 