-0.002542 0.002195 -0.000454 0.003919 0.00022 -0.003366 -0.000895 0.000523 -0.003798 -0.002254 0.002631 -0.002632 0.004483 0.001195 0.001322 -0.002417 0.002269 -0.000397 -0.003786 0.003388 -0.001822 0.002021 0.003239 0.00315 -0.000848 -0.005537 -0.002102 -0.000608 0.005232 0.001519 0.001428 -0.001025 -0.002843 0.000592 -0.003734 -0.000997 -0.000715 -0.000565 0.004522 -0.00019 -0.000847 0.001012 0.000513 -0.002615 -0.000573 0.000364 -0.003992 0.002823 -0.001492 0.000831 0.00113 0.000801 0.002254 -0.004291 -0.001758 0.004494 0.001497 -0.005161 -0.001693 0.000734 0.003835 0.000103 -0.000439 0.000142 0.003667 -0.002113 -0.000959 -0.002722 0.00288 0.002583 0.001667 0.001235 -0.001127 -0.004912 0.001688 0.001099 0.001384 0.004791 -0.001676 -0.001736 0.001321 0.000773 -5.5e-05 -0.00245 0.001446 0.003565 -0.002776 -0.002441 -0.00122 -0.000962 -0.000591 0.002014 -0.001345 0.001055 0.00218 0.000361 0.002801 -0.004888 0.001024 -0.000423 -0.002129 0.001238 -0.000946 0.000909 0.002505 -0.004444 0.003468 -0.000925 -0.001711 0.000413 0.006462 -0.004829 -0.001245 0.001772 0.004771 -0.000657 -0.000154 -0.003494 0.001364 0.001894 -0.001538 -0.000546 -0.001901 -0.002178 0.001794 0.000679 0.003778 0.001606 0.005216 0.001956 -0.002124 0.001823 0.000912 0.000391 0.000943 -0.000198 -0.002672 0.002381 0.003939 -0.001685 3.2e-05 -0.001584 -0.003489 -0.000311 7.9e-05 0.002854 0.001974 -0.001069 -0.001944 0.000166 -0.000632 0.000639 -0.004117 -0.003341 -0.00059 0.000621 -0.006978 -1.8e-05 -0.002611 0.000482 0.001793 -0.000949 0.001768 0.002644 -0.000134 -3.2e-05 0.001365 0.002823 -0.004353 -4e-06 0.002102 0.002147 0.001368 -0.00099 -0.002273 0.002496 0.000433 -0.001029 0.000973 -0.001119 0.000915 0.002535 -0.001978 0.000233 0.00578 0.000358 -0.000241 -0.000831 0.001774 0.000966 -0.004447 0.001243 -0.000219 -0.001304 0.001497 0.000538 0.000519 -0.000547 0.000554 -0.003048 2.1e-05 0.001667 0.004181 -0.00016 -0.001218 0.001301 0.001284 0.002586 0.003437 -0.001352 0.001177 -0.001069 8e-05 -5.6e-05 0.000574 0.002374 -0.003786 -0.002385 -0.000518 -0.003462 -0.001047 0.000655 0.000205 0.001214 -0.002004 0.000712 -0.002793 0.000454 -0.002851 -0.003268 0.002512 -0.00078 4.3e-05 -0.001045 0.003702 -0.001091 -0.002468 -0.001402 0.001648 0.00183 0.002518 0.003219 0.002082 0.001883 0.002289 0.001483 0.002026 -0.002022 0.003122 -0.001595 -0.001714 0.002151 0.002424 -0.002663 -0.000974 -0.001585 