-0.334067 0.564125 0.349765 -0.577754 -0.283559 -0.677651 -0.146683 -0.258906 -0.107634 -0.178166 -0.238595 -0.321156 -0.779910 0.392571 -0.566297 1.343835 0.026119 -0.189377 0.191674 -0.483213 0.707732 0.041962 1.226228 0.894665 0.838468 0.386728 -0.504563 -0.078651 0.300622 -0.157016 0.433577 -0.301328 0.183654 -0.025347 -0.990270 -0.228099 0.291384 -0.483801 -0.325155 0.895336 -0.719357 1.038099 0.078481 0.270552 -0.593355 0.371179 0.876567 0.413241 0.158099 0.129678 -0.355381 -0.301048 -0.532640 -0.324272 -0.359460 -0.155286 -0.205864 0.331719 0.324916 0.597601 1.166498 -0.081658 -0.259724 -0.325079 -0.596305 -0.397769 0.043376 1.366527 0.493232 -0.015376 0.081546 0.086854 0.089181 -0.093349 -0.436755 -0.025170 -0.046488 0.111936 -0.286710 -1.246549 0.736735 -0.615375 0.870254 -0.035618 -0.963523 0.636142 -0.057312 -0.682925 0.332205 -0.093583 -0.168111 0.096969 0.422412 0.189918 -0.405787 0.535014 -0.459410 -0.429400 -0.084097 -0.889472 -0.085974 0.473354 -0.012561 -0.163160 -0.100441 -0.632194 -0.299886 -0.602493 -0.742892 1.049074 -0.167042 0.198813 0.723487 -0.265842 0.135900 0.730604 0.116704 -0.589955 -0.039475 0.294333 0.238267 0.924195 0.784445 -0.487821 0.224780 -0.775756 0.732740 0.213382 0.024962 0.601204 -0.328252 -0.328173 0.129923 0.703333 -0.293192 -0.691419 -0.381645 -0.780358 -0.525858 0.940771 -0.458090 -0.202525 0.236967 -0.589950 -0.452990 0.618908 0.151431 0.747398 0.131177 0.244729 -0.063611 -0.219411 0.003848 -0.893144 0.986376 -0.392941 0.512949 -0.887464 -0.596712 -0.241777 0.000576 0.005212 -0.002052 0.003350 -0.005151 0.000570 -0.000394 0.001868 -0.001035 0.001578 0.003123 -0.005394 -0.008483 -0.003764 0.002131 -0.001341 -0.000775 0.001894 0.001286 0.001040 -0.001084 0.000454 -0.000117 0.000017 0.000476 -0.004131 0.000805 -0.003814 0.002628 0.001220 0.001711 -0.000125 -0.006559 -0.004552 -0.009513 -0.010231 0.001279 -0.001377 0.004541 0.003379 -0.002245 -0.001734 -0.000871 0.000526 -0.001047 0.001882 -0.008386 -0.034220 0.014123 0.024880 0.014740 -0.004025 0.002144 -0.002939 -0.000949 0.002914 -0.000693 -0.001836 -0.007215 -0.002080 -0.003940 -0.002285 0.000793 -0.004427 -0.034527 -0.071022 -0.078583 -0.101145 -0.061162 0.002832 0.009928 0.060345 0.061577 0.063851 0.113731 0.099480 0.083383 0.095448 0.089281 0.036536 0.002285 0.000346 -0.000233 -0.007376 -0.000951 -0.006635 -0.025560 -0.075866 -0.103782 -0.083129 -0.044339 -0.005155 -0.002595 -0.022170 -0.013955 0.001379 -0.334067 0.564125 0.349765 -0.577754 -0.283559 -0.677651 -0.146683 -0.258906 -0.107634 -0.178166 -0.238595 -0.321156 -0.779910 0.392571 -0.566297 1.343835 0.026119 -0.189377 0.191674 -0.483213 0.707732 0.041962 1.226228 0.894665 0.838468 0.386728 -0.504563 -0.078651 0.300622 -0.157016 0.433577 -0.301328 0.183654 -0.025347 -0.990270 -0.228099 0.291384 -0.483801 -0.325155 0.895336 -0.719357 1.038099 0.078481 0.270552 -0.593355 0.371179 0.876567 0.413241 0.158099 0.129678 -0.355381 -0.301048 -0.532640 -0.324272 -0.359460 -0.155286 -0.205864 0.331719 0.324916 0.597601 1.166498 -0.081658 -0.259724 -0.325079 -0.596305 -0.397769 0.043376 1.366527 0.493232 -0.015376 0.081546 0.086854 0.089181 -0.093349 -0.436755 -0.025170 -0.046488 0.111936 -0.286710 -1.246549 0.736735 -0.615375 0.870254 -0.035618 -0.963523 0.636142 -0.057312 -0.682925 0.332205 -0.093583 -0.168111 0.096969 0.422412 0.189918 -0.405787 0.535014 -0.459410 -0.429400 -0.084097 -0.889472 -0.085974 0.473354 -0.012561 -0.163160 -0.100441 -0.632194 -0.299886 -0.602493 -0.742892 1.049074 -0.167042 0.198813 0.723487 -0.265842 0.135900 0.730604 0.116704 -0.589955 -0.039475 0.294333 0.238267 0.924195 0.784445 -0.487821 0.224780 -0.775756 0.732740 0.213382 0.024962 0.601204 -0.328252 -0.328173 0.129923 0.703333 -0.293192 -0.691419 -0.381645 -0.780358 -0.525858 0.940771 -0.458090 -0.202525 0.236967 -0.589950 -0.452990 0.618908 0.151431 0.747398 0.131177 0.244729 -0.063611 -0.219411 0.003848 -0.893144 0.986376 -0.392941 0.512949 -0.887464 -0.596712 -0.241777 0.000576 0.005212 -0.002052 0.003350 -0.005151 0.000570 -0.000394 0.001868 -0.001035 0.001578 0.003123 -0.005394 -0.008483 -0.003764 0.002131 -0.001341 -0.000775 0.001894 0.001286 0.001040 -0.001084 0.000454 -0.000117 0.000017 0.000476 -0.004131 0.000805 -0.003814 0.002628 0.001220 0.001711 -0.000125 -0.006559 -0.004552 -0.009513 -0.010231 0.001279 -0.001377 0.004541 0.003379 -0.002245 -0.001734 -0.000871 0.000526 -0.001047 0.001882 -0.008386 -0.034220 0.014123 0.024880 0.014740 -0.004025 0.002144 -0.002939 -0.000949 0.002914 -0.000693 -0.001836 -0.007215 -0.002080 -0.003940 -0.002285 0.000793 -0.004427 -0.034527 -0.071022 -0.078583 -0.101145 -0.061162 0.002832 0.009928 0.060345 0.061577 0.063851 0.113731 0.099480 0.083383 0.095448 0.089281 0.036536 0.002285 0.000346 -0.000233 -0.007376 -0.000951 -0.006635 -0.025560 -0.075866 -0.103782 -0.083129 -0.044339 -0.005155 -0.002595 -0.022170 -0.013955 0.001379 -0.145972 -0.361282 -0.087747 -0.185724 -0.157562 -0.351796 -0.209753 -0.201438 -0.428752 -0.530953 -0.207111 -0.412587 -0.306593 -0.172714 -0.346430 1.254819 -0.242170 0.353964 0.278229 -0.396363 0.393855 0.588738 0.857583 0.199103 0.201280 -0.118514 -0.234552 0.343393 0.124952 -0.058172 0.018686 -0.968554 -0.032351 -0.237715 -0.112678 0.008279 0.942178 -0.223533 -0.185611 0.812470 -0.399891 0.182834 -0.101429 -0.037866 -0.001976 -0.027682 -0.346455 -0.050362 -0.306591 -0.193759 -0.075857 -0.177354 -0.012369 -0.413185 -0.358422 0.024057 0.301569 0.033247 -0.226875 1.019268 0.758535 -0.298463 -0.305005 -0.027173 0.595493 -0.323980 0.012936 0.164571 -0.241599 -0.300284 -0.090774 -0.440736 -0.034482 0.435994 0.591943 -0.131741 -0.548662 0.428401 0.740458 -0.537495 -0.072688 0.060436 0.246759 -0.427122 -0.479820 -0.107390 0.201208 -0.291204 0.608721 0.019316 -0.212767 0.035605 -0.215796 -0.115599 0.129762 0.662498 0.623461 -0.188581 -0.084137 -0.572678 -0.292118 -0.061834 0.162744 0.552635 -0.312795 0.370354 -0.070440 -0.475551 -0.525999 0.910051 -0.403317 -0.047980 0.061564 0.245584 0.324198 0.832890 0.138906 0.251529 -0.008356 0.059606 -0.111000 -1.165120 0.431896 -0.028671 0.712243 -0.081468 0.281433 -0.210339 -0.480488 0.339475 -0.147643 -0.053394 0.042241 0.572964 -0.170196 -0.302152 -0.067030 0.662705 -0.461818 -0.135445 -0.198395 -0.434600 0.018612 0.133690 0.010025 0.296660 -0.369660 0.808046 -0.329255 0.053257 -0.188098 -0.412260 0.229407 0.120083 0.491602 -0.178744 0.208217 -0.139495 0.209835 -0.209501 0.000576 0.005212 -0.002052 0.003350 -0.005151 0.000570 -0.000394 0.001868 -0.000873 0.001834 0.003013 -0.005398 -0.008483 -0.003764 0.002131 -0.001341 -0.000775 0.001894 0.001286 0.001040 -0.001084 0.000454 -0.000117 0.000017 0.000476 -0.004128 0.001181 -0.003573 0.002730 0.000500 0.001431 -0.000183 -0.003064 -0.003031 -0.000747 -0.000732 0.001279 -0.001377 0.004541 0.003379 -0.002245 -0.001734 -0.000872 0.001912 -0.000628 0.002439 0.000807 -0.004344 -0.000644 -0.004058 -0.003211 -0.003466 -0.002511 -0.006156 -0.004068 -0.001931 -0.004602 -0.003568 -0.006913 -0.001581 -0.003940 -0.002285 0.000793 -0.004427 -0.004061 -0.012318 -0.009572 -0.020753 -0.017973 -0.015440 -0.022788 -0.021104 -0.022201 -0.033013 -0.023872 -0.022827 -0.008782 -0.006538 -0.002454 0.000988 0.002073 0.000279 -0.000633 -0.008353 -0.002672 -0.007300 -0.017441 -0.025555 -0.026628 -0.028723 -0.022094 -0.004734 0.001925 0.003770 0.009305 0.023864 -0.334067 0.564125 0.349765 -0.577754 -0.283559 -0.677651 -0.146683 -0.258906 -0.107634 -0.178166 -0.238595 -0.321156 -0.779910 0.392571 -0.566297 1.343835 0.026119 -0.189377 0.191674 -0.483213 0.707732 0.041962 1.226228 0.894665 0.838468 0.386728 -0.504563 -0.078651 0.300622 -0.157016 0.433577 -0.301328 0.183654 -0.025347 -0.990270 -0.228099 0.291384 -0.483801 -0.325155 0.895336 -0.719357 1.038099 0.078481 0.270552 -0.593355 0.371179 0.876567 0.413241 0.158099 0.129678 -0.355381 -0.301048 -0.532640 -0.324272 -0.359460 -0.155286 -0.205864 0.331719 0.324916 0.597601 1.166498 -0.081658 -0.259724 -0.325079 -0.596305 -0.397769 0.043376 1.366527 0.493232 -0.015376 0.081546 0.086854 0.089181 -0.093349 -0.436755 -0.025170 -0.046488 0.111936 -0.286710 -1.246549 0.736735 -0.615375 0.870254 -0.035618 -0.963523 0.636142 -0.057312 -0.682925 0.332205 -0.093583 -0.168111 0.096969 0.422412 0.189918 -0.405787 0.535014 -0.459410 -0.429400 -0.084097 -0.889472 -0.085974 0.473354 -0.012561 -0.163160 -0.100441 -0.632194 -0.299886 -0.602493 -0.742892 1.049074 -0.167042 0.198813 0.723487 -0.265842 0.135900 0.730604 0.116704 -0.589955 -0.039475 0.294333 0.238267 0.924195 0.784445 -0.487821 0.224780 -0.775756 0.732740 0.213382 0.024962 0.601204 -0.328252 -0.328173 0.129923 0.703333 -0.293192 -0.691419 -0.381645 -0.780358 -0.525858 0.940771 -0.458090 -0.202525 0.236967 -0.589950 -0.452990 0.618908 0.151431 0.747398 0.131177 0.244729 -0.063611 -0.219411 0.003848 -0.893144 0.986376 -0.392941 0.512949 -0.887464 -0.596712 -0.241777 0.000576 0.005212 -0.002052 0.003350 -0.005151 0.000570 -0.000394 0.001868 -0.001035 0.001578 0.003123 -0.005394 -0.008483 -0.003764 0.002131 -0.001341 -0.000775 0.001894 0.001286 0.001040 -0.001084 0.000454 -0.000117 0.000017 0.000476 -0.004131 0.000805 -0.003814 0.002628 0.001220 0.001711 -0.000125 -0.006559 -0.004552 -0.009513 -0.010231 0.001279 -0.001377 0.004541 0.003379 -0.002245 -0.001734 -0.000871 0.000526 -0.001047 0.001882 -0.008386 -0.034220 0.014123 0.024880 0.014740 -0.004025 0.002144 -0.002939 -0.000949 0.002914 -0.000693 -0.001836 -0.007215 -0.002080 -0.003940 -0.002285 0.000793 -0.004427 -0.034527 -0.071022 -0.078583 -0.101145 -0.061162 0.002832 0.009928 0.060345 0.061577 0.063851 0.113731 0.099480 0.083383 0.095448 0.089281 0.036536 0.002285 0.000346 -0.000233 -0.007376 -0.000951 -0.006635 -0.025560 -0.075866 -0.103782 -0.083129 -0.044339 -0.005155 -0.002595 -0.022170 -0.013955 0.001379 