0.001055 -0.000880 -0.004189 0.000248 0.004885 0.001117 0.000733 -0.000297 0.006666 0.003022 0.000937 0.002690 -0.003146 -0.001781 -0.001002 0.000734 -0.005617 -0.003289 0.000495 0.002287 0.003116 -0.004289 -0.002568 0.002324 0.001296 0.001686 0.003769 -0.001000 0.001463 -0.001365 -0.002942 0.001460 -0.005781 -0.000277 -0.000444 0.004709 -0.001100 0.001311 0.001636 -0.004476 0.003902 0.001534 0.000924 -0.003205 0.002744 0.003841 -0.001401 0.002187 0.000021 -0.000254 -0.002871 -0.001761 0.001155 -0.004744 0.002494 -0.002719 -0.000929 0.001106 -0.000492 0.001671 0.000357 -0.005341 0.000234 0.001684 -0.002378 -0.001921 -0.015372 -0.021863 -0.017225 -0.015496 -0.015907 -0.010873 -0.005652 0.001309 0.001705 -0.003468 -0.002504 -0.003239 -0.004205 0.000027 0.000810 0.002319 -0.001480 0.005647 -0.002369 0.001973 0.002471 0.005904 0.001292 -0.001829 0.000835 -0.007672 -0.020833 -0.035544 -0.049885 -0.062349 -0.059434 -0.055899 -0.070903 -0.041829 -0.049633 -0.036050 -0.015489 -0.007873 -0.003539 0.003105 0.007745 0.005548 0.003151 -0.002991 0.000454 0.002608 -0.000588 0.002076 -0.004251 -0.001025 -0.005563 -0.004745 -0.013545 -0.030991 -0.056882 -0.076479 -0.055839 -0.066289 -0.067375 -0.090095 -0.033880 -0.001433 -0.035996 -0.060030 -0.033175 -0.033751 -0.034110 0.002762 0.015362 0.013891 0.016356 -0.005181 -0.005172 0.000891 -0.003303 0.003378 0.001512 -0.009199 -0.008637 -0.010214 -0.010434 -0.018288 -0.041929 -0.047658 -0.062910 -0.082535 -0.107199 -0.118971 -0.084528 -0.121669 -0.152414 -0.168872 -0.156835 -0.143892 -0.131401 -0.070962 -0.031524 -0.016959 0.000099 0.001532 0.003288 -0.001378 0.001498 0.001280 0.002300 0.013757 0.012168 0.039839 0.071472 0.033102 -0.009422 -0.026884 -0.058750 -0.132599 -0.177193 -0.241903 -0.204184 -0.152911 -0.170285 -0.170513 -0.192082 -0.164384 -0.139242 -0.075414 -0.066911 -0.045878 -0.000636 0.017271 0.008183 -0.000534 0.000973 0.008249 -0.000748 0.036742 0.044273 0.064404 0.095428 0.050421 0.036935 0.026741 -0.044006 -0.089686 -0.154697 -0.216386 -0.216226 -0.259530 -0.149955 -0.095132 -0.065195 -0.056052 -0.041472 -0.031017 0.041011 0.040965 0.057039 0.059920 0.019920 0.000513 0.004762 0.004826 0.010087 0.068364 0.106684 0.089196 0.103290 0.181381 0.156423 0.105808 0.053548 0.070703 0.060512 0.058401 0.019756 -0.098643 -0.107150 -0.054441 0.002490 0.032732 0.068149 0.081102 0.174441 0.147779 0.134994 0.087271 0.016981 -0.002058 0.003028 0.009615 0.017382 0.094849 0.155257 0.140568 0.173358 0.187864 0.156004 0.161966 0.203788 0.290401 0.338298 0.287596 0.233850 0.071421 0.079805 0.122723 0.087804 0.087599 0.202622 0.243987 0.230624 0.165163 0.176362 0.123674 0.037379 0.006017 -0.000475 0.002371 0.043443 0.090069 0.179753 0.152203 0.152069 0.160324 0.143601 0.215738 0.268158 0.278702 0.293368 0.433082 0.410047 0.324506 0.229275 0.201861 0.167544 0.161128 0.229262 0.268517 0.205719 0.098214 0.159727 0.133850 0.053606 -0.000590 0.002198 0.015121 0.066271 0.091781 0.152532 0.114351 0.119344 0.141670 0.106978 0.236736 0.212424 0.201927 0.189581 0.293522 0.309269 0.212459 0.105379 0.104561 0.121010 0.050669 0.096171 0.101913 0.042526 -0.048970 -0.011865 0.048888 0.019920 0.001827 -0.005741 0.018233 0.058441 0.057905 0.106726 0.039504 0.012333 0.118215 0.082270 -0.008335 -0.020926 -0.041944 -0.155464 -0.156087 -0.031386 -0.031309 -0.100224 -0.095228 -0.052792 -0.085091 -0.026297 -0.068904 -0.135665 -0.162966 -0.097278 0.022917 0.012292 0.001753 0.000711 0.006725 0.035510 0.026326 -0.014279 -0.084638 -0.089023 -0.080476 -0.103598 -0.111874 -0.114220 -0.188651 -0.356762 -0.340407 -0.182070 -0.208387 -0.231027 -0.153865 -0.097461 -0.111987 -0.056910 -0.117227 -0.132076 -0.116134 -0.042008 0.036183 0.015763 0.009363 -0.000691 -0.001541 0.007350 -0.006651 -0.094000 -0.145767 -0.209698 -0.243864 -0.208232 -0.209436 -0.111495 -0.172035 -0.256402 -0.206678 -0.092411 -0.141840 -0.150015 -0.107397 0.016705 0.053283 0.009291 -0.002143 0.056278 -0.004565 -0.027226 0.038848 0.012015 0.000765 0.001299 -0.007707 0.005625 -0.016305 -0.117939 -0.222803 -0.186096 -0.218549 -0.202796 -0.178729 -0.132927 -0.126143 -0.144583 -0.047672 -0.039716 -0.112646 -0.131813 -0.045184 0.081691 0.101890 0.041372 0.129315 0.108856 0.027565 0.009428 0.049407 0.019488 0.001450 -0.006521 -0.006378 -0.004371 -0.033200 -0.119415 -0.230684 -0.175710 -0.100478 -0.118651 -0.082187 -0.108164 -0.150147 -0.076823 -0.066029 -0.122431 -0.077941 -0.039142 -0.002033 0.077066 0.121224 0.064096 0.081235 0.030328 0.012844 0.025643 0.059816 0.020128 -0.000451 0.002466 -0.001479 -0.007623 -0.017152 -0.081043 -0.172579 -0.159463 -0.075149 -0.066930 -0.047239 -0.070733 -0.085936 -0.063665 -0.050747 -0.061407 -0.038193 -0.081047 -0.040469 0.007402 -0.029850 -0.009219 -0.000533 -0.013434 0.000360 0.038659 0.067212 0.024948 -0.002257 0.000178 -0.002401 -0.001038 0.008896 -0.040476 -0.140978 -0.154726 -0.069073 -0.067226 -0.080672 -0.112392 -0.077770 -0.078642 -0.041178 -0.034589 -0.076995 -0.134534 -0.093093 -0.079420 -0.109129 -0.058760 -0.049020 -0.069299 -0.024488 0.020265 0.031734 0.007657 0.004853 -0.001106 -0.000364 0.001447 0.009958 0.000977 -0.082958 -0.107790 -0.093804 -0.029155 -0.051273 -0.103609 -0.116925 -0.065401 -0.003059 0.020272 0.006832 -0.100037 -0.095154 -0.125690 -0.079180 -0.105743 -0.139269 -0.129841 -0.012325 0.021558 0.017006 0.002805 -0.003300 -0.001806 0.000409 -0.000777 -0.012412 -0.011860 -0.024480 -0.026106 -0.004754 0.030245 -0.023767 -0.092337 -0.110230 -0.067548 -0.038414 0.008105 -0.046344 -0.093024 -0.067215 -0.090773 -0.085293 -0.158351 -0.150189 -0.095440 -0.002214 0.028684 0.002409 0.000520 0.001101 -0.001292 0.001155 -0.000126 -0.026581 -0.020192 -0.044427 -0.029779 -0.004602 0.055031 0.044723 -0.023233 -0.065911 -0.060570 -0.056160 -0.067766 -0.018832 -0.036509 0.025100 -0.042237 -0.091281 -0.174271 -0.137964 -0.077376 -0.007287 0.018313 0.004696 -0.000464 0.001330 0.002977 -0.000153 -0.005737 -0.011997 -0.005512 -0.004422 0.002988 0.047315 0.036475 0.054878 -0.014301 -0.033697 -0.010189 -0.016108 -0.004616 0.082739 0.039772 0.054656 0.018768 -0.012364 -0.067948 -0.093419 -0.051618 -0.030913 0.008988 0.001986 0.001692 -0.001309 0.002874 0.001176 -0.006832 -0.018700 0.024136 0.046986 0.082496 0.075583 -0.009715 -0.001563 0.002817 0.044536 0.081519 0.021008 0.021004 0.040545 0.073974 0.092090 0.058242 -0.004714 -0.068859 -0.088785 -0.065125 -0.037825 -0.000963 0.010364 -0.001022 0.000529 0.000941 -0.005763 -0.008618 -0.006656 0.020808 0.061040 0.063506 0.013771 -0.038071 -0.054431 -0.022218 0.069045 0.082173 0.063346 0.003847 0.027030 0.058689 0.113895 0.026653 -0.040806 -0.080244 -0.074945 -0.056040 -0.039675 0.003933 0.000511 -0.002694 0.000515 -0.001465 0.003918 -0.006268 -0.001090 0.012869 0.018460 0.033327 0.045311 0.042348 0.054493 0.036099 0.120344 0.181119 0.114479 0.072539 0.068846 0.117309 0.105442 0.046569 -0.025936 -0.058405 -0.033405 -0.009254 -0.007223 0.002967 0.001137 -0.000363 -0.001372 -0.002234 0.003300 0.002806 0.000481 -0.010283 -0.024809 -0.037788 -0.007763 0.017021 0.031456 0.007671 0.024188 0.009976 0.012486 0.037865 0.077755 0.042990 0.049996 0.048999 0.029705 -0.015320 -0.002048 0.003086 -0.003218 -0.000896 0.003022 -0.000386 0.000852 -0.004048 0.000994 0.001851 0.003388 -0.003127 0.000586 -0.000750 0.001977 0.004821 0.008541 0.006304 0.004311 0.011110 0.018654 0.018587 0.022640 0.023543 0.022581 0.034164 0.029312 0.005188 0.006022 0.000318 0.001401 -0.000117 0.003806 -0.002033 -0.000003 0.004031 0.001921 -0.002574 -0.000243 0.000576 0.005212 -0.002052 0.003350 -0.005151 0.000570 -0.000394 0.001868 -0.001035 0.001578 0.003123 -0.005394 -0.008483 -0.003764 0.002131 -0.001341 -0.001517 -0.000190 -0.003759 0.000613 -0.000416 -0.001085 -0.006075 -0.004150 0.000133 -0.000057 -0.001545 0.000867 0.001755 -0.003296 0.001746 -0.002070 0.001703 -0.000306 -0.001762 0.004446 0.005116 0.003032 -0.000751 0.001585 -0.006021 -0.004418 0.002721 -0.001275 -0.001508 0.000641 0.002039 0.005127 0.003307 -0.002439 -0.002913 -0.004115 -0.002883 -0.000467 0.000058 0.001425 0.001773 -0.002184 0.003489 -0.003082 0.003723 -0.002908 -0.012633 -0.022147 -0.018721 -0.025532 -0.031622 -0.027484 -0.036460 -0.029790 -0.015242 -0.020345 -0.012705 -0.008518 -0.001263 0.002744 0.003365 -0.000662 -0.000172 -0.001306 0.003275 -0.003238 -0.002726 -0.006134 -0.003260 -0.000210 -0.000685 0.003399 0.010073 -0.012246 -0.017573 -0.024019 -0.021777 -0.036745 -0.060820 -0.063126 -0.088114 -0.109677 -0.098843 -0.101290 -0.074013 -0.064822 -0.028511 -0.005179 -0.003555 0.002845 -0.001545 -0.001279 0.007047 -0.000604 -0.003011 0.001451 0.004587 -0.002085 -0.002074 -0.001083 -0.006112 -0.008870 0.024985 0.065389 0.112993 0.147923 0.164907 0.080280 -0.037523 -0.106286 -0.152224 -0.117816 -0.051734 -0.093480 -0.104850 -0.076767 -0.053012 0.002150 0.012050 0.004082 -0.000542 0.001185 0.003995 0.001669 0.001626 -0.017745 -0.036690 -0.071393 -0.090512 -0.098168 -0.074943 0.062742 0.167890 0.332365 0.261892 0.205326 -0.029601 -0.109371 -0.195272 -0.150019 -0.151082 -0.101881 -0.154444 -0.174379 -0.086980 -0.013545 -0.002311 -0.004030 0.000904 -0.000716 -0.002010 -0.008736 -0.027862 -0.054778 -0.098935 -0.119341 -0.109004 -0.066702 -0.037374 0.137227 0.207800 0.267329 0.301705 0.276223 0.303460 0.215562 0.067734 -0.068440 -0.026969 0.000816 -0.131740 -0.192076 -0.194607 -0.074726 -0.031949 0.002698 0.002380 0.000765 -0.005596 -0.013272 -0.045251 -0.103455 -0.138257 -0.157259 -0.124588 -0.108710 -0.011008 0.067391 0.159070 0.184537 0.234123 0.386520 0.336152 0.126511 0.061307 0.002070 0.048728 0.070266 -0.104492 -0.132370 -0.197553 -0.139599 -0.050765 0.000637 -0.002453 0.001415 -0.004615 -0.013537 -0.049661 -0.082241 -0.044061 -0.088499 -0.081030 -0.061964 0.039107 -0.075962 -0.041155 0.101979 0.262696 0.386880 0.369901 0.180764 0.283078 0.178991 0.119809 0.129237 0.023005 -0.104415 -0.171501 -0.136388 -0.031122 0.004229 0.000526 0.007920 -0.010212 -0.000494 -0.040073 -0.025863 0.016986 -0.020258 -0.005907 0.055548 0.046265 -0.039887 -0.136308 -0.010290 0.259195 0.298544 0.251293 0.296195 0.355388 0.279366 0.216407 0.147989 0.110628 0.016821 -0.158074 -0.145698 -0.020003 -0.000583 0.000026 0.005809 -0.009455 0.005919 -0.008543 0.006682 0.075172 0.072219 0.049624 0.114193 0.132258 0.071299 -0.042878 0.015282 0.178834 0.016853 0.064588 0.243698 0.362494 0.281503 0.284052 0.278125 0.302389 0.173920 -0.087377 -0.120916 -0.029063 0.000331 0.001344 0.004902 -0.001961 -0.011642 0.014054 0.046309 0.125697 0.190881 0.243816 0.178320 0.129654 0.053015 -0.161865 -0.014681 0.075869 -0.105790 -0.156014 0.047606 0.153277 0.235153 0.416618 0.440181 0.492090 0.266594 0.092997 -0.017882 0.014552 0.002327 0.002188 0.006137 0.003814 0.000882 0.069594 0.108188 0.092975 0.085915 0.101495 0.134267 -0.064777 -0.175321 -0.344363 -0.154933 0.111634 -0.093026 -0.141825 0.014181 0.093816 0.257493 0.442047 0.471156 0.458848 0.270353 0.068407 0.002643 0.002792 -0.000093 0.003562 0.002106 -0.000876 0.011432 0.077619 0.022573 -0.081468 -0.044284 -0.007960 -0.027302 -0.108191 -0.221110 -0.265433 -0.032209 0.096965 0.007565 0.009169 0.030425 0.061742 0.144436 0.264116 0.236945 0.154755 0.064703 -0.016958 0.006858 0.001358 0.008102 0.000866 -0.000613 -0.004842 -0.004734 0.008278 -0.051985 -0.063451 -0.090549 -0.120279 -0.089002 -0.179633 0.011674 0.040352 0.116365 0.064742 0.023577 0.054048 0.100075 0.081158 -0.037959 0.033279 0.020406 -0.042376 -0.062393 -0.012899 0.016165 0.008377 -0.002091 0.001587 0.003399 -0.009017 -0.024264 0.006230 -0.041503 -0.108956 -0.080040 -0.001847 -0.052059 0.045866 0.015686 -0.001720 0.040260 -0.087127 -0.040264 -0.018318 0.073176 0.015473 -0.114229 -0.079024 -0.100465 -0.096786 -0.112448 -0.048411 -0.000581 -0.008898 0.002287 -0.002759 0.001163 -0.002655 -0.024296 0.014289 -0.034510 -0.106708 -0.015662 0.153282 0.111151 0.159155 -0.004956 -0.012993 -0.069094 -0.276350 -0.187835 -0.023375 -0.017504 -0.117530 -0.200981 -0.174423 -0.178804 -0.114614 -0.130800 -0.100497 -0.021822 -0.003438 0.001869 -0.000960 -0.002919 -0.011617 -0.033724 -0.026991 -0.098392 -0.199371 0.002038 0.145852 0.234726 0.117719 0.066118 0.097191 0.083035 -0.195441 -0.192148 -0.011451 -0.083603 -0.248415 -0.193636 -0.169449 -0.195871 -0.113297 -0.142745 -0.066530 0.003127 -0.000725 -0.003519 0.001972 -0.000734 -0.003155 -0.065620 -0.092209 -0.106055 -0.108446 -0.013752 0.069201 0.113570 0.128961 0.063598 -0.005475 0.021298 -0.097487 -0.162933 -0.150269 -0.158921 -0.145015 -0.157537 -0.169953 -0.200566 -0.123374 -0.166362 -0.052067 -0.005644 -0.001686 0.005837 0.001506 -0.004180 0.001827 -0.052231 -0.102713 -0.098706 -0.051537 0.026977 0.063410 0.067495 0.094539 -0.046547 -0.002123 -0.042100 -0.124921 -0.193924 -0.156710 -0.072875 -0.173545 -0.147879 -0.125595 -0.166253 -0.126474 -0.125859 -0.045962 -0.027234 -0.007554 -0.002171 -0.000880 -0.002612 -0.003385 -0.045917 -0.090724 -0.079578 -0.026044 0.136400 0.089407 -0.016321 0.084481 -0.055992 -0.096228 -0.047403 -0.120007 -0.156151 -0.164315 -0.202918 -0.266837 -0.203968 -0.106162 -0.142472 -0.147009 -0.148108 -0.030396 -0.015416 -0.009427 0.001249 0.002681 0.005522 0.000591 -0.026083 -0.083764 -0.056892 0.025844 0.107825 0.097461 0.048357 0.051032 0.030339 0.023131 -0.017548 -0.137846 -0.155767 -0.091264 -0.236833 -0.221981 -0.229859 -0.177386 -0.193427 -0.172589 -0.105453 -0.024823 -0.011392 -0.002277 -0.004794 0.002305 0.000379 -0.001721 -0.010863 -0.039334 -0.049524 0.044986 0.069203 0.061998 0.074069 0.145129 0.215130 0.153723 0.094599 0.148935 -0.027918 -0.107014 -0.193684 -0.166327 -0.228624 -0.180389 -0.172114 -0.086653 -0.032798 -0.012628 -0.014700 0.002507 0.000148 0.003822 0.002246 -0.003317 -0.003095 -0.032847 -0.067988 -0.042877 0.037210 0.095099 -0.007882 0.003032 0.083006 0.128667 0.199231 0.173147 0.104251 -0.002249 -0.022597 -0.064704 -0.101991 -0.089369 -0.033494 0.024466 0.010510 -0.008457 -0.014444 -0.001331 0.002761 -0.001402 0.003543 -0.000468 -0.003863 -0.019697 -0.064573 -0.084434 -0.061294 -0.021633 -0.076859 0.009766 -0.024719 0.058568 0.038905 0.008047 0.024311 -0.016628 0.041800 0.036720 0.071423 0.080368 0.070826 0.035140 0.013500 -0.003382 -0.002475 -0.003332 -0.001417 0.000729 0.001813 0.004382 -0.001952 -0.009650 0.001108 -0.001725 0.014322 0.043642 0.043228 0.056957 0.020629 0.067661 0.044551 0.120198 0.053710 0.142358 0.206035 0.215519 0.199635 0.159484 0.112598 0.027451 0.003664 -0.004532 -0.002624 -0.002480 0.001359 0.006189 -0.001827 0.000425 -0.000701 -0.000837 0.015135 0.037431 0.042617 0.063218 0.097808 0.114057 0.109884 0.126316 0.127137 0.185318 0.146998 0.157156 0.131752 0.104720 0.070828 0.054859 0.018250 0.007095 -0.000646 0.004243 -0.000689 0.003896 0.002297 0.001832 0.000938 -0.004162 0.000522 -0.000630 -0.002685 0.002650 0.005575 0.009289 0.004771 0.002634 0.003515 0.016681 0.008984 0.032712 0.009253 0.002134 -0.002915 -0.006406 -0.001874 0.003886 -0.001912 0.004094 -0.001460 0.003008 -0.000104 -0.000040 0.001194 -0.001836 -0.004936 -0.006075 -0.005918 -0.002479 -0.001107 -0.003012 -0.000645 -0.001581 -0.000528 -0.002006 -0.000303 -0.001837 0.003722 -0.001787 0.002235 0.001840 0.001655 0.003058 -0.000312 0.000293 0.000266 0.002739 -0.004345 0.001214 0.002109 -0.000775 0.001894 0.001286 0.001040 -0.001084 0.000454 -0.000117 0.000017 0.000476 -0.004131 0.000805 -0.003814 0.002628 0.001220 0.001711 -0.000125 0.005632 0.007635 -0.003949 -0.002101 -0.001810 0.002157 0.000490 -0.008211 0.001165 -0.004934 -0.001084 -0.002427 -0.001829 0.000328 -0.002224 -0.000726 -0.000410 -0.003716 -0.002054 -0.002529 0.003270 0.000452 -0.000729 -0.007764 -0.011561 -0.009719 -0.006810 -0.009890 -0.017200 0.002588 -0.009167 -0.016885 -0.012501 -0.004953 -0.007192 -0.009613 -0.006368 -0.003287 -0.003391 -0.002807 -0.001966 0.005638 0.002776 -0.004385 0.003170 -0.000880 0.002406 -0.005564 -0.000296 0.000402 -0.010771 -0.023165 -0.046198 -0.059649 -0.052324 -0.075470 -0.112331 -0.100521 -0.076158 -0.030929 -0.026518 -0.043976 -0.021407 -0.006933 0.004384 -0.005926 -0.003919 0.000818 -0.000311 -0.005198 -0.004004 -0.003007 0.001212 0.003186 -0.000891 -0.003374 -0.002540 -0.007846 -0.034256 -0.076162 -0.109613 -0.110703 -0.120672 -0.092494 -0.074853 -0.088092 -0.118983 -0.114028 -0.105445 -0.037428 -0.037051 -0.000865 0.025022 0.033238 0.006187 -0.007989 -0.009683 -0.002265 -0.004458 -0.001196 0.000176 -0.001967 -0.000553 -0.002871 -0.013720 -0.032101 -0.078527 -0.127853 -0.166618 -0.164726 -0.153783 -0.115241 -0.073028 -0.070476 -0.083958 -0.144239 -0.190696 -0.116541 -0.083999 -0.058053 -0.005164 0.031416 0.007593 -0.002692 -0.005884 -0.000433 -0.003152 0.002893 -0.003089 -0.002175 0.000224 -0.019291 -0.037894 -0.075072 -0.115287 -0.134877 -0.142657 -0.111624 -0.120880 -0.111268 -0.020405 -0.038396 -0.055421 -0.094122 -0.102953 -0.103773 -0.086561 -0.096065 -0.047221 0.007435 -0.003827 0.001284 0.006217 0.000416 -0.001786 0.000942 -0.001419 -0.000484 -0.004683 -0.026220 -0.062854 -0.079952 -0.121420 -0.109419 -0.107052 -0.114484 -0.082720 -0.051421 0.072631 -0.000311 -0.005000 -0.007060 -0.087695 -0.080216 -0.040817 -0.025550 -0.003111 0.045531 0.001189 0.009056 0.011494 -0.001195 -0.000281 -0.000725 0.000890 -0.005075 -0.013671 -0.026964 -0.069904 -0.079362 -0.078110 -0.074955 -0.117516 -0.136855 -0.128549 0.008368 0.143833 0.169856 0.106160 0.116864 0.038536 0.046623 0.089479 0.105160 0.107786 0.104808 0.079829 0.042912 0.019696 -0.000477 -0.004463 -0.001422 -0.000556 -0.006032 -0.014354 -0.041154 -0.067927 -0.074218 -0.091450 -0.091601 -0.131309 -0.205298 -0.146895 0.048776 0.210324 0.276716 0.195119 0.187549 0.171853 0.173177 0.139168 0.143973 0.148480 0.125381 0.158127 0.086859 0.025866 0.001953 0.000215 0.002860 -0.005222 -0.003699 -0.008800 -0.054103 -0.077871 -0.087776 -0.082718 -0.096285 -0.139008 -0.198798 -0.100516 0.070273 0.207547 0.264049 0.164335 0.115780 0.098100 0.141098 0.102605 0.111718 0.123187 0.147280 0.168364 0.105573 0.026494 0.003183 -0.000152 0.002461 -0.000936 -0.003338 -0.001233 -0.035408 -0.087904 -0.099551 -0.058640 -0.117156 -0.131447 -0.085308 0.026496 0.131512 0.170891 0.143706 0.030530 0.018769 0.001208 -0.021126 0.014225 0.059866 0.058076 0.089059 0.087261 0.046165 0.002476 0.000247 -0.000068 0.001079 -0.002708 0.000859 -0.012287 -0.043876 -0.063184 -0.055881 -0.048508 -0.075593 -0.073724 -0.008186 0.089536 0.117331 0.186391 0.082445 -0.053046 -0.061787 -0.114225 -0.144006 -0.126480 -0.098227 -0.072396 -0.032703 -0.007551 0.005731 0.002819 -0.000771 0.007030 -0.001489 0.000232 -0.001233 -0.004770 -0.031341 -0.032489 -0.012734 -0.025742 -0.014449 0.013136 0.019997 0.033241 0.060260 0.123414 0.026250 -0.043939 -0.032154 -0.134390 -0.178867 -0.188191 -0.155748 -0.113007 -0.064079 -0.034065 -0.015582 -0.003800 -0.003065 0.002252 0.000275 -0.000122 0.002129 -0.000906 -0.013367 -0.032974 -0.031767 -0.031232 -0.018490 0.016642 0.006813 0.038082 0.084779 0.117243 0.046326 0.011665 -0.029092 -0.105499 -0.171362 -0.165890 -0.133584 -0.108544 -0.073420 -0.035525 -0.018846 -0.010015 -0.001599 0.001027 -0.002064 0.002516 0.000378 -0.010248 -0.022002 -0.026062 -0.058256 -0.072648 -0.053940 -0.057100 -0.050728 -0.005710 0.033977 0.075908 0.048150 0.081618 -0.013306 -0.066559 -0.159541 -0.164201 -0.140080 -0.102754 -0.073578 -0.048980 -0.034475 -0.017695 -0.006485 -0.001366 -0.000442 -0.003551 -0.015925 -0.022900 -0.013360 -0.053686 -0.113127 -0.138730 -0.121414 -0.112474 -0.100642 -0.083199 0.051677 0.045369 0.050786 0.047199 -0.056945 -0.093544 -0.159504 -0.151677 -0.119629 -0.094248 -0.071367 -0.053343 -0.032336 -0.015365 -0.001284 0.001824 -0.003330 -0.009965 -0.030991 -0.029442 0.002420 -0.005531 -0.045706 -0.058311 -0.047485 -0.042960 -0.088748 -0.031273 0.102313 0.096405 0.010651 -0.036953 -0.074179 -0.118054 -0.166252 -0.141776 -0.105874 -0.080940 -0.066495 -0.057905 -0.033806 -0.001833 -0.002239 -0.002231 0.004419 0.000888 -0.033640 -0.035333 -0.020301 0.006329 0.027428 0.047013 0.047028 0.011203 0.039943 0.100604 0.151798 0.137913 -0.044329 -0.103413 -0.049288 -0.117630 -0.152374 -0.160340 -0.145219 -0.122116 -0.077020 -0.043579 -0.015827 0.008170 0.002373 -0.001406 -0.003394 -0.000104 -0.027872 -0.040245 -0.045638 0.004275 0.011967 0.053073 0.091768 0.036390 0.113582 0.167682 0.214633 0.106412 -0.063125 -0.091865 -0.082755 -0.114846 -0.092187 -0.111486 -0.101226 -0.095511 -0.067745 -0.014259 0.001196 -0.001294 -0.003756 0.001471 -0.003617 0.001522 -0.029588 -0.060113 -0.039583 0.006153 -0.009403 0.069990 0.085484 0.064995 0.094774 0.112103 0.113066 0.072466 -0.099490 -0.087363 -0.103803 -0.134359 -0.101013 -0.088384 -0.093461 -0.070908 -0.048591 -0.020996 -0.007732 0.000767 -0.000596 -0.003941 -0.000156 -0.001724 -0.020984 -0.039172 -0.049210 -0.036164 -0.031364 -0.013261 -0.006419 0.007886 0.001283 0.008619 -0.004143 -0.065976 -0.093214 -0.135880 -0.133166 -0.153857 -0.145201 -0.112239 -0.085721 -0.052110 -0.037748 -0.013583 -0.000306 0.000754 -0.000560 0.000949 0.000216 -0.004394 -0.010256 -0.026291 -0.030955 -0.025140 -0.029836 0.011968 0.036634 -0.005649 -0.041449 -0.038129 -0.065358 -0.081682 -0.095117 -0.117008 -0.111194 -0.130479 -0.121808 -0.089955 -0.061997 -0.030646 -0.009121 -0.003284 -0.002981 -0.002009 0.003471 -0.001101 0.004061 -0.000368 -0.011449 0.001676 0.034001 0.010875 -0.016177 -0.012925 0.036776 0.041170 0.015290 0.017150 -0.055246 -0.086583 -0.089563 -0.088554 -0.049024 -0.095220 -0.095576 -0.069277 -0.057031 -0.021699 -0.010736 0.002067 0.007474 -0.001691 -0.001368 0.002445 -0.000931 -0.001215 0.002362 0.013233 0.036662 0.041132 0.020228 -0.012982 -0.006546 -0.020683 -0.041541 -0.053891 -0.079751 -0.092290 -0.086641 -0.076232 -0.028825 -0.024587 -0.020891 -0.019358 -0.014990 -0.008161 0.005103 0.000979 0.000517 0.000048 -0.001387 -0.004066 -0.005364 -0.002863 0.002706 0.008226 0.009417 -0.003540 0.015812 0.028250 0.040642 0.001251 0.007297 0.013373 -0.020336 -0.048540 -0.056716 -0.040661 -0.006527 -0.003493 -0.006189 -0.005398 0.001074 0.001949 0.005585 0.001741 -0.003764 0.000166 0.003177 -0.001834 0.000741 0.002256 0.003155 0.000437 -0.000478 0.004028 0.008029 0.003387 0.008158 -0.008475 0.001451 0.004508 0.004586 -0.003704 -0.009102 -0.007326 -0.001128 0.001549 0.003794 0.004789 0.000886 0.002806 0.000032 -0.000697 -0.003545 0.004804 -0.000645 -0.001919 -0.003972 -0.000522 -0.005547 -0.001833 0.001851 -0.000121 -0.000296 0.002784 -0.002193 0.006976 0.005811 0.006260 0.002199 0.005391 -0.000611 0.005435 -0.002811 0.000161 -0.001834 0.000542 0.000314 -0.001006 -0.002637 0.001265 -0.002943 -0.001000 -0.001207 -0.000894 -0.001393 0.000949 -0.002496 0.001483 0.000834 -0.001305 0.000282 -0.003758 0.003930 -0.001624 0.001334 -0.004053 -0.006558 0.000846 -0.001673 0.000535 0.001238 -0.003277 -0.001477 -0.001505 0.000994 0.002305 -0.002709 0.002337 -0.002490 0.000731 0.002253 0.000301 0.002413 0.001656 0.006285 0.002018 0.001543 -0.016523 -0.022006 -0.025465 -0.012480 -0.022469 -0.019016 -0.049334 -0.032412 -0.005822 -0.022244 -0.028887 -0.009956 -0.008799 -0.006207 -0.006559 -0.004552 -0.009513 -0.010231 0.001279 -0.001377 0.004541 0.003379 -0.002245 -0.001734 -0.000871 0.000526 -0.001047 0.001882 -0.008386 -0.034220 -0.046561 -0.037665 -0.094817 -0.093167 -0.148742 -0.161093 -0.128397 -0.113691 -0.115159 -0.078587 -0.043124 -0.022223 -0.011617 0.003500 0.001463 -0.008418 -0.000862 0.000131 0.003369 -0.000049 -0.000138 0.001002 -0.006768 -0.004168 -0.006336 -0.004325 -0.009968 -0.045248 -0.097529 -0.114720 -0.147868 -0.193207 -0.305634 -0.394084 -0.321598 -0.286209 -0.210972 -0.153227 -0.081183 0.024160 0.014467 0.019222 0.031009 -0.003124 -0.003588 0.002154 -0.004013 0.005805 -0.003912 -0.001379 -0.002089 -0.001606 0.020990 0.007139 -0.021175 -0.039408 -0.109651 -0.182682 -0.234192 -0.220808 -0.306677 -0.346419 -0.365210 -0.307269 -0.175792 -0.106909 -0.069750 0.044312 0.070237 0.106727 0.126883 0.085907 0.055642 -0.004455 -0.002034 -0.001770 -0.000805 -0.002248 -0.004479 -0.002478 0.020327 0.016734 -0.000095 -0.023461 -0.059328 -0.074737 -0.127135 -0.104686 -0.088241 -0.085730 -0.077050 -0.079743 -0.144896 -0.186401 -0.085385 0.059771 0.067929 0.095449 0.183480 0.189768 0.080466 -0.000900 -0.002144 -0.000196 -0.002170 -0.001192 -0.002407 0.000393 0.040877 0.068672 0.048139 0.062929 0.029669 -0.006963 -0.044868 -0.107463 -0.144963 -0.089551 -0.149280 -0.184356 -0.209494 -0.152763 -0.154110 0.050082 0.030823 0.121604 0.216317 0.246120 0.103328 0.011553 0.020700 0.000402 0.000370 -0.001059 0.006761 0.015717 0.037693 0.059716 0.052327 0.083726 0.059540 0.032565 0.022351 -0.129110 -0.167787 -0.081715 -0.213963 -0.205258 -0.139570 -0.066484 0.027510 0.168857 0.148802 0.161711 0.179605 0.188862 0.117365 0.053503 0.030125 -0.002270 -0.001707 -0.003948 0.013048 0.017756 0.039071 0.070446 0.055061 0.058358 0.040783 0.078412 0.025017 -0.072156 -0.179077 -0.141838 -0.207610 -0.106781 -0.125627 0.054684 0.169383 0.093146 0.100404 0.172665 0.114797 0.094022 0.074819 0.050741 0.003001 -0.007057 -0.000720 -0.004962 -0.004581 -0.008853 -0.005810 0.092491 0.015060 -0.005361 0.028051 0.049788 0.060678 -0.044766 0.048169 -0.036523 -0.190248 -0.017019 0.032032 0.147133 0.199651 0.134479 0.118297 0.130919 0.047092 -0.097342 -0.095520 -0.031074 -0.017135 0.002475 -0.001862 -0.008861 -0.003845 -0.029444 0.006997 0.083023 0.010914 0.018829 0.077517 0.180896 0.164995 0.095672 0.157271 -0.089589 -0.287396 0.013353 0.079809 0.095474 0.105432 0.099655 -0.015665 0.034657 -0.052867 -0.225521 -0.164573 -0.061138 -0.022774 -0.000042 0.002179 -0.002349 -0.012635 -0.031301 0.023998 0.078024 0.036371 0.117140 0.183916 0.275248 0.227301 0.182019 0.166129 -0.285720 -0.367540 0.128998 0.237315 0.149095 0.069257 -0.034704 -0.034252 -0.029720 -0.125018 -0.221240 -0.183405 -0.046431 -0.007272 0.003666 0.003518 -0.007758 -0.023853 -0.057887 0.000649 0.051340 0.109357 0.218879 0.305466 0.285482 0.275572 0.311359 0.184786 -0.229893 -0.309793 0.158890 0.192349 0.077526 0.027148 -0.062339 -0.043466 -0.055447 -0.055242 -0.137489 -0.141165 -0.026818 0.002649 -0.000318 -0.001280 -0.000852 -0.009222 -0.056708 0.041697 0.167849 0.227483 0.259059 0.202398 0.168992 0.289328 0.384679 0.107055 -0.245200 -0.102747 0.184857 0.146820 0.100819 0.051750 -0.040450 0.063622 0.081786 0.041285 -0.166604 -0.164624 -0.043906 -0.011028 -0.006545 0.000242 -0.001609 -0.001802 -0.007119 0.153750 0.263632 0.261872 0.271032 0.133091 0.121366 0.175024 0.200774 0.125592 -0.060242 -0.031193 0.085110 0.224393 0.340935 0.144683 0.126460 0.051564 0.015304 0.052566 -0.087391 -0.161456 -0.069577 -0.024595 -0.000838 -0.004036 0.000561 0.000848 0.006360 0.132088 0.183934 0.215377 0.148178 0.147246 0.146371 0.083219 0.119295 0.075521 -0.066005 -0.035308 0.155207 0.262137 0.410839 0.175586 0.126913 -0.001777 0.028024 0.078994 -0.079947 -0.205558 -0.100011 -0.010743 0.007826 -0.005144 0.004516 -0.005695 -0.034906 -0.022063 0.023176 0.077492 0.184847 0.218478 0.048757 -0.160396 -0.161644 0.069627 0.050328 0.132550 0.297881 0.326014 0.341159 0.108103 0.030150 0.095132 0.077832 -0.016998 -0.152428 -0.156038 -0.107292 -0.055196 -0.001635 -0.001176 -0.000223 -0.009174 -0.074352 -0.139740 -0.108823 -0.055331 0.124014 0.122562 -0.010725 -0.090488 -0.181015 -0.058594 0.168735 0.240653 0.248828 0.230219 0.124515 0.133517 -0.071038 -0.024951 -0.051784 -0.169910 -0.169100 -0.168254 -0.096082 -0.029641 0.000253 0.000590 0.001403 -0.007584 -0.073433 -0.238049 -0.195377 -0.144192 -0.116323 -0.161522 -0.238394 -0.300819 -0.294897 -0.229496 0.017780 0.094933 0.010808 0.026819 -0.061639 -0.147004 -0.160181 -0.122862 -0.210315 -0.301892 -0.243654 -0.157864 -0.079684 -0.002103 -0.001187 0.001779 -0.002142 0.001386 -0.040227 -0.208195 -0.207777 -0.200594 -0.293969 -0.388987 -0.481459 -0.497235 -0.473913 -0.469945 -0.266395 -0.057037 -0.112496 -0.173254 -0.168811 -0.219479 -0.198607 -0.224458 -0.241956 -0.313830 -0.200152 -0.098292 -0.020010 -0.002322 0.000651 -0.001005 0.000042 -0.002560 -0.059304 -0.169888 -0.209428 -0.293154 -0.410409 -0.423665 -0.405196 -0.376826 -0.307102 -0.261913 -0.256876 -0.122397 -0.143846 -0.095096 -0.098392 -0.236731 -0.234089 -0.226072 -0.184845 -0.203285 -0.153446 -0.077166 -0.018627 0.001865 0.005097 -0.000891 0.001608 -0.008063 -0.058148 -0.113483 -0.169071 -0.263725 -0.295059 -0.174887 -0.128946 -0.200530 -0.099766 -0.058264 -0.102821 -0.085447 -0.081663 -0.045417 -0.090349 -0.179350 -0.197328 -0.118873 -0.086938 -0.094133 -0.059313 -0.043288 -0.035981 -0.000329 -0.003327 0.004318 0.000362 -0.018120 -0.039133 -0.076774 -0.141210 -0.191112 -0.195754 -0.034232 -0.017361 0.041543 0.050583 0.004223 -0.018754 0.000617 -0.027291 -0.000068 -0.009002 -0.073241 -0.061288 -0.073796 -0.009904 -0.006696 -0.010312 -0.026022 -0.016382 -0.002630 -0.002417 -0.002166 -0.001831 -0.013582 -0.018680 -0.029887 -0.042653 -0.092317 -0.098530 -0.005416 0.015192 0.073591 0.073397 -0.025633 0.022156 0.094749 0.036201 0.165361 0.078569 0.039814 -0.002550 0.007604 0.055244 0.030919 -0.003324 -0.021212 -0.004999 -0.004745 -0.000483 -0.001748 0.003145 -0.005453 -0.005690 -0.000957 0.039338 0.028324 -0.007044 0.049228 0.046351 0.034719 0.052782 -0.029952 -0.028509 -0.058591 -0.054950 0.004735 -0.067294 -0.079841 -0.051735 0.021074 0.042563 0.031952 0.017149 -0.020517 -0.003605 -0.005036 0.001473 -0.001498 -0.001548 0.000381 -0.002727 0.016943 0.050178 0.045973 0.041884 0.044570 0.039439 0.031965 0.006370 -0.079052 -0.017456 -0.025130 -0.080032 -0.113709 -0.152986 -0.096126 -0.113943 -0.035224 -0.017037 -0.015519 0.000478 -0.007543 -0.000929 -0.000023 0.000156 0.004804 -0.000429 -0.000520 -0.002360 0.006367 0.017004 0.021818 0.018608 0.028704 0.019201 0.018853 -0.005652 -0.017328 0.006813 0.002837 -0.032404 -0.068182 -0.088863 -0.071963 -0.057793 -0.039030 -0.005250 -0.007032 -0.002235 0.000685 0.000749 -0.000945 0.002211 -0.000388 -0.004655 -0.001333 0.000624 -0.000484 0.001061 0.001438 -0.002660 -0.001558 0.008070 0.002374 -0.008665 -0.012170 -0.004425 -0.007389 0.008859 0.000394 0.000359 -0.006814 -0.004899 -0.000497 0.004106 0.006153 -0.001123 0.003461 0.002133 0.001721 0.003548 -0.003865 -0.003971 -0.001341 -0.001117 -0.002723 0.001323 0.002100 0.002733 0.004150 -0.001735 -0.001204 -0.005243 -0.001315 0.001106 0.002854 0.001122 0.000872 0.001501 -0.001470 0.002496 0.002067 0.000638 -0.002872 -0.001812 0.003693 0.002280 -0.001737 -0.000201 -0.001832 0.002423 -0.003730 -0.000230 -0.000164 0.001746 -0.004134 0.000425 -0.000225 0.003864 -0.001995 0.000127 0.005600 -0.004341 0.004114 0.003962 -0.002722 -0.002579 0.003671 0.000486 -0.003399 -0.001644 -0.000417 0.002327 0.001091 -0.003018 -0.000843 0.000873 0.007799 0.003490 0.000343 -0.002009 0.000486 0.001721 0.002352 0.002236 -0.001312 -0.003116 -0.001499 -0.005957 0.003335 0.022883 0.014123 0.024880 0.014740 -0.004025 0.002144 -0.002939 -0.000949 0.002914 -0.000693 -0.001836 -0.007215 -0.002080 -0.003940 -0.002285 0.000793 -0.004427 -0.002470 -0.000833 0.001907 0.000091 -0.001415 -0.003083 -0.021943 -0.012069 -0.028079 -0.050823 -0.030487 -0.008335 -0.022735 -0.007964 -0.011816 -0.046956 -0.052520 -0.034491 -0.042006 -0.027617 -0.004010 -0.001045 -0.004120 0.000885 -0.001864 0.003957 0.002841 -0.002314 0.001648 0.005048 0.001140 0.008007 -0.001519 -0.022314 -0.035236 -0.043735 -0.046851 -0.053910 -0.019058 0.038201 0.049509 0.044782 0.064325 0.040637 -0.006242 0.012487 0.013067 0.001386 -0.007372 -0.016745 -0.036663 -0.017149 -0.005459 -0.008287 -0.003074 -0.005445 0.003007 0.001978 -0.000302 0.010798 -0.004138 -0.040232 -0.071458 -0.100255 -0.090043 -0.084902 -0.013799 0.014518 0.064270 0.064678 0.039829 0.017190 0.031828 0.053884 0.042593 0.051267 0.022973 0.002723 -0.011841 -0.016943 -0.004069 -0.003822 -0.000004 0.000226 -0.001034 -0.000308 -0.002434 -0.008147 -0.038108 -0.050351 -0.089798 -0.115131 -0.083014 -0.049831 -0.003277 -0.028591 -0.051104 -0.063526 -0.025532 -0.024005 -0.017973 0.032065 0.020884 -0.010246 -0.011786 -0.031834 -0.039697 -0.021055 -0.008080 0.001893 0.002489 0.003486 0.000423 -0.006435 -0.012758 -0.045696 -0.075381 -0.060682 -0.069398 -0.068056 -0.075619 -0.082412 -0.014443 -0.012590 -0.022956 -0.080930 -0.064326 -0.047804 -0.073476 -0.019948 0.018006 -0.027706 -0.049427 -0.096915 -0.103085 -0.042513 -0.003483 -0.003404 0.001653 -0.000699 0.002180 -0.007990 -0.033228 -0.046344 -0.067189 -0.047016 -0.107149 -0.103217 -0.113376 -0.067707 0.038194 0.087356 0.064785 0.014871 -0.056186 -0.022875 -0.075908 -0.079134 -0.043555 -0.064292 -0.105550 -0.136621 -0.114026 -0.051048 -0.011892 0.003306 -0.001356 0.002968 -0.001449 -0.010201 -0.046580 -0.057861 -0.054767 -0.051278 -0.101899 -0.112587 -0.072022 -0.026251 0.036381 0.165831 0.160293 0.142569 0.041334 -0.049844 -0.108681 -0.105174 -0.092888 -0.101823 -0.138850 -0.150765 -0.123324 -0.063725 -0.018355 -0.001438 0.003911 0.001104 -0.002326 -0.017012 -0.036488 -0.037081 -0.046978 -0.038129 -0.054783 -0.043920 0.032833 0.039047 0.124892 0.161414 0.176357 0.206589 0.115992 -0.035228 -0.094362 -0.083811 -0.120934 -0.136838 -0.161061 -0.137688 -0.097441 -0.040116 -0.014766 -0.001908 0.001283 0.001856 -0.002209 -0.007572 -0.014612 -0.005373 -0.034776 -0.049410 -0.028569 0.008688 0.041237 0.022389 0.083250 0.087472 0.158655 0.194783 0.154235 0.024125 -0.057389 -0.094665 -0.094707 -0.101789 -0.096334 -0.078212 -0.060940 -0.032135 -0.005204 -0.006207 -0.000812 0.000867 0.000721 0.001108 0.007240 -0.000625 -0.035737 -0.039383 -0.010540 -0.014282 -0.046894 -0.016432 0.020137 0.021896 0.133667 0.247975 0.251201 0.109488 -0.038155 -0.102927 -0.067575 -0.033196 -0.030328 -0.029793 -0.020836 -0.008143 0.001130 -0.000255 0.001935 -0.000790 0.000506 0.001701 0.010487 -0.004858 -0.061545 -0.084215 -0.031172 -0.030524 -0.062308 -0.087945 -0.036865 0.032959 0.200109 0.281671 0.259132 0.115876 -0.057600 -0.132205 -0.092509 -0.048403 -0.027228 -0.014252 -0.001508 0.003080 0.004438 0.002544 0.003597 0.001835 0.002104 0.002420 0.007892 -0.012881 -0.072994 -0.107659 -0.067630 -0.070060 -0.115024 -0.137716 -0.034848 0.104158 0.242438 0.292233 0.222541 -0.056030 -0.179920 -0.168796 -0.130670 -0.089830 -0.039094 -0.014212 -0.003109 -0.001694 0.004875 0.000882 -0.001693 0.004589 0.003833 -0.004581 -0.004968 -0.030457 -0.092746 -0.102181 -0.074738 -0.101461 -0.134849 -0.101534 -0.012265 0.184972 0.336403 0.260027 0.135569 -0.228961 -0.286039 -0.192396 -0.137273 -0.106536 -0.084144 -0.044977 -0.012717 0.006518 0.002143 0.002261 -0.005048 -0.001685 0.001400 0.003376 -0.007163 -0.037060 -0.104957 -0.119655 -0.085233 -0.088584 -0.091196 -0.017071 0.007969 0.115176 0.288090 0.145745 -0.061666 -0.330550 -0.278720 -0.197632 -0.100247 -0.077677 -0.089714 -0.062551 -0.013935 0.011449 0.012228 0.009023 0.004151 -0.001805 -0.000388 0.000616 -0.020495 -0.077176 -0.153287 -0.179009 -0.152027 -0.097341 0.027168 0.067928 0.101935 0.159160 0.195872 0.056229 -0.198083 -0.313868 -0.248269 -0.173629 -0.061070 -0.052060 -0.064157 -0.059887 0.009799 0.021475 0.007514 0.002014 -0.001101 -0.001835 -0.003290 0.000683 -0.023262 -0.095363 -0.189756 -0.175398 -0.136639 -0.013533 0.063633 0.068234 0.040793 0.077897 0.111747 0.006705 -0.235275 -0.219514 -0.163851 -0.099632 0.007831 -0.010949 -0.029464 -0.017876 0.025007 0.026201 0.004428 0.004832 0.006795 0.003681 0.002461 0.006554 -0.017981 -0.089503 -0.126800 -0.102880 -0.096479 0.037452 0.044887 0.023573 -0.045963 0.060010 0.048252 0.007155 -0.087381 -0.132505 -0.049684 0.002501 0.021108 -0.026240 -0.028532 -0.011437 0.024856 0.026009 0.013674 0.004429 -0.002896 0.006323 0.000552 -0.004978 -0.015269 -0.060699 -0.052463 -0.037630 0.004803 0.004008 0.015061 -0.005496 0.013543 -0.010669 0.037269 0.003643 0.020146 0.017683 0.074148 0.108953 0.077543 -0.003488 -0.027693 -0.007590 0.021527 0.015000 0.006134 -0.000681 -0.002396 0.002626 -0.004182 -0.002307 0.002460 0.012449 0.029335 0.040274 0.064650 0.005084 0.034541 -0.008647 -0.074992 -0.047359 -0.030153 -0.010057 0.036390 0.076230 0.088205 0.109521 0.081141 0.039051 -0.002418 0.014508 0.024549 0.010405 -0.000039 -0.000631 -0.000535 0.003619 -0.001109 -0.004859 0.005198 0.065782 0.065074 0.017434 0.035843 0.001515 -0.027256 -0.083979 -0.154960 -0.118727 -0.024804 -0.009004 0.054446 0.106069 0.132211 0.099835 0.070932 0.045215 0.008629 0.011003 0.003388 0.006982 -0.003102 0.000821 0.000051 0.001310 -0.000404 -0.005198 0.001749 0.040512 0.035629 -0.016009 -0.048337 -0.056862 -0.083568 -0.077069 -0.042600 -0.061663 -0.053251 0.003071 0.078826 0.125740 0.084394 0.062482 0.042806 0.022053 0.012158 -0.004504 0.004064 0.010596 0.006037 -0.000811 0.000647 -0.001654 -0.000519 -0.006814 -0.002447 0.008751 -0.009278 -0.057240 -0.077153 -0.096647 -0.121304 -0.120643 -0.142988 -0.176619 -0.163582 -0.141321 -0.086905 -0.010135 0.035978 0.039419 0.031243 0.018620 0.004485 0.004736 0.000338 -0.001550 0.000997 -0.003521 0.003414 0.007919 -0.001538 0.001116 -0.001753 -0.007595 -0.018252 -0.029844 -0.028055 -0.038266 -0.074958 -0.092265 -0.109393 -0.138780 -0.148095 -0.133333 -0.098841 -0.053811 -0.017710 -0.016604 -0.006338 0.000405 0.002216 0.003351 0.002171 0.000513 -0.000383 -0.003758 -0.006454 0.000067 -0.000114 0.003886 -0.000066 -0.003623 0.000785 -0.003702 -0.001079 -0.003692 -0.011054 -0.015593 -0.022068 -0.028412 -0.028288 -0.026757 -0.036945 -0.026015 -0.009386 -0.004580 -0.011976 -0.000631 0.002588 -0.001793 -0.001216 -0.002289 -0.003175 0.003619 0.001667 -0.002848 -0.000980 -0.002184 -0.007303 -0.001711 -0.002380 0.000942 -0.002361 -0.000271 -0.004420 -0.007566 -0.008343 -0.000254 0.001129 -0.000285 0.001921 -0.001848 -0.002767 -0.002598 0.001584 -0.004569 0.000007 -0.000222 -0.005108 0.001946 0.002435 0.001208 0.001713 0.001592 0.001414 0.003238 -0.000097 0.006862 0.001243 0.001764 -0.002856 0.005369 -0.003678 0.001879 0.002031 -0.000580 0.000259 0.000552 -0.002203 0.001703 -0.000761 -0.003029 -0.007145 0.000823 0.001583 -0.002011 -0.002930 0.001298 0.002033 -0.000749 0.002135 -0.001839 -0.002273 0.002926 0.001680 -0.001856 -0.001276 -0.002436 0.000650 0.003460 0.011144 0.005390 0.005794 0.010661 0.007707 0.007707 -0.006120 0.002346 0.006148 0.005013 -0.001422 0.000871 -0.000510 0.000832 0.003434 0.000485 0.002598 -0.000490 -0.003905 -0.005013 -0.000881 0.004799 0.002541 0.000517 -0.002851 -0.000264 0.000018 0.000568 0.000473 -0.002475 0.017883 0.032193 0.032591 0.064530 0.056172 0.043486 0.055004 0.045602 0.029238 0.012716 0.007394 0.002921 -0.010657 -0.005907 0.003008 0.004376 0.000910 -0.001887 -0.003625 0.002114 -0.004045 -0.002751 -0.008577 -0.021523 -0.034527 -0.071022 -0.078583 -0.101145 -0.061162 0.002832 0.009928 0.060345 0.061577 0.063851 0.113731 0.099480 0.083383 0.095448 0.089281 0.036536 0.002550 -0.000783 0.001473 0.004462 -0.001490 0.001066 0.000034 -0.000840 -0.010560 -0.033550 -0.067704 -0.114348 -0.169192 -0.189753 -0.206296 -0.194091 -0.095068 -0.057625 0.045214 0.130711 0.177367 0.113497 0.087557 0.104401 0.132113 0.181308 0.161585 0.130110 0.049882 0.017349 -0.001327 -0.001231 -0.001186 -0.000290 0.000187 -0.015980 -0.035935 -0.091191 -0.170605 -0.219478 -0.239809 -0.173254 -0.177288 -0.045016 -0.004559 -0.076165 -0.055130 -0.151696 -0.128630 0.009100 -0.002452 0.058418 0.110779 0.123990 0.179692 0.188819 0.126280 0.058648 0.005426 -0.002688 -0.002618 -0.000537 -0.006863 -0.032858 -0.062374 -0.140164 -0.201728 -0.170676 -0.161277 -0.104188 -0.108840 0.025369 0.020599 -0.083865 0.002995 -0.018204 -0.071404 -0.042833 0.026523 0.180210 0.145159 0.042096 0.155485 0.255589 0.250536 0.114510 0.017246 0.006328 -0.000498 -0.003035 -0.018865 -0.053768 -0.138119 -0.153753 -0.207076 -0.127563 -0.024856 0.007925 0.096711 0.048821 0.007947 0.023993 0.121832 0.187215 0.162922 0.128712 0.197493 0.184580 0.107497 0.071330 0.139362 0.239135 0.301344 0.156773 0.021612 0.004989 0.000401 -0.010077 -0.013956 -0.057866 -0.176780 -0.165012 -0.156408 -0.092944 0.011831 0.102394 0.129678 0.113451 0.122830 0.206912 0.087255 0.002687 -0.010883 -0.044913 0.041309 -0.021266 -0.094407 -0.052481 0.002170 0.175637 0.350570 0.211744 0.043072 0.007958 -0.002620 -0.009751 -0.021838 -0.077271 -0.183456 -0.160302 -0.101870 -0.001662 0.134780 0.180816 0.151708 0.234110 0.152024 0.011473 -0.207381 -0.379742 -0.466066 -0.342243 -0.303621 -0.354038 -0.319155 -0.121032 -0.001017 0.175619 0.321765 0.213080 0.048723 0.000332 0.002726 -0.010642 -0.033530 -0.082062 -0.127582 -0.140291 -0.053158 0.080966 0.244732 0.281501 0.323561 0.286616 0.296645 0.124461 -0.095183 -0.324257 -0.498565 -0.509564 -0.474323 -0.489524 -0.425059 -0.219833 -0.084104 0.051259 0.124716 0.179261 0.067546 0.001787 0.004251 -0.011059 -0.037123 -0.097392 -0.110316 -0.043039 0.082612 0.196447 0.264222 0.282674 0.296070 0.217877 0.187160 0.231066 0.118093 -0.067753 -0.187679 -0.312210 -0.276812 -0.381942 -0.433695 -0.270468 -0.141315 -0.048979 0.014592 0.102257 0.038507 -0.000028 0.000015 -0.005267 -0.024880 -0.061284 -0.107491 -0.010884 0.108280 0.148063 0.112951 0.179740 0.198664 0.118411 0.088836 0.223855 0.140907 0.057934 -0.016523 -0.045617 -0.077327 -0.126378 -0.065362 -0.073041 -0.170911 -0.124573 -0.131124 -0.011988 -0.001114 -0.002150 -0.004125 -0.001561 -0.004925 -0.041623 -0.105615 -0.016516 0.038914 0.067528 0.085615 0.129962 0.041514 0.087227 0.110482 0.247463 0.175873 0.203443 0.041830 -0.066584 -0.066066 0.113700 0.133273 -0.054227 -0.157101 -0.231909 -0.197339 -0.077542 -0.025480 -0.004307 -0.002624 -0.000644 -0.002708 -0.024349 -0.071993 -0.035893 -0.029090 -0.113158 -0.017691 0.059974 0.147335 0.103702 0.051911 0.198530 0.266424 0.160184 0.009740 -0.057158 -0.155441 -0.024794 -0.016745 -0.153504 -0.191333 -0.278765 -0.210681 -0.077278 -0.021939 -0.001780 0.001000 0.004429 0.000918 -0.021018 -0.072055 -0.157152 -0.140099 -0.218109 -0.096847 0.099757 0.164415 0.244791 0.255618 0.223599 0.223363 0.086357 -0.100417 -0.165565 -0.050855 -0.068074 -0.190251 -0.191604 -0.200400 -0.144736 -0.186288 -0.093727 -0.030131 -0.002735 -0.003430 0.002843 -0.012196 -0.030826 -0.126712 -0.271520 -0.254803 -0.301643 -0.178111 -0.022822 0.074770 0.123639 0.147625 0.139012 0.137691 0.025022 -0.071490 -0.185944 -0.141521 -0.205404 -0.216934 -0.210869 -0.164529 -0.075868 -0.130345 -0.140917 -0.065020 -0.007584 0.000482 -0.004678 -0.014652 -0.025012 -0.093671 -0.170413 -0.140375 -0.267696 -0.152405 -0.032037 0.008459 0.080314 0.071170 0.091131 0.073102 -0.076775 -0.095475 -0.087255 -0.085061 -0.137909 -0.096033 -0.072150 -0.142505 -0.066426 -0.105296 -0.151077 -0.050727 -0.006836 -0.001828 -0.000327 -0.004502 -0.040557 -0.114235 -0.111599 -0.026526 -0.149599 -0.143346 -0.050760 -0.065093 -0.024813 0.075722 0.047559 0.024147 -0.070186 -0.138745 -0.086752 -0.134088 -0.174624 -0.043916 -0.107756 -0.149672 -0.110640 -0.029075 -0.087544 -0.017304 -0.003723 0.000255 -0.001167 0.003507 -0.062244 -0.098880 0.012758 0.035326 -0.052518 0.010323 0.092928 -0.026562 -0.082809 -0.066982 0.005561 0.095728 0.055306 -0.065475 -0.040407 -0.119964 -0.131201 -0.044657 -0.102617 -0.083357 -0.035105 -0.016417 -0.063323 -0.015177 -0.001129 -0.002661 0.000765 -0.007126 -0.073188 -0.130442 0.070361 0.034802 0.034719 0.088332 0.091295 0.081782 0.042328 0.022344 0.106581 0.042173 0.074023 -0.001273 0.028401 -0.041353 -0.062970 -0.082119 0.013969 0.080554 -0.009469 -0.044881 -0.034315 -0.005995 -0.003174 0.000648 -0.000292 -0.011388 -0.040754 -0.089183 -0.010620 0.038022 0.050521 0.044116 0.136146 0.045108 0.020020 0.071129 0.139965 0.103526 0.152761 0.061748 0.082990 -0.022466 -0.059257 0.048030 0.124944 0.078070 -0.030209 -0.039068 -0.015902 -0.006356 -0.004013 0.005625 0.000518 -0.007621 -0.018356 -0.036221 -0.075392 -0.124148 -0.091074 0.044976 0.012893 -0.049685 -0.045315 0.071072 0.154047 0.204723 0.143690 0.087400 0.074732 0.039941 -0.011948 0.051290 0.041562 -0.000939 -0.012166 0.001168 0.000620 0.003260 0.001015 -0.002982 0.000762 0.003760 -0.016227 -0.033973 -0.064771 -0.151344 -0.216638 -0.007377 -0.002041 -0.049144 -0.029370 0.056986 0.089505 0.076217 0.077427 0.201312 0.113939 0.064689 0.095510 0.055597 -0.010466 -0.041953 0.012177 0.010140 0.004369 -0.000855 -0.000709 -0.001846 -0.001097 0.004848 -0.003228 -0.050577 -0.107527 -0.137210 -0.122467 -0.083117 0.031914 0.087207 0.107264 0.082866 0.057855 0.053475 0.096841 0.099408 0.041809 0.127896 0.112795 0.049228 -0.006301 -0.010698 0.012942 0.006116 0.001881 -0.001822 0.002553 -0.002716 0.000135 -0.002048 0.011152 -0.014705 -0.038971 -0.057904 -0.073060 -0.085102 -0.047688 0.024697 0.029037 0.038429 0.056550 0.079236 0.106293 0.117006 0.140005 0.063624 0.027238 0.028288 0.018855 0.022488 0.008708 0.007541 -0.002759 -0.003771 0.002775 0.003175 0.001685 0.003801 0.000274 0.003171 -0.002556 -0.017712 -0.016239 -0.015974 -0.009368 -0.003760 0.025092 0.022987 -0.011100 -0.011279 -0.013050 -0.001201 -0.000685 -0.016001 -0.011345 0.007211 0.008694 0.000826 -0.000432 -0.000775 0.000433 -0.001672 0.003036 0.001806 -0.002316 0.000292 -0.001708 -0.000051 0.004529 -0.005026 0.002454 0.000265 -0.002447 -0.001544 0.011734 0.016517 -0.005691 -0.006396 -0.004438 0.002221 -0.007953 -0.003977 -0.008428 -0.004280 -0.004799 -0.004057 0.004275 -0.006282 -0.000201 0.000634 -0.003670 0.003000 0.005679 0.003357 -0.000390 0.001567 0.001603 -0.002656 0.002814 0.000717 -0.002776 0.004285 -0.002315 0.000427 -0.000860 -0.002443 0.006084 -0.000254 0.002485 -0.004731 0.000894 0.003132 0.003888 0.000185 -0.001379 0.002150 -0.001556 -0.005314 -0.001664 -0.002842 -0.000297 -0.001337 0.000382 0.001017 0.004137 0.001844 -0.000067 -0.000063 0.003495 -0.000089 0.002477 0.001729 -0.002038 0.001705 0.006422 -0.007062 -0.000628 0.000336 -0.000419 -0.000073 0.001432 0.002075 0.003924 -0.002126 0.000413 0.001413 0.001996 -0.001768 -0.000119 -0.002159 -0.001562 -0.001523 0.000938 -0.001863 -0.003939 -0.004000 -0.000253 -0.007967 -0.011409 -0.003012 -0.008016 -0.004603 0.005709 -0.005592 -0.009808 -0.003331 0.000698 -0.003052 -0.000375 0.003986 0.000663 0.000906 0.000590 0.000036 0.004233 0.001366 -0.002730 0.000607 0.000407 0.001960 -0.000626 -0.005369 0.001746 -0.008588 -0.018549 -0.028432 -0.033986 -0.034000 -0.059123 -0.087119 -0.055921 -0.041027 -0.036364 -0.028423 -0.015169 -0.010407 0.000913 0.012637 0.002392 0.001557 0.002443 0.002971 -0.000967 0.002523 -0.002596 0.002285 0.000346 -0.000233 -0.007376 -0.000951 -0.006635 -0.025560 -0.075866 -0.103782 -0.083129 -0.044339 -0.005155 -0.002595 -0.022170 -0.013955 0.001379 0.010486 0.053254 0.051400 0.056058 0.050425 0.019954 -0.014187 -0.005857 0.001093 -0.005335 0.002187 0.003015 -0.001894 0.000911 -0.002002 0.000636 -0.015527 -0.034948 -0.094622 -0.146193 -0.198693 -0.155307 -0.081038 -0.046386 -0.006179 0.009081 -0.012399 0.005814 0.031540 0.065434 0.097659 0.115121 0.081221 0.035585 0.010065 -0.011619 -0.004688 -0.000256 -0.003294 0.002318 0.001954 -0.001419 -0.000135 -0.019849 -0.046040 -0.071966 -0.119306 -0.174363 -0.218078 -0.151393 -0.126057 -0.129443 -0.095379 -0.109377 -0.074201 -0.018949 0.026908 0.010443 0.067420 0.081079 0.057141 0.011480 -0.020208 -0.020427 -0.002080 -0.001553 0.000585 -0.000743 -0.002735 0.000503 -0.005091 -0.036380 -0.069076 -0.083034 -0.129957 -0.150395 -0.196229 -0.180068 -0.131981 -0.125219 -0.087923 -0.174175 -0.110443 0.004378 -0.020005 -0.024514 0.023712 0.039364 0.022003 -0.024584 -0.078512 -0.040884 0.000167 0.000151 0.002776 0.005126 -0.001296 -0.001974 -0.018500 -0.028233 -0.054816 -0.071733 -0.110962 -0.143489 -0.179666 -0.194617 -0.143685 -0.097323 -0.052157 -0.091185 -0.081297 0.060490 -0.018615 -0.077966 -0.026032 -0.009372 -0.033408 -0.073871 -0.083430 -0.034876 0.002325 -0.000137 0.000736 0.002248 -0.003421 0.000786 -0.014433 -0.028024 -0.031700 -0.046383 -0.080607 -0.107008 -0.132349 -0.184458 -0.170210 -0.067995 -0.005187 0.042952 0.047029 0.047434 -0.036591 -0.086050 -0.042208 -0.031973 -0.070684 -0.085931 -0.060835 -0.030497 -0.002589 0.001328 0.001166 0.003743 0.000847 -0.001556 -0.004653 -0.009846 -0.036131 -0.042115 -0.047548 -0.067586 -0.095585 -0.171919 -0.156945 -0.036487 0.058490 0.141630 0.085626 0.014483 -0.043992 -0.049504 -0.048871 -0.069167 -0.090721 -0.076485 -0.051015 -0.015002 -0.003018 -0.004744 0.000869 0.002429 0.003046 -0.003630 -0.001240 -0.000135 -0.022822 -0.038321 -0.044519 -0.065585 -0.113792 -0.200768 -0.143378 0.039140 0.167688 0.173127 0.070361 0.003155 -0.005477 -0.050826 -0.061347 -0.058674 -0.054688 -0.031302 -0.025852 -0.014163 -0.003043 0.002920 -0.002599 -0.004702 -0.001892 0.000764 0.005647 -0.004631 -0.013951 -0.029965 -0.042617 -0.074276 -0.144981 -0.220129 -0.117984 0.092978 0.235052 0.158912 0.054059 0.008446 -0.053190 -0.060823 -0.062488 -0.025522 -0.026078 -0.014724 -0.011422 -0.004249 0.001995 0.000569 0.004474 0.000717 -0.001238 0.002031 0.000267 -0.006217 -0.015438 -0.024752 -0.032533 -0.077497 -0.143965 -0.204823 -0.080939 0.132796 0.241546 0.113166 -0.010047 -0.020795 -0.112952 -0.087761 -0.052396 -0.019822 -0.022350 -0.011054 -0.012800 -0.007259 -0.004646 -0.001262 -0.002278 -0.001403 0.002656 0.006669 -0.002290 -0.008503 -0.010058 -0.019704 -0.036304 -0.075337 -0.127313 -0.156496 0.000140 0.166759 0.231284 0.051564 -0.030001 -0.119944 -0.149264 -0.088213 -0.055994 -0.032079 -0.021513 -0.012714 -0.008076 -0.001486 -0.000221 -0.003875 0.001346 0.005890 0.004764 -0.002742 0.002707 -0.023313 -0.030648 -0.026078 -0.020477 -0.045873 -0.100750 -0.048987 0.090925 0.252045 0.226106 -0.026160 -0.107713 -0.199354 -0.153834 -0.103707 -0.075248 -0.044350 -0.030490 -0.015684 -0.005556 -0.000870 -0.002404 0.002195 0.001646 -0.000561 0.004670 -0.003212 -0.002415 -0.025149 -0.057002 -0.065266 -0.049818 -0.028899 -0.060460 0.052301 0.114456 0.243296 0.149467 -0.102738 -0.196313 -0.209358 -0.142062 -0.087015 -0.062294 -0.030430 -0.023401 -0.016597 -0.012529 -0.012222 -0.002849 0.001463 0.001849 -0.000916 -0.005028 -0.003795 -0.010094 -0.047030 -0.096393 -0.093898 -0.066268 -0.054856 -0.002316 0.049046 0.117873 0.187020 0.071414 -0.152685 -0.230006 -0.186223 -0.135891 -0.074981 -0.046158 -0.032723 -0.032516 -0.023865 -0.024369 -0.011943 -0.000497 0.002695 0.003445 -0.000503 0.006940 0.000456 -0.010535 -0.067818 -0.143256 -0.121214 -0.078141 -0.037727 -0.014319 0.039086 0.047823 0.110248 -0.008994 -0.204842 -0.232799 -0.151181 -0.127577 -0.081660 -0.043245 -0.044999 -0.049753 -0.032087 -0.018628 0.003568 0.009151 -0.001363 0.000106 -0.004524 0.000429 -0.002351 -0.016427 -0.055306 -0.076444 -0.075474 -0.067814 -0.045443 -0.072948 -0.009083 -0.006589 0.066984 -0.073482 -0.171402 -0.149049 -0.113455 -0.111838 -0.075638 -0.061951 -0.067977 -0.070653 -0.032626 -0.013515 0.008611 0.007503 0.001838 0.000470 -0.002491 -0.003278 -0.003873 -0.006590 -0.006108 0.018139 -0.009294 -0.015600 -0.079938 -0.066136 0.001886 0.013689 -0.037920 -0.074268 -0.131254 -0.083838 -0.100180 -0.114962 -0.086590 -0.073508 -0.074836 -0.055147 -0.030056 -0.005586 0.003495 0.005659 -0.005367 -0.002001 0.000183 0.001357 -0.006226 0.004408 0.032439 0.057127 0.038476 -0.007080 -0.069949 -0.049753 -0.058083 -0.097230 -0.107563 -0.086367 -0.070608 -0.059767 -0.079597 -0.103231 -0.109544 -0.095525 -0.073396 -0.042371 -0.027729 -0.003618 0.003707 0.006681 0.001148 0.002984 -0.002632 -0.002001 -0.000153 0.009939 0.077728 0.085456 0.034092 -0.006418 -0.038277 -0.079452 -0.132543 -0.160693 -0.095417 -0.027307 -0.019917 0.022923 0.009781 -0.056637 -0.096101 -0.084455 -0.072340 -0.040066 -0.012600 0.000383 0.002442 0.003233 -0.001118 0.000084 -0.000253 0.002009 -0.008410 0.006080 0.069582 0.088860 0.046566 0.020269 -0.018000 -0.077666 -0.067178 -0.039191 -0.005021 -0.020956 0.018961 0.074111 0.075659 -0.033519 -0.059145 -0.056524 -0.049716 -0.020297 -0.017556 -0.003049 -0.002215 0.005384 0.002242 -0.001673 0.000296 0.000271 -0.006805 -0.003546 -0.000446 0.007018 -0.029077 -0.050569 -0.068193 -0.109354 -0.105304 -0.109345 -0.128463 -0.132251 -0.088393 -0.034636 0.001307 -0.002486 -0.011620 -0.008654 -0.002599 -0.005378 -0.003783 -0.000651 -0.001291 0.001365 -0.002047 -0.001678 -0.000930 -0.000763 -0.003076 -0.008943 -0.009545 -0.022206 -0.033065 -0.023553 -0.043883 -0.090523 -0.070197 -0.058263 -0.087919 -0.096855 -0.080299 -0.042818 -0.012233 -0.004656 -0.006065 0.000773 -0.002693 -0.001286 -0.005317 -0.002613 0.000894 0.000160 -0.004417 0.001917 0.000115 0.001218 -0.003236 0.002049 0.004390 -0.006713 -0.002205 -0.005761 -0.007817 -0.014763 -0.009818 -0.011355 -0.018326 -0.018683 -0.021558 -0.018341 -0.001446 -0.000870 0.003999 -0.001676 -0.002519 0.002748 0.000960 0.001018 -0.000177 -0.002379 -0.002163 0.000054 -0.003291 0.006494 0.000588 -0.001719 0.003327 0.000194 -0.001436 -0.002323 -0.000855 -0.001922 0.001438 -0.000642 -0.002868 0.004649 0.006072 0.001485 -0.000504 -0.001779 -0.000770 0.002085 0.001566 0.002265 -0.003922 0.000584 -0.000578 0.000052 -0.002243 0.000126 -0.004142 0.000788 -0.002122 0.001142 0.000828 0.000168 0.002655 -0.001265 -0.001131 -0.001517 0.001623 0.003324 -0.001823 0.001020 0.002279 -0.000872 -0.001174 -0.000832 -0.001061 -0.003396 -0.001234 -0.001432 0.000499 0.003626 -0.003760 -0.003195 -0.002046 0.000370 -0.001593 0.001101 0.000277 -0.003021 -0.002381 -0.001673 -0.001568 -0.001777 -0.001268 0.002291 -0.005631 -0.005209 -0.005879 0.003880 0.000325 -0.001004 0.003012 -0.002160 0.000724 0.000108 -0.002692 0.002415 0.000420 0.004419 -0.005765 -0.000574 0.001536 -0.003517 -0.000083 -0.001683 -0.002623 -0.003734 0.000614 -0.002205 0.000607 0.001455 0.006936 -0.000013 0.002119 -0.001267 0.006868 0.006993 0.006239 0.000983 -0.010270 -0.011503 -0.013566 -0.002339 -0.006626 -0.000600 0.005040 0.007379 0.005683 0.002688 0.001646 0.000992 -0.003179 0.001969 0.000688 -0.003709 -0.001638 -0.000068 -0.000475 0.003257 0.015748 0.007872 -0.019736 -0.006664 0.008577 -0.011051 -0.042734 -0.068722 -0.091601 -0.092446 -0.055500 -0.030165 -0.019917 -0.010510 -0.005216 0.003039 0.002984 0.002316 0.001826 0.001224 0.003106 0.000621 -0.004234 -0.002331 0.017831 0.017726 0.011168 -0.006852 -0.000182 0.010808 -0.007707 0.017500 0.028258 0.028399 -0.005655 -0.091316 -0.108954 -0.119349 -0.092836 -0.077040 -0.044954 -0.020697 -0.016046 -0.018286 -0.001800 0.002610 0.001673 0.002706 0.003180 -0.001646 0.000200 -0.004712 0.019232 0.019163 -0.005297 -0.022581 -0.040881 -0.028146 -0.025614 0.005864 0.001185 0.043109 0.032937 -0.077284 -0.128578 -0.137520 -0.161460 -0.133064 -0.074268 -0.045652 -0.033825 -0.022696 -0.014474 -0.002395 -0.007244 0.000363 -0.003278 -0.005612 -0.010772 -0.015749 -0.004310 -0.015412 -0.062600 -0.070851 -0.075444 -0.012077 0.018459 0.022302 0.043520 0.021394 -0.015967 -0.059679 -0.125309 -0.179455 -0.234685 -0.197094 -0.115267 -0.073017 -0.053545 -0.033293 -0.021927 -0.005740 -0.005257 0.000869 -0.001656 0.000150 -0.015737 -0.032627 -0.042504 -0.045877 -0.062634 -0.087248 -0.050430 -0.018325 0.034327 0.039101 0.031845 0.040818 -0.028125 -0.058412 -0.125679 -0.233056 -0.261788 -0.186155 -0.126371 -0.088076 -0.081195 -0.057485 -0.023390 0.000896 -0.001586 -0.002381 -0.000533 -0.004542 -0.009775 -0.027725 -0.030340 -0.023876 -0.051938 -0.081995 -0.091386 0.010111 0.059002 0.094141 0.107070 0.162718 0.103735 -0.087378 -0.120824 -0.273921 -0.269384 -0.200684 -0.141833 -0.104359 -0.093514 -0.066590 -0.021651 0.002060 0.000313 -0.003156 -0.005684 0.001406 -0.013850 -0.017852 -0.016402 -0.037299 -0.049042 -0.061495 -0.060631 0.037496 0.120018 0.141336 0.248060 0.282947 0.223618 -0.060498 -0.229539 -0.323913 -0.288653 -0.223845 -0.151251 -0.114899 -0.093678 -0.063426 -0.032618 -0.010588 -0.001546 0.001958 -0.002842 0.002485 -0.017901 -0.022598 0.000944 -0.032403 -0.040970 -0.059078 -0.040157 0.013510 0.086689 0.212549 0.258613 0.297119 0.199750 -0.082409 -0.284464 -0.282488 -0.258256 -0.227453 -0.159850 -0.130980 -0.082453 -0.051258 -0.017983 -0.009315 0.001121 -0.002365 0.003738 -0.000649 -0.016353 -0.019388 -0.016812 -0.047337 -0.067889 -0.088885 -0.096106 -0.082767 -0.027816 0.138640 0.191120 0.267517 0.128819 -0.104805 -0.246079 -0.275484 -0.242558 -0.161842 -0.116201 -0.082103 -0.049027 -0.025511 -0.013356 -0.007967 0.000461 -0.000948 0.001128 -0.001692 -0.009859 -0.009225 -0.022143 -0.090771 -0.114652 -0.126586 -0.168235 -0.177149 -0.106410 0.084443 0.162620 0.231917 0.083518 -0.077321 -0.232370 -0.236511 -0.178058 -0.114391 -0.054225 -0.008764 0.001320 0.020143 0.032986 0.008700 0.001797 -0.000066 -0.001136 0.002863 -0.004895 -0.005872 -0.037634 -0.105028 -0.145622 -0.148195 -0.127553 -0.110270 -0.056836 0.070679 0.166673 0.199221 0.046680 -0.101198 -0.158268 -0.225108 -0.179442 -0.092327 0.004733 0.020172 0.046785 0.057217 0.067488 0.039989 0.003626 -0.002472 -0.003658 0.002893 -0.002173 -0.007031 -0.042753 -0.099366 -0.138251 -0.117193 -0.057039 -0.049056 -0.029175 0.093075 0.126668 0.110996 0.028154 -0.058660 -0.187084 -0.229824 -0.183073 -0.076916 0.010819 0.082809 0.114406 0.090600 0.079020 0.048035 0.001281 0.000581 -0.001335 -0.003113 0.005720 -0.006878 -0.026280 -0.048625 -0.087208 -0.044413 0.032354 0.040304 -0.010150 0.033098 0.119405 0.104032 -0.004680 -0.058994 -0.221106 -0.231111 -0.160253 -0.087179 0.010096 0.080600 0.126735 0.141236 0.111873 0.057172 0.008518 0.003178 -0.000303 0.000561 0.001509 -0.009326 -0.027034 -0.015968 -0.034593 -0.012405 0.059642 0.063369 0.027134 0.000970 0.104599 0.193539 0.022311 -0.036332 -0.170162 -0.110621 -0.097692 -0.044814 0.037290 0.090306 0.140493 0.145636 0.125462 0.065660 0.015020 -0.001248 -0.000925 -0.004251 -0.004179 -0.017887 -0.037901 -0.045485 -0.027076 0.001262 0.025680 0.062993 -0.013359 0.034800 0.130708 0.188190 0.091670 -0.040831 -0.128806 -0.048808 -0.009052 0.029516 0.070553 0.102358 0.125758 0.148488 0.112971 0.045745 -0.001023 -0.005921 0.000761 0.000877 -0.002247 -0.010851 -0.057848 -0.089816 -0.022778 0.009963 0.057560 0.000285 -0.078925 -0.040263 0.050521 0.120846 0.091288 -0.027130 -0.036975 0.006838 0.018086 0.065826 0.073593 0.080878 0.124514 0.107632 0.070207 0.021053 0.011167 -0.003324 -0.002853 0.000120 -0.002727 -0.013873 -0.063405 -0.086002 -0.060750 -0.087725 -0.031610 -0.078662 -0.077875 -0.101214 0.019149 0.053459 0.060383 0.035396 -0.014461 -0.000743 -0.034411 -0.027036 0.020106 0.030879 0.066646 0.043515 0.051161 0.026849 -0.001498 -0.002458 0.003240 -0.000484 -0.003371 -0.009167 -0.056326 -0.050689 -0.064995 -0.063573 -0.070950 -0.081172 -0.020920 -0.020792 -0.049899 -0.014972 -0.020439 -0.020086 -0.011737 0.017915 -0.017952 -0.045861 -0.022690 -0.003099 -0.010898 0.012990 0.007667 0.009127 -0.001662 -0.001252 -0.001495 -0.000623 -0.009791 -0.013243 -0.043066 -0.048849 -0.063779 -0.039070 -0.089107 -0.045890 -0.041592 -0.051543 -0.073600 -0.085840 -0.077292 -0.087428 -0.054954 -0.007028 -0.022623 -0.039268 -0.011738 -0.035240 -0.019125 -0.002463 -0.008638 -0.000183 -0.002182 0.001988 -0.002615 0.000999 -0.005737 -0.017133 -0.023066 -0.059106 -0.078816 -0.074861 -0.090318 -0.091412 -0.087770 -0.106116 -0.101210 -0.069773 -0.068978 -0.065631 -0.039612 0.025810 0.013296 0.007768 -0.001992 -0.020534 -0.020366 -0.009962 -0.016886 -0.003031 -0.000978 -0.002554 -0.002780 0.001850 -0.009497 -0.011212 -0.009469 -0.024897 -0.053211 -0.067865 -0.080257 -0.111955 -0.065798 -0.042540 -0.110391 -0.121289 -0.087939 -0.098217 -0.059594 -0.037814 -0.025138 -0.018464 -0.015244 -0.007311 -0.031227 -0.020306 -0.009266 -0.001369 -0.000402 0.001630 0.003508 0.000621 -0.002610 0.003250 -0.006257 -0.021118 -0.055380 -0.079379 -0.093114 -0.086522 -0.088681 -0.131011 -0.183958 -0.164373 -0.180768 -0.145995 -0.058452 -0.013812 -0.012955 0.002384 0.009313 -0.002521 -0.003898 -0.002500 -0.000790 0.001196 0.000518 0.002844 -0.000141 0.002897 0.003734 0.000236 -0.002458 -0.008530 -0.022896 -0.028567 -0.028827 -0.052492 -0.060916 -0.080401 -0.137778 -0.134188 -0.105146 -0.081064 -0.045963 -0.027366 -0.031433 -0.014888 -0.008213 0.000957 -0.004807 -0.002219 0.001685 0.003287 0.000704 0.002477 -0.003321 -0.002575 -0.005359 -0.002914 0.000972 -0.002307 -0.003629 -0.002946 -0.005224 -0.010254 -0.013397 -0.021953 -0.026496 -0.031810 -0.022933 -0.031536 -0.018514 -0.010311 -0.000919 -0.003064 0.000097 -0.000311 -0.002945 0.001085 -0.000190 0.001656 -0.003790 -0.004221 0.000352 0.000392 -0.000343 -0.000554 0.003161 0.002998 -0.000195 -0.001932 0.001030 0.002147 0.002326 -0.000390 0.000501 -0.000626 -0.001266 -0.003877 -0.000864 -0.003446 -0.001499 0.002061 0.000833 0.000997 0.001899 0.000257 -0.000135 -0.000203 -0.003187 -0.002302 -0.001306 0.003629 0.004008 0.002486 -0.002905 -0.005527 0.003055 0.003056 0.000654 -0.000562 -0.000993 0.001209 0.000337 0.003659 -0.003035 -0.003883 -0.000359 -0.001679 0.001779 0.006445 0.000280 -0.001741 0.003376 0.002459 0.002666 0.001529 -0.001691 -0.002165 -0.000872 -0.001730 0.000689 0.004999 -0.004490 0.002033 -0.001223 -0.003100 0.002583 -0.002310 0.000150 -0.002153 -0.000215 0.002200 0.003341 -0.008974 0.001705 0.000956 0.002555 -0.003041 -0.001458 0.002197 -0.002135 0.002902 0.000704 0.001677 -0.003573 -0.001639 -0.000841 -0.001775 -0.001657 0.005917 -0.002054 0.000488 0.000662 -0.001017 0.001029 -0.003272 -0.003276 -0.005833 -0.009616 -0.017410 -0.012955 -0.017357 -0.009503 -0.012378 -0.005168 -0.003796 0.000679 -0.000365 0.002289 0.000424 -0.004144 -0.001330 -0.001141 0.000188 -0.001311 -0.003981 -0.000066 0.004664 -0.002419 -0.000516 -0.002860 -0.005016 -0.011507 -0.019091 -0.028109 -0.030744 -0.053096 -0.080696 -0.059957 -0.061729 -0.044480 -0.024318 -0.007565 -0.013407 0.002177 0.004670 -0.005227 -0.004248 0.001585 -0.000581 0.000047 0.000649 -0.003161 0.003033 -0.000980 0.001185 -0.000053 0.000629 -0.004115 -0.008269 -0.045115 -0.070729 -0.072062 -0.065617 -0.068785 -0.077660 -0.105714 -0.081190 -0.045625 -0.010189 0.029109 0.023357 0.019244 0.025781 0.014011 -0.009713 -0.010006 -0.003989 -0.002790 0.002457 0.002409 -0.001943 0.001724 0.002565 -0.003928 -0.016175 -0.024569 -0.057823 -0.076054 -0.083917 -0.102119 -0.107631 -0.084445 -0.056903 -0.092019 -0.083268 -0.071047 -0.053714 -0.019617 -0.015279 0.007260 0.021136 0.016445 0.005761 -0.015883 -0.008046 0.001450 -0.000332 0.001465 0.001746 0.002473 -0.004650 -0.013796 -0.018582 -0.038774 -0.071310 -0.071970 -0.071440 -0.074467 -0.089006 -0.093544 -0.071874 -0.099325 -0.091632 -0.053212 -0.016728 0.007106 0.016432 0.000215 0.006823 0.005882 -0.020042 -0.023741 0.002978 -0.003550 -0.002643 -0.001608 0.003330 0.000159 -0.003270 -0.018382 -0.026313 -0.034017 -0.050697 -0.055557 -0.063018 -0.065951 -0.070265 -0.082875 -0.070188 -0.118933 -0.086346 0.006523 -0.003923 0.022327 0.051120 0.022572 0.017050 -0.003561 -0.048646 -0.020621 0.001604 0.000430 0.000390 0.003738 0.002764 -0.002091 -0.008567 -0.013117 -0.027894 -0.030859 -0.040213 -0.032883 -0.045401 -0.064744 -0.106784 -0.150727 -0.124987 -0.057639 -0.027497 0.092214 0.076368 0.048432 0.055131 0.050218 0.034455 0.002032 -0.024162 -0.010696 -0.001061 0.004263 -0.001287 0.002539 -0.000111 0.001124 -0.006237 -0.012847 -0.023304 -0.028287 -0.040554 -0.038969 -0.047901 -0.094816 -0.191053 -0.239946 -0.149098 0.026429 0.124619 0.158092 0.125431 0.098137 0.085935 0.084745 0.040583 -0.004153 0.014904 0.010187 0.000103 -0.001877 0.000304 -0.001667 0.002178 -0.000511 -0.001272 -0.005023 -0.019564 -0.032774 -0.048144 -0.042605 -0.050626 -0.113699 -0.223762 -0.250156 -0.078429 0.159336 0.234273 0.177453 0.133394 0.128332 0.084731 0.058719 0.009892 0.010641 0.028781 0.019962 0.006933 -0.000965 0.000670 -0.002400 -0.000422 -0.004412 0.000269 -0.010744 -0.026377 -0.042149 -0.036490 -0.043922 -0.055293 -0.113311 -0.197661 -0.154505 0.052165 0.185253 0.189883 0.141931 0.148767 0.074124 0.057830 0.023268 0.000857 0.018569 0.015204 0.002509 0.001011 0.000540 -0.000810 -0.002299 -0.000063 -0.001292 0.003347 -0.011212 -0.031164 -0.026080 -0.022874 -0.021293 -0.049743 -0.104190 -0.143875 -0.066611 0.116270 0.156320 0.116242 0.091243 0.054977 0.002242 -0.005098 -0.001333 -0.008903 -0.005699 -0.002979 -0.001507 -0.001464 0.004969 -0.000804 -0.001201 0.000422 0.001534 -0.000716 -0.007764 -0.020217 -0.021597 -0.013930 -0.022160 -0.040170 -0.081539 -0.089033 -0.001396 0.095794 0.065498 0.032653 0.058815 -0.026204 -0.041621 -0.035369 -0.021393 -0.019557 -0.020580 -0.011103 -0.001220 -0.008319 -0.002617 -0.001560 -0.001702 0.002883 0.002412 -0.002299 -0.009888 -0.016028 -0.027066 -0.031119 -0.037800 -0.047517 -0.046459 -0.020193 0.025181 0.067206 0.035054 0.036293 0.008136 -0.054161 -0.057795 -0.047776 -0.022786 -0.023585 -0.013195 -0.008086 -0.001457 -0.008797 -0.003644 0.000808 -0.003462 -0.003369 0.000100 -0.008085 -0.015811 -0.014493 -0.019888 -0.043522 -0.042941 -0.053368 -0.021546 0.016398 0.048700 0.060420 0.017111 0.015255 -0.046376 -0.070948 -0.064053 -0.046274 -0.034795 -0.033024 -0.023506 -0.017189 -0.003929 -0.003223 -0.001503 -0.003316 0.001754 -0.004929 -0.005439 -0.008845 -0.007226 -0.033925 -0.072113 -0.080210 -0.054206 -0.060949 -0.003459 0.020073 0.101412 0.030932 -0.020198 -0.053978 -0.101739 -0.080215 -0.058227 -0.050658 -0.041480 -0.037752 -0.028749 -0.020765 -0.008787 -0.001001 0.002189 0.000833 0.003011 -0.002550 -0.013876 -0.014621 -0.030027 -0.060107 -0.080235 -0.068235 -0.061699 -0.031337 0.004915 0.062817 0.101657 0.017102 -0.095530 -0.128295 -0.129125 -0.088388 -0.067966 -0.056148 -0.044095 -0.025054 -0.034877 -0.026494 -0.012139 0.003827 -0.002220 0.000749 -0.000762 -0.000647 -0.020168 -0.027223 -0.053320 -0.078445 -0.034536 -0.018282 -0.009793 0.008146 0.095668 0.125755 0.102395 -0.026917 -0.160716 -0.173043 -0.124563 -0.081276 -0.057209 -0.065675 -0.050967 -0.044193 -0.030010 -0.018751 -0.006796 0.005205 0.002045 0.001418 0.001664 0.001214 -0.011105 -0.018883 -0.056160 -0.044901 -0.021156 -0.006356 0.025615 0.051886 0.138336 0.134953 0.069236 -0.105370 -0.213077 -0.145054 -0.110926 -0.082557 -0.063511 -0.052994 -0.050971 -0.039929 -0.018917 -0.007434 0.001987 0.001365 -0.002544 -0.000003 -0.000631 0.000310 -0.006182 -0.010611 -0.009683 0.009678 0.005852 0.042346 0.026650 0.081437 0.119751 0.091844 -0.050097 -0.154442 -0.221080 -0.140446 -0.115324 -0.092648 -0.071433 -0.053602 -0.056147 -0.035264 -0.018681 0.002983 0.001262 0.005462 0.000393 0.001043 -0.003213 0.001470 0.003370 0.013660 0.037518 0.056465 0.041999 0.018640 -0.004116 0.065410 0.041572 -0.022357 -0.124997 -0.193960 -0.198736 -0.166407 -0.123508 -0.116086 -0.100661 -0.071120 -0.050564 -0.026806 -0.010818 0.002366 -0.003243 0.004829 0.003724 -0.000469 0.001243 -0.003267 -0.000334 0.009358 0.065007 0.082812 0.049878 0.010698 0.012688 0.007158 -0.042748 -0.087613 -0.117549 -0.147131 -0.172032 -0.130023 -0.113102 -0.098976 -0.087985 -0.065994 -0.047754 -0.018212 -0.006491 -0.002061 -0.001759 0.001598 -0.002397 -0.000440 0.001255 0.003516 -0.003649 0.025018 0.083981 0.088788 0.068752 0.027828 0.019297 0.012992 -0.001092 -0.006947 -0.053960 -0.102214 -0.100917 -0.078360 -0.069772 -0.071857 -0.059061 -0.045347 -0.032765 -0.003589 0.002331 0.004098 0.003004 0.008020 0.002971 -0.003851 -0.001964 0.000093 -0.000591 0.007459 0.042005 0.053217 0.041660 0.016840 0.018758 0.004286 -0.005041 -0.028694 -0.046201 -0.067819 -0.063738 -0.044584 -0.030447 -0.018447 -0.012013 -0.009069 -0.005147 -0.001259 0.002736 0.001681 0.000532 0.000551 -0.002767 -0.001785 -0.000824 -0.000016 0.003013 -0.002132 0.005140 0.005631 0.016773 0.026010 0.026134 -0.006337 -0.005324 -0.004697 -0.026635 -0.049172 -0.039467 -0.015578 -0.003915 -0.001615 0.000117 0.003407 0.006656 0.004776 0.001800 -0.001275 0.002756 0.002426 0.002470 -0.004336 0.000122 -0.002473 0.005763 0.000842 -0.002994 0.005084 0.005266 0.006719 -0.001769 -0.005684 -0.004839 -0.004083 -0.005982 -0.017921 -0.009516 -0.009092 -0.001465 0.002822 0.000942 -0.002936 0.003474 0.005882 -0.000416 -0.000186 -0.002424 0.003748 -0.002057 0.002311 -0.004790 -0.003893 0.001800 0.003245 -0.000714 0.000534 0.001394 -0.000207 -0.002296 0.001573 0.000641 0.000369 0.002917 -0.000397 0.004841 0.000083 0.001550 -0.002608 0.001114 -0.002628 0.002273 -0.000399 -0.000432 -0.002334 0.000857 -0.002357 -0.003812 -0.000744 -0.000185 0.002186 0.001161 0.000259 -0.001564 -0.001437 0.001745 -0.002426 -0.000953 -0.001412 0.002296 -0.000678 -0.000715 0.000362 0.002548 -0.004019 0.003492 -0.002446 0.001758 -0.000618 -0.002781 -0.000318 -0.000581 -0.004247 0.000204 -0.001655 0.001146 0.000148 -0.000132 -0.003206 0.000208 -0.001579 0.002621 0.002367 0.002710 0.001231 -0.004292 -0.002632 -0.014433 -0.005657 -0.003628 -0.003607 0.003096 0.011459 -0.000907 0.000144 -0.001364 -0.005417 -0.005531 0.000676 -0.003348 -0.002201 0.000503 -0.000783 0.001845 -0.001828 0.000321 -0.000511 -0.000307 0.000629 -0.001723 -0.004265 -0.005201 0.005241 0.008710 0.003372 -0.004340 -0.007397 0.000482 -0.015078 -0.012791 0.006780 0.007951 -0.004215 -0.013283 -0.004406 -0.017261 -0.014663 -0.005176 0.001282 -0.001442 -0.004997 -0.003522 0.000396 0.006260 -0.004476 -0.002367 0.002587 -0.001083 0.003740 0.014438 0.026314 0.071101 0.062237 0.068498 0.076381 0.067977 0.030064 0.042675 0.044890 -0.029573 -0.085384 -0.100009 -0.082454 -0.071088 -0.055467 -0.053861 -0.036730 -0.003945 0.000868 -0.000607 -0.001170 -0.000748 -0.001834 -0.005947 -0.005218 0.013347 0.035751 0.060006 0.071741 0.138305 0.138592 0.141534 0.115667 0.041651 -0.030325 0.010165 0.093978 0.078693 0.081025 -0.017572 -0.057107 -0.073045 -0.078205 -0.087364 -0.068043 -0.012087 -0.004664 -0.002308 -0.000381 -0.000559 0.001456 0.000314 0.000896 0.039378 0.089401 0.137987 0.145011 0.112224 0.171048 0.167626 0.108013 0.043441 0.027973 0.080168 0.188074 0.096698 0.094990 -0.003736 0.005139 -0.037033 -0.057984 -0.072265 -0.080025 -0.035586 -0.009841 0.000033 -0.003746 -0.000637 -0.005534 -0.006455 0.002788 0.055497 0.090464 0.054300 0.000367 0.041467 0.101130 0.068410 -0.021770 -0.010164 0.029082 0.090483 0.089378 0.097473 0.143111 0.064104 0.036081 -0.056921 -0.129747 -0.159005 -0.093150 -0.046769 -0.003777 -0.001875 -0.001126 0.002460 0.005002 0.007664 0.017780 0.027301 0.029990 -0.049557 -0.030684 0.034170 0.116097 0.194555 0.114155 0.209376 0.157518 0.108129 0.227385 0.191795 0.170652 0.203329 0.119035 0.011051 -0.048533 -0.223135 -0.180201 -0.077592 -0.009124 -0.001165 0.001846 0.009048 -0.000774 0.010620 0.047499 0.034816 -0.074556 -0.060316 -0.020427 0.002059 0.178813 0.194970 0.110457 0.048156 0.133050 0.188219 0.283907 0.240590 0.126984 0.210865 0.153697 -0.032662 -0.062496 -0.191493 -0.217031 -0.091803 -0.010224 -0.003162 0.000802 0.000100 -0.000305 0.002769 -0.005755 -0.049247 -0.139947 -0.113890 -0.056320 0.024106 -0.020461 -0.048186 -0.048854 -0.183668 -0.191689 0.039139 0.250815 0.158389 0.064659 0.089946 0.055452 -0.069122 -0.066991 -0.173411 -0.180171 -0.061879 -0.009080 0.001803 0.001076 0.001118 0.000437 -0.007539 -0.075398 -0.141451 -0.186397 -0.205735 -0.110015 -0.195090 -0.279037 -0.284688 -0.375198 -0.673381 -0.585999 -0.205728 0.097713 0.072657 0.031745 0.049542 0.025704 -0.031398 -0.131278 -0.145619 -0.092837 -0.049639 -0.013765 -0.000952 -0.000222 -0.002097 -0.003292 -0.030621 -0.155728 -0.287189 -0.367633 -0.410966 -0.414441 -0.496196 -0.567403 -0.555880 -0.593128 -0.779726 -0.574781 -0.165004 0.024930 -0.068177 -0.046789 0.014325 0.050166 -0.044934 -0.148347 -0.111316 -0.082033 -0.031824 -0.009873 -0.002437 0.001616 0.002641 0.003075 -0.054074 -0.206692 -0.407403 -0.514790 -0.606462 -0.602013 -0.714360 -0.727700 -0.606098 -0.532602 -0.559710 -0.339742 -0.132936 -0.124187 -0.178353 -0.097558 -0.002492 -0.039524 -0.135577 -0.185363 -0.146255 -0.065408 -0.005397 -0.003206 -0.000266 -0.003017 0.000479 -0.003997 -0.068414 -0.257632 -0.453159 -0.592249 -0.574708 -0.523971 -0.389133 -0.279380 -0.226510 -0.133168 -0.042856 -0.054748 -0.113516 -0.086520 -0.112946 0.003416 -0.010010 -0.045123 -0.088449 -0.145997 -0.137862 -0.043367 0.021854 0.004524 0.001697 -0.001573 -0.002488 0.001987 -0.071440 -0.191469 -0.342041 -0.377605 -0.251513 -0.179709 -0.003137 0.071025 0.072432 0.137186 0.217863 0.105202 0.040510 0.022118 -0.051828 0.088783 0.032703 -0.024199 -0.092435 -0.138294 -0.113429 -0.025863 0.029905 0.030104 -0.002158 -0.000903 -0.006694 -0.003946 -0.057401 -0.108651 -0.121874 -0.069911 -0.007296 0.028480 0.058362 0.042752 0.050589 0.043578 0.192557 0.133254 0.090614 0.077440 0.039149 -0.092981 -0.036438 -0.144726 -0.110886 -0.155741 -0.091034 0.027669 0.057123 0.036001 0.005475 -0.000129 -0.000990 -0.006887 -0.041402 0.015936 0.118362 0.132768 0.052402 0.048425 0.060380 -0.024230 0.014962 0.117871 0.169786 0.008764 -0.015885 0.073832 -0.070289 -0.068177 -0.023497 -0.082819 -0.063584 -0.093673 -0.071078 0.050564 0.102140 0.064603 0.006734 -0.001684 -0.002239 -0.013833 -0.011619 0.126545 0.211263 0.173889 0.056859 0.020247 0.039700 0.087447 0.086458 0.158058 0.056229 0.044689 0.074263 -0.045549 -0.094968 -0.047345 -0.089343 -0.066922 -0.049023 -0.075313 -0.070687 0.072081 0.149130 0.056880 0.005897 0.000149 0.001361 -0.013912 0.029984 0.210450 0.232348 0.130449 0.186753 0.100204 0.068135 0.030333 0.043556 0.122813 0.174857 0.084547 -0.020178 0.010173 0.082738 -0.005910 0.051410 -0.039550 0.009918 -0.023946 0.107748 0.144021 0.157253 0.038474 0.009317 0.002189 -0.000757 -0.014309 0.077206 0.230397 0.205559 0.150569 0.203978 0.175291 0.090932 -0.003551 0.058928 0.125664 0.245604 0.032227 0.046438 0.076376 0.103032 0.031527 0.081497 0.054629 0.096184 0.062283 0.136123 0.142066 0.129879 0.032009 0.003221 0.000302 -0.001083 0.006591 0.102540 0.248841 0.204148 0.227311 0.240003 0.179768 0.061516 -0.068891 0.074347 0.124855 0.112520 0.001597 -0.114157 -0.042820 -0.072063 -0.039102 0.087045 0.096247 0.103018 0.121247 0.170449 0.152982 0.082813 0.018280 -0.001501 0.000458 0.000845 0.021308 0.075832 0.143755 0.135842 0.135988 0.129783 0.091585 0.042233 0.038215 0.011808 -0.028160 -0.026138 -0.044947 -0.103706 -0.039355 -0.058365 -0.005593 0.094122 0.081115 0.124483 0.157419 0.157691 0.108703 0.052719 0.008350 0.000384 -0.003808 -0.002112 0.011110 0.034751 0.083133 0.107955 0.129971 0.147625 0.071369 0.030239 0.039097 -0.019668 -0.112844 -0.120284 -0.110866 -0.132253 -0.070735 -0.044511 0.007567 0.136753 0.112210 0.146911 0.112810 0.052029 0.035244 0.017792 -0.003603 -0.005127 -0.001599 0.002518 -0.003522 -0.007654 0.021408 0.051121 0.109249 0.173146 0.004220 -0.056562 -0.104587 0.026292 -0.033077 -0.113821 -0.126529 -0.093327 -0.093027 -0.119950 -0.072986 -0.014013 0.011059 0.032371 0.003730 -0.025398 0.006724 0.001348 0.006301 -0.004393 -0.000497 -0.003761 -0.006562 -0.014317 -0.003297 0.022648 0.010968 -0.008649 -0.065210 -0.082025 -0.135414 -0.048072 -0.028722 -0.028799 -0.012528 -0.046190 -0.081663 -0.105833 -0.158003 -0.173846 -0.130079 -0.078920 -0.054309 -0.033808 0.003372 0.006323 -0.000184 -0.000960 0.003050 0.002073 0.001652 -0.001409 0.001195 -0.012558 -0.000584 0.008247 0.026093 0.011914 0.010248 0.030667 0.035670 0.021844 0.010875 0.014894 -0.055582 -0.129041 -0.196400 -0.173891 -0.147001 -0.099670 -0.054623 -0.023564 -0.005938 -0.001947 0.001979 -0.003357 -0.000136 -0.000556 -0.000468 -0.002079 0.004274 -0.015603 -0.020521 -0.004569 -0.004359 0.020759 0.018864 -0.011172 -0.008775 -0.004672 0.000506 -0.009947 -0.010735 -0.004686 -0.016040 -0.020228 -0.022243 -0.011298 -0.005598 -0.001535 0.002117 -0.001986 -0.000562 0.001209 -0.001075 0.001676 0.000441 -0.006326 -0.003573 0.002750 0.003941 0.003913 -0.001024 -0.002047 -0.001226 -0.000326 -0.000576 -0.001706 0.001492 -0.000926 0.000148 -0.001681 -0.003465 -0.000919 -0.001730 -0.008839 -0.006569 0.003805 0.001636 0.000854 0.002467 0.001486 0.007342 -0.001146 0.001911 -0.000823 -0.006868 -0.001131 -0.003972 0.002184 0.001256 -0.000916 -0.004984 -0.000852 -0.001830 0.010019 -0.002532 -0.004233 0.000783 -0.002788 -0.001002 0.001096 -0.003075 -0.000400 0.000747 -0.000636 0.001148 0.002106 0.000034 -0.003150 0.000362 0.002545 -0.000022 -0.001811 0.003482 0.004362 -0.000749 -0.007929 -0.002652 0.000371 -0.008464 -0.003193 -0.003349 -0.007390 -0.002607 -0.004984 -0.012014 -0.009089 0.000152 0.002239 -0.004472 -0.002190 0.000337 -0.000367 0.003245 -0.001485 0.001056 -0.001729 -0.003140 -0.002387 -0.001139 -0.001464 0.000536 0.001019 -0.002175 -0.007241 -0.011475 -0.009972 -0.019525 -0.010040 -0.022823 -0.025322 -0.021361 -0.020852 -0.020727 -0.015748 -0.009168 -0.002871 -0.001721 -0.002467 0.000820 0.001300 0.001713 -0.003277 0.001560 -0.002037 -0.000288 -0.004922 -0.004376 -0.000643 0.001193 -0.004490 -0.004690 -0.005436 -0.014684 -0.028276 -0.042262 -0.039984 -0.060524 -0.091182 -0.072124 -0.056676 -0.047492 -0.038794 -0.028868 -0.026505 -0.015311 -0.003773 -0.006869 0.003376 0.005355 0.000217 -0.000474 0.000663 -0.001088 -0.000757 -0.003722 -0.000607 0.004162 -0.004108 -0.007699 -0.010650 -0.027402 -0.056082 -0.078280 -0.076991 -0.136234 -0.160660 -0.185025 -0.189806 -0.178381 -0.147142 -0.105398 -0.068204 -0.052534 -0.032275 -0.022180 -0.009711 -0.004838 0.000247 -0.002435 0.004248 0.002184 0.000875 0.000265 0.004118 -0.005718 -0.000913 -0.012280 -0.027562 -0.059013 -0.125655 -0.141888 -0.138360 -0.175195 -0.218371 -0.334601 -0.370147 -0.433960 -0.364909 -0.251645 -0.175349 -0.157115 -0.119101 -0.097292 -0.057280 -0.015087 -0.008049 0.003001 -0.001863 0.004689 -0.005387 -0.000188 0.002703 -0.001713 -0.003091 -0.013542 -0.031123 -0.042698 -0.100425 -0.075386 0.001084 0.000569 0.055142 0.043773 0.070432 0.059819 0.032896 -0.039063 -0.176945 -0.200775 -0.168540 -0.205633 -0.171373 -0.094003 -0.038047 -0.001946 0.002131 0.005987 -0.003437 0.011386 0.010898 -0.004944 -0.043376 -0.036917 -0.045456 0.007498 0.039431 0.050714 0.124771 0.199586 0.339530 0.429124 0.377304 0.281141 0.139096 -0.058058 -0.100551 -0.085484 -0.162255 -0.247150 -0.230701 -0.144999 -0.046319 -0.013092 0.000262 -0.000856 0.011035 0.015516 0.017035 0.014922 -0.038011 -0.015714 -0.001244 0.142278 0.100139 0.120925 0.143383 0.186915 0.295135 0.388356 0.274036 0.085632 -0.049166 -0.075762 -0.133947 -0.119379 -0.131215 -0.172855 -0.204606 -0.167708 -0.069458 -0.010268 -0.007637 0.002429 0.011800 0.011023 0.020917 0.016367 -0.011302 0.036612 0.066754 0.107882 0.111448 0.193478 0.209594 0.216922 0.222564 0.245489 0.173193 0.010685 0.035455 -0.037189 -0.103617 -0.073535 -0.101145 -0.108050 -0.194931 -0.157732 -0.076116 -0.019784 0.007512 0.003571 0.008594 0.011807 0.027652 0.018069 0.036381 0.111711 0.045661 0.046794 0.049683 0.071285 0.116942 0.147742 0.123482 0.124221 0.107195 0.102969 0.032038 -0.018326 -0.057062 0.003629 0.004912 -0.096782 -0.197847 -0.169186 -0.078585 -0.023032 0.000243 0.000602 -0.000442 0.024557 0.039525 0.068142 0.079755 0.128967 0.035018 0.055079 0.016250 0.072555 0.140703 0.056068 0.066114 0.198504 0.201875 0.179841 0.206785 0.197558 0.152868 0.189475 0.115670 -0.017262 -0.157445 -0.132725 -0.062276 -0.026077 0.001779 -0.000267 0.005306 0.023286 0.049362 0.120915 0.085014 0.054536 0.069022 0.078546 0.042669 -0.072744 -0.101827 -0.281645 -0.142658 0.151981 0.234348 0.244242 0.252326 0.245532 0.222999 0.158919 0.039831 -0.014954 -0.124907 -0.131817 -0.025775 -0.003281 -0.000356 -0.002072 0.001549 0.011104 0.051942 0.170585 0.088553 -0.000071 0.043262 0.023197 -0.075535 -0.126324 -0.273290 -0.312551 -0.086433 0.155296 0.089242 0.148541 0.163572 0.171198 0.177874 0.103165 0.006013 -0.093268 -0.138630 -0.093831 -0.002077 0.000909 0.003419 -0.002604 0.000106 0.002055 0.038257 0.120753 0.050449 0.010297 -0.064573 -0.087725 -0.071570 -0.131241 -0.136890 -0.137756 -0.037033 0.001830 0.044049 0.114688 0.133769 0.147507 0.061664 0.142638 0.042459 -0.008337 -0.102608 -0.079252 0.012822 0.003860 0.000417 0.003872 0.005577 -0.003515 0.021683 0.066755 0.012098 0.009142 -0.064240 -0.100945 -0.145137 -0.027903 -0.017391 -0.071563 -0.093050 -0.132899 0.095661 0.098664 0.171211 0.038702 0.068378 0.113801 0.051166 -0.026771 -0.081439 -0.079108 -0.006094 0.000044 0.001002 -0.000735 -0.000543 -0.002174 -0.007729 0.015643 -0.015948 -0.038533 0.021901 0.041083 -0.036916 0.071181 0.067113 -0.041113 -0.127883 -0.150621 -0.037537 0.017631 0.091114 0.083069 0.106425 0.085258 -0.035418 -0.073994 -0.092442 -0.060238 -0.007229 0.005732 0.000548 -0.003379 -0.004913 -0.010357 -0.018270 -0.070507 -0.089262 -0.110557 -0.050983 0.010323 0.005739 0.065489 0.062627 0.029525 -0.076150 -0.091445 0.038887 -0.026280 -0.002206 0.043371 0.006642 0.000111 -0.095399 -0.116428 -0.101306 -0.064477 0.012702 0.000545 0.002308 0.002940 -0.001344 -0.001482 -0.020509 -0.063356 -0.122025 -0.150475 -0.152997 -0.116745 -0.151082 -0.034473 -0.059733 -0.136741 -0.065802 0.012483 -0.002833 -0.060084 0.003544 -0.012316 0.009653 -0.024887 -0.114204 -0.133575 -0.136815 -0.071591 -0.008651 0.002046 0.000516 -0.002314 -0.003365 -0.004069 -0.002772 -0.034583 -0.102188 -0.215573 -0.216739 -0.199520 -0.222903 -0.210164 -0.212992 -0.176864 -0.125349 -0.043390 -0.075608 -0.098599 -0.086935 -0.111218 -0.035740 -0.100221 -0.147248 -0.146546 -0.093820 -0.039841 -0.011960 -0.002512 -0.001306 -0.002210 -0.002779 -0.009976 -0.021731 -0.028277 -0.103517 -0.227626 -0.262766 -0.227202 -0.313176 -0.364191 -0.327882 -0.201292 -0.114360 -0.104116 -0.111148 -0.116549 -0.212506 -0.244713 -0.156198 -0.123643 -0.158416 -0.148929 -0.085770 0.005641 0.003445 -0.002674 0.004681 0.000059 -0.000955 -0.011391 -0.029235 -0.041594 -0.115072 -0.176327 -0.218090 -0.211080 -0.252875 -0.347498 -0.296205 -0.217914 -0.245562 -0.205364 -0.233591 -0.207602 -0.299401 -0.213457 -0.171023 -0.116656 -0.121128 -0.125554 -0.045912 0.008096 -0.004842 -0.005601 0.000422 0.000368 -0.002539 -0.012338 -0.025783 -0.045702 -0.085299 -0.078770 -0.111316 -0.153719 -0.198175 -0.160094 -0.164825 -0.181081 -0.220937 -0.187227 -0.243193 -0.260955 -0.234376 -0.191580 -0.168450 -0.089237 -0.077980 -0.044894 -0.010010 0.003955 0.001274 0.004176 -0.001679 -0.003580 -0.001564 -0.013048 -0.012801 -0.007016 0.005297 0.013092 0.016844 -0.087122 -0.193804 -0.113338 -0.159146 -0.155750 -0.195414 -0.222852 -0.275547 -0.286525 -0.185979 -0.188805 -0.113860 -0.000321 0.030481 0.044651 0.016919 0.010243 -0.006410 -0.000633 -0.000430 0.000621 -0.002509 -0.003065 -0.010569 0.042570 0.074781 0.081063 0.093765 0.078965 -0.060492 -0.049591 -0.073006 -0.132483 -0.133494 -0.210051 -0.146879 -0.168851 -0.026867 -0.044042 -0.007655 0.113956 0.127843 0.075796 0.026802 -0.001053 -0.000852 -0.000049 -0.002598 0.001432 0.002165 -0.001262 -0.002081 0.024507 0.063473 0.068173 0.124405 0.181438 0.134307 0.095804 0.144798 0.178284 0.144092 0.133624 0.087850 0.148981 0.124249 0.130038 0.140458 0.155894 0.118462 0.031713 0.000504 -0.006472 -0.000901 0.002064 0.001200 -0.002257 0.003217 0.002033 -0.002101 -0.000322 0.008888 0.025679 0.047627 0.080897 0.117899 0.138357 0.142179 0.169335 0.195017 0.257514 0.216178 0.184619 0.132341 0.091981 0.062238 0.058155 0.037508 0.002301 0.003086 0.002525 -0.005196 -0.004755 -0.001847 -0.000228 0.003308 0.002076 0.000870 -0.000330 0.002207 -0.002129 0.003852 0.008309 0.006760 0.007405 0.005123 0.018596 0.019878 0.032098 0.018781 0.009914 0.008340 -0.000697 0.002772 0.008426 0.006202 -0.000350 0.001475 -0.000222 0.005164 0.000017 0.000394 -0.002554 0.001328 -0.000973 0.003743 -0.003915 0.002802 -0.002669 -0.001801 0.003365 -0.000110 -0.000257 -0.004635 -0.001093 -0.007731 -0.002600 0.002391 -0.000165 0.000083 0.000784 0.003588 -0.000124 -0.001791 -0.003044 -0.000356 0.001866 -0.002667 0.000258 -0.002159 0.001550 0.001330 0.002948 0.002480 -0.005179 -0.008023 -0.000278 -0.000779 -0.005720 0.000393 -0.005147 -0.009356 -0.004830 -0.005989 0.004771 0.003824 0.005014 -0.002995 -0.000747 -0.003036 -0.002966 -0.000451 -0.001612 -0.002449 0.002337 -0.001604 -0.002131 0.002338 0.003337 0.002430 0.002837 0.003056 -0.000169 0.000287 -0.002570 -0.003111 -0.004831 -0.013102 -0.022693 -0.018148 -0.032311 -0.044980 -0.039625 -0.030774 -0.008717 0.000166 0.001390 -0.024095 -0.023706 -0.038666 -0.021632 -0.005269 0.005866 0.002389 0.001105 0.001624 -0.002069 -0.001470 0.002364 0.000295 0.002568 0.012435 0.017070 0.028644 0.025868 0.045335 0.049261 0.060898 0.093752 0.069724 0.068198 0.042703 -0.011824 -0.006777 0.038512 0.001196 -0.039753 -0.081338 -0.049081 -0.026071 -0.010063 0.007082 -0.005708 0.000332 0.002102 -0.002127 0.004346 0.001165 0.004964 0.025018 0.049946 0.086772 0.111664 0.150424 0.157353 0.230040 0.276904 0.240041 0.241484 0.216400 0.183453 0.134998 0.141849 0.045152 0.005151 -0.056046 -0.081544 -0.067808 0.014985 0.017118 0.002795 0.003668 0.003078 0.002933 -0.002039 0.007551 0.021407 0.047154 0.077111 0.147278 0.092170 0.129534 0.128193 0.223648 0.228753 0.083593 0.044843 0.115251 0.232605 0.188815 0.094981 0.096893 0.111885 0.066731 -0.012801 -0.045319 0.012660 0.037984 -0.000191 -0.003422 0.005991 -0.000600 -0.004295 -0.004812 0.026957 0.034640 0.045905 0.024176 0.029678 0.132771 0.056563 -0.007241 0.031562 -0.027337 -0.034553 0.044740 -0.002779 -0.066632 -0.073644 -0.010253 0.093304 0.076578 0.047145 0.085688 0.076596 0.051490 0.000335 -0.002109 -0.005443 0.001736 -0.007678 -0.009673 0.057009 0.077806 0.057953 0.014677 0.084802 0.053585 -0.051973 -0.084027 -0.038852 0.029324 -0.052753 -0.009815 -0.107037 -0.185560 -0.028734 0.022127 0.026182 0.085930 0.110849 0.148175 0.181963 0.085075 0.002686 -0.000474 -0.002583 -0.005194 -0.019077 -0.003355 0.076546 0.089725 0.108027 0.070838 0.009944 0.001964 0.017954 -0.026983 0.068354 0.073362 0.040951 -0.059592 -0.094306 -0.121894 0.114486 0.134855 0.099308 0.097219 0.174413 0.180100 0.226982 0.124200 0.041020 0.010247 0.000341 -0.000005 -0.011789 -0.001279 0.063648 0.121973 0.108136 0.067654 0.017912 0.035083 -0.040432 0.045070 0.025457 0.001040 0.012524 0.002853 0.047717 0.061738 0.159476 0.117770 0.172445 0.129970 0.214815 0.218132 0.231631 0.145657 0.054422 -0.005063 0.002007 -0.001680 -0.019310 0.013747 0.043019 0.072703 0.087138 0.026131 -0.046188 -0.057411 -0.072724 0.024016 -0.015674 -0.087049 0.050817 -0.017119 -0.055580 -0.021348 0.168463 0.194208 0.129517 0.068150 0.137234 0.167781 0.183564 0.161444 0.046231 0.001379 -0.003174 -0.006050 -0.018790 0.002682 -0.010245 -0.020924 -0.061436 -0.100928 -0.127143 -0.135680 -0.136231 -0.022626 -0.044003 -0.030114 0.116487 0.093016 -0.022327 0.013657 0.030738 0.108780 -0.016437 -0.127087 -0.060641 -0.036553 0.084109 0.148212 0.032857 0.000174 0.000960 -0.002029 -0.008392 -0.010105 -0.071819 -0.112929 -0.205220 -0.210990 -0.172957 -0.080387 0.007206 -0.007102 0.010606 0.101070 0.248178 0.086341 -0.023558 -0.058378 -0.088230 0.027584 -0.022054 -0.174779 -0.284571 -0.238160 -0.097108 0.041273 0.016286 -0.002121 0.004844 -0.003238 -0.004888 -0.020786 -0.144434 -0.226314 -0.312563 -0.197861 -0.059515 -0.028949 -0.081465 0.037970 0.105965 0.295962 0.196867 0.046230 -0.023686 -0.016502 -0.054791 -0.078995 -0.098254 -0.278898 -0.361965 -0.374955 -0.216553 -0.011642 0.009101 -0.001734 0.002964 0.000654 -0.002403 -0.022017 -0.113460 -0.274366 -0.270509 -0.241526 -0.090842 -0.152325 -0.095093 0.073033 0.172772 0.359037 0.285953 0.074909 -0.020174 -0.039772 -0.115088 -0.201931 -0.237265 -0.289082 -0.398685 -0.409085 -0.217729 -0.028788 0.017436 0.000009 -0.002147 -0.001805 -0.000011 0.003008 -0.020568 -0.191834 -0.134479 -0.169014 -0.111923 -0.071812 -0.136050 -0.093915 0.139792 0.403512 0.358809 0.137513 -0.059479 -0.211882 -0.263876 -0.237727 -0.218440 -0.255265 -0.281195 -0.262329 -0.086954 0.037571 0.030940 0.001252 0.002779 0.000402 0.009482 0.046723 0.095623 -0.020470 -0.050633 -0.174514 -0.156995 -0.006600 -0.096777 -0.156149 0.175076 0.392094 0.214374 0.075331 -0.025707 -0.134819 -0.134772 -0.112694 -0.148970 -0.103784 -0.068823 0.009595 0.064426 0.114377 0.039832 0.006281 -0.003575 -0.000886 0.018173 0.114184 0.213105 0.129192 0.072544 -0.076574 -0.063015 -0.062360 -0.231625 -0.167725 0.042828 0.123552 0.001171 -0.036663 0.095078 -0.009225 -0.071714 0.060967 -0.003249 0.094454 0.073688 0.124031 0.141150 0.109838 0.033941 0.003646 0.000015 -0.000493 0.016094 0.150783 0.250220 0.278636 0.263159 0.097681 -0.067150 -0.047570 -0.115098 -0.093873 -0.070607 0.003550 -0.099446 0.017134 0.104518 0.034278 0.034468 0.124214 0.081243 0.121821 0.208482 0.251600 0.206605 0.073168 0.007356 -0.000080 -0.001991 -0.000153 0.015818 0.111823 0.203108 0.298812 0.263538 0.222631 0.041969 0.015001 0.028655 -0.086090 -0.095726 -0.037043 -0.098026 0.034746 0.035413 0.115824 0.101310 0.035129 0.060099 0.198628 0.281213 0.266373 0.116722 0.041146 0.008879 0.000945 -0.001903 -0.000905 0.017461 0.100941 0.173489 0.239365 0.332343 0.358616 0.171069 0.047876 0.003781 0.004433 -0.139959 -0.143925 -0.134860 -0.001494 -0.027747 0.029848 0.142928 0.085302 0.131250 0.258725 0.346172 0.254596 0.066201 0.013838 -0.001959 -0.005699 -0.002756 0.000408 0.019498 0.066368 0.109974 0.139404 0.272541 0.218592 0.063050 0.058308 -0.003344 -0.054631 -0.081303 -0.011595 -0.022322 -0.053581 -0.075066 0.037471 0.061386 0.121605 0.128772 0.191585 0.255743 0.157277 0.040318 0.006070 -0.001845 0.002799 0.003182 -0.000677 0.024444 0.045975 0.092890 0.060873 0.127597 0.126426 0.042899 0.061326 0.056065 0.074144 0.015755 -0.018448 -0.011727 -0.102616 -0.095889 0.051454 0.116270 0.144688 0.163070 0.167626 0.154133 0.079973 0.025227 0.011355 -0.000224 -0.000658 -0.000071 0.002643 0.014692 0.039634 0.054384 -0.003337 -0.029462 -0.026175 0.064786 0.095850 0.063063 0.091760 0.075478 0.140402 0.056837 0.050746 0.067310 0.084982 0.160264 0.152525 0.134230 0.097877 0.051887 0.038405 0.017585 0.009277 -0.001285 -0.001065 0.004615 0.001799 0.007891 0.007504 -0.016328 -0.076788 -0.089142 -0.025284 0.004128 0.113279 0.110338 0.178323 0.130668 0.160270 0.183495 0.138083 0.164176 0.067469 0.077044 0.058001 -0.012678 -0.005958 -0.013316 0.005712 0.017736 0.000823 -0.002632 0.002308 -0.003294 -0.000616 0.001544 -0.004432 -0.038178 -0.066473 -0.062337 -0.063395 -0.057253 0.010827 0.101790 0.069321 0.074546 0.061256 0.065105 0.084982 0.080147 0.089426 0.035424 0.020926 -0.012564 -0.011868 -0.003489 0.003848 0.000192 0.007386 -0.001750 0.000194 0.003034 0.001122 0.000941 -0.002462 0.003302 0.002770 -0.010322 -0.019680 -0.028915 -0.023597 -0.017414 -0.016951 -0.022392 -0.037940 -0.057754 -0.044732 -0.026854 -0.004273 -0.007333 -0.013455 -0.015687 -0.002441 0.011774 0.001376 -0.001397 -0.002867 -0.004229 0.001123 -0.004288 0.002676 -0.000262 -0.001264 -0.002362 0.001019 -0.001530 -0.000302 0.005176 -0.002074 0.000243 -0.000311 -0.001670 -0.010938 -0.009847 -0.004025 -0.001394 -0.003768 -0.003656 -0.005913 0.002567 0.004047 0.001060 -0.000716 0.001319 -0.001788 -0.002217 -0.000864 0.000987 0.003290 -0.003779 0.001068 0.000467 -0.006353 -0.002596 0.002829 -0.001856 0.000025 -0.000755 0.003122 -0.000421 0.000358 -0.007586 0.004510 -0.001064 0.000274 0.002007 0.004555 -0.000191 0.000864 0.000697 0.000509 0.002828 0.001720 0.002460 -0.003426 0.000146 0.001971 -0.000049 0.000889 0.001215 0.002474 0.000218 -0.002486 -0.000450 -0.000888 -0.000417 0.003221 -0.001962 -0.004590 0.003648 0.002196 -0.004611 0.000365 0.001191 0.003805 0.002081 -0.002358 -0.000595 0.001889 0.000858 0.000937 -0.002101 0.002867 -0.000371 0.000740 -0.000307 -0.003990 -0.003230 -0.000535 -0.005496 -0.001180 -0.004731 -0.005135 -0.009991 0.000326 0.007790 0.003523 0.010320 0.038831 0.021499 0.000014 0.000453 0.006313 0.003136 -0.004421 -0.003246 -0.003141 0.000789 -0.001288 0.000969 -0.005153 -0.001272 0.002228 -0.002041 -0.001484 -0.001106 0.008878 0.003117 0.016824 0.036756 0.036086 0.043334 0.089820 0.151879 0.119195 0.186340 0.228183 0.144273 0.121621 0.114364 0.091390 0.062614 -0.018043 -0.030315 -0.020516 -0.000038 -0.004062 -0.003675 0.001881 0.007610 -0.000259 -0.000292 -0.001427 0.018030 0.038482 0.045051 0.089482 0.153271 0.123886 0.163292 0.145329 0.141080 0.194529 0.270839 0.261251 0.158452 0.073424 0.126435 0.079621 0.007377 -0.011081 -0.046111 -0.060476 -0.003636 0.003177 0.001962 -0.003801 0.000569 0.000183 0.003296 0.018117 0.048008 0.098875 0.116401 0.121932 0.089970 0.065627 0.053160 0.037381 -0.045614 0.043788 0.037178 0.087958 0.030503 -0.188390 -0.078668 -0.008240 0.020642 -0.043557 -0.082391 -0.095863 -0.010690 0.007131 0.001111 -0.000726 -0.003024 0.002569 0.005351 0.031025 0.074274 0.131827 0.128621 0.073486 0.096195 0.072634 0.139238 0.210994 0.123055 0.201998 0.157606 0.105243 0.186357 0.102428 0.129407 -0.079096 0.029853 -0.016696 -0.111433 -0.152010 -0.055945 0.000013 -0.003625 -0.004286 -0.001526 0.005341 0.008002 0.049030 0.144558 0.177843 0.121194 0.082047 0.038686 0.085602 0.087873 0.139207 0.220350 0.221300 0.255408 0.196121 0.146644 0.251301 0.131818 0.119213 0.092988 0.012796 -0.108410 -0.234471 -0.121132 -0.024399 0.000596 0.002090 0.000432 0.005127 0.006347 0.049956 0.150770 0.103472 0.069352 0.026281 0.023659 -0.033757 0.023906 0.022251 0.078636 0.014268 0.148198 0.198696 0.041434 0.107422 0.027847 -0.010200 -0.024556 -0.065452 -0.080270 -0.276688 -0.167535 -0.038586 0.002415 -0.001199 -0.000558 0.006363 0.013623 0.076537 0.140530 0.026781 -0.031887 -0.010258 -0.013105 -0.105978 -0.199575 -0.230553 -0.168035 -0.043099 0.235485 0.342181 0.098537 -0.038794 -0.183605 -0.159819 -0.019988 -0.083679 -0.038556 -0.226272 -0.129622 -0.022417 -0.010343 0.001928 0.005570 0.007740 0.021599 0.091277 0.064512 -0.026596 -0.142933 -0.152106 -0.152333 -0.212838 -0.282053 -0.303245 -0.233014 0.051744 0.208246 0.215636 0.139354 0.034883 -0.097355 -0.101247 0.004687 -0.038831 -0.095932 -0.192134 -0.110236 -0.005008 -0.004263 -0.003978 0.005088 0.002849 0.018797 0.103548 0.019741 -0.127669 -0.211693 -0.220057 -0.200312 -0.189972 -0.127876 -0.029297 0.070304 0.186252 0.259348 0.155402 0.126947 0.203165 0.074168 -0.058312 0.002300 -0.161442 -0.150563 -0.181672 -0.091984 -0.002467 -0.003279 0.001335 0.000380 -0.000426 0.018154 0.065369 0.006398 -0.140674 -0.192133 -0.137859 -0.131746 0.066188 0.158012 0.100712 0.035234 0.112430 0.336574 0.180727 0.146075 0.147692 0.041137 -0.131747 -0.130870 -0.304370 -0.219369 -0.194779 -0.108311 -0.001576 -0.001359 0.002100 -0.004271 0.006256 0.012882 0.033265 0.003139 -0.094528 -0.177012 -0.123367 -0.041620 0.122375 0.038860 -0.112595 -0.070711 0.137122 0.298136 0.106201 0.180095 0.148615 -0.069713 -0.185244 -0.208628 -0.199681 -0.200659 -0.163051 -0.079854 -0.010042 0.000180 0.002913 -0.002599 0.001577 -0.002151 0.005485 -0.025863 -0.146134 -0.213013 -0.169129 -0.075673 0.037236 -0.088286 -0.143540 -0.017624 0.091210 0.252086 0.169368 0.110761 0.000972 -0.062671 -0.069033 -0.102774 0.056655 -0.034625 -0.063903 -0.019509 -0.008561 -0.003906 -0.000187 -0.000950 0.003934 0.004377 0.011977 -0.052636 -0.192167 -0.215402 -0.273787 -0.321777 -0.140793 -0.013973 -0.034972 0.039606 0.142302 0.166921 0.024647 -0.010528 0.007807 -0.023655 0.050266 0.141644 0.231152 0.149008 0.060859 0.020488 -0.023290 0.003332 -0.001673 -0.003568 0.006641 0.022363 0.058077 0.010262 -0.120729 -0.234957 -0.344523 -0.521717 -0.367823 -0.256965 -0.149376 -0.066651 0.035112 0.016826 -0.095318 -0.159459 -0.017936 0.108217 0.173858 0.130838 0.190744 0.212790 0.129045 0.046801 -0.036285 -0.004039 -0.008407 -0.004396 0.000688 0.036094 0.096574 0.063694 -0.085920 -0.229329 -0.393811 -0.571197 -0.786298 -0.789983 -0.696542 -0.509717 -0.302192 -0.112413 -0.058261 -0.080597 0.073115 0.065595 0.108080 0.006014 0.116152 0.172135 0.069575 -0.053129 -0.045524 -0.001657 0.000716 -0.000094 0.002182 0.039412 0.189367 0.109872 -0.023957 -0.103306 -0.316688 -0.460152 -0.671337 -0.804369 -0.776453 -0.727645 -0.338824 -0.055856 0.025730 0.038169 0.125473 0.062028 0.059514 0.116963 0.184811 0.113786 -0.051643 -0.120655 -0.031932 0.002004 0.003533 0.001437 -0.000707 0.031266 0.210507 0.133975 0.069319 -0.109127 -0.157662 -0.224342 -0.294447 -0.319786 -0.393054 -0.417511 -0.178616 -0.023350 0.008838 0.108352 0.094354 0.011413 0.061304 0.127938 0.117284 -0.033178 -0.094916 -0.105725 -0.031322 -0.004736 -0.003058 0.002477 0.002378 0.021929 0.200330 0.178860 0.071409 -0.007565 -0.070002 0.044098 0.066487 0.013155 0.008336 -0.179379 -0.072077 0.084694 0.056725 0.110335 0.087921 0.116103 0.074901 0.084691 -0.070987 -0.128658 -0.121697 -0.074010 -0.021280 0.000161 0.001233 0.002976 -0.001084 0.013054 0.110596 0.183815 0.096354 0.027307 -0.039037 0.042013 0.051814 0.137218 0.111485 0.097927 0.034533 0.058129 0.125367 0.042456 0.063063 0.136825 0.141122 0.004623 -0.117779 -0.167069 -0.132263 -0.059242 -0.013637 0.000166 -0.002471 -0.002313 0.002276 0.015457 0.070533 0.132908 0.136350 0.097707 0.008143 -0.087049 -0.050009 0.053111 0.067164 -0.030657 -0.109480 -0.028368 0.066476 0.130131 0.170250 0.126733 0.090437 -0.016960 -0.148023 -0.129347 -0.077609 -0.039372 -0.010645 0.003542 -0.002228 -0.002168 -0.000303 0.012601 0.050028 0.116432 0.173301 0.229396 0.187686 -0.038541 0.013212 0.078899 0.024720 -0.027188 -0.000958 0.006971 0.072857 0.008570 0.098648 0.075852 -0.026903 -0.135555 -0.184508 -0.124628 -0.065407 -0.017534 -0.014985 -0.003257 -0.001644 0.000256 -0.001159 0.008684 0.034405 0.108814 0.182852 0.282059 0.338298 0.247540 0.184182 0.242763 0.163296 0.087261 0.161263 0.075014 -0.008673 0.004293 0.010381 -0.170976 -0.207595 -0.159137 -0.075668 -0.062065 -0.028859 -0.014050 -0.000609 -0.001892 -0.001754 0.002021 -0.002083 0.007345 -0.001132 0.029064 0.071349 0.138461 0.222081 0.302687 0.325222 0.317297 0.303685 0.325796 0.241012 0.122489 0.048938 0.080345 0.043668 0.018598 0.023346 0.003080 -0.005085 -0.010244 -0.008335 0.000809 0.000993 0.004525 -0.002477 -0.006404 0.000716 0.005793 0.000679 0.006289 0.016253 0.024166 0.049887 0.068410 0.091834 0.120758 0.116668 0.101200 0.094697 0.108980 0.109124 0.109229 0.099697 0.058808 0.037808 0.014313 -0.000308 -0.006532 0.001098 0.000763 0.000629 0.000451 -0.000304 -0.002805 -0.000244 0.003751 0.003114 0.000079 -0.001689 0.001758 -0.001176 -0.000778 0.005664 0.014541 0.012611 0.016610 0.018953 0.023055 0.011610 0.008499 0.016201 0.006177 0.008143 -0.004576 0.000603 0.004102 -0.000190 0.000249 -0.003357 -0.000111 -0.002033 0.002029 -0.001291 -0.001654 0.000256 0.000042 0.000640 -0.001399 -0.000289 0.002857 -0.003843 0.001293 -0.001637 0.003948 0.005297 0.003681 0.001781 0.002382 -0.000251 -0.002479 -0.002178 0.002433 0.005294 -0.000367 -0.000892 -0.003026 -0.000757 -0.002515 0.005860 -0.001621 0.000814 0.002915 -0.000957 0.000516 -0.002487 0.006661 0.009752 0.009963 0.008328 0.018595 0.011075 0.024229 0.015917 -0.002518 0.010380 0.015523 0.009405 0.007396 0.009679 0.008100 0.006787 0.004564 0.005671 -0.004037 -0.001169 -0.000192 -0.001172 0.000728 0.001096 0.002471 0.000107 -0.001755 -0.001860 0.004978 0.018550 0.022944 0.046710 0.082821 0.102884 0.118094 0.109540 0.117058 0.111729 0.121218 0.115365 0.080285 0.071417 0.062393 0.049245 0.029033 0.008871 -0.004454 -0.004838 0.001756 -0.001901 -0.001835 -0.001086 0.001848 0.000034 0.002124 -0.004502 0.003614 0.004032 0.030220 0.083888 0.119797 0.140923 0.117233 0.161730 0.143218 0.115377 0.150780 0.143170 0.088598 0.056590 0.049228 0.096435 0.081619 0.046137 0.013386 -0.007788 0.002359 0.001988 -0.002203 -0.001042 0.000289 0.002091 -0.002521 -0.009176 0.002358 -0.010657 0.047869 0.122521 0.146435 0.080506 0.077897 0.052699 0.036107 -0.001187 0.016024 0.035556 0.049107 0.028959 0.056400 0.032299 0.009043 -0.009752 -0.070202 -0.040997 -0.012232 0.004404 -0.001714 0.001038 -0.001465 -0.002246 -0.012927 -0.041720 -0.014981 0.001732 0.086562 0.117778 0.085302 -0.084432 -0.093568 -0.062815 0.043072 -0.004995 0.004705 -0.037528 -0.023922 -0.009214 -0.043335 -0.084952 -0.062127 -0.058300 -0.096479 -0.046810 0.003059 0.005815 0.000852 -0.002510 0.000993 -0.009611 -0.001551 -0.027176 -0.024519 0.008559 -0.022730 -0.133193 -0.251406 -0.283412 -0.266797 -0.269805 -0.240841 -0.142419 -0.203466 -0.240231 -0.287612 -0.282391 -0.274020 -0.184466 -0.115560 -0.103365 -0.072395 -0.042468 -0.005577 0.001763 0.000651 0.002247 0.004202 -0.008215 0.020698 -0.049343 -0.061943 -0.068739 -0.120236 -0.260358 -0.268296 -0.242943 -0.294900 -0.240203 -0.241344 -0.246537 -0.351911 -0.287900 -0.324355 -0.378934 -0.307277 -0.226046 -0.156721 -0.160023 -0.115009 -0.080763 -0.012335 0.002617 0.005920 0.001731 0.005465 -0.013396 0.000535 -0.065427 -0.139056 -0.168083 -0.161892 -0.215604 -0.173882 -0.200031 -0.188177 -0.200546 -0.251763 -0.227936 -0.204835 -0.106607 -0.220142 -0.230044 -0.166379 -0.182572 -0.202523 -0.226532 -0.206219 -0.102752 -0.023921 -0.005697 -0.004333 -0.001730 -0.001276 -0.017780 -0.052063 -0.113426 -0.191516 