0.0005165 -0.0017399 -0.0022201 -0.0024639 -0.0025909 0.0001648 0.0003387 -0.0017262 -0.0003169 0.0004375 -0.0039729 0.0027278 3.97e-05 -0.0021798 -0.002091 -0.0005334 -0.0059269 -0.0033881 -0.0035832 -0.0006372 0.0010993 0.0004622 -0.0002086 -0.0001851 -0.005074 -0.0001868 -0.002102 0.0005032 0.0002865 -0.0002573 -0.004463 -0.0005272 -0.0021803 -0.0011311 0.000772 -0.0042947 -0.0024007 -0.0006028 -0.0026667 -0.004847 -0.0057387 -0.0019836 -0.001469 -0.0004712 0.0015241 -0.0036577 -0.000844 -0.0031089 0.000381 -0.0013361 -0.0026305 -0.0006875 -0.0011758 0.0027805 0.0038646 -0.0018136 -0.000976 0.0009159 -0.0015328 -0.0004828 0.0002231 0.005278 0.0040216 0.000116 -0.0024825 0.0020593 0.0020065 0.0007875 -0.0007209 0.0011799 -0.0007691 -0.0001142 0.0018571 0.0029004 0.002776 -0.0009943 0.0001233 -0.0005322 -0.0049698 0.0021234 -0.0038717 0.0026624 -0.0043413 -0.001144 0.0007457 -0.0015353 -0.0032705 -0.0068376 0.0044781 -0.0026857 -0.0015113 0.0021055 0.0026626 7.95e-05 0.0062394 -0.0045497 -0.0019708 0.0023949 -0.0009539 0.0002986 -0.0070089 -0.0053676 -0.0020061 0.0002629 -0.0027954 0.0016237 0.0035806 0.0028102 0.0050919 0.0027504 -0.0009942 -0.002439 0.0016684 -0.0016852 0.0008757 -0.0007247 0.0021051 0.0045103 -0.0009406 0.002904 -0.0026211 -0.0054367 -0.0001926 -0.0017471 0.002399 -0.0029443 -0.0011408 0.0008657 -0.0001327 0.0063463 -0.002377 -0.0004117 0.0014338 0.0014215 -0.0027841 -0.0045401 -0.000229 -0.0008411 0.0037949 0.0011951 -0.0027628 0.0005794 0.0012105 0.0004686 -0.0016386 0.0002434 -0.0021996 -0.0030449 0.0032774 0.00115 0.0033062 0.0025456 0.0018812 -0.0028572 0.0003428 -0.0017684 -0.0068019 -4.29e-05 0.0056094 0.0039943 -0.000586 0.0014861 0.0033306 -0.0013799 0.003921 0.0016673 -0.0049036 -3.91e-05 0.0002129 0.0035829 0.0011694 0.0013409 0.0012832 0.0036436 -0.0001354 0.0011803 -0.0011496 0.0032607 0.0013896 -0.0017956 -0.0002365 0.0016209 -0.0045446 -0.0005187 0.0003306 -0.0001822 -0.0008857 0.0059145 -0.0044787 0.0040693 -0.0027931 0.0009787 -0.0019058 -0.0035337 -0.0010502 0.0021106 -0.0005115 -0.003046 0.0048528 0.0028901 -0.0030517 6.46e-05 0.0011151 -0.0021898 0.0017844 -0.000565 -0.0024482 -0.0046762 -0.0026382 0.0012076 0.0007969 0.005099 -0.0012462 0.0011384 4.01e-05 0.0017875 0.0028967 0.0016756 0.0002484 0.0026342 -0.0004712 -0.0002398 0.0033937 0.0020624 -0.0006687 0.0071004 0.0028505 0.0006196 -0.0008684 -0.0028525 0.0004984 0.0009226 0.001507 0.0035618 0.0044594 -0.0045731 -0.0063646 -0.0016916 0.0004941 -0.004311 0.0041849 -0.0022919 -3.05e-05 -0.0010996 0.0028279 -0.0015256 0.003294 -7.3e-06 0.0037112 -0.0009329 -0.0013079 -0.0022725 0.0018394 -0.0020005 -0.0001602 0.0018089 0.001596 -0.0004803 0.0014683 0.0031273 -0.0077381 0.0040838 -0.0008482 -0.0027875 0.0009191 0.0023159 -0.0054238 -0.0049518 0.0010462 -0.0033552 -0.0047264 0.0006593 0.001511 0.0023801 0.004599 0.0036398 0.0018954 -0.0015323 -0.0021669 0.0026324 -0.0016059 -0.0047608 -0.0024347 0.0008917 0.0011591 0.0015775 -0.0025269 0.0012124 -0.0002749 0.0047003 -0.0012041 0.0045178 -0.0060399 -0.0063337 -0.0051085 -0.0031706 -0.0023837 -0.004562 0.0016119 0.0010394 -0.0062822 -0.0004078 -0.0004287 -0.0039269 0.0033684 -0.0009403 0.003707 -0.0016531 -0.000171 0.0012305 0.0013834 -0.0050445 0.0005413 0.0031228 -0.0035599 -0.0019817 0.0032235 0.0039525 0.0014755 0.0034328 0.0024174 0.0011533 0.0007687 -0.0024326 0.0007275 -0.0034012 -0.0007552 -0.0019443 0.0007872 0.0004984 -0.001796 0.0004827 0.0017773 0.0059696 -0.0006595 -0.0011393 0.0016397 0.0032805 -0.0019236 -0.0005296 0.001262 -0.0021718 -0.0009694 0.0004613 -0.0020222 -0.0063305 0.0041317 -0.0015133 0.0017159 -0.0015309 8.81e-05 0.000283 0.0023254 -0.0005386 0.0005307 0.0044659 0.0011889 -0.0027291 -0.0005944 0.0026021 -0.0022957 -0.0032992 0.0004643 -1.36e-05 -0.0017013 -0.0029092 -0.0023468 -0.0039297 -0.0024656 0.0018023 0.0003455 0.0018457 -0.0023145 0.0048504 0.0008243 -0.0006672 -0.0030434 -0.0016803 -0.0018881 0.0028107 -0.0015204 0.0015899 0.0016156 -0.0006451 0.0021533 -0.0001742 0.0025046 -0.0012053 -0.0013955 -0.0044186 0.0006602 -0.0077452 0.0003919 0.0019601 0.0012934 -0.0006591 0.0007916 0.0045329 -0.002251 0.0038145 -0.0055732 0.0020203 0.0037954 0.0030451 0.0065767 -8.81e-05 -0.0027866 -3.59e-05 0.0021558 0.0007887 -0.0001885 0.0004924 -0.0022976 -0.001102 0.0018338 -0.0023728 0.0016465 0.0016563 0.0037409 0.0033792 -0.0058902 0.006807 0.0020693 0.0025037 -0.0038582 -0.0045406 -0.0007038 -0.0015195 -0.0012162 -0.0005293 0.0035742 -0.0039242 0.0019465 0.0002681 -0.0012048 0.0027458 -0.0014252 0.0036149 -0.001562 0.000497 -0.0018899 -0.0076405 0.003255 -0.0023694 -0.0007226 -0.0065784 0.0009001 -0.0020719 0.0002814 0.0009528 0.001867 -0.0013349 0.0005168 0.0017722 0.0012605 0.0016444 -0.0036233 -0.0031072 0.0035055 -0.0006973 0.0013366 0.0004207 0.0003649 0.002451 -0.0002105 -0.000133 -0.0035641 -0.0038667 -0.0019317 0.0030771 4.45e-05 0.0022535 0.0001277 -0.0021927 0.0017891 -0.0018803 -0.003949 0.0012568 -0.0015244 0.0036005 -0.0014223 0.0050027 0.0012806 0.0012504 0.0002527 0.0021458 -0.0004395 -0.0021482 -0.00248 0.0012617 9.39e-05 0.0005456 -0.0016515 0.0013498 -0.0028895 0.0021111 -0.0020773 -0.0016434 0.0027823 -0.0024819 -0.000259 0.0016031 -0.0045723 0.0045235 -0.0032327 0.0022738 -0.0004494 0.0030303 0.0019268 0.0015413 -0.0010494 0.0016721 0.0020539 0.0039463 0.0046802 0.0010415 0.0023801 0.0016266 -0.0046564 -0.0035854 -0.0006821 -0.0012143 -0.0003916 -0.0016195 -0.002461 0.0033376 0.0019302 -0.0019489 0.0002369 0.0022412 0.0044566 0.0004304 -0.0016981 -0.0032372 -0.0014884 -0.0044985 -0.0037799 0.0034089 -0.0010688 -0.0011675 0.0009631 0.0001574 -0.0056116 -0.0011692 0.000968 -0.0037669 -0.0013087 -0.0018094 -0.004314 -0.0042995 0.0009647 -0.000608 0.003484 -0.0056336 -0.0029552 -0.0001703 -0.0002177 -0.0012181 0.004731 -0.0006374 0.0010626 0.0033896 -0.0011591 -0.0004343 -0.0042229 -0.0009977 -0.0042392 0.0041441 9.21e-05 -0.0009446 -0.002108 -0.0002479 0.0006518 -0.0042811 -0.0014296 0.0009529 -0.0022486 0.0003823 -0.0002582 -0.0018302 -1.52e-05 -0.0017706 0.0017777 -0.0039107 0.0012456 -0.0029003 -0.0017482 0.0006202 0.0022696 0.0033312 0.0038834 -0.0016433 -0.0034479 -0.0027348 -0.0007388 0.0018817 0.0019624 -0.0007197 0.0042611 -0.0025321 -0.0061651 0.001568 0.0012637 -0.0009282 -0.0017178 0.0013757 0.0014637 -0.0012756 0.0005204 -0.0015808 0.0071086 -0.0047116 -0.002479 -0.0006844 -0.0003243 0.0013657 0.0005669 0.0003706 0.002478 -0.0003853 -0.0031559 -0.0003339 0.0047068 -0.0007337 -0.0007176 2.52e-05 0.0024699 -0.0019665 0.0072273 -0.0009805 0.0013129 -0.0010752 0.0005108 -0.0008072 0.00425 0.0021719 -0.0010562 0.0005538 0.0001335 -0.0039842 0.0007997 -0.0012691 -0.0045244 -0.0039674 -0.0001701 0.0019516 -0.0013223 0.0008237 -0.0010377 0.0034629 -0.0013078 0.0016073 -0.000765 0.0005843 0.0040486 0.0015625 -7.2e-06 -0.0022221 0.001131 -0.0029613 0.0012526 -0.0016802 0.0007804 0.0011529 -0.0003636 -0.0018799 0.0028668 -0.0034479 0.0029763 -0.0017951 0.0036798 -0.0005162 0.0020489 -0.0009513 0.0040271 0.0024466 -0.0029344 -0.0032113 0.0026892 -0.0013948 -0.001979 -0.0014448 -0.0003102 0.0007503 -0.001886 0.0067167 0.0004647 -0.0006009 -0.0007178 -0.0029059 -0.0027425 -0.0024905 -0.0017203 0.0006112 -0.0016075 -0.0007144 0.0001875 -0.0027578 -0.0014521 -0.0007661 -0.0002912 -0.001929 0.0030247 -0.0011219 -0.0015663 -0.0034511 -0.0025486 0.0001278 -0.0007739 0.0015972 0.0022168 -0.0030633 0.0003658 0.0047708 -7.65e-05 0.0014036 0.0028875 -0.0026877 -0.0008254 -0.0015988 0.000695 0.0014243 0.0016891 0.0008208 0.0015219 0.0003437 -0.0003525 -0.001371 0.0019479 -0.0020306 -0.0030479 0.0026752 -0.0004372 0.0037033 -0.0011757 -0.0018718 0.0007416 -0.0025031 -0.0012213 -0.0001652 -0.000752 0.0002625 -0.0017594 -0.0018938 0.0047203 -0.0035026 0.0025597 -0.0024795 0.0049204 -0.0012373 -0.0029625 0.0014951 -0.0035843 -0.0009012 -0.0002361 -0.0005332 0.0002813 0.0017987 -0.0010377 8.96e-05 -0.0005424 -0.0022667 0.0018274 0.0040873 -0.0012734 -0.001485 -0.0004143 0.000173 -0.0021034 0.0016823 0.0067078 0.0007615 -0.0033409 0.0003611 0.0020863 -0.0015142 0.0034357 -0.001306 -0.0024778 -0.000469 0.0009305 -0.0012059 -0.0037527 -0.0038748 0.0008113 0.001942 0.0010164 -0.0005075 0.0029395 -0.0030965 0.0048291 0.0010938 0.0001832 -0.0001549 0.0050758 0.0007786 -0.0023421 0.0010737 -0.0039453 0.0004059 -0.0005417 -0.0011852 0.0010506 -0.0007208 -0.0015285 -0.0010742 0.0005659 0.0002587 0.001027 0.0022401 -0.0016251 -0.0011305 0.0061651 0.0050846 -0.0055788 -0.0022934 0.0012034 -0.0014142 0.0037883 -0.00387 0.0014642 0.000395 -0.0003045 -0.002629 0.0037745 0.000924 -0.0028501 -0.0024597 -0.0014658 5.4e-05 -0.0015225 0.0011555 -0.001252 0.00258 0.0006394 -0.0004515 -0.0009374 -0.0058746 0.0010527 0.0033941 -0.003673 0.0009004 -0.0008902 -0.0024724 0.0011758 -0.0032004 0.0010832 0.0026023 -0.0009725 0.0023287 0.0005237 0.001193 -0.0023284 0.0034277 0.0009413 -0.0012581 0.0010529 -0.00614 -2.84e-05 0.0005126 0.0024799 -0.0008022 -0.0012865 -0.0023707 -0.001333 0.0036793 0.0006756 0.003645 0.0018422 0.001445 -0.0053992 0.0004331 -0.0006702 0.0008044 -0.0037701 -0.0033906 -0.0027957 0.0028258 -0.0046017 0.0032362 0.0040038 0.0041948 -0.0017316 -0.001173 -0.0005131 0.0041037 -0.0014746 -0.0022631 0.0037537 -0.0040928 0.0004041 0.0022048 0.0029264 -0.0018753 0.0009517 -0.0037285 -0.002717 0.0023534 -0.0018079 0.0010121 0.0035148 0.0023063 0.0021198 -0.0022761 -0.0013199 -0.0017334 -0.0020873 -3.1e-06 0.0030401 0.0046426 -0.0030992 -0.0017839 0.0012544 0.0011683 0.0053316 -0.0026625 0.0004531 0.001362 0.0076697 -0.0016115 0.0021614 -0.0004357 0.0052001 0.0009346 0.002281 0.0026201 -0.0051277 -0.0061114 0.0006825 -0.0008998 -0.0047457 0.0003043 -0.0030945 0.0006082 -0.0037081 8.72e-05 0.0011147 0.0019002 0.0002521 -0.0009012 0.0019473 0.0006625 -0.0016074 0.001413 0.0016766 -0.0034179 0.0023117 -0.0039564 -0.0046293 0.0019589 -0.0008291 -0.0002486 0.0004101 0.0029922 0.0039634 -0.0034203 -0.0028183 0.0013906 0.0022051 0.0006772 -0.0001775 0.0014889 0.0034353 0.0005872 2.46e-05 -0.0052543 0.0006216 0.000291 -0.0016396 -0.0016015 6e-06 0.001494 0.0029433 0.0003987 -0.0011114 -0.0006164 0.0040566 0.0032418 4.86e-05 0.002231 0.0001002 -0.0018458 0.001319 -0.0001528 -2.47e-05 0.0009754 -0.002175 -0.0011119 0.0001025 0.0034686 -0.0002285 -0.002287 -0.0008457 -0.0020523 -0.000267 0.0001644 0.0056122 -0.0033597 0.0007658 0.0009977 -0.0024854 -0.0013532 0.0051566 -0.003403 0.0005885 -0.0024637 0.0005649 -0.0035174 0.0018915 -0.0036876 -0.0018083 -0.0023071 -0.003459 -0.0030662 0.0042283 -0.0035629 0.0020351 -0.005077 0.0011825 -0.0019704 0.0026744 0.00091 -0.0008875 -0.0036736 -0.0018208 0.0013036 -0.0001883 -0.0041011 0.0020089 0.00044 -0.0021055 0.0022109 0.0003425 -0.0016767 0.0013004 -0.0032097 0.001103 -0.002158 0.0024612 0.0064012 0.0006717 0.0016523 0.0001873 -0.0028942 0.0041287 -0.0002245 0.0034476 0.0038588 0.0043174 1.13e-05 -0.0008549 0.0031023 -0.0033468 -0.0011568 0.0006206 0.0056805 -0.0044443 -0.0035238 0.0003192 0.00166 0.0005703 0.0013866 -0.0051451 0.0004216 -0.0010185 3.67e-05 -0.001114 0.0007006 -0.0023604 0.0010375 -0.0047078 0.0057931 0.0034458 0.0046327 0.0004288 0.0007394 0.0019091 0.0030119 -0.001102 0.0039322 -0.0048398 -0.0013976 0.0010172 0.0026873 0.0050046 0.0008565 0.0027683 -0.0023103 -0.0008706 -0.0011698 -0.0021751 0.0041666 0.0008369 0.0062634 0.0011534 -0.0019083 0.0009017 -0.0001421 -0.0011231 -0.0032774 0.003002 0.0022266 0.001471 0.001955 0.001133 -0.0030237 0.0001655 0.0041287 -0.0001989 -0.0007213 -0.0028403 0.0003701 0.0016005 0.0012545 -0.0023238 -0.0003646 -0.0007162 0.0059728 0.0023953 -0.0003459 0.0036463 -0.0004516 -0.0018704 0.0004286 0.0001038 -0.0026272 -0.0050971 -0.0027621 0.0001197 -0.0007154 -0.0027291 0.0003028 -0.0026098 -0.0053387 0.0003361 0.0018885 0.0006938 -0.004399 0.0018034 0.0027773 -0.0003063 0.0036066 -0.0047483 0.0028664 -0.00011 -0.0049624 -0.0033117 0.0024102 0.0030404 0.0020409 -0.0011567 0.0006512 -0.0021268 -0.0012512 0.0002379 0.0011295 0.000699 -0.0017202 0.0001953 0.0045492 0.0028135 -0.0011519 -0.0018768 -0.0006355 0.00256 -0.0060192 0.0063625 0.0041003 -0.0013747 0.001233 0.0016255 -0.0016329 0.0040331 -0.0025387 0.0029647 0.0030036 0.0004433 0.0002484 -0.0036044 0.0029515 0.0006123 0.0030482 -0.0008736 -0.0037327 -0.000809 0.0001913 -0.0005167 -0.0022608 0.0022663 -0.003802 -0.0023277 0.0019745 0.0013836 -0.0018462 0.0032601 -0.0016991 0.0010736 0.0008345 -0.0040846 0.0028482 -0.0028345 -0.0027184 -0.0005527 0.0044981 -0.0007226 -0.0014965 -0.0012203 -0.0027977 0.0017542 -0.0024128 -0.0010128 0.0006682 -0.0029454 0.0019945 1.19e-05 -0.0021522 0.0009284 -0.0013249 -0.0010885 0.003589 0.0022401 -0.0009185 0.0014068 -0.0019946 -0.0014499 -0.0012296 -0.0002578 -0.0042614 0.004905 0.0023547 0.0023808 -0.0019197 0.0028435 0.0001653 -0.0006219 8.53e-05 0.0044468 -0.0024907 -0.0040036 -0.0023674 0.0006777 0.0023788 -0.0009146 -0.0029868 0.0024452 0.0035765 -0.0022623 -0.0018419 0.0002005 -0.0053756 0.0026848 0.001232 0.002041 -0.0019133 -0.000619 -0.0007968 -0.0026512 0.0017935 -0.0016151 -0.0026238 -0.0017497 0.0041196 -3.84e-05 0.0063975 -0.0026723 0.0027792 0.0009437 0.0024806 -0.0019386 -0.0023806 0.0011148 -0.0015777 0.0009264 -0.0002232 -0.0066584 -0.001692 -2.47e-05 -0.0005956 -0.0003364 -0.0046656 0.0070248 -0.0002082 -0.0036103 -0.0012548 -0.0018303 0.0025939 0.0031973 0.0027976 -0.0015797 -0.0034864 -0.0018354 0.0041311 0.0029928 0.0007374 -0.0071526 0.0007874 -0.0038623 0.0023243 0.0006181 0.0003539 0.0008381 0.0007046 0.0031561 -0.0008008 0.0029064 -0.0005338 0.0008673 -0.0017528 0.0028468 0.0010876 0.0009628 0.00385 -0.0006685 0.0004702 -0.0034848 0.0033198 -0.0022275 -0.0023742 -0.0009191 -0.000641 0.001453 0.0007662 -0.0003663 0.0017429 -0.0018769 0.0011822 -0.0028429 0.000504 -0.0034155 -0.0002373 -0.0028714 0.001358 -0.0040264 0.0012311 -0.0049177 -0.0011877 0.0051125 -0.0039356 -0.0010178 -0.000805 0.0012299 0.0057939 -0.0009905 0.0027305 0.0003767 -0.0035707 0.0009325 0.0002489 -0.0042059 0.000532 0.0015915 0.0010463 -0.001501 0.0015696 -0.0017924 0.0005517 0.0049854 -0.0002617 0.0014408 0.000573 0.000542 0.0020941 0.0008604 0.0023563 -0.000442 0.0033974 -0.001313 0.0011053 -0.0024066 0.0006404 -0.0006211 -0.0031313 0.0046858 0.0034674 0.000436 -0.0005181 0.0025323 0.0061618 -0.0003602 -0.0013422 0.0012122 -0.0055441 -0.0010078 -0.0005257 0.0001274 -0.0011976 0.0002265 -0.0002066 -0.0027832 0.0021726 0.0017796 -0.0025206 0.0007979 0.0009615 0.0016729 -0.0029446 0.0018031 0.0011698 -0.0003162 0.0030203 -0.0012868 0.0016528 -0.000918 0.0017373 -0.0022041 -0.0029888 0.0001856 -0.0013189 0.005102 -0.0040415 0.0002393 -0.0025199 0.0034551 -0.0040283 0.0003236 -0.0029155 -0.0043261 0.006288 0.0007578 0.0027077 -0.0011974 0.0013299 0.0067387 0.0010726 0.0072795 -0.0027416 0.0006816 0.0001545 8.14e-05 -0.0016451 0.001054 -0.0015799 -0.0026556 -0.0001625 -0.0007151 -0.0032747 0.0014402 -0.0001382 -0.0047327 -0.0020891 -0.002708 0.0004923 -0.0022598 -0.0036695 -0.001378 -0.0011649 -0.0027706 0.0002835 -0.0031144 0.0003869 0.0031031 0.0002333 0.0040912 0.0004893 0.0025548 -0.0014591 -0.0009538 0.0014823 0.0020904 -0.0009604 -0.0014688 -0.0020455 -0.0013988 0.0001464 0.001459 -0.0014058 0.0015047 -0.0013211 0.0028979 -0.0019807 -0.0029283 0.0002539 0.0004962 0.0031247 0.0042315 0.0008061 -0.0020537 0.0010826 -0.0031846 0.0038563 -0.0016717 0.002211 -0.0038228 0.0010299 0.0006003 0.0003219 0.0001783 0.0014969 -0.0009841 -0.0045508 0.0047662 0.0007515 0.0055773 -2.33e-05 -0.0037218 -5.62e-05 -0.0012429 -9.95e-05 -0.007039 0.0038863 0.0020892 0.0017764 0.0007351 -0.0006911 -0.0027106 0.0011441 0.0035747 -0.0008291 0.0012539 0.003067 0.0062972 0.0017597 -0.0002824 -0.0043204 0.0003508 0.0026966 0.0047453 0.0012871 0.0008673 0.0025795 0.0011887 4.32e-05 -0.0005812 0.0025118 0.0009191 0.0001927 -0.001943 0.0055607 -0.0021772 -0.0008515 0.00374 -0.0026361 -0.0012055 0.002056 0.0028792 -0.0001435 -0.001858 -0.0008585 -0.0012701 0.000509 -0.0042705 0.0010627 -0.0006974 -0.0009874 -0.0001936 -0.003146 -0.0037617 0.0011895 -0.0036659 -0.0018998 0.0009351 -0.0014692 0.0008846 0.000676 -0.005154 0.0003887 -0.0031041 -0.0016654 0.0025383 0.0042485 0.0021324 0.0001688 -0.0010524 0.0007308 -0.0060693 -0.0051224 -0.001375 3.28e-05 -0.001241 -0.0008559 0.0027614 0.0004175 0.0024231 0.0018064 -0.0040835 -0.0028095 -0.0012303 -0.0016656 -0.0017289 0.0014961 0.0056647 0.0020431 0.0034871 0.0025829 0.0033674 0.0039608 -0.0024124 0.002577 -0.0033919 0.0026925 0.0015848 -0.000438 0.0018063 -5.53e-05 0.0033408 -0.0009086 0.002014 0.0034379 0.0007471 -0.0004072 0.0017286 -0.0023053 -0.0027931 -0.0033243 -1.65e-05 0.0026439 -0.0007158 -0.0013712 0.0024114 0.0023025 0.0014476 -0.0013682 -0.0052165 -0.0036544 -0.0021993 0.003107 -0.001369 -2.56e-05 -0.0004742 -0.0009432 -0.0028699 -0.0027385 -0.0020246 0.0047079 -0.0005895 -0.0042767 0.0026956 0.001217 0.0021214 -0.0047009 -0.00223 -0.0016437 0.0055146 0.0001353 0.0014113 0.0013069 0.0004334 -0.0006536 -0.0001217 0.0008821 -0.0021901 0.0009761 0.00065 0.0008584 -0.004791 0.0029025 -0.0012785 0.0014756 0.0008792 0.0018676 0.002074 0.0047269 0.0019177 -0.0043422 0.0045542 -0.0024055 -0.0048107 0.0011533 -0.0003928 0.0052983 -0.0018559 3.67e-05 0.004182 -0.0017869 -0.0001324 0.0011376 0.0014893 -0.0006258 0.0003205 0.0044937 0.0031414 0.0014137 0.0002413 -0.0005644 0.0037395 -0.0017125 -0.0007055 -0.0014268 -0.0056468 -0.0003854 0.0013011 -0.0050113 2.3e-05 -0.0001833 -0.0028609 -0.0006872 0.0040645 0.0027185 0.0008669 -0.003351 -0.0015016 0.0037471 -0.0016682 -0.0005363 0.0024585 0.0032369 -0.0043903 -0.0050111 -2.68e-05 -0.000873 -0.0003381 0.0025023 0.00263 0.0022297 0.0031946 -0.0047417 0.0046461 -0.0046346 -0.0026331 3.32e-05 0.0036461 -0.0019512 0.0025763 -8.86e-05 -0.0034695 0.0007076 0.0001769 0.0001893 0.0045285 -0.0007728 -0.0057038 0.0013981 0.0006015 -0.0046196 0.0023718 -0.0002887 0.0013968 -0.0036293 0.0026657 -0.0002809 0.0012803 -0.0001329 0.0019916 0.00235 -0.0002552 -0.0002565 0.0006007 -0.0028318 -0.0022882 0.0002675 -0.0007184 0.0016671 0.0020873 0.0001785 -0.0031296 0.0034413 -0.005103 0.0022997 -0.0006331 0.0013524 0.0002029 0.0048722 -0.0036223 0.0050127 0.0023965 0.0012474 -0.0004102 -0.0027876 0.0020262 -0.0022453 8.38e-05 -0.0024688 -0.0018051 -0.0005363 -0.0021481 0.001035 0.0029602 0.0016843 -0.0001679 0.0025319 0.0028243 0.0005366 0.0037824 0.0023331 0.0022128 0.0024593 9.97e-05 0.0013153 -0.0010272 -4.45e-05 -0.0031357 -0.0047815 -0.0004408 0.0009969 0.0006407 0.0029679 0.0011248 0.0018785 -0.0010304 0.001409 0.000153 -0.0029854 -0.0005297 0.0065073 -0.0011334 -0.0025083 -0.0027612 0.0073062 -0.0013703 0.0002524 0.0039509 0.002718 9.4e-06 -0.0007886 -0.0019428 0.0013535 0.000405 -0.000623 -0.0018394 0.0003558 0.000495 0.0031084 -0.0015632 -0.0005235 -0.0022402 -0.0026788 -0.0016706 0.0032645 0.0023855 -0.0021568 -0.0017557 0.0010834 -0.0031349 -6e-05 -0.0006238 -0.0025729 -0.004367 -0.0014644 -0.0004432 -0.0012682 -0.0009415 0.00322 0.0007995 0.0031137 0.0001253 -0.0011286 -0.0024419 0.0036539 -0.0050072 -0.0015731 0.0006171 0.0026692 0.0028446 -0.0011569 0.0025305 0.0013272 -0.0016142 0.0037046 -0.0024686 -0.0034236 -0.0037964 0.0029256 0.0005181 0.0005713 0.0023124 -4.87e-05 0.0019573 -0.0031359 -0.0015366 0.001076 -0.0028813 -0.0002952 -0.0008717 0.0037747 0.0006572 -0.0015276 -0.002188 0.0004832 0.0013499 0.0027406 -0.0030607 -0.0011626 -0.000866 -0.0010131 -0.0040703 -0.0024868 -0.0044824 -0.0037104 -0.0035932 -0.0009065 0.0035883 0.0044665 -0.0027011 -0.0023438 -0.0004238 -0.0048543 -0.0005967 -0.0027076 -0.0018348 -0.0004788 -0.001755 0.0019236 -0.0009088 -0.0005928 0.0002736 0.0035318 0.0065858 0.0020515 0.0002108 -0.0004683 0.0004653 -0.0003368 -0.0019519 0.0002912 0.000118 0.0010421 0.005063 -0.0010765 0.0013436 0.0005623 -0.0006318 0.0010553 0.0018567 0.0018833 -0.0006938 3.92e-05 -0.0038089 -9.35e-05 -0.0013345 0.0026403 -0.0011914 0.0042493 0.0035263 8.81e-05 -0.0013206 -0.0013908 0.0033015 -0.0042471 -0.0003432 -0.0015506 3.88e-05 0.0023573 0.001968 0.003166 -0.0034013 0.0018678 -0.0052063 -0.0024093 -0.0025386 -0.002673 0.0009879 0.0043397 -2.21e-05 0.0024723 -0.0026605 0.0010792 -0.0005217 0.0001327 0.0030603 0.0008631 0.0047841 0.0007281 -0.0016433 -0.0020783 0.0005518 -0.0002821 -0.0037247 -0.0002417 4.8e-05 -0.0017616 0.0028075 -0.0016944 -0.0054924 0.003965 -0.0013584 0.0012016 -0.0018193 -0.0001107 0.0056875 0.0021225 0.0003113 -0.0035501 0.0006225 -0.0015471 0.0048273 -0.0039245 0.0004506 -1e-05 0.0093667 -0.002482 -0.0009969 -0.0001066 -0.0027509 -0.0016864 0.0009026 0.0001941 0.0034535 0.0039097 -0.0018011 0.0009552 0.0084903 -0.0019305 0.0010842 0.0026381 0.0007541 0.0004601 -0.0002335 -0.0017831 0.000164 -1.36e-05 -0.00162 -0.0009083 0.0011813 0.0022402 -0.0049742 0.0021293 -0.0006683 0.000518 0.0048936 -0.0008369 -0.0001843 0.0040909 -0.0043783 -0.0019506 -0.0014407 0.000393 0.0011157 0.0029985 0.0034398 -0.0005945 0.0054485 0.0016867 -0.0055569 -0.0004177 -0.0012508 5.18e-05 0.0031213 -0.0068354 0.0025311 -0.0023316 -0.0011336 -0.0025425 -0.0013992 -0.0034869 -0.0009282 0.0017485 -0.0012019 -0.0013204 -0.003394 -0.0020442 0.0008293 -0.0020925 0.0031763 0.0007145 -0.0030411 -0.0023565 0.0021437 -8.85e-05 0.0015885 0.0017056 0.0006073 -0.0043558 0.0015078 0.0025461 -0.0006629 0.0036977 -0.0019917 -0.0005961 0.0024918 0.0015908 0.0035261 -0.0009551 -0.0007834 -0.0017404 0.0027464 0.0004784 -0.0006015 -0.002646 0.0030255 1.34e-05 -0.0020609 -0.0011299 -0.0036854 -0.0010361 -0.0005267 -0.0003342 0.0004839 -0.0036478 0.0001105 -0.0042737 0.001497 5.83e-05 -0.0042397 -0.001232 -0.0002804 -0.0078659 0.002592 -0.001273 0.0016032 0.000832 -0.0004801 0.0013475 0.0016093 0.0011881 -0.0004178 -0.0013748 0.0017759 1.31e-05 -0.0013269 -0.0003355 -0.0001028 0.0056921 -0.0027204 -0.0022107 -0.0006189 0.0015035 0.0045335 -0.0036169 -0.0044086 0.0020367 0.0017045 -0.0020667 0.0028276 -0.0016225 0.0009217 -0.0027828 0.0016164 -0.0008208 -0.0073175 -0.0019976 0.0014705 -0.0005275 -0.0020262 -0.0015373 -0.00013 -0.0019268 0.0038121 0.0030563 0.0018322 -0.0013404 -0.003158 -0.0002987 0.002443 0.0037201 -0.0003887 -0.0010446 0.0012555 -0.0056304 0.0027735 0.0015515 0.0008777 0.0003787 -0.0027942 0.0025429 -0.0014734 -0.0011269 0.0022881 0.0011108 0.0018236 0.0040808 -0.0012352 -0.0002707 -0.0013382 0.0044116 0.0002504 -0.0043404 -0.0019959 0.0041197 7.87e-05 -0.0020114 -0.0035723 0.0065037 -0.0002278 7.35e-05 -0.0012411 0.0043183 -0.0008475 0.002501 0.002412 0.0007494 -0.0010487 0.0026504 -0.0004297 0.003434 0.0028931 -0.0028267 -0.000342 -0.0036138 0.0033278 8.34e-05 8.38e-05 -0.0056597 -0.0040228 -0.00233 0.0061216 0.0013074 0.0009521 -0.000143 -0.0003564 -0.0001572 0.0020797 -0.0016749 0.0002383 0.003452 -0.0004846 -0.0027983 -0.0039298 -0.0011178 -0.0005544 0.0021444 -0.0010325 -9.02e-05 -0.0048549 0.0025799 -0.0046908 -0.0063184 -0.0039272 -0.0024728 -0.0021401 -0.0010156 0.0001666 -0.0011134 0.0008348 0.0008357 0.0003485 0.001088 -0.0024421 -0.0017542 -0.0020413 -0.0034133 0.0032451 0.001065 0.0011889 -0.0028146 0.0002388 -0.0004582 -0.0051973 0.0018135 -0.0040979 4.65e-05 -0.0027571 0.0067228 0.0002258 -0.0007226 0.0016556 -0.0003156 -0.0006253 0.0028669 -0.0047439 -0.0014759 0.0016854 -0.000101 0.0028947 -0.0004858 -0.0028018 0.0015231 -0.0013129 -0.005066 -0.0050187 -0.0016628 0.0004638 0.002367 -0.0012423 -0.0002309 -0.0046701 0.0036996 0.0002672 -0.003788 -0.0042676 0.000519 0.0033211 0.0013301 0.0025704 -0.0001338 -0.0007479 0.0001224 0.0003171 -0.0009315 0.002978 -0.0004528 0.0015985 0.0047795 0.0028295 -0.0021582 -0.0037535 -0.0010854 -0.0026805 -0.0009779 -0.0006773 -0.0003628 -0.0047456 0.0035471 0.0049998 -0.0006238 -0.0005154 0.0043932 -0.0002035 -0.0005182 0.0047073 0.0001791 0.0022947 -0.0023168 -0.0038873 0.0016217 0.0002029 -0.0012383 -0.0002753 0.0001234 0.0014986 0.0032622 0.0036566 -0.0043874 -0.0004835 -0.0015531 -0.0019127 0.003226 0.0003458 -0.0012925 -6.86e-05 0.0036591 0.0002839 0.0021586 -0.0035312 0.0009023 0.0021441 -0.0020396 -0.0030247 -0.00356 -0.0016138 2.09e-05 0.0037483 -0.0019375 0.0054631 0.0010958 0.0018851 0.0032155 -0.0030804 -0.0015156 -0.0007223 -0.0038038 -0.0003204 -0.000675 0.001668 -0.0004305 -0.0015138 0.003748 0.001512 0.0044036 0.0023829 -0.0032771 0.0049039 0.001641 0.0001428 -0.0032705 0.0004684 0.0017396 -0.0008207 0.0037915 0.0005155 0.0008847 0.0002711 -0.0027827 0.0005145 -0.0013808 0.003522 0.0005453 -0.0027021 0.0021155 -0.0014636 0.002572 -0.0030346 0.0004286 -0.0007185 0.0007871 0.0002601 -0.0024608 0.0035154 0.0011168 0.0027264 -0.0002015 0.0005575 0.0024471 -0.0022739 -0.0016591 0.0013514 -0.0016592 -0.0012968 0.0007152 6.56e-05 0.004709 -0.0044085 -0.0011769 0.0014791 -0.0002013 0.0005714 -0.0005585 0.0071472 -0.0011984 -0.002065 0.0003687 0.0022141 0.0053906 -0.0020037 -0.0025797 0.0014842 -0.0008167 -0.0022719 0.0007103 0.0010782 -0.0016693 0.0022368 -0.0044601 0.0001217 -0.0005392 0.001301 0.0015314 -6.38e-05 0.0052218 -0.0004596 0.0001985 -0.0008419 0.0033371 -0.0004566 -0.0017094 0.0007179 -0.0009382 -0.0026865 -0.0025106 0.0008786 -0.0001121 0.0030917 0.0045627 0.0020896 0.0029121 0.0025983 -0.003932 -0.0045655 -0.0005099 0.0049387 -0.0020699 0.0009992 -0.0052079 0.0033859 -0.0016411 0.000836 -0.005154 -0.0012301 -0.0022558 -0.0001347 -7.5e-06 0.004589 0.0024935 0.0025087 -0.0002233 0.0016133 -0.0026844 -0.0001121 -0.0010102 0.0017238 0.0008452 -0.0002479 0.0010284 -0.002604 -0.0034484 0.0005013 0.0032841 0.0046168 -0.0034407 0.0049181 -0.0011864 -0.0002838 -0.0035664 0.0052296 0.0009905 -0.0006666 0.002377 0.0009936 0.0027007 0.002 -0.002957 0.0023675 -0.0036226 0.0021521 -0.0005102 -0.0003791 -0.0032178 -0.0020884 0.0018516 0.0013185 0.0013932 -0.0023559 -0.0011287 0.0020923 0.0003368 -0.0008303 -0.0001686 0.005125 -0.0010499 -0.0032755 0.0010583 2.65e-05 -0.0018864 0.0023591 -0.0006791 -0.000121 0.0023513 -0.0036845 0.0031721 0.0064044 0.0019499 -0.000967 -0.0012648 -0.0037914 -0.0019489 -0.0021033 -0.0015273 0.0011061 0.0022659 -0.0032259 -0.0008411 -0.001323 0.0012981 -0.0051207 0.0011649 -0.0021547 0.0046287 0.0012549 -8.44e-05 -0.0014673 -0.0009514 0.0021564 0.0031843 0.0002036 -0.0001211 -0.0050272 -0.0016952 -0.0006836 -0.0008676 0.0006934 -0.0014898 -0.0050412 -0.0004944 -0.0003429 0.0052034 -0.0004277 0.0005873 -0.0009633 -0.0011281 0.0035349 0.0058907 0.001579 0.0011445 -0.00112 -0.0004345 -0.0006731 0.0001974 0.0030262 0.0032303 0.0046104 0.0029582 -0.0011365 -0.0011629 0.0002641 -0.0032669 0.000276 0.0015978 0.0031307 0.0003816 -0.0007109 -0.0016266 0.0017591 0.0004582 -0.0014029 0.0034887 -0.0015176 0.0028689 0.0027997 0.0006091 0.0009698 0.0039636 0.0030341 0.0024141 -0.0010097 -0.0001352 -0.0009419 -0.0053165 0.002892 -5.05e-05 -0.0036155 0.0023335 -0.0005739 0.0010906 -0.0029741 0.0003998 -0.0005093 4.88e-05 -0.0014736 -0.0042618 0.0036832 0.0036975 -0.0007657 -0.0031313 0.0006468 0.0013282 -0.0050626 -0.0036877 -0.0020111 0.0014948 0.0037328 0.003157 0.0031774 -1.17e-05 0.0018434 0.0039161 5.9e-05 0.0041625 -0.0046283 -0.0025903 0.0008354 0.0032414 -0.0028102 -0.0027567 -2.18e-05 -0.0005797 -0.0023633 -0.0012256 0.0011208 0.0020529 -6.39e-05 -0.0013748 0.000788 0.0026579 0.0015048 0.0011306 0.0007103 0.0008591 0.0011481 -0.000951 0.0006996 0.0050311 -0.0005137 0.0003201 -0.0002442 -0.0021208 -0.0012556 0.0047687 -0.0037604 0.0014817 -0.0001142 -0.0023883 0.0006098 0.0030076 0.0009183 -0.0001366 -0.0004823 -0.0012425 -0.0022933 0.0019387 -0.0057241 -0.0014374 -0.0021788 0.0040668 0.003311 -0.0007046 -0.0069183 0.0032341 -0.0040817 0.0033628 0.0012362 -0.0041838 -0.001606 0.0049835 0.0018245 -0.0003215 -0.002486 0.0004984 0.0057564 0.0016195 -0.0023269 -0.001959 0.0042419 -0.0018656 0.0024361 -0.0010772 0.0003565 0.0030718 -0.001074 -2.26e-05 -0.0027282 0.0004494 -0.0022062 -0.0002791 -0.0015645 0.002098 -5.01e-05 0.004413 -0.0010419 -0.000122 -0.0054479 0.0008084 -0.0020368 0.0017779 -0.0016311 -0.0013342 0.0046333 -0.0037041 -0.0064616 -0.0008698 0.0008329 -0.002499 -0.0001162 0.0003039 -0.0007689 -0.0002395 0.002795 -0.0044046 -0.0041221 -0.0031231 -0.0041761 0.0019566 0.0048646 -0.0016676 -0.0002478 0.0007189 -0.0026838 0.0003171 -0.0008098 -0.0003705 -0.0026895 4.26e-05 -0.0006299 0.0006749 -0.000973 0.0034841 -0.0001601 -0.0012529 -0.000984 0.0018298 0.0020882 -0.002241 -9.53e-05 0.0001604 -0.0028039 0.0020791 0.003071 -0.0035651 -0.0033126 -0.0026369 0.0021993 -0.0006125 0.0003699 0.0009937 -0.0017077 -8.71e-05 0.0002816 -0.0018827 0.0029056 -0.0015388 -0.0032843 0.0018632 -0.0048212 0.0017266 -0.0018215 -0.001775 0.0002518 0.0018166 -0.0049428 0.0022105 0.0014143 0.002712 -0.0023426 0.0002853 5.89e-05 0.0026396 0.0002539 -0.0023777 0.0012781 0.0010893 -0.0012394 0.0047948 0.0058653 0.000733 0.0026398 0.0012388 -0.0031351 -0.0020982 0.0021691 -0.0022535 -0.0008605 -0.0004356 0.0021507 0.0022907 0.000354 0.0017717 -0.0021314 0.0019564 -0.0032109 -3.74e-05 -0.0016226 0.0062565 -0.0033224 -0.0016078 0.0015252 -0.0008898 0.0059281 -0.0013089 0.0022992 0.0006812 -0.003717 0.0001851 0.0001393 0.0017184 -0.0013571 -0.0001805 0.002623 0.0003781 -0.0018468 -0.0042838 0.0002918 -0.0039033 -0.0009426 0.000976 -0.0010149 0.0028635 0.0001552 0.000377 -0.0056445 0.0006459 0.0004612 -0.0007508 -0.0079092 -0.0003628 0.0026998 0.0002692 -0.0030438 0.000514 0.0018711 -0.0007516 0.0016444 0.0010709 0.0001655 0.0037489 0.0004335 0.0019741 -0.0029384 -0.0007476 -0.0009017 -7.5e-06 -0.001229 -0.001416 0.0041368 0.0015549 0.0051167 0.0019703 0.0012351 -0.0019627 -0.002187 -0.0005618 -0.0019402 0.0022663 0.0029815 -0.0005 -0.0042356 0.0044854 -0.0043465 -0.0044168 -0.0017977 0.0031004 -0.0022011 0.0013472 -0.0012163 0.0012952 0.0040133 -0.0003382 -0.0039049 0.0002223 -0.0002538 0.0022437 -0.0008884 0.0011167 0.0002015 0.0050441 0.0028199 -0.0012056 -0.0011335 0.0013564 -0.0024815 0.0023389 -0.0022852 0.0013139 -0.001353 0.0001776 -0.0005697 -0.0015564 0.0019362 0.0031805 -0.0049568 0.0003491 -0.0014373 -0.0039472 0.0035095 -0.0006135 -0.001317 -0.0007266 -0.0028113 -0.0036468 0.0010047 -0.0048102 -0.0005548 0.0026382 0.0005854 -0.0048873 0.0013106 0.0009515 -0.0014301 0.0010911 0.0013202 -0.0012242 0.0006664 0.0033458 0.0030746 -0.0022332 0.001251 -0.0003661 -0.0039623 -0.0004598 0.0040343 -0.0062725 0.0026248 0.0005269 -0.0021169 -0.0024211 3.95e-05 -0.0023795 0.0022702 -0.0015017 -0.0026657 -0.002125 -0.0023419 0.0012086 0.0016042 0.0017501 0.0001711 -0.0005532 -0.0054957 -0.0004198 0.0005285 -0.0013711 0.0089549 0.0002642 -0.004553 0.002344 0.0049044 -0.0024643 -0.0006612 -0.0043875 -0.0020946 0.003079 -0.000108 -0.0016079 0.0005522 0.0055656 0.0018545 -0.0001731 0.0018191 -0.0008822 -7.07e-05 0.0036041 0.0020007 0.000921 -0.0032249 -0.0003775 -0.0014491 0.0019018 0.001329 0.0006661 -0.0035902 0.0001221 -0.002034 0.0003412 -0.0017651 0.0007699 -0.0045729 0.0024372 0.0005718 -0.0017842 -0.0025606 0.0018554 -0.0009925 -0.0044879 -0.0029089 0.002594 0.0016458 -0.0001034 -0.0001421 -0.0036375 -0.0010185 -0.0018919 -0.0004554 0.0033169 -0.0011028 0.0004659 0.0016021 -0.0003908 0.0030795 -0.0002072 -0.0019198 -0.0009255 -0.003019 0.0004317 0.000201 0.0005079 -0.0007962 0.0009251 0.0010456 0.0016946 0.0020289 0.002359 0.0078006 0.0011844 -0.0030011 0.0027451 0.0036329 -0.0032478 0.0001647 0.0013073 0.0001195 -0.002082 -0.0051572 -0.0019041 -0.000869 0.0018572 0.0022406 -0.0031286 -0.0034578 -0.0001472 0.0009695 -0.0002789 0.0036992 -0.0017815 -0.0033853 0.0040775 -0.0018342 -0.0023897 0.0007034 0.0041357 -0.0028908 -0.0030769 0.0007387 -0.003636 3.44e-05 0.0009665 0.0001807 -0.0040708 0.004611 0.0010893 -0.0029628 -0.0008184 0.0044245 -0.0007184 -0.0041997 -0.0050178 -0.0011157 -0.0027387 -0.0010787 0.0041374 -0.0048563 1.43e-05 -0.0033468 -0.0009626 -0.0014713 0.0011455 -0.000278 -0.0017506 0.0020657 -0.0033375 0.0032024 0.0037926 -0.0046817 0.0032066 0.0039461 -0.0003234 0.000122 -0.0010951 0.007492 0.0006894 0.0059985 -0.0035578 0.0026803 -0.0014385 0.0012202 0.0024579 0.0040139 -0.0006512 0.0031561 0.0043451 -0.0010874 0.0009098 0.0020974 -0.0017165 -0.0035269 0.0014032 -0.0009134 -0.0035603 -0.0012817 0.0003675 -0.000166 -0.0003133 -0.0028109 0.0006625 -0.0034512 -0.0019036 0.0024823 0.0010078 -0.0017727 -0.0030426 0.0006196 -0.000335 -3.89e-05 -0.0019236 0.0022349 -0.0026825 -0.003341 0.0018279 0.0028931 -0.0034514 -0.0046591 -0.0026062 0.00326 -0.0023131 0.0006726 0.0007716 -0.0005521 -0.0008514 0.0003376 -0.0012455 0.0009362 -0.0008795 0.0011282 -0.0012178 -0.0005513 0.0079758 -0.0023596 -0.0069664 -0.0056505 0.0021391 -0.0003523 0.0027405 0.0028488 0.0017599 0.0022502 -0.0016182 0.0007584 -0.0005705 0.0001132 0.001871 0.0013073 0.0038123 0.0017951 0.0044759 -0.0002054 -0.0004299 -6.99e-05 0.0020987 0.0007522 0.0011286 6.14e-05 0.0018722 0.000306 0.0012144 -0.0008567 0.0029386 0.001213 0.0007186 0.0013875 0.002535 -0.0043033 0.0002751 0.0008211 -0.0004419 -0.0012864 0.0040226 -0.0035769 -0.0037676 0.0011051 -0.0004953 -0.0023682 0.0015721 0.0017681 -0.0033841 -0.0048933 0.0010296 -0.0019951 0.0001983 0.0028013 -0.001404 -0.0041383 0.0044766 0.0043825 0.0017016 -0.0039517 -0.0028023 0.0007658 0.0038226 0.000799 -0.0008115 -0.0008366 0.0017963 0.0023234 -0.0046416 -0.0042418 0.0060425 -0.0010789 -0.0012373 0.0022771 -0.0053048 0.003264 -0.0005184 0.0009542 -0.0031844 -0.002937 -6.62e-05 0.0075752 0.0028159 0.0022139 -0.0012837 0.0002994 -0.00081 -0.0006531 -0.0021322 0.0034848 0.0011783 0.0007721 -0.0004656 0.0050288 -0.0027206 0.0008406 0.002548 0.0030888 -0.0009213 -0.0008797 -0.0003981 0.0002744 0.0022581 -0.0025895 0.0014616 0.0034741 0.0007044 -0.0039861 -0.0048321 0.0065058 -0.0006051 -0.0011764 0.0007196 0.00389 -0.002513 -0.0004254 -0.0032899 0.0004658 0.0042575 0.0031215 0.0003917 -0.0013269 0.0060796 0.0008246 -0.0013634 0.0005603 -0.0020128 0.0011479 0.0011929 0.0027753 0.0014048 -0.0004848 0.0015973 0.0008657 -0.0017918 -0.0017545 -0.0003961 0.0017431 -0.0038285 0.0028214 0.002374 -0.001918 0.0039679 0.0013944 -0.0027674 0.0004206 -0.004192 0.0015197 -0.00027 0.0020994 -0.0040595 -0.0028989 -0.0064466 0.0028528 -0.0012393 -0.0005606 -0.0004041 0.0010797 0.0023915 -0.0009812 -0.0011526 0.0011539 -0.0007657 0.0004205 -0.0023698 -0.0040729 0.0060694 -0.0049759 -0.0033695 0.0007349 -0.0011081 0.0032721 -0.0052999 0.0014333 -0.0041203 0.0067001 0.0016359 0.0042371 0.0009749 -0.0046888 0.0017909 0.0004523 -0.0023202 0.0052407 -0.0030061 0.0007072 -0.0028103 -0.0004484 -0.0021878 -0.0004665 -0.0040689 -0.0037996 -0.0028393 0.0006343 -0.000676 -0.0026565 0.0018938 -0.0015796 -0.0046699 -0.0020969 0.0030379 -0.0010736 -0.0017242 0.0044997 -0.0002186 0.0026723 0.0026174 -0.000923 0.0022104 0.0007788 0.0006126 -0.0014895 0.0025494 -0.0045917 0.0032222 0.0005807 -0.0017126 -0.0008067 0.0027377 -0.0007505 -0.0013862 0.0060901 0.0007398 -9.27e-05 -0.0023069 0.0028443 0.001304 0.0003835 -0.0043748 -0.0026277 -0.0049312 -0.0025148 0.0027389 -0.0011311 -0.0001835 0.0057181 -0.0012215 0.003094 0.0009086 0.0026352 0.0027449 0.0004878 -0.0005232 0.000433 0.0020053 0.0036535 -3.87e-05 0.0003725 -0.0041182 0.0030388 -0.0005182 -0.0014875 -0.0004786 0.0030108 0.0039727 0.0050118 -0.0025541 -0.0029519 -0.0001164 -5.44e-05 9.71e-05 0.0045256 -0.0038011 -0.0016293 0.0039624 0.0023205 -0.0008271 -0.0013959 -0.0076704 -0.0001082 -0.0001355 0.0006655 -0.0011502 -0.0032952 0.0048763 0.000139 0.0039417 2.9e-06 -0.0001278 -0.0012609 0.00381 0.004625 -0.0006392 -0.0004391 -0.0004942 -0.0009831 0.0005933 0.0012338 -0.0026352 0.0021982 0.0026576 -0.0015182 0.00137 -0.0001897 0.0016677 0.0032192 -0.0020015 -0.0030321 0.0010867 -0.0026618 -0.0032743 0.0021152 0.0023927 -0.0018896 -0.0003397 0.0016981 -0.0012083 4.78e-05 -0.005415 4.76e-05 -0.0028723 0.0071072 -0.0045602 0.0022963 -0.0012245 0.0007125 0.0035574 0.0013756 0.0034132 0.0031542 -0.0017553 -0.0027114 0.0032102 0.0023241 -0.0008331 -0.0008534 0.003038 -0.0016143 0.0049799 -0.0002677 -0.005379 0.0019697 -0.0013621 -0.0024843 -0.0003806 -0.0004554 -0.0044829 0.0035193 0.0012108 -0.00385 -0.0055315 0.0002452 -0.0019955 0.0003078 -0.0028598 -0.0001356 0.0012226 -0.0033902 0.0026634 0.0021307 -0.0062534 -0.0009347 -3.19e-05 -0.000921 -0.0013967 0.0001013 0.0018024 0.001362 -0.0026254 -0.0026659 -0.003357 -0.0024102 -0.0009916 0.0009262 -0.0007305 -0.0001962 -0.0025551 0.0010618 0.0013696 0.0016717 -0.0063461 0.00057 0.0018096 0.0005248 -0.0011363 -0.0035711 0.0025083 0.001857 -0.0002286 -0.0007001 -0.0025063 0.0011952 -0.0034044 0.0020011 0.0018794 0.0008554 -0.0001006 -0.0020929 0.000621 0.0024916 -0.0020114 -0.0015601 0.001544 -0.0011762 0.0034097 1.68e-05 7.81e-05 0.00315 -0.0024908 -0.0003306 0.0015493 -0.0011504 -0.0011553 -0.0020414 -0.0012329 -0.0085341 -0.0042243 0.0020153 0.0012621 -0.0029644 0.0012839 -0.0041196 -0.0013513 -0.0031945 0.0007877 0.0028174 0.0021868 5.06e-05 0.0025696 -0.0012004 0.0024014 -0.000586 -0.0017806 -0.0004932 0.0006138 0.0001878 0.0032934 0.0049592 2.6e-05 -0.0021578 0.0037154 0.0040045 0.0027637 -0.001166 0.0009013 -0.0031366 -0.0001872 -0.0001224 -0.0005725 -0.0032228 0.0001411 -1.92e-05 -0.0004231 -3.91e-05 -0.0008517 0.0006337 0.0008693 0.0001381 -0.003222 0.0001948 0.0032368 -0.0004735 -0.0012029 -0.0016857 0.0011067 0.0002075 -0.0004125 -0.004192 0.0016465 -0.00128 0.0019017 0.000298 -0.0020277 -0.0019285 -0.0015796 -0.0023069 -0.0012752 -0.0017721 0.0028528 0.0002628 -0.0029363 -0.0003674 0.0036755 -0.0020569 -0.0041666 0.0004199 -0.0015665 -0.0032182 -0.0002824 -0.001929 0.0034537 -0.0001568 -0.0008227 -0.001804 -0.0028369 0.0059253 0.0009824 0.0005498 -0.000103 0.0025648 -0.0003578 -0.0051008 0.0016132 -0.0032741 -0.0014735 0.0037171 -0.0018811 0.001963 -0.0035671 -0.004455 -0.0011389 0.0022755 -0.0009859 8.49e-05 0.0026423 -0.0034453 0.0017151 0.0016503 0.0022407 -0.0020695 0.0026296 -0.003454 -0.0005533 0.0016286 -0.001942 0.0005744 0.0008888 0.0003851 0.0025844 0.0029636 -0.0011211 0.0001659 0.0012517 -0.0012682 0.0040926 0.0016901 0.0050365 0.0010467 0.0016103 0.0018739 -0.0017572 0.0039086 -0.0058376 -0.002246 -0.0039715 0.0011176 0.0006826 0.0018496 0.0006104 -0.0006038 -0.0002219 -0.0006176 0.0072631 -0.0006988 -0.0013748 -0.0063758 -0.002748 -0.0028678 -0.0012365 0.0056723 -0.000384 0.0004682 -0.0016419 0.0036306 -0.0018292 -0.0030093 -0.000422 0.0027618 0.0022988 0.0031663 -7.43e-05 -0.0010377 0.000361 0.0006858 -0.0012047 -0.0014798 4.44e-05 0.0030949 -0.0010964 -0.0054828 -0.0005975 -0.0003862 -0.0003107 0.0011075 -0.0005438 -0.0053433 0.0033616 0.000489 0.0004069 0.0010467 0.0004539 -0.0026752 0.0001988 0.00145 -0.0028531 -0.0002257 0.0015236 0.0030625 -0.0010187 -0.0021519 -0.0046955 0.0030925 -0.0077644 0.0027209 -5.53e-05 0.0032059 -0.0023366 0.0009119 0.0012319 0.0023693 -0.0036254 -0.0041094 -0.0035282 0.0006461 0.0018003 -0.0004207 -0.0010876 0.0011082 -0.0017796 0.0003526 0.0061745 -0.0029553 0.0031545 -0.0025878 0.0052885 0.0009238 0.00095 -0.0032055 -0.0026142 -0.0023671 -0.0034308 0.0004473 -0.0035869 -0.0015038 -0.0004801 -0.0045799 0.0041239 0.003404 -0.0011553 -0.0053659 0.0030753 0.0035866 -0.0009002 0.0050832 0.0086914 0.0001783 0.0018338 0.0024173 -0.0004796 0.0024647 -0.0039118 -0.0030133 -0.0013188 -1.01e-05 -0.0019851 0.0043635 0.0010835 -0.0014632 -0.0011652 0.0046342 -0.000856 0.0007425 0.0033367 0.0021512 0.0036442 -0.0012039 -0.0005591 -1.39e-05 -0.0022165 -0.0025204 -0.0005442 0.000706 0.0005603 0.0035192 0.0001215 -0.0022225 -0.002048 0.0006447 -0.0004823 0.0008075 -0.002066 0.0046694 -0.0055558 -0.000258 -0.001061 -0.0045931 0.0012174 0.0047173 -0.001788 0.0007425 0.0006952 0.0027697 0.0007557 0.0043865 0.0009245 -0.0008027 3.15e-05 0.0006363 0.0016561 0.0017291 -0.0032985 0.0034869 -0.0019103 0.0008422 0.0001307 0.0007399 -0.002181 0.0044871 -2.96e-05 -0.0023609 0.00385 0.0003471 0.000673 -0.001291 -0.000981 -0.0019866 -0.0038232 -0.0002576 -0.0023324 0.0046595 -0.0008597 -0.006461 -0.0004925 0.001162 -0.000822 -0.002329 0.0048546 -0.0018374 0.0007741 0.0032566 0.0037386 -0.0002531 0.0002619 -4.56e-05 0.0023139 -0.0044509 0.0011289 0.0004053 -0.0009164 0.0013294 0.0012551 0.0044187 -0.0007414 0.0041054 -0.0006652 0.0006263 -0.0028615 0.0004162 -0.0001125 -0.0023898 0.0019709 -0.0015775 0.0045904 -0.0006376 -0.0010299 -0.0004381 0.0016747 -0.0007889 -0.0021392 0.0004905 0.0009761 -0.0017231 -0.0058137 -0.0003912 -0.003037 -0.0033454 0.0018613 0.0014555 0.0079327 -0.0003216 -0.0022621 -0.0041317 0.0002489 0.000503 0.0086615 0.0052183 -0.0016799 -0.0015796 0.003513 0.0017803 -0.0028252 0.0019572 0.0007668 -0.0001769 0.0014978 -0.0015916 -0.0025373 0.002922 -0.0009223 0.0025824 0.0026416 0.0007161 0.0006866 -0.0016139 -1.47e-05 -0.0052399 0.001822 -0.0018781 0.0018379 -0.0039848 -0.002929 0.0012964 -0.0005834 -0.0040742 -0.0002664 -0.0006343 -0.0006146 0.0027216 0.0047616 0.0011346 -0.0052072 0.0030767 -0.0006289 0.0022952 0.0004069 -0.0002925 0.0008826 -0.0017825 0.0006367 0.0015024 -0.0027367 0.001554 -0.0028648 -0.0029114 0.0002684 0.0020691 0.0001076 -0.0048664 -0.0031987 -0.0044859 -0.003177 0.0003725 0.0035612 -0.0010126 0.0001484 0.0017105 -6.2e-05 -0.0040965 -0.0032593 0.0015044 -0.0006076 0.0011255 -0.0007073 0.0030303 -0.0010869 0.0009469 0.005493 -0.0001461 -0.0019208 0.0011149 0.0046352 -0.0005894 -0.0044887 0.0025799 0.001992 0.0005376 -0.0002444 -0.0007133 0.0009561 -0.0023625 0.003788 0.0034326 0.0013235 -0.0012141 -0.0010523 -0.0016132 -0.0020905 -0.0005675 0.0017516 -0.0012297 0.0014841 0.0018278 0.0026451 0.0010023 0.0011311 -0.0028167 -0.0003563 0.0001359 -0.0034962 0.0004963 -0.0025741 0.0004587 -0.005689 0.0008256 -0.0018517 -0.0003589 0.0007261 0.0031786 -0.0010689 0.0023891 -0.0011049 0.004537 4.8e-05 -0.0018435 -0.0005641 -0.0004121 -3.77e-05 0.0002826 0.0002888 -0.0023805 0.0008739 0.0019326 0.0029309 0.0011684 0.001409 0.0043047 -0.0031628 0.0031905 0.0031863 -0.0008833 -0.0042034 -0.0021049 -0.0006405 -0.0001431 -0.0018832 -0.0028888 0.0011864 -0.0004963 0.0003399 8.94e-05 -8.85e-05 -0.0012023 -0.0036157 0.0005756 -0.0012938 0.002838 -0.0004485 -0.0044246 -0.0008937 0.0007356 0.0006345 -0.0017235 -0.002237 -0.0006573 0.0009408 -0.0013977 -0.001603 0.0015196 0.0023994 -0.001524 0.0041719 0.0004728 0.0015224 -0.0022916 -0.0043405 0.0007268 0.0046586 -0.0010053 0.0014268 0.0056067 0.0004797 -0.0005087 0.0019279 -0.0018321 0.0006576 -0.0030694 -0.001322 -0.0012872 -0.0018181 0.0019048 0.000744 0.0012314 -0.0022739 -0.0041659 0.0023199 -0.0010126 0.0010456 -0.0007457 0.0014471 -0.0019888 0.0009339 -0.0010562 0.0016934 0.0022855 -0.0032493 -0.0020644 -0.0034745 0.0021672 -0.0031978 0.0019765 0.0027293 -0.0036451 -0.0002279 0.001982 0.0040243 -0.0068428 0.0012485 0.0014826 -0.0051041 -0.0036971 0.0013465 -0.0004504 0.0013797 0.0014957 -0.0009217 -0.0021531 0.001349 0.0034289 -0.0041987 0.0001083 0.0011134 0.0019362 -0.001703 0.0037831 -0.0010211 -0.0043397 -0.0009278 -0.0022643 -0.0008138 -0.0014227 0.0026642 -0.0040802 -0.0003231 -0.0029012 -0.001522 -0.0036184 0.0018668 0.0024355 -0.0017264 -0.0026658 0.0053335 -0.0018361 0.001402 -0.0017921 0.0025716 -0.0053534 -0.0014759 -0.002247 -0.0029022 0.0034154 -0.004778 0.0032577 -0.0013205 -0.0021693 -0.003065 0.0027358 0.0031401 0.0018993 -0.0029627 0.0001794 -0.0020238 -0.0004032 -0.0022242 0.0032181 -0.0014965 0.0016552 0.0011545 -0.0001387 -0.0021713 -0.0013354 -0.0056015 0.0009856 0.0002861 -0.0014829 0.0001541 -0.0016411 -0.0007853 0.0017495 0.0021838 0.0014429 0.0010687 0.0020675 0.0024765 0.0018731 -0.0009342 -0.0013017 -0.000567 0.0010226 0.0006866 1.31e-05 -0.0013179 -0.0024427 -0.001604 9.7e-06 0.0001383 0.0021847 -8e-05 0.0004814 -0.0004739 -0.0015246 0.0002136 -0.0020933 -0.0016115 0.0031916 -0.0005893 0.0027318 0.0004357 -0.0001743 -0.0001765 -0.0011458 -0.000993 -0.0013019 0.0016419 -0.0010653 0.001239 0.0004745 -0.0015675 -0.0020003 0.0038466 0.0021801 0.003279 -0.0024887 0.0030841 0.0004084 -0.0014662 -0.0001724 -0.0024263 0.0024706 0.0020765 -0.0008826 -0.0036777 -0.0019311 -0.0015768 -0.0002063 -0.0026866 0.0073104 -0.0042362 0.0017861 0.0026889 0.0008939 0.0008591 -0.0007576 0.0024719 -0.0017383 0.0002316 -0.0005191 -0.0009064 -0.0004587 -0.0038321 -0.0011565 -0.0011245 -0.0017477 -0.0019676 -0.0022025 0.0020263 0.0010609 -0.0005989 0.0009115 -0.0005551 0.0042355 -0.0004018 0.0043674 0.0006299 0.0042926 -0.0012605 0.0061095 -0.0009023 -0.0020605 0.0016028 -0.0012612 -0.0020203 0.002343 0.000809 0.0009349 -0.0038035 0.0026767 0.0018604 -0.0030462 -0.0025676 -0.000266 0.0010137 -0.003623 -0.0010312 -0.0018245 -0.0016391 0.0018953 0.0017199 -0.0003202 4.62e-05 -0.0026391 -0.0009401 -0.0004609 -0.0002142 -0.0037532 -0.0019695 0.0009279 -0.0024765 -0.0003613 -4.62e-05 -0.003436 -0.0033124 0.0007405 0.0018292 0.0022111 -0.0006217 0.0022169 0.0019988 -0.0021033 0.000977 0.0002877 0.0006725 -0.0007813 2.6e-05 0.0041548 0.001071 0.0008464 0.0072136 -0.0036298 0.0015695 0.0039592 -0.001229 0.0002397 -0.0015443 -0.0008261 0.000849 0.0003891 0.0020257 -0.0017359 -0.0019178 0.0022982 0.0024457 -0.0062075 0.0026516 -0.0014155 -0.0020615 0.0012729 0.002098 -0.0021567 -0.0036867 -0.0002943 0.0047263 -0.0011811 0.0006877 0.002637 -0.0006147 0.0020925 0.0027099 0.002547 -0.0007406 -0.0030066 -0.0018311 -0.0016734 0.0043964 -0.0022218 0.0038923 -0.0033926 -0.0043878 -0.0024499 0.0011344 0.0012721 0.0009298 -2.11e-05 0.0048161 -0.0010021 -8.89e-05 -0.0023987 0.0015745 0.0018099 0.0034974 -0.0001685 0.0037962 0.0005638 -0.0027911 0.0035338 0.0004339 0.0042031 -0.0014499 -0.0010854 -0.001347 -0.000866 -0.0003493 0.0003562 0.002498 -0.0023049 -0.0014422 -0.0014184 -0.0037527 -1.34e-05 0.0041631 -0.001549 -0.0001922 0.002618 0.002881 0.0039765 0.0013854 0.0002279 0.002755 0.0014477 -0.0017289 -0.0029007 0.002648 0.0022826 -0.0049278 0.0036281 -0.0049481 -0.0025894 0.0006457 0.000318 -0.0010206 -0.0042328 0.0015471 -0.0019558 0.0006964 0.0003789 0.000377 -0.0048734 0.0031899 -0.0039392 -0.0007776 -0.0018683 -0.002539 7.48e-05 -0.0021277 -0.001561 0.0008147 -0.0032074 -0.0027875 -0.0016013 -0.0024909 0.0001172 0.0034063 0.0026681 -0.0004182 0.0010049 -0.0012192 -6.47e-05 0.0023777 0.0023168 -0.0005962 -0.0016757 0.0041309 0.0040788 0.0030438 -0.002643 -0.0038509 -0.0021887 0.0065821 -0.0024487 0.0017019 0.0016072 0.0056241 -0.0028046 -0.0001241 0.0001043 0.002479 -0.004063 0.0014326 -0.0034353 0.0019759 -0.0032044 0.0017089 -0.0010574 0.0045157 0.00164 0.000686 -0.0017778 0.0014936 -0.0004576 -0.0033007 -0.0042187 -0.0007278 0.0005596 -0.0015578 0.0033429 -0.0034654 0.0009005 0.0021601 -0.0051875 -0.0001497 0.0034431 -0.0022628 -0.001153 -0.0016863 -0.0019539 -0.0001301 -0.0022339 0.0002594 0.0011531 0.0033629 0.00204 -0.0013163 -0.0049242 -0.0002439 -0.0003758 0.0028738 -0.0010359 0.0030873 0.0023702 0.0010861 0.0029046 -0.000198 -0.0007874 0.0001438 0.0027194 0.0002332 0.0001873 0.0003044 -0.0063904 -0.0001143 0.0021539 0.0001532 -0.0014374 -0.0043943 -0.0060368 -0.0004982 0.0014989 -9.47e-05 0.0023847 -0.001688 0.0043588 0.0034061 -0.0020552 -0.0013933 -0.0019578 0.0040385 -0.000896 0.0089337 0.0065408 -0.0013651 0.0005869 0.0006231 0.0036069 -0.0074099 0.0037653 -0.0015557 -0.0004083 -0.0002249 0.0003576 0.0004059 -0.0043964 -0.0057587 0.0027481 0.0017791 0.0036746 0.0005257 0.0022078 0.0006331 0.0013421 0.0012062 -0.0095164 -0.0011683 -0.000857 0.0026836 0.0014048 -0.0034124 -0.0023566 0.0026291 0.0012211 -0.0004337 0.0010568 0.0019754 -0.0006727 0.0023595 0.0059465 0.0018017 -0.000373 0.0075315 0.0004075 -0.0002657 -0.0015863 -0.0021709 -0.0026678 -0.0042561 -0.002023 0.0024348 -0.0027286 -0.0037292 -0.0028521 0.0033973 0.0003644 5.17e-05 0.0020645 -0.0047895 0.0028301 0.004366 -0.0016469 -0.0019336 -0.0004703 0.0010425 0.0003561 0.0012041 -0.0021843 -0.0038685 -0.0015518 -0.0056787 0.001133 -0.0020057 -6.4e-06 0.0055085 -0.0006885 -0.0006476 -0.0001806 -0.0048803 -0.0007613 -0.0010645 0.0026715 0.0020141 -0.0009967 0.0031322 -0.0008369 0.0008237 0.0021169 0.0042421 0.0014955 -0.0035849 0.0002632 0.0010922 0.0008924 -0.0024965 -0.0017041 0.000646 0.0023192 -0.0040865 -0.0016793 -0.0016911 0.000259 -0.0011016 -0.0036218 -0.0032558 -0.0034612 0.0004255 -0.0004539 0.0006314 0.0025574 7.87e-05 0.0018878 -0.0002776 0.0002212 0.0039087 0.0022362 -0.0022285 0.0007117 0.0060426 8.3e-06 -0.0045051 0.0003193 -0.001927 0.0033914 -0.0020957 0.003078 0.0010056 -0.0023464 0.0014999 -0.002009 0.0015296 -0.0004405 0.0002607 0.0008322 0.0032602 0.000432 -0.0021617 -0.000354 0.0024752 0.0012682 -0.0002476 0.0035049 0.0073091 -0.0027646 0.0035022 -0.00208 0.0005321 -0.001529 -0.0001549 0.0032033 0.0025569 -0.002738 0.0040501 0.0017733 0.0030589 0.0005102 0.002659 -3.92e-05 -0.0011441 -0.001199 7.78e-05 0.001026 -0.0019661 -0.0019134 -0.0027451 0.0035296 -0.0032102 -0.0033417 0.0015097 0.0002347 -0.0025719 -0.0013556 0.0041795 0.0001451 -0.0005087 -0.0003349 -0.0019969 0.0040647 0.004934 -7.18e-05 0.0017093 0.0016973 0.0009517 -0.0007248 0.0001084 -0.000827 0.00013 -0.0027508 -0.0037098 0.0018131 -0.000101 -0.0001299 0.0040723 -0.0014925 0.0012755 -7.85e-05 -0.0022799 -0.0023811 -7.31e-05 -0.0007058 0.0023165 0.0039809 0.0010626 0.0026711 -0.0042444 0.0006925 -0.0038445 0.0027284 0.0002793 0.0004813 -0.0001597 0.0063975 -0.0003078 2.66e-05 -0.0009716 0.001368 0.003595 0.0011476 0.0007014 -0.0042156 0.0019547 -0.0050462 0.0001042 -0.0014888 0.0026535 -0.0012584 0.0013174 0.0009335 0.0014413 -0.0013076 -0.0053072 0.0023825 -0.0006924 -0.000932 -0.0009453 0.0018083 0.0047956 -0.0018242 0.0023096 0.0027725 -3.35e-05 0.004109 -0.0013127 0.0018484 0.0055748 -0.0001306 -0.0032726 -0.0025199 0.0007801 0.0042941 0.0002221 -0.0007825 -0.0021897 -0.0050527 -0.0003891 0.004092 -0.000755 0.0033082 -0.0011001 -0.0007416 0.0004851 0.0005877 0.0025517 0.0050051 0.0008512 0.0010288 0.0014174 0.0040381 0.0011632 -0.0052708 0.0014085 3e-06 0.0023069 -0.0034414 0.0039013 -0.0007157 0.0028888 0.0014196 0.0057521 0.0026969 -0.0001138 -0.003719 -0.0012405 -0.0030543 -0.0007451 0.0020567 -0.0040448 0.0051279 -0.0008727 -0.0017922 0.0006651 -0.0018888 0.0050758 -0.0005691 -0.0018738 0.0017392 -0.0020758 0.0024577 -4.36e-05 0.0024585 0.000172 0.0031419 0.0010967 -0.0003256 -0.0032067 -0.0006842 0.0025203 0.0029888 0.002494 0.0007272 -0.0004766 0.0050697 -0.0033317 -0.0003069 0.0024631 0.0022248 -0.0026995 -0.0032434 0.0029581 -0.0005719 -0.0024888 -0.0007061 -0.0019659 0.0030107 -0.0032672 0.0006665 -0.0013838 0.000682 -0.0006428 0.0009863 0.001346 -0.0044979 -0.0037823 -0.0027 0.002146 -0.0008957 0.0018526 0.0026496 -0.0012376 0.0032142 -0.0052898 -0.0034872 -0.0009989 6.68e-05 -0.0018603 -0.0015179 0.0011179 0.0007312 0.0012644 0.0011015 4.86e-05 -0.0009872 -0.0044413 0.001407 -6.96e-05 -0.0006088 -0.0003316 -0.0011867 0.000384 -8.61e-05 -0.0001787 -0.0025482 0.0034598 -0.003374 -0.0011115 0.0042492 -0.0017916 -0.0035874 -0.0019159 -0.0016778 0.0026765 -0.0018783 0.0026169 0.0022819 0.0039005 0.0004234 -0.005552 -0.0019364 0.0014381 0.0053274 0.0010988 0.0009747 -0.0004367 -0.000694 0.0010119 0.0034205 0.0021744 -0.003097 -0.0031734 -0.0026901 -0.0002176 -0.0036068 -0.001168 0.0026247 -0.0017663 0.0023778 0.0006025 0.0057517 -0.0012581 -0.0004547 0.0008664 0.0001596 0.003479 0.0059369 -8.4e-05 -6.68e-05 0.0013081 0.0033753 -0.0036914 -0.0021903 -0.0008232 -0.0006718 0.0039127 0.0045224 0.0019731 4.61e-05 0.0029271 0.0008134 0.0012049 0.0001626 -0.0004791 -0.0029674 0.000229 0.0050326 0.0015351 0.0043565 0.0025834 0.0026633 0.00095 -0.0013199 0.0013772 -0.0035719 -0.0034167 0.0015347 -0.0029606 -0.0015193 0.0049834 0.0029374 0.0022314 0.0012639 -0.0030088 -0.0039246 -0.0044603 0.0017065 -0.0019887 -0.0002559 -0.0010441 -0.0016497 0.0014771 -0.0004335 0.0009874 0.0043494 -0.0002889 -0.0021038 -2.16e-05 -0.0056892 -0.0001382 0.0039561 0.0019801 0.0006542 0.0018741 -0.0006524 -0.0032679 -0.0010258 -4.72e-05 -0.0012542 0.0041432 0.0006845 -0.0009195 -0.0019977 -0.0036731 -0.0008865 0.0010111 0.0027259 -0.0029154 -0.0025499 -0.0003397 -6.08e-05 -0.0018413 0.004644 -0.0008603 0.0061943 0.0011821 -0.0005203 -0.0007104 -0.0016516 0.0008596 0.005698 0.0006178 0.0032701 0.0035472 -0.0035821 -0.0031355 -0.002199 0.0001935 3.2e-06 -0.0020168 -0.0035635 -0.0006905 0.0014051 -0.0030014 0.0050236 -0.0012395 -0.0015694 0.0010021 0.0016335 0.0015208 0.0019791 -0.0009936 0.0039466 0.0008901 0.0002261 -0.0014082 -0.0026097 0.0039606 0.0013836 1.04e-05 0.0008854 -0.0038513 -0.0022653 0.0007262 -7.52e-05 -0.0016138 0.0011467 9.4e-06 0.0022376 -0.0032402 -0.0029908 0.0033754 0.0051931 0.0009919 -0.0010654 0.0010588 0.0008611 -0.0007597 0.0011944 0.0032355 0.0018967 0.0044614 0.0019663 0.0018535 0.0002935 0.0045736 -0.0024369 0.0018098 -0.0031054 0.0002889 -0.0008186 -0.0029192 -0.002743 -0.0010757 -0.001445 -0.0028469 0.0026082 -0.0013509 0.0030142 0.0007372 0.0001362 0.0030216 -0.0038319 0.0017678 0.0012274 -0.0028139 -0.0002701 0.003516 0.0004832 0.0022596 0.0017754 -0.0059832 0.0038103 -0.0030919 0.0005888 0.0026813 3.04e-05 0.0008357 -0.0009883 0.0011131 -1.84e-05 -0.0007522 -0.0032763 -0.0021013 0.0030076 0.0024866 0.0018334 -0.0015318 -0.0002998 0.0006014 0.0012415 -0.0037276 0.000491 -0.0012733 -0.0001891 -0.0011128 0.0014812 0.0004048 -0.0051619 0.0005794 0.0005336 0.0001821 -0.0017553 -0.0037535 0.0038125 0.0020252 0.0037554 0.0001827 -0.0026268 -0.0010069 -0.0056603 -0.0012525 0.0011137 0.004083 -0.0040773 -0.0017443 0.0007558 -0.0003977 0.0043414 0.0014674 -0.0014305 -0.0020285 -0.0066663 -0.0009593 0.0013275 -0.0030121 -2.2e-06 -0.003745 0.0018965 -0.0022964 -0.0048284 0.0008689 0.0017632 -0.0046578 -0.0040373 0.0036093 0.0027463 0.0033786 -0.0007806 -0.0011879 -0.0029882 0.0009946 0.0001856 -4.43e-05 -0.0032543 0.0042127 -0.0022584 0.0002132 -0.0004897 -0.0045352 0.0010532 -0.0038121 1.79e-05 -0.001007 0.0014596 0.0011849 -5.31e-05 -0.005264 -0.0017178 0.0035571 0.0034372 0.0013148 0.0003976 0.0004407 -0.0036331 -0.0002115 0.0031913 -0.0076878 0.0020126 0.0030581 0.0051529 -0.0045808 0.001499 -0.0001748 0.0002142 0.0021337 0.0009596 0.0049998 -0.0042537 0.0015327 -0.0028227 0.0063084 0.002527 0.0024721 -0.0023142 -0.0028691 -0.0013099 0.00187 0.0053895 0.0027363 -0.0006966 -0.0003129 0.0030245 -0.003918 -1.9e-06 -0.0016616 0.0016376 0.0018213 0.002985 0.0040448 0.0013202 0.005405 0.0025667 0.0019159 -0.0021724 -0.0034871 0.0016074 -0.0014222 -0.0004348 -0.0023539 0.0021188 0.0008041 0.0045797 -0.0004863 0.0022611 0.0041323 -0.0007713 0.0035289 -0.0019654 0.0042041 0.0003464 -0.0026923 0.0044134 0.0012981 0.0024471 0.0007255 0.0022879 0.0016027 0.0047297 0.0013745 -0.0044661 -0.0036331 -0.0021518 -0.0026186 -0.0031971 -0.0014285 0.0013275 0.0029808 -0.0064185 0.0027008 0.0028413 -0.0013266 0.0070434 0.0026988 -9.15e-05 0.000593 0.0008208 0.0031959 -0.0041791 -0.001558 -0.0014062 0.0012634 -0.0032941 -8.04e-05 0.000173 0.0040699 4.54e-05 -0.0065031 0.0006152 0.0013056 0.0015855 0.0018216 0.0026727 -0.0032087 -0.0017312 0.0019978 0.0023162 0.0001191 -0.0030692 -0.0002121 0.0001143 -0.0079412 0.0008435 0.0005175 -0.0002295 -0.0006037 -0.00289 -0.0024847 0.0004016 0.0053419 0.0019035 -0.0001129 0.0038493 0.0020597 -0.0020068 -0.0019273 0.0049321 0.0013319 0.0054449 -0.0051265 -0.0015707 0.0013532 -0.0031168 -0.0012445 0.0033617 0.0034495 -0.0032843 0.0026811 -0.0014531 -5.15e-05 -0.0006125 0.0013344 -0.0023481 -3.75e-05 0.000861 -0.0017889 -0.0031066 0.004547 -0.0012943 0.0010165 -0.0009622 0.0001845 -0.0021754 0.0019909 0.000777 -0.0018606 0.0060733 -0.000405 0.0003582 2.09e-05 0.0041639 -0.0024315 -0.0029199 0.003302 -0.0016824 -0.0001126 0.0008814 -0.0078581 -0.0020328 0.0002916 -0.0032457 0.0056844 -0.000972 -0.0020619 0.002393 5.66e-05 -0.0006462 2.29e-05 -0.0001655 0.0020098 0.002022 -0.000809 -0.002202 -0.0037777 -0.0030952 -0.0004527 0.00104 0.0016864 -0.0012128 0.0004871 0.0014377 -0.0008545 -0.0012598 -0.0010644 0.0013739 0.0032671 0.005989 0.0057057 0.0032296 -0.0010995 0.00025 0.0021591 0.0005051 0.0004095 0.0028063 -0.0005696 -0.0028988 0.0025406 -0.0035891 -0.0007978 0.0046963 -0.003241 -0.0041054 -0.0040782 -0.0001454 0.0023638 -8.89e-05 -0.0022947 0.0027446 0.0008836 0.0021742 0.0045563 -0.0025446 -0.0004317 -0.0033964 -0.0007597 -0.0007575 -0.0009697 0.0008846 -0.0039374 -0.0018289 -0.0029829 -0.0015952 -0.0007619 -0.0016988 -0.0006682 0.0028762 0.0069793 9.96e-05 0.0041052 0.0013059 0.0001082 6.49e-05 0.0016246 0.0060864 0.002833 0.002941 -0.0041087 0.0007393 0.0025888 -0.0020699 0.0021238 -0.0010292 0.0004557 -0.0023405 -0.0004197 0.0002152 -0.0019951 -0.0020001 0.0020631 0.0029116 -0.0004571 0.0001791 0.0025425 0.0009992 5.25e-05 -0.0002177 -0.0012415 0.0018528 -0.0041625 0.0009761 -0.0006681 0.0018122 -0.0051787 -0.000836 -0.0020987 0.0008495 -0.0033043 0.0021726 -0.001061 0.0013186 0.0036742 0.0036125 -0.0019742 -0.0014983 -0.000197 0.0018583 0.0050325 -0.0033114 0.0019855 0.0013791 -0.0005673 -0.0001762 0.0022689 0.0051245 0.0009748 -0.0015391 -0.0001494 0.0002723 0.0008622 -0.0008803 -0.0012871 -0.0038018 0.0025045 -0.0002216 0.0029632 0.0035004 0.0027446 -0.0023394 -0.003843 0.0004831 -0.0007652 -0.0021698 0.0048514 -0.0007486 0.0012686 -0.0023941 0.0077436 -0.0023466 -0.0021248 -0.0040843 0.0040524 -0.0006226 0.0017601 0.0020451 -0.0007159 0.0026911 0.0054094 0.0002199 -0.0029333 0.0024586 -6.88e-05 -0.0015664 0.0002188 0.0041795 0.0012267 -0.0017867 -0.0025535 -0.0025545 0.0005402 -0.0010058 0.0025987 -0.0004279 0.0016103 -0.0009307 -0.0005424 -0.0015057 -0.0001813 0.0007966 0.0019764 0.0008137 -0.0008043 0.0008828 0.0006675 -0.0024065 -0.000903 -0.0012042 -0.0012023 0.0021961 -0.0020962 -0.0003825 0.0002315 -0.0025096 -0.0017416 0.0002008 -0.0046502 0.0014188 0.0009978 -0.0033451 0.0022169 -0.0004751 -0.0026264 -0.0037396 0.0007148 0.0030093 0.0037266 -0.000674 4.92e-05 -0.0030196 0.0038746 -0.0030831 -0.0001724 0.0011509 0.0034146 -0.003163 0.0002304 -0.003668 0.0018024 -7.46e-05 0.0019709 -0.0040831 -0.0039237 -0.0039213 -0.0051985 0.005585 0.0038469 -0.002774 0.0034738 0.002209 0.0015069 -0.000237 -0.0056748 0.0043697 0.0042482 0.0002771 0.0013898 -0.0042212 0.0001801 0.0003874 -0.0005759 -0.0001387 -0.0022096 -0.0023774 -0.0039816 9.6e-05 0.00311 0.0019968 0.0006978 -0.0028201 0.0005814 -7.77e-05 -0.0010538 -0.0010941 0.0041755 -0.0018326 -0.0019389 -6.33e-05 -0.0022347 0.0015256 -0.0011162 0.0049059 0.0007798 -6.89e-05 0.0023665 -0.0009937 0.0001276 -0.0001978 0.0010003 -0.0023949 -0.0003631 0.0002287 0.0024063 -0.0011141 -0.0017273 -0.0025756 0.002748 -0.0011356 -0.00083 -0.0019598 0.0029437 0.0016578 -0.0023155 -0.0016463 0.0040125 -0.0036847 -0.0005982 -0.0003964 -0.0010817 -0.0014943 -0.0048737 0.0010452 0.0007438 -0.0003217 0.000474 0.0031483 0.0014516 -0.0021044 0.0038037 -0.0021661 0.0019516 0.0004129 -0.0032915 -0.0036719 0.0042539 0.0002635 -0.0007724 -0.0003414 -0.0029276 0.0009185 0.0054783 -0.0026489 0.0008571 -0.0001841 9.89e-05 1.52e-05 -0.0008384 0.0041677 0.0020516 -0.00353 0.0036849 0.003109 0.0012638 0.0036952 -0.0019389 -0.0021865 -0.0006127 0.0051045 0.0002258 -0.0033938 -0.0039689 0.0020886 0.0017412 -0.0005899 0.0036407 0.0038817 0.000547 0.00323 0.0005913 -0.0005983 0.0035687 -0.0019274 -0.0030273 -6.46e-05 -8e-07 0.0012996 0.002194 -0.0056465 0.0011272 3.81e-05 0.005022 0.0014622 -0.0023688 0.0025165 0.0026167 -0.0078937 0.0007182 0.0046852 -0.0017474 0.000382 0.007097 -0.0031448 0.0004852 -2.48e-05 -0.0016367 0.0018377 -0.0001191 0.0041768 0.0019056 0.0016569 -0.003541 0.0017268 0.0006846 -0.0012371 -0.0001339 0.0002144 -0.0009617 0.0017097 -0.000743 0.000896 -0.0010791 -0.0008854 -7.77e-05 -0.0028783 -0.0020407 -0.0043748 -0.0013976 0.0032177 0.0027228 -0.0004869 -0.0008579 0.0041262 0.0015376 0.0024444 -0.0041269 0.0012326 0.0020019 -0.0008812 -0.0021917 0.0026182 0.0015921 -0.0013977 -0.0013201 0.0027271 0.0013356 -0.0032493 0.0008282 0.0012647 -0.0014664 -0.000563 0.0015069 0.0047211 0.0085862 0.0023692 0.004353 0.0034109 0.0007384 0.0028658 -0.0009071 -0.0009741 -0.0040538 0.0003621 0.0043884 -0.0037053 -0.0026537 -0.0004556 -0.0021958 0.0048987 -0.0003612 0.0042575 0.0053358 -0.0015259 0.0011303 -0.0029378 0.0011102 -0.0005633 0.0015966 -0.0025246 0.0004017 0.0011739 0.0026697 0.0025962 0.0040864 0.0008591 -0.0014174 0.0024705 -4.85e-05 0.0013606 -0.0021753 0.0025297 0.0019208 -0.00303 -0.0018827 0.0003944 -0.0025433 0.0037972 0.0015907 -0.0038652 -0.0059007 0.0002784 -0.0004686 -0.0043252 -0.000329 0.0032105 -0.0002141 -0.002217 0.0014114 0.0001289 0.003795 1.45e-05 -0.001214 -0.00301 0.0025362 0.0006732 0.0035517 -0.0006868 -0.0001516 0.001886 0.0001557 0.001765 -0.000827 -0.0022067 -0.0004922 1.88e-05 -0.0005744 -0.0012433 -0.0023698 0.0015891 0.0022338 0.0004565 0.0010506 0.0011635 0.0027615 0.0023585 0.0022205 2.53e-05 0.0035343 -0.0002196 0.0040192 0.003505 -0.0023567 0.0022086 0.0006984 0.0029882 -0.0034991 0.0005587 0.0019505 0.0055031 -0.0032894 -0.0015424 0.0004354 -0.0028394 1.55e-05 -0.000436 -0.0018424 5.37e-05 0.0050246 -0.0036549 0.0018124 -0.0073453 0.0004888 -0.0012801 0.0005808 -0.0001641 0.0024529 0.0019292 -0.0024971 -0.0029421 -0.0005688 0.0015404 0.0019017 0.0041788 0.0042126 0.0018271 -0.003618 0.0062967 -0.0014005 -0.0003911 0.0001578 -0.0010815 -0.0003822 -0.0015743 0.0026529 0.0012118 -0.0009627 0.0026456 -0.0004782 -0.0021778 0.0032289 0.0046237 0.0008401 -0.0019639 0.0022137 -0.0013063 0.0026865 -0.0003696 0.0015225 -0.0008637 0.0015381 -0.0007989 0.0007286 0.0002762 0.0026986 0.0049361 0.00076 -0.0003617 0.0045423 -0.0045792 0.0006222 0.0010417 -0.0044667 -0.0002493 -0.0007383 -0.0044484 0.0004912 0.0022072 -0.0008553 0.001074 0.0016101 -0.0024892 -0.0036287 0.0014146 0.001912 0.0021734 0.0006777 0.0022513 0.0042145 0.005063 0.0007127 -0.0002067 -0.0018176 -0.0028599 0.0030565 0.0020388 0.0011932 -0.0023545 -0.0025851 0.0042626 -0.0018331 -0.0017652 -0.0044495 0.0001764 0.0034168 0.0014968 0.0024126 -0.0032677 0.0010554 0.0038273 0.0015875 0.0015234 -0.0017249 0.0002688 0.001714 -0.0004991 0.003226 0.0029345 0.0014019 0.0031277 -0.0016166 -0.0002299 0.0025853 0.0037848 0.0015658 0.0025633 -0.005411 -0.0008669 0.0036427 -0.0008584 0.0017702 -0.0042267 -0.0016894 -0.0029897 0.0001784 -3.6e-06 0.0042106 -0.0007274 -0.0002006 0.0002012 -0.0011455 0.0006387 -0.0036118 -0.0027829 -0.0003879 -0.0026039 0.0029615 0.0012842 0.0014959 0.0005981 0.0032303 -0.002716 -0.0008558 -0.000593 -0.0016447 0.0013344 -0.0012621 -0.0012296 -0.000554 -0.0002454 -0.0036843 0.0011782 -0.0010462 -0.0004464 -0.0014145 0.0023563 0.0009354 -0.0065852 1.38e-05 0.000347 -0.0017562 -0.0027138 -0.0007202 -0.0033467 -0.0041296 -0.0002583 -0.0007587 -0.0011975 0.0017929 -0.0026712 0.0002715 -0.0014025 0.0023725 0.002967 -0.0035657 -0.0061092 -0.0026121 -0.0039933 -0.005368 -0.0003368 0.0037629 -0.0059475 0.0027197 -0.0025306 -0.0027653 0.0027205 0.0025924 0.0030098 -0.0020756 -0.0023549 0.0013175 -0.0022399 -0.0034865 -0.0048607 0.000207 -0.000718 0.0011605 0.0008125 -0.0006783 0.0028134 -0.0001811 0.001897 0.0013914 0.0005045 0.0047357 -0.001436 -0.004485 -0.0006224 -0.0006619 0.0052557 -0.0040572 -0.001806 -0.0010505 0.0036193 0.0028904 0.0021508 -0.0017012 -0.0016149 -0.0022448 -0.0023041 -0.0010539 0.0072289 -0.0015056 -6.87e-05 -0.0017168 0.0044026 0.0031889 -0.0006989 -0.0009272 -0.0030574 -0.0007513 -0.0002743 -0.0030526 0.0018523 0.0017726 -0.0010286 -0.0022312 -0.0022492 -0.0030774 0.0017538 0.0019457 -0.0015942 0.0050462 0.0006878 -0.0024132 0.0013265 0.0009558 0.0046115 -0.0029234 3.59e-05 -0.002503 -0.0007952 -0.0047764 -0.0023628 9.53e-05 0.000755 -0.0021148 0.0032279 0.0013561 -0.0032233 -0.001571 -0.0018326 -0.0004042 0.0016149 -0.0005282 0.0011247 0.0031385 -0.0025302 -0.0026373 0.0042931 0.0017183 0.0039999 -0.0005039 -0.0034029 -0.0005884 0.0038817 0.001717 -0.0049396 -0.0017461 0.0019805 0.0043726 0.0011623 0.0034328 0.0040155 0.0009823 0.0010403 0.0005996 0.000997 0.001086 0.0013892 -0.0019301 -0.0009248 -0.0005889 0.0013993 -0.0012322 -0.0001449 -0.0003976 -2.67e-05 -3.6e-05 -0.0003675 0.0028132 -0.0017971 0.0006163 0.0005168 -0.0050107 -0.001216 -0.0009974 6.17e-05 -0.0045007 0.0022412 0.0029804 -0.0028533 -0.0049322 -0.0008536 0.0034662 0.000151 -0.0015376 -0.0005634 0.0016733 0.0014687 -0.0035486 -0.001887 -0.0001769 -9e-06 0.000631 0.005646 -0.0019157 0.0015166 -0.0035887 0.0016767 -0.0046018 0.0011805 0.0016536 -0.0025295 0.0018253 -0.0006568 0.0037366 -0.0009806 0.0019853 -0.0016906 -0.0013881 0.0016945 -0.0001053 0.0026567 -0.0002248 -0.0006522 -0.0025385 0.0010803 -0.0054906 -1.6e-05 -0.0013072 -0.005391 0.000357 -0.0006452 0.0015914 -0.0050765 -0.0021607 0.0024236 -0.0021708 -0.0014655 0.0006945 -0.0006422 0.0021729 -0.0006904 0.0026682 -0.0008243 -0.0022431 -0.0008431 -0.0003057 0.002213 -0.0033041 0.0021109 0.0021509 0.0066936 0.0045802 -0.0014874 0.0002998 -0.0029414 -0.0038805 0.0005247 2.74e-05 0.0021797 -0.0006969 -0.0008466 0.0015231 -0.0050289 -0.0020709 0.0010963 0.0008077 -0.00617 0.0001411 0.0024515 0.0014321 0.0016565 0.0004182 0.0007689 0.0004383 0.0015851 0.0003101 0.0030076 -0.0021223 0.0004037 -0.0032597 -0.0037895 0.000748 0.0014411 -0.0040928 0.001217 0.0009157 -0.0016204 0.0018009 -0.0003727 0.0004635 0.0003394 0.0004092 1.07e-05 -0.0048762 -0.0018152 -6.42e-05 0.0013742 0.0017462 -0.0008455 -0.0039978 0.0002383 0.0016954 0.0017334 -0.0009394 0.0026886 -0.0017568 0.001694 0.001466 0.0053006 0.0004033 0.001864 0.0003836 -0.0020904 -0.0015627 -0.0004307 -0.001386 0.0069802 -0.0031292 -0.0005933 -0.0005107 0.0021216 -0.0006626 -0.0013595 0.0004739 -0.000881 0.000568 0.0011489 0.0039085 -0.0017291 -0.0050724 0.0002642 -0.0061729 0.0046388 0.002336 -0.0023986 0.0002703 0.000996 -0.0009263 0.0006651 -0.0007906 -0.0003893 -0.000454 -0.0016858 -0.002715 0.0021249 -0.0001908 0.0003791 0.0007342 -0.0003804 0.0018046 0.0005671 -0.0044212 0.0010275 -0.0002111 0.0016741 0.0021805 0.0027201 0.0029086 0.0054341 -0.0049307 0.0027613 -0.0025248 0.0016873 0.0015132 -0.001052 0.0007151 0.0036049 -0.0013397 0.0016448 0.0001075 0.0038314 -0.0007893 -0.0008254 -0.0011065 0.0002145 0.0007735 -0.0031005 -0.0051616 -0.0039076 -0.0011443 -0.0010563 -0.0025124 -0.000643 -2.38e-05 0.0010961 0.0014223 -0.0023464 0.0028839 -0.0005607 0.003791 -3.4e-06 -0.0013454 -0.0030675 -0.0051537 0.0002985 -0.0035088 0.0023129 -0.0012583 -0.0005283 0.0018755 0.0038037 0.0019485 0.0049838 -0.0023993 -0.001636 -0.0012782 0.0020001 -0.0033559 0.0027439 0.0036807 0.0011984 -0.0024262 -0.0028627 0.0017335 -0.0016411 0.0011753 0.0002574 -0.0046358 -0.0012204 -0.0014147 0.003155 -0.0012298 -0.0009169 0.0029013 -0.0006686 0.002594 -0.0019481 -0.0035212 0.0020038 -0.0009154 0.002494 0.0020998 -0.003788 0.0031913 -0.0041331 -0.0017094 -0.0036047 -0.0027829 0.000448 0.001525 0.0014479 -0.0009921 0.000386 0.0006056 -0.0024055 0.0024532 0.0023126 -0.0033705 -0.0040732 -0.0003393 -0.0007453 -0.0006119 -0.0009803 0.00223 -0.0009776 -0.0008075 0.0004579 0.0014347 -0.0030236 0.0024961 0.0008772 -0.0003011 0.0004857 -0.0023755 0.0006489 0.0014229 -0.0003086 0.0033247 0.0020023 -0.0005554 -0.0013113 0.0014555 0.0015195 -0.0032125 -0.0032625 0.0003313 -0.0007335 0.000319 0.0008758 0.0028402 0.0026512 0.0032605 0.0005026 -0.0034712 9.23e-05 0.0023409 -0.0011901 0.0002233 0.0026798 0.0008536 -0.005355 -0.002472 -0.0032401 -0.0018685 -7.89e-05 0.0012325 0.0045777 -0.0008306 -0.0018317 -0.0003606 0.0011889 -0.0013269 -0.002077 -0.0009867 -0.001445 0.0016931 -0.0013865 -0.0006545 0.0034095 0.0022243 -0.0018789 -0.0033903 -0.0046877 0.0059714 0.0017853 -0.0006377 -0.0058768 -0.0006837 -0.0042886 0.0007325 -0.0027278 0.0004822 0.0006327 0.0020928 -0.0010773 -0.0073923 -0.001351 0.001582 -0.0004894 -0.0009335 -0.0005937 -0.0005063 0.00271 -0.0025194 0.004943 -0.000296 -0.0023116 -0.002994 -0.0009326 0.00113 -0.0007254 -0.0017586 0.0034164 0.001751 0.0007211 0.001486 0.0034743 -0.0010552 0.0007996 0.0032975 -0.003824 0.0044986 -0.0018227 0.000887 -0.000762 -0.0014814 -0.0003967 0.0025787 -0.0011112 0.0016029 -0.0052087 0.0019133 0.0036979 -0.0019251 0.0010343 0.0011841 -0.0014006 0.0015288 0.0017044 -0.0020293 0.003041 -0.0050278 0.0031725 -2.2e-06 -0.0013849 -0.0007331 0.0009338 0.0018621 0.0042568 -0.0009889 -0.000443 -0.0001756 0.0012175 0.0002418 -0.0047718 -0.0002485 0.0015439 0.0008905 0.0072425 0.0010708 -0.0055489 0.0006151 0.0047837 -0.0009886 0.0027107 0.0021356 -0.001944 -0.0003126 0.0011167 -0.0002273 0.0013868 0.0011939 0.00244 -0.000169 -0.0016773 -0.0010279 0.0004663 0.0056703 -0.0006598 0.0057613 -0.0023169 -0.0012721 9.91e-05 0.0025435 0.0009962 -0.0048082 0.0010634 0.0015281 -0.000324 -0.0019055 -0.0023917 0.0003625 0.0021211 -0.0022198 0.0002269 -0.0013999 0.0016214 0.0003771 0.006597 0.0026883 -0.0006316 0.0028622 0.0003026 -0.0033292 0.0002116 -0.0014961 0.0010538 0.0023063 -0.0035531 -0.0007657 0.0006688 0.0010021 -0.0054827 -0.0004892 0.0015478 -0.0006265 0.0027267 -0.0012441 -0.0002217 0.003727 0.0002435 0.0036601 0.0068862 0.0028281 -0.0045325 0.0028831 -0.0009672 -0.0017588 0.003104 0.0006558 0.0024809 -0.0007804 -0.0044203 0.0023838 -0.001821 0.002112 0.0039829 -0.0008315 -0.0004457 0.0006685 -0.0021516 0.0021971 -0.0002557 -0.0039985 -0.0006126 -0.000351 -0.0044014 0.0004182 -0.0023023 0.0049448 0.0012263 0.0026073 0.0007348 0.0013004 -0.0003994 0.0061016 0.0035903 0.0011783 -0.0046286 -0.0012479 0.000164 0.0026086 -0.0004626 0.0009065 0.0043855 -0.0039539 -0.0012187 0.0010442 -0.0018885 0.0018776 -0.0023948 -0.0006424 -0.0009385 -0.001128 0.0026469 -0.0006812 0.0016315 -0.0003495 -6e-07 -0.0041755 0.0003649 0.0026121 -0.0010463 0.0010585 0.0002042 0.003108 -0.0013066 0.0004253 0.0008657 -0.0033317 0.0007879 0.0023421 0.0010062 -0.0046948 -0.0015924 0.0013495 -0.0045782 0.0059776 0.0005781 -0.0021932 -0.0014429 0.0006313 -0.0026686 0.0041856 0.0009898 -0.0020189 -0.0019347 0.0022669 0.0005784 -0.0013996 -0.0004799 -0.000588 0.002171 -0.0047661 -0.0027995 -0.0026035 -0.0055321 -0.0009232 0.0063702 0.0009337 -0.0031716 -0.0026152 -0.0010847 0.0001927 0.0025046 0.0034197 0.0029257 -0.0001001 -0.003409 -0.0016413 -0.0035396 0.0022179 0.0027181 -0.0013181 0.0005835 0.0044623 0.0004986 -0.002857 0.0049067 0.0022575 -0.0011744 -0.0003382 -0.0005571 -0.0037363 0.0051348 -0.002476 0.0029272 0.0001702 0.0022583 -0.0016748 -0.0014633 0.0026151 0.0001767 -0.0004311 0.00176 0.0020852 0.0012978 -0.0002887 0.0025167 -0.0028506 -0.004532 -0.0008364 0.0008237 0.0004105 -0.0002512 -0.0001614 0.0041872 0.0012215 -0.0018309 -0.0006475 0.0026211 -0.0010395 -0.0007291 -0.004462 0.0017501 -0.0003237 -0.003129 -0.0017114 -0.0020325 -0.0002561 -0.000238 -0.0012056 -0.0013486 -0.0019987 0.000148 -0.0040132 0.0029551 -0.0020598 0.0016609 -0.0021322 -0.0003601 -0.000403 -0.0014519 -0.0007199 0.0018171 -0.0018792 -0.0002992 0.0006743 -4.49e-05 -0.0021991 -0.0018475 0.0009148 0.0056269 -0.0048679 -0.0019815 -0.0004189 -0.0022043 0.0021835 -0.0005476 0.0029734 0.0006398 -0.002437 0.0001031 0.0031591 0.0015922 -0.0040126 0.0020407 -0.0013642 -0.0017171 0.001279 0.001038 -0.0004478 -0.0072088 0.0021315 0.0004044 0.0024935 -0.0038948 0.0005106 -0.002584 -0.000118 -0.0039898 0.001806 -0.0032536 -0.0034829 -0.0006165 -0.0029593 0.0039535 -0.0029515 -0.0024625 0.0010075 0.00037 0.0009795 -0.0011667 -0.0007453 -0.0015922 -0.0026803 -0.0004351 0.0005513 -0.0029334 0.003064 0.0013805 0.0006825 0.0060123 0.0040758 0.0030503 0.0006933 -0.0025719 -0.0022134 -3.95e-05 -0.0002764 -0.002127 -0.0003541 0.0043242 -0.0005647 0.0012648 0.0033571 0.0013539 -0.0005261 -0.0017231 -0.0007175 -0.0041935 -0.0013258 0.0019661 9.51e-05 0.0013675 0.0007878 0.0006263 0.0048211 9.26e-05 0.0019109 0.0005537 -0.002692 0.0032834 0.0006317 0.0009509 0.0039035 0.0011529 -0.0006529 -0.0009588 0.0013286 -0.0012973 0.0023299 -0.0022409 0.0009388 0.0017993 0.0007236 0.0019131 0.0004696 6.89e-05 -0.0003801 -0.0007051 -0.0001272 0.0017659 0.0035253 0.0036258 0.0020959 -0.0015929 -0.0015177 0.004278 -0.0012016 0.0020533 0.0005607 9.2e-05 0.0011174 0.0010215 -0.006621 0.0035472 -0.0006861 -0.0031353 0.004294 -0.0057146 0.0003628 -0.0016069 -0.0007615 0.0002672 -0.0063216 9.7e-05 -0.0040284 -0.0008987 0.0017858 -0.0044242 0.0024223 -0.0009988 0.0009907 0.0047488 0.0002765 0.0008933 -0.0043858 0.000758 0.0014015 0.0018822 -0.0009296 0.0014344 0.0008636 -0.0007867 -0.0003433 -0.0011805 -0.0057922 -0.0029926 -0.0039268 -0.0043568 -0.0031715 0.0001625 0.0030638 0.0072658 0.0055724 -0.002702 0.0005503 -0.0007439 0.0032466 0.0024783 -0.000141 -0.0003393 0.0002034 -0.0026472 0.0005114 -0.001708 -0.0013627 0.0027855 -0.0027509 0.0020035 -0.0007427 -0.0021919 0.0030056 -0.0025801 -0.0039588 0.0020435 0.000136 0.0047244 -0.0027304 -0.0037097 -0.0014455 -0.0019471 0.0010837 0.001761 0.0005404 -0.0019177 0.0004531 0.003456 -3.92e-05 -0.0026029 0.0011096 0.0011318 -0.0009886 -0.0018097 -0.004839 0.0034969 0.0078238 -0.0024392 -0.0024959 -0.0029008 3.4e-05 0.0009133 -0.0012843 0.0026094 -0.005025 0.0025501 0.0037677 0.0004526 -0.0015802 0.0003254 0.0012177 -0.0003774 -0.003346 0.0013792 -0.0026971 0.0002984 -0.0043228 0.0007617 0.0014866 -0.0043556 0.00056 5.15e-05 -0.0017984 -0.0034305 0.0003246 0.0001199 0.0023278 0.0026506 0.001319 0.0009315 0.0046733 -0.0017398 -0.0003675 -0.0051183 -0.0051137 0.0006747 -0.0019321 0.0031932 0.000117 0.0022937 -0.0007834 -0.0028085 -0.0029593 -0.0011711 -0.001214 -0.0019449 -0.0045757 0.0033587 0.000478 -0.0018855 0.0010751 -0.0026586 -0.0036786 0.000415 -0.0027482 0.0009075 -0.0049891 0.0041205 -0.0048131 0.0054946 -0.004411 -1.54e-05 0.0059083 0.0019517 0.0012954 -0.0057859 0.0033005 -0.0025988 -0.0024398 -0.0016888 3.3e-05 -0.0022683 0.0017187 -0.0031413 -0.0040725 -0.000691 -0.0018164 -0.000392 0.0008782 -0.0001652 -0.0056469 -0.0001062 0.005565 -0.0012176 0.0025468 0.0035618 6.5e-05 -0.0010636 0.0022045 -0.003456 0.0013085 -0.0021965 0.0032461 0.001244 0.0021837 -0.0004129 -0.0040096 0.0010817 -0.000973 -0.0009185 -0.0024245 -0.0052414 -0.0054325 -0.0013871 -0.0008336 -0.0015956 -0.0010414 -0.0075624 -0.0024984 0.0009472 -0.0041377 0.0016948 -0.0003855 -0.0019018 0.0004691 -0.0008253 0.0013913 0.0028235 -0.0044544 0.001409 0.0029947 -0.000962 0.0011826 0.0010735 0.0026957 0.0002782 0.0006462 -0.0012899 -0.0006473 0.0005319 -0.0001004 -0.0009375 -0.0035719 -0.0014264 0.0024119 0.0014057 -0.0009852 -0.0046958 0.0040423 -0.0047759 -0.0011179 -0.0010695 0.0007091 -0.0008541 0.0054534 0.0008433 0.0012083 -0.0020333 -0.0033362 -0.000441 0.0044804 0.0002031 0.0049342 -0.0034853 -0.0032848 -0.0029022 -0.001529 0.0005045 0.0001992 0.0008272 0.004826 0.0023773 -0.0022727 -0.0012336 0.0009763 -0.0010503 -0.0006084 -0.0048746 -0.0007236 0.0007757 -0.0008526 0.0007123 0.0017704 0.0004151 -0.0033001 -0.0034978 0.0013665 4.55e-05 -0.0008137 0.0024725 0.0012914 0.0017915 0.0025002 -0.0023025 -0.0023563 0.0023577 0.0008642 0.0030903 0.0044233 0.003178 -0.002124 -1.87e-05 -0.0024907 0.0010424 -0.0013839 -0.0006963 0.001894 -0.0008815 0.0016285 -0.0048968 -0.0011916 -0.0030307 -0.0040236 -0.0015692 -0.0024486 0.0026855 -0.0003754 -0.0006215 -0.0015991 0.0025809 -0.0024826 -0.0027453 -0.0054908 0.0011581 -0.0011608 0.0018296 -0.0001625 0.0017316 -0.0001915 0.0015896 0.0017784 0.0005197 0.0004865 0.0006919 -0.0005492 -0.00298 -0.0012015 0.0042035 -0.0009411 0.0037228 0.004066 -0.0021802 -0.0025662 0.0045096 -0.0023997 -0.0041902 0.006628 0.0009112 -0.0015216 0.0031829 -0.0057621 -0.0038065 0.0024355 -0.0010795 -0.0010697 0.0016081 -0.0028108 0.0016694 -0.0028805 -0.0003437 -0.001539 -0.0008706 0.0015388 -0.0024038 -0.0031919 -0.0004814 0.0036517 -0.0026415 0.0011391 0.002658 0.0002913 -0.0006177 0.0006279 0.0020808 -0.0009873 0.0004473 0.0032584 -0.0028085 -0.0003996 -0.0010528 -0.0018249 0.0019712 -0.0003086 0.0006179 0.0009863 0.0011869 0.0002043 2.66e-05 0.0029761 -0.0025343 -0.0010878 -0.0011633 -0.0038193 -0.0033347 -0.0009848 0.001113 -0.0005406 -0.0010487 0.0049467 -0.0020378 0.0046667 0.000256 0.0042728 0.0035283 -0.0019315 -0.0025583 -0.0051417 0.001639 0.0004739 -0.000175 0.0066173 0.0038053 0.0014462 -0.0005089 -0.0027728 0.0048029 0.0008327 -0.0029883 0.0065066 -0.0012479 0.0025136 0.0016913 0.0040049 -0.0031707 0.0028541 -0.0013214 -0.001618 0.0029797 -0.0038801 0.0041099 0.0007566 -0.0024613 0.0025726 -0.0024466 1.98e-05 -0.0023715 0.0033105 -0.0049727 -0.0007199 0.0036344 0.0006209 -0.002639 -0.0007787 0.0060263 -0.0021754 0.0017674 -0.0064484 0.0023919 0.0020848 -0.0010999 -0.0017942 4.9e-05 0.0015022 -0.0002736 -0.0014342 -0.0017153 -0.0029026 -0.000968 -0.0013471 -0.0037942 7.09e-05 -0.0014392 0.0015883 0.0001692 0.0012049 -0.0009681 0.000672 0.0015674 0.0004304 -0.0011314 -0.0028579 -0.0005214 -0.0006468 -0.0009953 0.0009021 -0.0015632 0.0023184 0.0028731 0.0044271 -0.0002863 0.0024381 -0.0056278 -0.0008415 -0.0020115 0.0003217 0.0023545 7.49e-05 0.0026852 0.0008603 -0.0013441 0.0014245 0.0038649 -0.0034416 -0.0026984 -0.0036312 0.0029237 -0.0007087 0.0010557 0.0044553 0.0008848 0.0011206 -0.0035907 -0.0020075 0.0009975 -0.0010159 -0.0019181 -0.0024376 0.0018908 -0.0035399 -0.0035675 -0.0015957 -0.0009884 0.003297 0.0023725 -0.0047275 0.0014906 0.0011994 0.0030596 0.0013154 -0.0022496 0.0004152 3.94e-05 0.0002513 -0.0017379 0.0005937 -0.0014441 -0.0034477 0.0001307 0.0027175 -0.0019318 -0.0034714 0.0048463 -0.0030378 -0.0018035 -0.0024854 -0.0003786 -0.0015569 -0.0018735 -0.0026788 0.0006343 -0.0014283 -0.0008008 0.0010396 -0.0025234 -0.0008978 -0.0011963 0.0016337 0.0020833 -0.0018719 -0.0060501 0.0037696 0.0009292 -0.0031698 0.0009599 0.0002153 -0.0014049 0.0024365 -0.0040601 -0.0073325 -1.31e-05 0.0037952 -0.006079 0.0026403 0.0028504 0.0006818 -0.0007764 0.0035733 0.0004843 0.0005577 -0.0004953 -0.0058056 0.0020139 -0.0002538 -0.0046222 0.0010497 -0.0016978 0.0016227 0.0016961 -0.0001895 0.0008843 0.0068216 2.5e-06 -0.0006529 -0.0012662 0.006118 9.43e-05 0.0010824 0.0052778 -0.0028468 -0.0010329 -0.0004841 -0.0016667 -0.0044945 -0.0021304 -0.0050242 0.0013139 -0.0054542 0.0020203 0.0029906 0.0002485 -0.0031117 -0.0001348 -0.0006961 -0.0004636 0.000632 0.0006297 -0.000717 -0.0006483 0.0026334 0.0003733 -0.0034895 -0.0025551 0.0023461 -0.0002954 -0.0072312 -0.0015967 0.0022802 0.0010908 -0.0016948 0.0009093 0.0012845 -0.0033973 -0.003367 -0.0038512 0.0011261 -0.0003779 0.0014701 0.0031775 -0.0054481 0.0017313 0.0040659 0.0025443 0.0035552 0.0005853 -0.0011964 0.0034251 0.0008026 -0.0009974 -0.0022357 -0.0007319 0.0010129 0.0011138 0.00106 -1.85e-05 0.0004264 0.0025281 -0.0004955 -0.002559 0.0005599 -0.0035659 7.7e-06 0.001099 0.0061647 0.0019289 -0.0016583 -0.0001883 -0.0009479 0.0027008 0.0040552 0.0015406 -0.0019705 0.001101 -0.0004449 -0.002308 0.0006631 -0.0043195 0.0008365 0.0001812 0.0045949 0.0012102 0.0047365 0.0009484 0.0012233 -0.001969 0.0002228 -0.0043731 0.0024652 0.0009168 -0.0038693 -0.0012697 0.002782 0.0044293 -0.0016532 0.0025211 -0.0007934 -0.0001219 -0.000429 -0.0020224 -0.0002829 4e-07 -0.0007269 -0.0029142 -0.0018337 -0.0006654 0.0001385 0.0029522 0.0035231 -0.00297 -0.0015967 0.0038841 -0.0014567 0.0014836 -0.0028788 0.0014521 -0.0037593 0.0015697 0.0058065 -0.000512 0.0024815 0.0022318 -0.0005744 -0.0006811 0.0019014 0.0015647 0.0024419 0.0039112 -0.0016519 -0.00175 -0.0023209 0.0009334 -0.0006752 -0.0004813 -0.0016666 0.0007077 -0.0041574 0.0021859 0.0007026 0.0027631 -0.0020339 0.0009377 -0.0006569 -0.0007904 -0.0034428 -0.0034945 -0.0024834 0.004095 0.0026674 0.0056285 -0.0028261 0.0007133 0.0003281 -0.0010177 0.002983 -0.0046318 -0.0002021 0.0021697 -0.0019065 0.0013271 0.0021591 -0.002205 0.000746 -0.0010044 0.0021932 0.0050097 0.0079304 0.001944 -1.1e-05 -0.0031902 0.0018492 -0.003903 0.0034995 -0.0039434 1.57e-05 -0.0040423 0.0025402 0.0025329 -0.0028439 -0.0003103 -0.0012017 -0.0023549 -0.000183 -0.0002904 0.003334 -0.000523 -0.0014229 0.0003325 -0.0008343 0.0021418 -0.0048524 0.0023532 -0.0025219 -0.0009806 0.00518 0.0006822 0.0035477 -0.000697 -0.0033574 -0.0043512 0.0048633 0.0022204 -0.0002226 -0.0012975 0.0053963 -0.0019489 -0.0008549 0.0008914 -0.007295 -0.0041535 -0.0006593 0.0019607 -0.0042288 0.0023324 0.0011565 -0.0038325 -0.0022189 -0.0004073 -2.93e-05 -0.004126 0.0016432 0.0029189 0.0006841 0.0018576 -5.16e-05 0.0027841 -0.0004715 -0.0040572 -0.0019897 -0.0006514 -0.0010238 -0.0018903 -0.0039631 0.000212 0.0003931 0.0020336 -0.0009192 -0.0003077 -0.0043494 0.0044248 0.0062979 0.0039929 0.0013706 -0.0010464 -0.0045693 -0.0013015 0.002573 -0.0002801 0.0001268 -0.0025975 0.0056991 -0.0036165 -1.5e-06 0.0045918 -0.0001488 0.0044795 -0.0016452 -0.0030898 0.0016948 0.0031566 0.0005338 -0.0001674 -0.0004531 0.0002752 -0.0029365 0.0015111 0.0016422 0.0035728 0.0029842 -0.0026143 0.0035002 0.0012854 0.0006886 0.0023113 0.0015092 0.004762 0.0006065 -0.0003623 0.0019521 -0.0003224 0.0002375 0.0044111 -0.0010172 -0.0063874 0.0020298 0.0046803 0.0014088 -0.0047536 0.0041476 0.0005494 6.73e-05 -0.0043499 0.0022419 -0.0023651 -0.0019208 0.0005448 -0.0015418 0.0010032 0.0010969 0.0045103 -3.36e-05 -0.002449 -0.0021272 -0.0040086 -0.0039105 -0.0031405 0.0043578 -0.0007836 0.0021943 -0.0004088 -0.0036812 0.003046 -0.0068818 0.0024166 0.0031005 -0.0012345 -0.0029192 -0.0025883 -0.0027682 -0.0068293 -0.0025348 0.0032689 -0.0004906 0.0023656 -0.0010486 0.002278 -0.0013944 0.0016685 0.002856 0.0004611 0.000428 0.0021632 0.0001304 0.0016893 -0.0008273 -0.0015238 0.0020869 -0.0012344 -0.0009718 0.0020527 -0.0011464 0.0006073 0.0004082 0.0010038 0.0019548 -0.0016555 -0.0014064 -0.0018175 -0.0030157 -0.0046945 0.0009656 0.0058067 0.0029298 -0.0051666 -0.0044423 0.0008576 -0.0008637 0.0044086 0.0007721 0.0039448 0.0027962 0.0045272 0.0040848 -0.0006561 0.0007124 0.001364 -0.0002373 -0.0030357 -0.0021981 -0.0038113 0.0012386 0.0016259 -0.0006607 0.0028727 -0.0007292 0.0005742 -0.0037679 0.0023667 0.004988 0.0031703 -0.0055164 0.0010839 0.0049225 0.0012712 -0.0020836 -0.0017969 -0.0020535 -0.0014166 0.0013849 0.0044275 0.0009969 0.0035644 -0.0004102 -0.0044741 0.0007277 -0.0034058 -0.00141 -0.0001682 0.0031753 1.77e-05 -0.0032046 -0.0011673 -0.0018752 -0.0037481 -0.00019 -0.0010003 0.0022942 -0.0005117 -0.0017083 0.0043315 -0.0054967 0.0010291 -0.0016592 0.0009535 0.0016198 0.002802 0.0034763 -0.0019863 -0.0006218 0.0045043 -0.0015981 -0.0024439 0.0008547 0.002037 0.0034114 0.0017898 -0.0034843 -0.0022054 0.0038767 -0.0060254 0.0004881 0.0017086 -0.0002244 -0.0003413 -3.51e-05 -0.0004013 0.0014891 6.86e-05 0.0003999 -0.0016738 0.000566 0.0014176 0.002752 -0.0004077 -0.0022137 -0.0013088 0.0016857 -0.0056168 -0.0006329 -0.0042928 -0.0026099 -0.002844 0.0003169 -0.0017746 -0.0003742 0.0004935 0.0035691 0.0017662 0.0028535 -0.0010524 0.0003453 -0.0014367 -0.0011781 -0.0004163 -0.0043523 0.0008681 0.0023257 -0.0008129 -0.0034019 -0.0007809 -0.0007424 0.0026199 0.0023724 0.0015523 -0.0040446 0.0001607 -0.0029163 -0.0004345 0.0041237 -0.0020686 -0.0038685 -0.0010865 -0.0028498 0.0033984 0.0006276 0.000624 -0.0034878 -0.0030523 -0.0004038 -0.0010612 0.0013217 -0.0029123 0.0016947 -0.0022472 0.0029232 -0.0012748 0.0018359 0.000371 0.0019265 -0.0011463 -0.0007727 -0.0002681 0.0017979 0.0014092 -6.4e-05 0.0034706 0.001104 -0.000193 -0.0035361 -0.0035245 -0.0028503 -0.0016059 0.0033783 -0.0010549 0.0023793 0.0020647 -0.0015443 -8.4e-05 2.9e-05 0.0021893 0.0079714 0.0038565 -0.0004084 -0.0044366 0.0033963 -0.0050748 0.0029423 0.0023271 -0.0022908 -0.0024756 0.0023699 0.0003884 0.000431 -0.000693 0.0006314 -0.0040485 -0.0061357 0.0027699 0.0007589 0.0012006 0.0019555 0.0049112 -0.0003695 -9.65e-05 -0.0036517 0.0006956 -0.005115 0.000952 -0.0006699 -0.002486 0.0011269 0.0003989 -0.0028843 0.0024176 -0.0025046 0.002312 -0.000632 0.0030368 -0.0047924 0.0015733 -0.0025027 0.0013662 -4.43e-05 -2.74e-05 0.0019672 0.0004729 -0.0005935 -0.0003933 0.0008212 -0.0002987 0.0005603 -0.0003837 0.004924 0.0054518 0.0006521 0.0027512 -0.000463 0.0009912 -0.0034104 -0.0029341 0.000591 -0.0018735 0.0006433 0.0037606 0.0028796 0.0011404 0.0024975 -0.0016689 -0.0038123 0.0029534 0.0014973 -0.0049954 -0.0025999 0.0006763 -0.0003655 0.0007888 0.0013072 9.1e-06 0.0008018 0.0008023 -7.02e-05 0.002168 -0.0010349 -0.0005167 -0.0025704 -0.0012666 -0.0004822 -0.0010191 0.0023548 0.0015668 0.00432 -0.0011366 -0.0013371 0.0018863 -0.0018476 0.0009937 -0.0005833 -0.0015423 0.002709 0.0008262 -0.0024285 0.00198 0.0018906 -0.0060551 0.001703 0.0032167 0.0001944 -0.0025747 -9.7e-06 0.0004676 0.0078277 -0.0016675 -0.0027943 0.00118 0.0014455 0.0002739 -0.0010913 0.0038208 0.0011843 0.0005736 -0.0013822 0.0052484 -0.0004111 -0.0010581 0.0002811 -0.0027906 0.0068465 -0.0019771 0.0027785 -0.0036717 0.0019072 0.0031082 -0.0013287 -0.0001224 0.0007109 -0.0052804 -0.0010175 0.0031598 0.0006398 0.0040412 0.0010531 -0.0048281 -0.0029163 0.0014151 0.0004005 0.0023634 0.0021191 0.0009335 0.001138 0.0035773 0.0017648 -0.002436 -0.000923 0.0007842 -0.00167 0.0029184 0.0066955 -0.0008568 0.0019328 -0.0039435 0.0002939 -0.0001385 0.0017212 0.0016817 -0.0024412 0.0033571 0.003956 0.0009346 -0.0028371 0.0028685 0.0027601 -0.0055089 0.0043429 0.0025372 -0.0009879 0.0019882 0.0002758 0.0018306 0.0004781 0.0022606 0.0004448 0.0021214 -0.0005093 -0.002125 0.0023813 -0.0021292 -0.001254 0.0061431 0.0019801 0.0041683 0.0027036 -0.0061227 -0.0017873 -0.0022833 0.0018933 0.0008689 0.0022499 7.78e-05 0.0014869 0.0019527 0.0025501 -0.0003808 8.66e-05 -0.0003162 7.01e-05 0.0004006 0.0005015 -0.0020202 -0.0003201 0.0006902 -0.0014312 0.0025156 -0.003328 0.0027657 0.0015811 -0.0016648 0.0007983 -0.0036963 0.0049021 0.0035391 0.0059346 -0.0037914 0.0019532 -0.0049046 0.0043631 -0.0010478 0.0006541 0.0003454 -0.0005314 0.0001455 -0.0023479 -0.0007141 -0.0054356 -0.0010912 -0.0022573 0.0010547 -0.0011826 0.0032025 0.0048489 6e-06 0.0057423 -0.0018313 0.0021214 -0.0020249 0.0011336 -0.0022915 -0.0038363 -0.0002197 0.0012638 0.0049828 -0.001631 0.0050105 -0.0022062 4.45e-05 0.003732 0.0009379 -0.0012859 -0.0036196 0.001287 -0.0006075 -0.0018176 0.0035485 -0.0027893 -0.0004346 0.004195 0.0039262 0.0003429 0.0016832 -0.00083 -0.0001015 -0.001278 0.0011139 0.0017047 -0.0009103 -0.0024641 -0.0033641 0.0008508 -0.0010124 0.0002344 0.0015562 0.0006843 -0.0002405 -0.002428 0.0057846 0.004698 -0.0007348 0.0008513 -0.0017856 -0.0023706 0.0003743 -0.0024203 -0.001555 -0.0004795 0.0028624 -0.0030658 0.000949 -0.0034429 0.0056969 0.0031681 0.00409 0.0003302 -0.0008745 -0.0005126 -0.0030691 -0.0002549 -0.0013835 0.0023247 -4.11e-05 0.0053999 0.0008545 -9.01e-05 -0.0034134 -0.0007434 0.0009431 0.0029133 0.0016215 -0.0042321 0.0023641 0.0005422 0.0012418 0.0020205 -0.0014436 -0.0015025 0.0025169 0.0005415 0.0014378 3.76e-05 -0.0060415 -0.0028005 0.0006011 0.0034124 -0.0016133 0.0001342 -0.000934 0.0015482 0.0004849 0.0009309 -0.002052 -0.000366 -0.0028572 -0.0060437 0.0066022 0.0001416 0.0017979 -0.0059664 -0.0028069 -0.0008331 0.0010493 0.0034568 0.0003367 6.24e-05 0.003435 -0.0032952 0.0008032 0.0023455 0.0017342 0.0016465 -0.0023196 0.0005288 -0.002776 0.0021137 -0.0005253 0.004564 0.0028429 -0.0006761 0.0006234 -0.0001247 0.0060716 -0.0020074 0.0017176 0.0007977 -0.0051027 -0.0001291 0.0011833 -0.0001691 0.0001981 0.0027245 0.0021048 0.0017079 0.0028707 0.0023077 0.0006587 -0.0048151 -0.0036243 0.0008797 0.0019297 -0.0005852 -0.002671 -0.0037043 -0.000157 -0.0023022 -0.0008451 0.0022537 -0.0007621 -0.0042442 0.0034419 -0.0019926 -0.0012802 0.0012424 -0.0013095 0.0034846 0.0033253 0.0042702 -0.0021051 0.0019732 0.0054352 -0.0013637 -0.001952 -0.0031977 0.0014584 -0.0013733 -0.0004024 0.0052836 -0.0019146 1.66e-05 -0.0022239 -0.0022616 0.0037522 0.0034433 0.0043657 0.00142 -0.0043243 -0.0011197 0.0043296 0.000527 -0.0012226 0.0044395 0.0019849 -0.0049957 -0.0019111 -0.0001745 -0.0013425 0.0024131 -0.0005766 0.0002524 -0.0011939 0.0023002 0.001557 -0.0002136 -0.0004835 0.0060839 0.0010502 0.0032456 0.0036595 -0.0044929 -0.0003264 0.0009474 0.0018974 0.0018953 0.0006595 0.0005316 -0.0011928 -0.0001197 0.0013298 0.0010116 0.0030439 -0.0018583 -0.0009039 0.0030323 0.0011245 0.0012859 -0.0057766 -0.0023248 7.02e-05 -0.00164 0.0030594 0.0021947 -0.001814 0.0005257 0.0045491 -0.0008895 0.0006517 -0.0075102 0.0008177 -0.0035633 -0.000848 0.0001365 0.002195 0.0019797 0.0015266 -0.0050304 -0.0004381 -0.0037565 0.0022187 -0.0001797 -0.0002937 -0.001923 0.0020059 0.0012653 0.0038457 -0.0042548 -0.0019939 -0.0010987 0.0006545 3.24e-05 -0.0022142 0.0002343 -0.0014242 -0.0005834 0.0035574 0.0006184 0.0009524 0.0019286 0.0054975 2.68e-05 -0.0008771 -0.0019899 0.0003277 0.0013428 -0.0037113 -0.0023197 0.0027943 0.00135 0.0015774 -0.0027395 0.0009673 -0.0047982 0.0036089 0.0025507 -0.0028147 0.0020199 -0.0047182 0.004961 -0.0030962 0.0030067 0.0034701 -0.0006276 -0.0032837 -0.0027299 -0.0033592 0.0007144 0.0002532 -0.0060791 -0.0022487 0.0008869 -0.0034932 0.0030076 -0.0029958 0.0007866 -0.0051039 0.0016533 0.0003293 0.0015749 0.0017549 0.0043429 -0.0017987 0.0036392 0.0011771 -0.0007489 0.00364 0.0039019 0.0008998 -0.0028997 0.0008222 0.0032905 -0.0046774 -0.0062935 -0.0044889 0.0021724 -0.0010853 -0.0010706 -0.0027709 -0.000339 0.0013894 -0.0019227 -0.0026393 -0.0017496 0.0020519 0.004056 0.0032415 0.0014034 0.0013156 -0.0022442 -0.0027133 -0.0004259 -0.0006555 0.002381 0.0007988 0.0002334 0.0009918 -0.0022898 0.0020713 -0.0002107 0.0004585 -0.0007798 -0.0012454 0.0015202 -0.0008032 -0.0030987 -0.0007019 -0.0028404 -0.0028601 0.0017186 -0.0030836 -0.0039209 -0.0005963 -0.0028184 0.0050944 0.0041242 -0.0046874 0.0002674 0.000399 0.0057083 -0.0027419 0.0011211 0.0019824 0.0072969 -0.000753 -0.0053903 -0.0035643 -0.0024845 -0.0010848 -0.0032677 0.0014053 0.0026402 0.0010016 0.0010871 -0.0007687 0.0024027 0.000286 0.002574 -0.0014222 -0.0010508 -0.0039931 -0.0024028 0.0006298 0.0016604 0.001149 -0.0016096 0.0030825 0.0003982 -0.0024064 -0.0034434 -0.0025598 -0.0018674 0.0030521 8.47e-05 -0.0011855 -0.0023396 0.0016913 2.75e-05 -0.0011925 -0.0021721 0.0001511 0.0024053 -0.0004933 0.0019905 -0.0001437 0.0023262 -0.0010129 -0.0015161 0.0008733 -0.0009179 0.0018881 -0.0023625 0.0035584 0.0009186 -0.0002169 0.0047966 -0.0005832 -0.0003367 0.002551 -0.0004673 0.0022971 -0.000764 -0.0011042 0.0033658 0.0030436 -0.0003818 0.0011133 -0.0002832 -0.0006657 -0.003049 -0.0006596 -0.0014385 -0.0016581 -0.0014458 0.0024616 0.0041161 -0.0024674 -0.0011595 -0.0037485 0.0094758 0.0036523 -0.0027764 -0.0036869 -0.0039911 -0.0038365 -0.0020953 0.0019661 -0.002684 -0.0046921 1.59e-05 -0.0029044 -0.0022518 -0.0012207 -7.63e-05 0.0007944 0.0007438 0.001655 -0.0035234 -0.0063223 -0.0044197 -0.0030235 0.0002345 0.001771 -0.0019645 -0.0018435 0.0003059 -0.0046468 0.0006483 0.0008395 -0.0018137 0.0021004 -9.64e-05 -0.0035307 -0.0001834 0.0036451 0.0030052 0.0002934 0.0008476 0.0013298 -0.0014515 0.0045302 -0.00241 -0.0003248 0.0005057 0.0002975 -0.0026529 0.0074013 -0.0035865 -0.0008675 0.0042358 0.0026222 -0.0040049 -0.0059116 0.0007193 0.003168 -0.0004455 -0.0012471 0.002809 -0.0010556 -0.0014334 -0.0025695 -0.000635 0.0020686 -0.0033488 0.0010449 0.0018858 -0.0021259 0.0006149 -0.0041075 -0.0005185 0.0013147 0.0028493 -0.0024426 -4.4e-05 -0.001129 -0.0005126 0.0046529 -0.0024414 -0.0005564 0.0023093 -0.0013553 -0.0004287 -0.0008839 -0.0029678 -0.0027172 -4.77e-05 -0.0040323 0.0047526 0.0037738 -0.0017802 0.0047999 0.0013134 0.0028758 -0.0019007 -0.0001459 0.0017129 0.0002378 -0.0009823 0.0007893 -0.0020593 0.000612 -5.88e-05 -0.0031662 0.0002971 -0.004276 0.000531 0.0070499 -0.0011842 0.0032176 -0.0042309 -0.0023465 -0.0024959 0.0047325 0.0004887 -0.002623 -0.0040629 -0.005696 0.0005556 0.0035178 0.0013361 -0.0015487 0.0037878 -0.0036492 0.0052617 -0.0009529 -0.0031778 -0.0053777 -0.0002382 0.0027153 -0.0019404 -0.0024206 0.0001904 0.0002949 0.0033876 0.0001473 -0.0002404 0.0007299 -0.0034372 -0.0023895 0.0051876 0.0014855 0.0063891 0.0032462 0.0025886 0.000801 -0.00575 0.0022207 -0.000233 0.0006502 -0.0013358 0.0040264 0.0080447 -0.0022823 -0.0009564 -0.000836 -0.0031297 -0.0020606 -0.0016662 -0.0062731 0.0050791 -0.0003844 8.74e-05 -0.0001918 0.0035695 0.0036167 -0.0009839 0.0003908 -0.0010812 0.0005386 -0.0018748 0.0002731 0.0007851 -0.0063113 -0.0045195 -0.0009819 0.0007407 0.0030605 -0.0017839 -0.0002876 0.0027819 0.0010256 0.0017985 -0.0002475 0.0018544 -0.0008621 -0.0027877 -0.0006433 0.0001342 -0.0057933 0.002185 0.0018156 -4.77e-05 -0.0007088 0.0009299 -0.0011772 0.0003977 -0.0002399 -0.0044506 -0.0010083 0.0002164 0.0020258 -0.0020417 0.001501 -0.0002638 -0.0016313 0.0015103 0.0016551 -0.0011172 0.0019776 0.0029152 0.0022651 -0.0024604 -0.0008291 0.0043753 0.001062 -0.0009048 0.0026197 0.0004815 0.0002919 0.0055304 0.0025562 -0.0048843 0.0017413 -0.0059791 -0.0006052 -0.0021935 0.0012519 -0.001396 0.0032451 0.0006988 -0.0005106 0.0006503 0.0032068 -0.0006811 0.0001779 0.0009121 -0.0017163 0.0028638 0.0020343 0.0014386 0.004493 0.0004301 0.0002045 0.0001875 -0.0022582 -0.0031874 -6.75e-05 0.0037687 -0.0019255 -0.0011308 0.0032148 0.0029856 -0.0005343 -0.0010825 0.0019374 0.0019166 0.004128 0.0062817 0.0024945 0.0058721 -0.0006776 0.0004411 0.0004501 0.0032796 0.0026078 -0.0016157 -0.0016483 5.42e-05 -0.0012426 0.0017186 -0.0026287 -0.0010497 0.0003742 0.001466 -0.0082001 0.0011179 -0.0003439 -0.0017895 0.0002856 -0.0050652 -0.0001112 0.0019579 0.001527 0.0010044 -0.0040104 -0.0036612 -0.0017919 -0.0009227 0.0010204 -0.0028793 3.25e-05 -0.0020982 -0.0009786 0.0012084 -0.0012359 -0.0038283 -0.0007836 -0.006743 -0.0029276 -0.0015623 -0.0035241 -0.0002112 -0.0002389 0.0038873 0.0020616 -0.0042691 0.0010606 -0.0027502 -3.96e-05 0.004397 -0.0020076 -0.0021436 -0.0005129 0.0004297 0.00168 -0.0025504 0.0050304 6.91e-05 -0.0071047 -0.0021754 0.0028653 -0.0019962 0.0041648 0.0031784 0.0009712 -0.0073185 -0.0040349 0.0021455 0.0001897 0.0020918 0.0006507 0.0015954 -0.0002659 0.0003701 -0.0019056 0.0013154 0.0012692 -0.0005143 0.0018023 -0.0045655 0.0025821 -0.0071207 0.0055064 0.0013355 -0.0014591 -0.0010199 -0.0010473 -0.0006187 0.0007557 -0.0004441 0.0003497 -0.0025368 0.0022828 0.0008189 0.0085836 0.0009797 0.0003279 0.0053116 0.0034701 0.0009597 0.0031142 -0.0029361 -0.0004712 -0.0042809 0.0008377 0.0036202 0.0025944 0.0007423 0.0063791 0.0019833 -0.0004675 0.0007293 -0.0006169 0.0034357 0.0002986 -0.0005512 -0.0040373 0.0006196 1.52e-05 0.0003164 0.0047878 0.0078686 -0.0017166 -0.0035365 0.0018189 -0.0001035 -0.0030684 0.0038907 0.0015281 0.0049504 -0.0015851 -0.0063393 0.0016858 0.0016003 0.0026698 -0.0019941 0.0024766 -0.0041085 0.0046748 -0.006475 -0.0016404 -0.0021753 -0.0018977 -0.0009201 0.0005142 0.0007415 -0.0050609 -0.0011429 -0.004188 -0.0023073 0.0008044 0.0018098 -0.0005022 0.0032174 -0.0029725 -0.0041905 0.0012089 -0.0028174 -0.0030215 -0.0009381 -0.0017473 0.0047402 -0.0005911 -0.0024084 0.0003977 -0.0008675 -0.0016777 0.0049703 1.05e-05 0.0019354 -0.0005652 -0.0001674 -0.0012674 0.0043679 -0.0005969 -0.0037897 0.0020597 0.0008638 0.0002997 6.93e-05 0.0034129 -0.0010248 -0.0029808 0.0018659 -0.0024379 -0.0021918 -0.000451 -0.0039388 0.0001203 0.0026404 -0.0029917 -0.0032919 0.000986 -0.0003627 0.0002537 -0.0028482 -0.0049743 -0.0002442 -0.0019964 -0.0009102 0.0035497 0.0015924 0.0011657 0.000341 -0.0040646 0.0003289 0.0021714 -0.0006444 0.0009149 -0.0009251 -0.0020264 -0.0014164 -0.0021213 0.0001869 0.002225 -0.0052293 0.0031328 -0.0005246 0.0022328 -0.0016787 0.0028351 -0.0052207 0.0038751 0.0006742 0.0036929 0.0012224 -0.0045236 -0.0008422 0.0044459 0.0002309 0.0037267 -0.0011606 0.0037613 -0.0019812 0.0002409 -0.0014326 0.0018142 -0.0034463 0.001389 0.0006042 -0.0023052 -0.002056 -0.0032916 0.0004426 -0.0041809 0.0004616 -0.0035969 0.0017841 -0.000139 0.0016027 0.0010159 -0.0024307 -0.0011255 0.0025411 0.0031092 -0.002791 -0.0021928 -0.0031074 -0.0048616 -0.0026373 0.0006379 -7.02e-05 0.0014686 -3.01e-05 -2.12e-05 0.0006324 -0.000418 -0.0049307 -0.003111 0.0029654 -0.0023892 0.0019583 0.0029097 -0.0003525 0.002654 -0.0004187 -0.0021943 -0.0050093 -0.0010057 -0.0024175 -0.0026405 -0.0003072 0.0005303 -0.0030635 0.0019098 -0.0002782 0.0008243 -0.0023781 -0.0031464 -0.0007462 0.004112 -0.0023296 -0.002183 -0.0038876 0.0020937 -0.0023283 0.0014528 0.0022085 -0.0016137 0.0023528 0.0007757 -0.0015161 -0.0041437 -0.0024143 0.0003998 -0.002598 0.0028344 -0.0008367 0.0019759 0.0002089 -0.0013368 0.0016593 0.0023547 -0.0040152 0.0004031 0.0015879 0.0022264 -8.2e-05 0.0008344 -0.0025403 0.0021879 0.0004767 0.0003049 0.0027466 0.0021905 0.0063534 0.0033498 -0.0008247 0.0045507 0.0045687 0.0035907 0.006554 0.0056067 0.0008527 0.0017652 0.0001832 0.0034831 -0.0047955 -0.0033415 0.004756 0.0022498 0.0012776 0.0011239 0.0037972 0.0025514 -0.0005172 -0.0043498 0.0039726 0.0012641 -0.0010889 -0.0043895 -0.0039654 -0.0021599 -0.0051356 -0.0004862 0.0003948 -0.0015833 -0.0012952 -0.0020732 -0.000307 0.001859 -0.0010125 0.0010338 -0.0007832 -0.0002345 -0.0025483 0.000972 -0.0009715 -0.0014781 -0.0006619 0.0013897 -0.0012413 0.0016529 0.0016389 0.0025617 0.0038525 0.0013747 0.0024692 0.0032299 -0.0025587 0.0041851 -0.005478 0.0001238 -0.004386 0.0005254 -0.0035315 -0.0047784 0.0028421 -0.0026512 -0.0030699 -0.0008224 0.0025528 0.0020091 -0.0046918 -0.0023366 0.0008093 -0.0013528 -0.0016029 -0.002135 -0.0015834 -0.0030808 0.0012367 0.0015689 0.0009227 -0.0018385 0.0003547 0.0022098 -0.003359 0.0023565 -0.0013051 0.0005039 0.0029554 -0.000248 -0.0011991 -0.0014597 -0.0013066 -0.0002555 0.0014792 -0.0028709 -0.0038521 0.0021577 0.0003364 -0.003409 0.0005323 0.000659 0.0002618 0.0011457 -0.0040208 0.0049525 0.0014713 -0.0026952 -0.0003228 -0.0042669 0.0022324 0.0038425 -0.0012394 0.00183 -0.0011929 0.0030169 0.0013169 0.0004188 0.0025633 -0.0037587 0.0004897 0.0007748 0.0003293 -0.0015077 -0.0032846 0.0036491 0.0001745 -9.48e-05 -0.0002051 0.0055529 -0.0013487 -0.0042564 0.0010546 -0.0037931 1.97e-05 -0.0008735 0.0029441 0.0018348 0.0012879 -0.00124 -0.0002065 0.0024937 3.36e-05 -3.88e-05 0.0007768 -0.0023205 0.0028708 0.003641 -0.0040235 -0.0015399 -0.0031196 -0.0004991 0.0078977 0.0018435 0.0003817 0.0044333 0.0030781 0.0030916 -0.0031976 -0.0006726 -0.001313 0.0018145 0.0051849 -0.0022462 -0.0037346 0.0003124 0.0025712 -0.004781 -0.0004233 0.0025678 -0.0032165 0.0009284 0.0032693 -0.0002716 -0.0051008 6.78e-05 -0.0002351 -0.0025284 0.0011167 -0.0023404 -0.0005045 0.0054469 -0.0015463 0.0035743 0.0046286 0.0021117 -0.0024581 -0.0020366 0.0034834 -0.001292 0.0039565 0.0031985 -0.0066949 6.81e-05 0.0019726 0.0020047 -0.0022647 -0.0046524 -0.0026622 0.0029903 -0.0034285 -0.0044752 0.000613 0.0063033 -0.0002194 0.0019168 0.0020685 0.0019331 0.0011674 0.0026424 -0.0016259 0.0009842 -0.0006684 0.0007535 -0.0009637 0.0024388 4.3e-06 -0.003154 0.0014287 0.0024816 0.0001227 -0.003724 0.0027262 0.0006498 0.0001033 -0.0008526 -0.0028396 -0.0007362 0.0010698 0.0044877 -0.0012707 -0.0012411 0.0009807 0.001284 -0.0032838 0.0004695 0.0019334 -0.005302 0.0010697 -0.0033032 0.0011452 0.0030411 0.0042155 -0.0029243 -0.00068 -0.0001435 -0.0064528 0.002518 -0.0033164 0.0034811 0.0005983 0.0007942 0.0013137 0.0047868 -0.0031912 0.0037836 -0.0022922 -0.0029275 0.0008227 -0.000705 -8.4e-06 0.0034122 -0.0030775 -0.0018061 0.0024433 0.0013829 -0.0001264 -0.0023152 -0.0004271 0.0010324 0.0019142 0.0033266 -0.0006308 0.0008554 -0.0003135 -0.0005944 -0.0030329 -5.29e-05 -0.0024475 0.0011075 -0.001251 0.0051309 0.001311 0.000889 0.0054071 -0.001161 -0.0038215 -0.0009729 -0.0026386 0.001866 -0.0030442 0.0014588 -0.0015393 0.002721 -0.0008317 0.0004645 -0.0003457 -0.0003137 0.0005785 0.0024714 -0.0041412 0.0017408 -0.0031254 -0.0007559 0.0043205 -0.0016521 -0.0022346 0.001077 0.0038053 0.004301 0.0019275 -0.0010406 -0.0010563 -0.002113 -0.0012943 -0.0005059 0.0033411 0.0028841 0.0010884 -0.0029395 0.0006542 0.0042598 0.0026796 -0.0008616 0.0051531 0.0014734 0.0004904 0.0047574 -0.0013022 0.005322 -0.0034868 -0.0023032 -0.002883 -0.000314 -0.0007753 -0.0046407 0.0012044 0.0006024 -0.0015996 -0.0008367 -0.0010245 0.0008882 -0.0010778 0.0024779 -0.0026408 0.002309 -0.000307 4.11e-05 0.0039565 0.0016419 0.0018657 -0.0018534 -0.000854 -0.0019399 -0.0010761 -0.001627 -0.0030699 0.0019943 0.0003449 0.0062408 -0.0019595 0.0014015 -0.002111 0.0021314 0.0030206 0.0025045 0.0025012 0.0030058 0.0005528 -0.0036384 -0.00196 -0.000483 0.0029648 -0.0001886 -0.0020138 0.0036045 0.0012414 -0.0021471 -0.0014046 -0.0024987 -0.0006367 