-0.0011591291896320848 -0.0016272627633506912 0.006930921328574381 0.002530219225097608 0.0006838744528452732 0.000858884076925894 -0.003811766080522045 0.0003949322483125394 -0.0038939656697752787 -0.0017664754826884018 0.0007343258200686646 -0.0031737817552504313 0.001438436124849089 -0.002274393876583692 -0.0033874528712796647 -0.0031418602229004344 0.008632034879128132 -0.001989004038337068 0.00320722090398859 0.00035460828934408213 -0.0016548033921867263 -0.0026964161758884233 0.0002283315736788514 0.001191456823741475 0.0014567235068188532 3.137071650585605e-05 -0.0006716728930999058 0.0009698963692877105 -0.0024547896909105447 -0.0008051118539318432 -0.0009386725882672644 -0.002246058792199657 -0.006262086031973381 0.0035325784621616373 -0.001456296980094288 0.00193338501329754 -0.0009738602401758058 -0.004771290562393993 0.0006301666262544054 -0.00027290936558394506 -0.0025918858613442628 2.412356959815872e-05 -0.0017169842597536257 -0.0019299354293758275 0.003936048457930609 -0.0020026235371359362 -0.0015025351025915 0.0008636032043040845 0.0042108620103823245 0.00032188880806270994 -0.0066011394122319714 -0.0019316820360016718 -0.0001724896162113705 -0.0004024861161668473 -0.0013409515853436596 0.0019565501360896066 0.004492134970387394 0.0013406618510335784 0.00019529625440971963 0.000955244563663779 0.00180877980190877 -8.394596002319017e-06 0.006818431354176356 -0.0014101185645187745 0.003008366165072012 0.002296837725955507 0.0051490481820802275 0.0036798957904853376 0.0007260410123698437 0.0017269477303945742 -0.005877147621802641 0.0030571591392163323 -9.216112259348891e-05 -0.002043958490191349 -0.0013461487244541257 -0.00011513103723844214 0.00221029049312945 0.0023873955197212422 -0.004628562488565181 -0.0015307647239503864 0.0028670205160155533 -0.003504132095104581 -4.156886638283059e-05 -0.00017062675944033172 -0.00021894616168286507 0.00155831289876565 -0.0014240362538544432 -0.0012737505248094755 0.0013210909513716475 -0.006378050959621864 0.0012885170389432998 -0.0026070387699589454 -0.0011223241149666517 0.0012315833562973864 -0.0035082595065861815 9.70885092986858e-05 -0.0009457705464376852 -0.0013300970537338537 0.0010753107034235918 -0.0004720087743131738 -0.0009205735478848792 0.0005101020216778066 -0.003604938039791824 2.8174535878312976e-06 0.000999315574257073 -0.001844727510779256 -0.0024628523041971264 -0.0021998305648572012 0.0026713581668330807 0.0037032823745005833 0.0005481239824216977 0.003227626750415928 -0.005069417149814708 0.005886917491694346 -0.0004928651466535643 -0.00439888171245722 -0.0022506778519688964 0.0010262151272254897 -0.002429709029083947 0.0016056543035748796 -0.0010413632463357107 -0.0026708832922959476 -0.002595593080263154 0.005751435474915218 0.0020732366854475178 -8.238460470314227e-06 0.0018777072379451867 -0.005382726408000084 -0.0070769708997197615 -0.0025649900906928526 0.0007846715592281171 -0.0019435904280944824 -0.002234680520037919 -0.001496618534658545 0.0016933827015696403 -0.0011150276213548736 -0.0023858293288864744 -0.004077397014939669 0.002338038225281042 -0.0012830420690873592 0.006334670371932188 -0.001245580488747984 0.00044407293826424944 -0.0018170149467709009 -0.0032915716721604923 0.003889709721041565 0.00033650460668704354 -0.0007606615770133034 0.0009350754039405151 0.0027586205496786275 -0.001799117274976174 8.274534159692086e-05 -0.00023058087069626772 -0.00016140475530648817 0.005514747038713984 -0.0038376281798736343 0.0012735049318857328 -0.0012378027921615235 -0.0027823270578178714 0.002056039127096772 -0.0031793038280669775 -0.0027942677497389307 0.0035615537860450544 0.00016910104865358342 -0.002446803298748216 0.003374445352983623 0.0005227248795396225 0.0018941202899787288 0.001097637731712849 -0.0006697241354859885 0.003368125015839967 -0.0018378754988150742 0.0018027330964390596 0.005301053144655745 -0.001351578769115099 0.0033625333641720385 -0.0003835617167059226 0.005050129190667252 0.001795692947642606 -0.0003356392277121509 0.000970060574029513 -0.0005590928795422721 -0.002442420437588968 -0.0001332808396910772 0.0006813015900729697 0.0007205894191211737 -0.003681069898297421 3.9642871022227e-05 0.0002670046368832986 0.000612492445047607 0.0028874626830507613 0.0019305794453739389 -0.0009218692244116754 -6.184019973180448e-06 -0.002429449904154663 0.0026505307528915246 -0.0006164527280498982 0.0019372842589597265 -0.00018859133270287049 -0.0031541001276837134 -0.00011224765136810598 0.003263322484059906 -0.0008104251423069093 0.0008652799475557528 -0.0027480273028614283 -0.0008062112316178738 -0.0014170500828858542 0.0016835465482845514 0.0018837012102076312 0.0036481194537499972 0.001571718047460641 -0.001736828521225486 0.0033219896474849255 -0.0042323861954215985 0.0025104519505315605 -2.2074323550364393e-05 0.006189580167657387 0.0006265334028668434 0.0011944383176134665 -0.0022823562469733855 0.0006194065517471768 -0.000592143919410121 0.0006977358627072384 -0.0004449433602774242 0.004569312670879037 -0.0022844028200504907 -0.0028578784179539413 -0.0018987639526869924 0.0008698364638251778 -0.002009200503529894 0.0028162914720088633 -0.0008286809509108355 -0.0033263945037695255 -0.0029603841720706836 -0.0002721720157070081 0.0011434009914037882 0.0009070285678812131 0.005047864130409503 0.0006399932022762549 -0.001824388316463685 -0.0006261834796392895 0.0001403775697647412 0.0024658829965175863 0.0018883371712511803 -0.002370493239050259 -0.002377690335602549 0.0012492828894689256 0.0022602787452271392 0.004542949624090104 0.0007827010090671287 -0.001479667952401578 0.0020323243179431066 0.0011326368976388467 -1.1775454592921191e-05 -0.004795066060322464 0.002908726961192884 0.0018289764492132575 0.0010806746201445893 -0.0034740541739775007 0.0004727490448656115 -0.0005519791861822748 0.0015805146940419896 -0.0008219246649246542 -0.003538127592276109 -0.0027277755684123133 0.0011988293019427163 0.0004362216896075793 -0.0013555165409462626 -0.0032977153346258406 -0.0008932743362680022 -0.004405140747511752 0.005354513566094404 0.007171193015267894 -0.002759733137112067 -0.002789291278606066 -0.0009247954569601678 -0.004307587225572012 -0.0043035252888532225 -8.613056616439612e-05 0.0015693523509489617 -0.00019672575322449422 0.0011085440374022618 0.005641572811882396 0.0016765256858485905 -0.0016705548807924595 -0.0018164944912949495 0.0017571620429113744 -0.004023360186925675 0.0025666620216419542 -0.00013778069582520263 -0.0002267249124068832 0.0009014556953260927 -0.002740135449907591 0.0018404663180011426 -0.0029102236904405563 -0.0032338907382234295 -0.00042831277091306513 0.0012776306977489152 -0.0007346983277923993 -0.0013781551519861598 -3.813394930012373e-05 1.5035361332468287e-05 -0.0009706527099737464 -0.0021969189960868137 0.004704829804488422 -0.0005152936719768305 0.0007474817637098672 -0.001173766340171426 0.002458448729703623 0.0037565842561311006 0.002759505695890623 0.003532098017146371 0.0018255293490147203 0.00014516514695415815 -0.0026830333524224415 -0.0039038860646706166 0.005706959171542571 0.001302497437226317 0.0008072717593287192 -3.7136499627002664e-05 -0.0010375103191923498 0.001919878130417488 -0.0036084099937425907 0.0017443170888196463 -0.000649851075691686 -0.0011058714885891806 -0.00021840044608390638 -0.00100806426262653 0.0009091858496809233 -0.0021744240731421797 0.0022003704091192733 0.0014603115202015706 -0.0008629808661971529 -0.00046429668865701645 0.0008643129377255364 -0.003178672455810439 -0.004141261511479196 0.0014885157265205828 -0.000701285953465355 0.0031210412983732473 -0.0013360784969422906 -0.0023380379027249866 0.0007360636388156358 0.0007896148227386062 0.00527418230693915 0.0011983187490166955 -0.003275193553129621 -0.0014207650464914932 0.0010667680807272867 -0.0003396222093205097 -0.00140505434947774 0.0022118277645624225 0.0008976948539970297 0.00022454657819174383 -0.001540156050190786 0.0004924836845963584 3.065852260146575e-05 0.0008295567744445012 -0.0024480791718531213 -0.0020499366889610115 -0.004967177160105552 -0.001518866960897872 0.003020485459381858 -0.001581509483340522 0.0011000407580772052 0.003134365472670423 0.000844601063139201 -0.002415829076031772 -2.427835925180716e-05 5.8282451463191825e-05 0.0022211258152836 -0.0002524235230060489 0.0005199271833763975 -0.0014790690717569022 0.0007787301834633892 -0.0002405350178474154 0.0017017231821362634 -0.0005293270961586862 0.0018177341372720844 -0.0023764488709175293 -0.0015461017624270874 0.002148752516738522 0.0026535154264199115 -0.00023199435267722807 7.315260488659943e-05 0.00187435668070262 0.003026964117644393 -0.0015768962239487135 -0.0010724410220399221 0.002943665557683319 0.0007818264785418663 0.002188955449269459 0.003507062260419814 0.0008154538449192688 0.003956671797685597 -0.0008761544753186131 -0.0010729995576802167 -0.0007197282867450889 -0.002058453572737916 0.0011439541083956657 -0.0014369677955387065 -0.0024914017935477053 -0.0008582090279443553 -6.730523918420568e-05 -0.003522320024237895 0.005211591677927335 0.004524828426166441 -0.005195443359997066 0.0016688949843272475 0.007277799393714507 0.007118877503888524 -0.00021053160996657047 -0.0022713319817906585 0.005011587640911485 -0.0010729675463682505 -0.0004390425523840024 -0.0009010304874762902 -0.001630457746938703 0.004428049866411987 0.002394358026336996 -0.0019453672346937325 0.0022330191443725965 -0.003183112719243435 0.0033121191732548706 0.0023044316912668407 0.0007687648463002902 -0.0006493732684657183 -0.002465884343352832 0.00021374290786115805 -0.0010888087349158315 0.000731806162129751 -0.004107126741848896 0.0022106377354168473 0.0008910412742963315 0.0027234751616092815 0.0004684486508743955 -0.0010603726646986888 0.0020003668906569284 -0.001096649589442686 -0.005358750933289756 -0.00370126413533787 -0.0035523253585105392 -0.0001354359114682992 0.003622138637701619 0.0007791104154567077 -0.0008970329086009577 -0.0027288459678346945 0.0005262202849452113 0.0035823073648778934 0.001659019037036051 0.0012830763674697933 -0.0043920834671132515 -0.003398772407539882 -0.004910042840295953 -0.0019725256528470023 0.00011607402231145044 -0.0020389729946014078 0.002538653586928446 -0.001972986866413166 0.0005057840654040727 -0.001060090663612543 -0.0001404259930003104 0.0005772965693338871 -0.005922613818775134 -0.002716847123768328 0.0019295593646834201 -0.0022678855284689577 0.004109222848253031 0.0014980087592994774 -0.000564791535694497 -0.001015209795535789 -0.0008336312039140243 0.0015052468499891069 -0.0007448169891393849 -0.00025075923900360405 -0.0009908896065564919 0.001984901438406355 -8.84431907434897e-05 0.003019348231313988 0.0011453267338669775 0.0006727583282123549 0.001093465310253905 0.0008029906257301363 0.0023850592819309154 -7.923583293738226e-05 -0.0029645248718559026 -0.0027491654740203213 0.0007835140004053681 -0.0018778471119619692 -0.0001340513277410063 0.00034085764672072745 0.00047068477653555577 0.00038463122840457295 -0.0016002347043292385 0.000905534478721459 0.0019032815847273188 -0.00022542633791063625 -0.00073986199806657 -0.00392319143185467 0.00130458560672475 0.003723102949316549 0.0011451310527412684 -0.0003439644791101918 0.0037078966737406805 -0.000570083518886357 0.000879616129529029 0.00024076161781440316 -0.001608358008306491 0.0009193806418432936 0.0007336264132670921 0.0019022918107052347 -0.00011571976651205886 -0.006693262027618821 -0.0018128338453035466 -1.7572327756883544e-05 -0.0009102551473835125 -0.002844514622968485 -0.0007022950906071349 -0.004653163066854579 0.002395889930600421 0.0018556427317087535 -0.000697962802432201 0.001500868581808543 -0.00026223798902366794 0.0011013799791110437 -0.0006755468193900661 0.0035782655025479145 0.004030014188357855 -0.0017202564887256239 0.0024094251608139487 0.002777974559017022 0.0010045751803120012 -0.0019167997410867881 -0.0003514728757204517 0.0024533896169354006 0.0005822939044290531 0.0032661127394281956 -2.0825841636153235e-05 0.0003164957943290997 0.00021009352346442102 -0.0030607087872058917 0.0035003784479130965 0.00048142468125899934 0.0021382316675959924 0.001776450450957903 -0.003620741158499161 0.0005167079112628093 -0.00022881688665630305 -0.0022173773382897083 0.0016409258511622799 -0.0026693134955421472 0.0007244094791265303 0.0005157574019208448 -8.371144058178118e-05 -0.0015341508841866596 0.002376635948112202 0.0014364149095260608 -0.0028704747003165452 -0.0016897770688502883 -0.0017950821899553801 -0.0025521315554293557 -0.0040640204095512165 0.0036954832300482026 0.0026009176876658113 0.0014215080860877736 0.0034590988216999913 0.00033054758569631045 0.0002515046742889028 -0.001130801978298226 0.00010042233771850328 -0.001036240629549889 -0.00042283584034511846 -0.002239449222958858 -0.0017240832246849934 0.0017468204569691848 -0.0010835143844575281 -0.000573837513390676 -0.00261804190225849 0.0029740674598466863 -0.0036516835205866807 0.002712335148426613 0.0038694962030963245 -0.0002219166681200165 -0.004074479591944475 0.0007410807973241508 0.00502263732818457 -0.00094124135530094 0.001483467194001653 0.000531081931202571 0.00012012989491176886 -0.0035103136088492485 0.0029059029830605055 0.00036077858467298035 0.0017294517113092102 -0.0003749690074781339 0.002152492284595139 -0.0012973074968507961 0.0023383877778717925 0.0016346457688913394 -0.005578917273408725 -0.0008078687691568568 -0.000706136896618223 0.004420475923489762 0.0011142896856017228 -0.0008275718625042104 0.0021887042668285125 -0.0010154096949847931 0.001158854079088183 -0.0002841781492550475 -0.0014680577689747533 -2.689129956783835e-05 -0.0012209565647486942 0.007631113852267587 0.003937719122515195 -0.00041015550831490806 0.004546997982197555 -0.001966751197239496 0.0009141772651408968 0.0014741489713691323 -0.0005067329167125783 -0.003683705632198326 -0.0006258732516517267 -0.0005783114037858491 -0.00254918523126358 -0.0016992897254350975 0.0005133323085765346 0.00010733319440326711 -0.001747933528429418 0.0007731223266138406 0.002345983123214204 -0.0002764271471427053 0.002057607780683397 0.0009044082005198914 0.003501711941544684 -0.0027211929643460855 0.00439801471420675 0.004226760527783289 0.0036273912284795146 -0.0011751257933221924 -0.0009085665940449324 -0.005499187883459704 0.0032211867254086342 0.0014731124393166 -0.0008633509942336 0.0022230485453932553 0.0005807403529615829 0.0016408933101575084 -0.0015790670448612943 0.00650445331469695 -0.0006931309648187053 0.0013765174294042843 0.005912220018889381 0.0008007381728633918 0.0019219993802035108 0.0047376693731463 0.0021118966191478084 -0.00273234083017589 -0.001010826010231453 -0.0006904076089401238 0.003498588001362289 -0.0017844985855670927 0.00231448285081181 0.00032951584773084755 -0.0009533239014510325 -0.001211909670618435 -0.0015175923518816045 0.0024946867139519708 4.110496388723746e-05 -0.001592004199905969 0.004137027496306582 -0.00049515223772682 0.00022219472601233399 0.003021871843110219 -0.0036509757213991734 -0.003642862211217059 -0.004356969184444452 2.8744009715632058e-05 -0.002040616162127957 -0.001070353067233632 -3.423667021019031e-06 0.002624870473054856 -0.00226090039287859 -0.0007161698100367977 -0.00046234407726153165 -0.0023796841540256 0.00284033087426888 -0.002523400910203046 0.00093348093270453 0.001181061681850048 0.0026682897382109562 0.0021474970533749017 -0.0018429945890996331 -0.003445484566882567 -0.0044277538889539135 -0.0006021462114137634 -0.003342863713504287 7.500179850519851e-05 -0.006623896318146879 0.0003628283192583791 0.0018062721329147532 -0.002629409795416135 -0.0006507240112253442 0.0023573853825430073 -0.004505456315230787 -0.003117597900960412 0.0025337989516045355 0.004270629823098783 -0.006928847099131344 -0.0030149835564156065 0.004364735208075532 -0.0060814379112208074 -0.004136554219995329 0.0009700514727383251 -0.0003868722890439231 -0.00311524411886713 -0.0014307568543297563 -0.0021785738109787955 -0.002949877181140299 0.00022193667590310174 0.002759620550356335 0.0001654481505101571 0.0015338030198719973 0.00588090469211291 -0.0016122989411926222 -0.0006293468801881551 0.0033567978972177913 -0.0027088846561796566 -0.0008065047790157601 -0.0013585753807990213 -0.00018470358503170934 0.0030303448907128988 -0.0025518568345273204 -9.08080511273981e-05 -0.002445000482602545 0.004101583865248058 0.001212046025061498 0.00336651261808204 -0.0005769958226420402 -0.00039125885580521805 0.003913892846005834 -0.00045905183432050014 0.001732996668005034 -0.0020838888300438534 -0.002698952410694415 0.0029700922446194633 0.004450496481166547 0.0054359125873414274 -0.0005912662594093242 0.003254345974236538 0.0033256310821616394 0.0006891245940182176 0.0025165383280253695 -0.0008031794039874928 -0.00013295648456187052 0.00017744994911202187 1.659793083746664e-05 0.00102417222740455 0.000626432745138422 -0.00042918045999903065 -0.004237230336566087 0.00023150705207255326 -0.000351388907638008 0.004105838890674175 0.003283836275718487 -7.566600685161996e-05 0.001098131316612162 -0.0032690436443736505 -7.690559779688728e-05 0.0013658717197214615 0.0006015999976535019 0.00019664061024607008 -0.0005931290430151654 0.0015773813454067814 0.0026125606732572736 -0.0028183242214793263 0.0009314466251861617 -0.0007075833716869534 -0.003076044071764608 -0.0011989298963874023 0.0006580379965771401 -0.003284160105363332 0.006376957756754344 -0.00043681330399104017 -0.00300080856340251 -0.0014028389166097402 -0.0021230130961962324 -0.0014012657944852702 -0.0001644085957840296 1.8432120490292573e-06 -0.005329975771538632 -2.2353693144692963e-05 0.0009127832567799023 0.0012103209903203554 0.0018999633961415906 -0.000398305809665383 0.001994150883113454 -0.0014417070528216721 0.00045333084524158256 0.0016691824548346879 0.003630875285358817 0.00036710108951371105 -0.000844533518637661 0.004171784894634627 -0.00039314763354366577 0.0009830547598294163 0.0011195529390447359 -0.0001300313633618489 0.0003303243115660711 -0.002555486588628561 8.007232268770077e-05 0.002370994471807305 0.0016416953045219796 -6.696749943087996e-05 0.002568376323136958 -0.0001993934503195209 6.587692712369635e-06 0.0029376175983682217 0.002090582195461658 0.002419730361158328 0.0024854481622803644 2.4345465442254266e-05 0.004659561385446357 0.0023832003816124762 0.0022469534945591288 0.00012784426649336606 0.001777501656268709 0.002667500595738606 -0.00230034393693337 0.0041764472244681244 -0.002718165906116483 0.0005504392603413167 -0.003849714038299447 -0.0009805459820632243 0.0024809870792267836 -0.0008117910606393153 -0.0005670857946670095 -0.0034131807164638275 -0.00042561413815568643 0.0039716993484900905 0.0018638445893347769 -0.004597066337836254 -0.0004877936929349514 0.0027803837175009627 -0.0009291119914412446 -0.00017422695127839743 0.000822675365707148 6.876705283410085e-05 -0.003380874337460363 -0.0001146694846461959 0.0038840028390495778 -0.0017645438429157421 6.465212565095362e-05 0.0013593759900133984 0.003785014018900615 0.002172460220615435 0.002550791358384152 0.003928576680343817 -0.0009875941749192371 -0.003765005915848623 0.001672497073076528 0.0015825909324005242 0.0018189915058794586 -0.0008963275954079611 -0.003784220691202383 0.0030193770804198463 -8.326943770846316e-05 0.0019810905154887927 -0.002499286334028503 0.0005373384582035698 -0.0008060144550036622 0.0012135948069477084 -0.003845681620436106 0.0003765039362804994 0.0035641591106451713 0.0014015799668768265 -0.005090219440342687 0.0006025290598416037 0.0004285382971146145 0.0010235528644996737 -0.0007299410073523205 0.0020461090326723934 -0.0011867982321356683 -0.003998169574644515 -0.0003972567389994261 -0.002491021735363307 -0.0009504807984759743 0.0036115518209869466 0.0015356918456600822 0.0006104055961320802 0.0019630861873539732 0.0024844561399718704 -0.0003199578843496764 -0.0009668445537519443 -0.0012038066715426233 -0.0059388091135884075 0.0007817784197929811 -0.0016298713880971549 -0.001701518825724713 0.00046144684130281996 -0.0009263777605511608 0.002245479954591633 0.0021332063008309954 0.0009389433917565436 0.00567476123899607 0.001209732764659215 0.0025205708935159142 0.0024200483942327334 0.0005130468728218168 0.0010910626586255936 0.00039089364359256993 -0.0020568315429524754 -0.001324254114443475 0.00025915370611871426 -0.0023888220601623743 0.0007011254114519431 -1.931623584444431e-05 -0.0016630547767762694 0.0015081998218563206 -0.003187944740533968 -0.001213924890247938 -0.0013254435146568134 0.0027430410690281455 0.00015789650705590164 0.0005234992779430919 0.0015619103834423065 0.0018070604937945565 -0.0009060883374471809 -0.0032078445581537537 0.0010883654107782257 0.0003048212410823221 0.0015657552340650556 0.0041720412039645775 0.001548837147013626 0.0014482468897542165 0.004012368831419046 -0.0028684480385464213 0.00255855431057544 -0.0018581454567968918 -0.0007061419272969808 -0.004361997573983291 0.007878862113898067 -0.0015867304184046195 -0.0035327381308230734 -0.001205205843725052 0.0021320336093254596 0.00033194753590449306 0.0011698445105662782 -0.00022164688820160922 -0.0010889199286793138 0.0028966183875671694 0.0028745186501962497 0.0013088066552037916 -0.00015854265942676215 0.0034399725261045062 0.0018902924645286384 -0.0014186917661029017 -0.0037605741065804567 0.0016856362893607588 -0.0021284755715197936 -0.0006340419761000555 -0.003501594008691592 0.0020414658828403036 -0.0026407225509032283 0.0012284804871936692 -0.0012901482379585184 -0.0032560206878466027 0.0005541457843725562 -0.005114570532676201 0.0031500272920373575 0.0001752559572143685 -3.248584612143673e-06 0.0013804240071140636 0.0013529934138784808 0.0004028567808937002 0.000143408005884488 -0.003941292906379384 0.0018627957651126835 5.7202562888218e-05 0.00538381309606167 0.004143275343299497 0.0003268829755968454 -0.003193391726783676 -0.004371795967559877 0.003583026000875116 -0.0047716156689757965 0.0026842524040646145 0.0025057945724458884 -0.0007320874077502164 0.00037338975435622306 0.002849377917140031 0.0001885460593089646 -0.0006443613677038918 -0.00019045910963019926 0.002056452960957801 -0.001046673671242713 0.00150389048446171 -0.0010787219965441362 0.002857753733539796 -0.0025439020246733773 -0.002346857646761284 -0.0010707908920872926 -0.004588405526078788 0.00046342068871735743 -0.0007440888533625242 0.0006345172311139752 -0.003673694725224167 0.0024064640614939177 -0.004168516628073824 -0.0024323422739553446 0.0009805200781544524 -0.005054191497926686 -0.004057672322050781 0.0016058896068863397 0.0006583650917256038 0.0007673904285899283 0.001756684525804285 -0.0018497056260372295 -0.0034871179073137698 -0.002441237004367897 -0.0029950322127851483 0.002668561775603272 -0.0005052213297850554 -0.0016375533943375961 -0.0009411097475808648 0.004279024605769391 0.005800843527671663 0.00470630588185294 -0.0018662115902130527 0.004074902370800071 -0.0030074308940848536 -1.4062546834210375e-05 -4.977238862278799e-07 0.0005197215878386394 -0.002611661256963942 0.0005442912083404638 -0.0008683665118207572 0.0027100851233168247 0.0007209698037501346 0.0024175141838577354 -0.0026087450229985904 -0.0018246021174714295 -0.00425313191721295 -0.002246874929235034 0.005519957231726793 0.004067289557752864 0.0024264401431465495 0.0011101735749612345 -0.002432454505632471 -0.0010636286357164355 0.0033707250020923443 0.0022377956762179648 -0.0015882750008173788 0.0010437250012596177 0.0035850873838273816 -0.0011770090177676204 0.0024391557225688933 0.001448784848434339 0.0054854554919902335 0.0015349959719242398 0.0005647416848789531 0.004060286219744391 0.0009541543745712423 0.004442907840458954 0.0018298694073013394 -0.001090406387204722 -0.0006474557985886386 -0.0020713579793474875 -0.002033491168875931 0.0011363025110719491 -0.002456740982998669 0.0001807024078985028 0.0002061557270149631 -0.0005253860088239004 -0.0010124355716424106 0.0013823730917569648 0.0038203801183373637 0.0047907100156719855 -0.0011347448253374744 -0.0023882704127080275 -0.002806493316973451 -0.004314873417568568 -0.0010239739645699906 -0.0014234433168779095 -0.001158480036891413 0.001004754471357627 -0.0012785527800557993 -0.0018828027106696746 -0.001065412340985659 0.0008541457745002863 2.6480755042715183e-05 -0.0019295029805736809 -0.0018270184506958339 0.003881441948300974 0.0014542089074332542 0.0032818550411002384 -0.002146969490968594 0.00042534980230180154 -0.0012004946879864017 0.003881458972540676 -0.00023746165861299144 -0.005717698392082149 0.0022009499615845223 0.0020495776978966844 -0.0048326713075665375 0.00029866716816413633 0.0038152028920797874 -0.0019269606408889707 -0.0005658876379001283 -0.0002471195557187706 0.002834699887139438 -0.0035796347481778434 0.0009457459882777373 -2.1822594044251814e-05 0.002847860677852628 -0.002586391466889824 -0.0006093295326888519 0.001677067366938269 0.002019956823409976 0.0004957697334968892 -0.0020242830317090694 -0.0005453334348278865 -0.0012301527682324906 0.00037307242237738573 0.00345554832959871 0.00017050837692108374 0.003449547056939463 -0.002597324015805525 0.0001404863040730966 0.0016832462337216176 -0.0035838703275943144 0.003140908676692296 0.0038264054449972875 0.0045450806834145836 0.003097878522167732 0.0020387253784901415 -0.0001275423031599239 -0.0002457788568695191 0.002746632375540672 0.004807084556567061 0.0006480479520138959 -0.0012377647966035719 0.0009736357249222131 -0.005015228931906876 -0.0005688253269543527 0.0001891894108574981 -0.00026569022487835624 -0.000982424190116434 0.0003302218048981672 0.002509986434163773 -0.003120365256316619 0.0006968175536502111 -0.004158684841789933 0.003062267973486056 0.004024837239813674 -0.0014861489127104732 0.005339131922209115 0.00046184367909040476 0.0037523329974819687 -0.003222256983939976 -0.0016999031303385904 0.0017431432013264288 0.0032936344273525996 -0.003452859529736017 0.003144310612056872 0.0017318216604874244 -0.0015586511286913819 -0.001167722026873579 0.0019034194197118264 -0.0006678715903412754 0.0007164480858238024 0.0010997705420649829 -0.005260834705724505 -0.00021321462190038412 0.004235123889352141 -0.0072689442416933635 -0.002247518128540302 -0.0021911677163306306 -1.623777377010678e-05 2.762603676069492e-05 -0.006384737925518678 0.0014305191571250037 0.0025078924334816766 -2.5162668329146044e-05 0.006612553779745658 0.0057248765452134805 -0.001322372213068508 0.0017575156869759304 -0.0006418888322572308 0.002908763057397403 0.0033959657781299085 -0.004572392066005879 -0.004039861197937142 -0.002755114195851646 0.0015983026636069056 -0.0008513046775552829 -0.00029607130769370457 0.0024111078322366273 0.00011770978725575202 0.0020123787027914214 0.002563894530458531 -0.0009003159687450155 -0.00012652764602185787 0.0021475609268408052 0.0027081290440914936 0.003856398881009398 -0.0011278782200962443 0.003008249982806775 -0.0006567672698433958 -0.0033125569924038058 0.0020033518470138614 -0.0027414380556511344 0.0006906152438378465 0.0008423170091783645 0.004042114550938407 -0.0011401296601328411 -0.004560565747216621 0.00019017477973572755 -0.0023405462047713294 -0.003568513975732534 0.0009971376456844483 1.2762180141339729e-05 -0.0009436947355478275 0.00504219217023619 0.003075877559698451 0.0011200411126584126 0.0013989869462577918 0.0022969664372593764 0.003356596255873662 -0.0007925059276505268 0.0018766103564937689 -0.0016906469881527379 -0.004236382972150293 0.003926794841499323 0.00038164677239349327 0.0020773505175370162 -0.001398057819489825 -0.0014555079171485533 0.0001317899990931678 0.003077877005659491 -0.006175090320649969 -0.0007249345310095753 -0.0015902692660696581 0.0014430116078471384 -0.005777500505170824 0.0010177489296920971 0.00395953045288258 -0.00036885515893625876 0.0022923850034975582 -0.00271625197613698 0.001152344050467331 -0.001229671226395465 0.002158587004923516 -0.0043089414998252395 -0.0009249401172700518 -0.004229461063795414 0.006663704975880862 -0.002150505177553434 0.001120990654929766 -0.0021699955623619414 -0.001997883137061492 -0.0027588105049429065 0.003088837890051409 0.00028502467597689684 0.00455927046640855 -0.0003086862503614395 0.0011618361742599698 -0.0021475609450995864 0.0012488821973959219 0.0003565799700482284 0.002119775601954234 0.00697338166375636 0.00393549495702106 -0.0035468775991046803 -0.0030528731996333235 0.00044834793987223596 0.0037462701872473924 0.000595722957690586 -0.0003171662544939685 0.0025481579561586775 -0.0037257449147795846 -5.995124102284687e-05 0.00150841452397649 0.0009259366120673835 -0.0018700018251005528 -0.0014380027586061229 -0.004014714844700874 0.0027327271931015347 -0.0034242256023468702 -0.0011833746636684855 0.002862950268409644 -0.0005672005377936033 -0.0010453466533308273 -0.00043469639184528017 -0.000517313240724512 0.001089274309356454 0.0015533386588787257 -7.4117866999826e-05 0.0006290425828519567 0.0003140333103343319 0.00156990543325704 -0.002267372558570225 0.0009504485079090145 0.00025187323920650823 -0.00034835784008349906 0.001767994098946643 -0.0031359406762876524 0.004815328550333123 -0.0019300845453638243 -0.0029024195567168274 0.005893573604226776 -0.0008494465228233103 -0.0011215347542025615 0.0018762348537884669 -0.002062863212708191 0.00540242764989346 -0.001825631956766542 -0.0024117149651454537 0.0017981212496238615 -0.0006383470267630033 -0.001061540068648833 0.002966422608814438 -0.00205941690537909 0.0010500703227742825 0.0007907774660811177 0.004317476394975099 -0.003441199337176688 0.0009810759859730234 0.0008580238114740213 -0.0026139541243086176 0.0005364054794144141 -0.00618687875781673 0.005198872500610915 -0.0008651983069022987 -0.0015032715696777356 -0.0010247330149896288 -0.0018917644203011032 -0.0044201733049791525 0.002815406045353679 -0.0031833710979276226 -0.0027867011624433413 0.0017185903053571674 0.0023302331420469234 -0.0021639477238034866 0.001863130509519271 -0.0032102389062152806 -0.002378791280793458 -0.001632213581177068 0.0016805583908546618 -0.00016150601633335438 0.002270053693524422 -0.000511674918693434 0.0032372534667814844 -0.004366951999463555 0.0039299558224993045 -0.002846819477984611 -0.0007301451853372906 -0.003399628987922112 -0.007253162648673341 0.0006588086360879383 0.004963203897553051 0.0018792226363278433 0.005870346444270382 0.0009841585804979563 0.0010209908697409965 -0.00010934923375946185 -0.0005140471312518482 -0.0007733639402342764 0.0030400251526488736 -8.712589942516559e-05 -0.0027199503967425646 -0.0015849285659117526 0.002454706597566374 0.0020273452026616954 0.0028378355318329314 -0.0007937075309183485 0.0032311422538075316 -0.0034151180088365617 -0.002036286366629719 -0.0014422115240012956 0.004503058601531016 0.001188494076528443 0.00042965486306024574 -0.006453044994715409 -0.0025745508228916564 0.0005236753219564965 -0.002532234731142063 0.0020304723207794336 0.002322298325629819 0.003010104697491845 -0.004231141941840967 0.0006780678525259511 -0.0021553251678779546 0.0009484929650136119 -0.00018508966140218204 -0.000399764105831193 0.003404829747308028 -0.004012449345986858 0.00024578672996816275 0.0017459317605507496 0.00021066824559685618 0.0016634379657365628 0.0016491729286404334 0.003622335170605195 -0.0012872419214742048 0.003031433838287527 0.002225858686750015 -0.00048171455271497096 -0.0011287494117295936 0.0037292598196880682 0.0014267050572572065 -0.004862269196107113 0.0006794946309388444 0.0060857262228894374 -0.002768844500382963 0.000749574556293265 0.004656092452217066 0.0008901957363843547 0.0010995609881318791 -0.00028474028246976905 -0.0008637111253746997 -0.001464388262904701 -0.0012923787360758375 0.0017528391977928255 -0.000614779775813321 0.0021482896212807663 0.003914217717424933 0.0004003412944966174 0.0006449669113278986 0.004288689475918786 0.0002971551319264254 0.006338891243052331 0.0005219085897809712 0.00460057359735369 -0.0013062140900113794 0.0011435158464203061 -0.000642028280760161 0.0020156575617818638 -0.0022477013686461973 -0.0017881327872333954 0.0029570718167119966 -0.0034390246762011248 -0.0022146626715203828 0.002465666191661456 -0.0019404571675997687 0.0022805516366570066 -0.0022299778029533928 0.0004011110690557336 0.002230133551740958 -0.0017856239982102647 0.0031942417028625273 0.0014311302782460988 0.005634310441156925 -5.417848290328668e-05 0.00020097850952154555 0.0023009839686767945 -0.0004900258116545105 -0.002449025199587336 -0.005850052259700971 0.00144007336803468 0.0009180852715972985 -0.001985391981998863 -0.0009099818572040467 -0.0028036208101058138 -0.0019187832145146667 -0.0012504469723387554 -9.626348932522473e-05 -0.0033454497315398265 0.004526795100490287 -0.002488158403106074 0.001480154416721019 -0.002462585118107728 -0.0007312832229159754 -0.0015110678664149943 -0.0018937960942537954 -0.003858060093160469 0.00223284667854758 -0.0015931473692464572 0.0012619484121679904 0.0005841595065932609 -0.004194417709009805 -0.0011110997397764328 -0.0023944116425564464 -0.0025944550009882367 0.001021057972245953 -0.0012728153310239605 -0.0017709061430996845 -0.002401858486344804 0.0001778581958294152 0.0007626777230807678 -0.001958844603517512 -0.002738284340885647 -0.0016424745889786823 0.0036997505910216595 0.0006488596878634921 -0.003813846778232499 0.00044925065603437016 -0.0008532955758391959 0.001660359052660011 -0.005981573524378491 -0.0016204620899881472 0.0014622611842640516 -0.002063753295506185 0.001301946426537307 -0.0043372335923836545 0.0006122659605222752 -0.0012750126520613611 0.001659368219382359 -0.000518185718526755 -0.0008595616139813243 -0.0002885919662763056 -0.0013312697809156713 0.004108768020653666 -0.0016876612120130768 -0.001160452362509976 -0.0034983866939498525 0.0009652703724206831 0.007417760062452392 -0.00010243858950895742 -0.0001899938635973028 0.0005610356846785567 -0.0018249395784704736 -0.0014951968575851555 0.002873632139474054 -0.0016946043882526433 0.0031025721184045926 -0.00016362893779996876 0.0023644583485577624 0.006424236806424504 0.003282514857754373 -0.0010089096981048574 0.002168728457697717 0.0021332230517442444 -5.998111875642847e-05 0.001187046453691412 -0.00037313034747723037 0.0033483043202122906 -0.002731634010311339 0.0009717505023744866 -0.0024245790738949683 0.007374526017034157 -0.0027022140832582173 -0.006774688037991599 0.004165935703013154 -9.7276600590945e-05 0.0008597405968067817 -0.003658734609898134 -0.004416065224384914 -0.004058660061924934 0.0003263788423689035 -0.0006704356309673155 -0.000540290642007603 -0.00529355215261641 0.0026602496222259244 -0.0016075726139821282 -0.0015082838217822991 0.004055203907168122 0.0006338730963610213 -0.0008007250339053691 -0.002443807327896521 -0.001472474616937244 0.0019603823333274096 0.0046973452057755645 -0.004321602404271523 0.0043981563611360745 0.0017363284622025962 0.0021254021799187867 0.003339470261781645 0.0014228276142470627 0.0043651599768887136 -0.0007767933083861887 0.006317481510184279 0.0010015148792840035 0.0014096153269922969 -0.0014881948399261917 0.0007444669796168591 0.00030470883515105015 0.001021851559443968 -5.940899985072486e-05 -0.0029546363586730787 -0.0008635065755151438 0.004535446472631441 0.004670654094401493 -0.0006657827087597014 -0.004422530060562041 -0.0025480327423159925 0.0005841469109472276 0.004438427135256301 0.003470841487883795 -0.0013203347999802002 -0.0045729927239136344 0.0010259600926120361 -0.00245769016835558 0.0024891118497391896 0.0012909282230344934 -0.0011803106260086984 0.0013700689726059458 0.005361119261332659 -0.0018864973508241232 -0.0037806430306393034 0.0007142869975510551 0.0016263830292559704 0.0009088400733527436 0.002329965663629115 0.0004502554586951485 -0.004100976680867165 0.0020103393265135205 -0.0014368404337980162 -0.003220001098255295 0.002111216785409166 7.28455941286578e-05 0.0008633106084239736 -0.0016972805460289322 0.0027345595195359938 -0.007344777849908713 0.002604050972445086 0.00033964306601019084 -0.0016725701771689266 0.0009332973466365361 0.0015171087613107584 0.00104862996901713 -0.0005900009356817841 -0.003955815950992299 0.0006654102978976636 0.002260952626955426 -0.004643589341185283 0.0033230816507391313 -0.0005556863220295588 0.0012605512209963032 0.0013691976589276784 -0.004396253028914077 0.000943025874445587 -0.0015413701888328326 -0.003817783899343311 -0.0007837953512290813 0.0017743182644000995 1.6414622329833128e-06 0.0017911959124859635 -0.00028998784757683984 -0.00015296774413137636 -0.0015731241239835268 -0.004798807883347134 -0.0016108565276165743 -0.0033587653452979305 0.004037222546736354 -0.0013137211613680501 -0.00159887816542708 0.0005975853772846746 -0.0002325967833889727 0.0004526354599002496 0.0005996916729164283 -0.0004016351191329487 0.0020202480691275384 -0.0010291750656360474 -0.0008491964777867216 -0.0014322312101995712 0.002651005528193948 0.00029361898793163824 0.001237690380540927 0.0003417395443703139 0.0011164857417552806 -0.0031613160702936636 0.0026511788064590785 0.002755612338274927 0.003295299751685782 1.2545800771399767e-05 0.0003209393485482421 -0.002184298538688731 -6.13596424722075e-05 0.0006346606508864049 -0.00028451961872989263 -0.004465840958270517 -0.0005040398405073882 -0.0018735751720426077 0.0044627384161193655 0.0019343379915617435 0.002066966268023295 -0.0033695439254931296 -0.0004957295981442677 -0.0002804341876337496 -0.0026721928798399963 -0.0007348677231795072 0.0026775000237614496 -0.0006729415241146181 -0.0036590631756037916 0.0021682754018107417 -0.004593445289866892 -0.004366191904374301 0.003960496514776378 -0.005080340224704744 0.0028358731251920998 -0.0024638267793974647 -0.0019086775248838175 -0.0019016021711605977 -0.002776382433619692 0.0026248683797116816 -0.003485166171670709 -0.0007625211180041023 -0.003057639128626557 0.0025954214700883295 -0.000796951355480895 -0.002094644706116175 0.0006786866412508221 0.004389633584860976 -0.002427631316914869 -0.000973446827199531 -0.0008792594351306435 0.005826247120813411 -0.0033222981325429697 0.0031581871003768694 0.00039690050732666136 -0.0024734765748063467 0.002765539982246091 0.001936220713636181 0.0022531429772474484 0.002039285999709442 0.0032323251241002772 -0.0022600069156122975 0.0007327596226552987 0.0011268745701038712 -0.002683596197086654 0.005164208962183941 -0.00222209406633668 0.0001731451448314094 -0.0016134241874156956 0.0001865833043874247 0.0007302640567917703 -0.0017160023383198824 2.5215163152515405e-05 0.00011231437776007438 0.0022186701252537885 -0.00018557363139411797 -0.0007380330258978862 -0.0039038366399527465 -0.002809838286695289 0.00318638285857552 0.0006119980804306785 -0.0017305989556558202 -0.00023192098968769761 -0.0005291852185545428 -0.0013305541579090448 8.412963482104088e-05 -0.0009425568157647657 0.0022073998219727044 -0.00023697515456926708 0.004181385076863117 -0.001885559973813815 0.0008614969809559053 -4.999240727323754e-05 0.0007662317090962811 0.0010422120794078451 -0.000585358543915634 -0.00018552371563864502 -0.0011304610908664193 -0.00041117351361728865 0.0007265890196603862 0.00010877741392389278 -0.000942620276070715 -0.00031055197761869195 -0.0013580669908519784 -0.0009856775283085845 -0.001409162680198199 0.002684435777678995 -0.0005216794138405619 0.0032943851489721774 7.91168925169475e-05 0.0002687835715085549 0.0023218446243453246 0.0032463345714229324 0.0013424421453751335 0.0015177728828110273 -0.0013233835700536217 -0.0026602333142062046 0.0014587904557093877 0.00013538698503656708 -0.0023331416829886066 -0.002155795246449455 -0.002803352885868989 -0.0021114322141064707 0.0019254164505463378 8.736039908191459e-05 0.0008378831451862794 0.0017806672032034754 0.00021443228414711753 3.8058659216597326e-05 0.0023578191009603756 0.005005641183007205 -7.507582845596522e-05 -0.001547138404323693 -0.0015838657768393583 -0.0024141070587233734 0.002631738742366998 0.00046008186211061325 0.0009737326857422446 0.0006686387050622283 0.00032660439852143556 0.0030059137703450003 0.0037361126619959743 0.0021505428728576903 0.004477228674051953 -0.000391640952436265 -0.0015871189420519224 -0.001631200455388229 -0.005634750735689509 0.0007706426503983619 0.002020238542594353 0.0005863160157773522 -0.00416957310839806 0.0009509162649275518 -0.005019836412535384 0.0014159973097332482 -0.0025382057194764055 0.004450630779933093 0.0030474109991611496 0.0013682922133702018 -0.003795260556015703 -0.002069362845437054 0.003161693758211489 0.0028782593167541283 -0.00229780417954504 -0.002648330127132608 0.003098596191229607 -0.001691721892886791 0.00028151128762904257 -0.004580303127363135 0.0017090721915094089 -0.0004192853002045711 -0.0007266704114461395 0.0021810442181871134 0.0011970151534559119 0.0001914960609286766 -0.0011713861536413648 0.002259495943800293 0.003150868572006844 -0.005619759179450095 -0.0011731226482151443 -0.0003186790341155777 0.00429274649696288 0.0021926550927403995 0.0016596560148196711 0.0008499715253370249 -0.00018798401594899002 -0.00015729591528540292 -0.001098132415173994 -0.0003159592579274512 0.003852780709441845 -0.002964026676875271 0.0020361952711991835 -0.0012537402672206579 0.0030601046615673527 -0.001617974413926551 0.00031727203740267385 0.0037427970077991324 -0.0007445521313036193 0.002333566575552653 -0.0015697925121325262 4.287583278156121e-05 -0.001072919580176504 0.0024111986371103725 -0.0007390816219514852 0.0022351620516673416 0.003174322256000957 0.005211936746286626 -0.004258992338424561 0.0005632425169374615 0.0038775269541294574 -0.004286935664875117 0.001960530493011989 -0.00023694262753610446 -0.0036796756369946127 -0.000754519312764191 -0.004082855942497287 0.0023652883175512784 -0.00024755888378593386 0.0028136632049681415 0.005719570169315758 -0.001564003838762514 0.0006110208802833114 0.0016425899845780073 -0.0026773263376952965 -0.0005277760104601901 -0.002027880399501897 -0.004536436854001157 0.002464575208755801 0.00119535902384454 0.0008064196226893279 0.0021861392886954154 0.0025472999670539667 0.0027054475552422412 0.0024358346902366634 0.0005961096730722676 0.00014186078820075773 -0.004838740040986671 -0.0025372273456622306 0.0011262384930855426 -0.001458152301170288 -0.002982294701181148 -0.001619425282331108 0.002218761084087053 0.002432228654395801 -6.56637457196364e-05 0.0037417644585941235 0.0023511365086568534 -0.00048019301659296096 -0.003832583347708097 -0.00048217729566914653 0.0011618004140358117 0.0021623830772897774 0.002261594290118797 0.0013586320439407187 -0.0022972980995316105 0.001961405487739892 0.0032440957627936965 0.003134708895160755 -0.0011738061049898696 -0.0005207843817038572 0.004650467619488362 0.0016021543503391294 0.0023721540894583045 -0.0028570822788639063 -0.002962857860187484 0.0014181497616729954 -0.0002094988825434436 -0.004631619093209428 -0.004679489444289883 -8.008749655722312e-05 0.0008332441299632382 0.004839661817662079 0.0005040958333742963 -0.003578836696213114 -0.0011161447237158248 -0.0010433924288551694 0.0003401877471432787 -0.00027703279428923624 0.0027664230708006284 0.0006508833540716413 0.0017402890385972035 0.00012311441588114778 0.004639987790166989 0.0012983222397047107 -0.0016894894111052037 -0.004290165776561771 0.002217646885053337 0.0011450908944751921 -0.0024900470546248632 -0.0027604593736405007 0.0013741944095415845 0.0001253518305778391 0.0002154333500061335 0.0006175181594327257 -0.002752025073364715 0.0003929764821001183 0.0038296122302988174 -0.0037067854774624257 0.004190870872467037 0.0039004159360581125 0.001814748340390008 0.0011796437148690448 -0.0010357215864540644 0.0054982600877356005 0.0023369240800019207 -0.0022479299082980133 0.0020226180308927375 -0.0006181656455379768 0.00029532433973266124 0.0017093367441013295 -0.0031364512569693513 0.0038965622135132103 -0.0002604080430730475 -0.0012456337236936425 0.000724710645441581 -0.0001325854958042831 0.007445292011763574 0.0015290947259048173 -0.002727880398256039 0.0018461863574491763 -0.00016519736199604204 -0.0019122190686258714 0.005053712679502424 -0.003321699096114846 0.0018424369623384893 -0.00022101643224037114 0.0017775365872601861 -0.0030994373817474176 -0.003363448402565012 0.0007958601570778005 0.002615038258452015 -0.004232505547253447 -0.004450162047586552 -0.0035283846582416056 0.0010767882420716973 -0.000969394003984364 0.0008954392298042774 0.0013138764813444448 -0.003305518057762233 -0.0036712059424576092 0.0031471255869016013 -0.0011563017059350758 0.0015268413539029186 0.0001838209565978151 0.0024067051614691535 0.00108424606943927 0.0011529653074159383 0.00023416085960450237 0.0011147525224169163 0.00261466046267858 0.00019477521233952916 -7.471967515827151e-05 -0.002135887256954585 -0.0019432937992806402 0.0047025847027229815 6.804202597844015e-05 0.0024220548546915167 0.0036793927603049324 -0.0036489352513830076 0.0009556601598028982 -0.0024604098163042293 -0.003188924179155283 0.002959477263119784 -0.0021633407421003553 -0.0011882411145751003 0.0020391004429387823 -0.0013331945292258149 -0.002772989072029101 -0.0015700914651474963 -0.0029872704358007924 -0.0021097541678274214 -0.00020331329084386838 0.004355092341537393 0.004048373399232662 -0.0008448917314916462 -0.005740497238274429 -0.0014368488122022667 -0.001139926310374189 0.0016014571003687154 0.0013759758318680623 -0.005060312966856976 0.0002514594604786666 -0.0006165454569442985 4.667523288109404e-05 -0.0010540997346986914 -0.004789436500762325 0.0003867836173602346 -0.00230072754131409 0.0008376721632939819 0.004927757764633258 0.0002388697687590848 0.0027246889506939748 -0.003630046568136011 0.0007851595481988689 -0.0017673916985289765 0.0010488313408526394 -0.0048447785559286955 0.0018538607457258193 -0.002981602350553041 0.002134339790717277 -0.0007094041375026363 0.0033238431944830177 0.0018150147330544667 -0.0036276847495604995 0.002529261752113733 -0.0029774995360521616 -0.0023226269481091124 -0.0018545880492802577 -0.0005030541519789437 -0.0006047133958227362 0.0011868413574917932 -0.0024359460827701397 0.0008587300284706957 0.006298516092845724 -0.0010782875498733461 0.00037372465470446276 0.0030172644890769183 0.00020643960944249242 -0.0030550932663771083 0.0014291208586578728 0.0030231914631133694 -0.001302468748507181 -0.003355051885471811 0.0006141244517901635 -0.0010599428979816464 0.005545345015050675 0.0011470547302777764 -0.006195399945947001 0.003168800380687276 -0.0005358824557952989 -0.004356631986914907 0.002509380169122841 -0.003829657104018834 -0.0014519844329598456 -0.0003025740600371526 -0.0027251347183377193 0.0012073660660669378 0.003681649144552956 -0.0019641383267948714 0.0012579141076930211 -0.0024779656398936467 0.000561671788636942 -0.00010860706748448492 -0.00033327103943419354 0.0010887740222612346 -0.004479114567934498 0.0019569513035812306 -0.0019348122955691615 -0.002950936406781032 -0.0002669399216808391 -0.0030968217320764832 0.00026747385083840776 -0.002082116100172359 0.00572703385839719 0.0010634727866418224 -0.002607469260605417 0.0009985533353746973 -0.0032520850819942005 -0.00017464188805446187 0.00027480028140478057 -0.005184456052234474 0.0023384693011697637 -0.0004205019954144229 -0.0009164564841087423 0.0008677982654236094 -0.0033504935647837987 0.0002655039490901368 -0.00047457340825006526 0.002814105205313612 0.0003748893702005426 -0.0004928483986817373 0.004208761779530505 -0.0022306855378128082 0.0037112569529180652 0.0011160534853590102 -0.0005479072827172037 -0.003958602812957649 -0.0002887400987286424 0.0009861015321936649 0.0005668321702815895 0.00040248639436269384 -0.005027724409312007 0.002671896500236591 -0.0029686739202295564 -0.0030551064573027145 0.0022846828482045102 0.005457510127651078 0.0001360544296280724 0.005530924942201153 -0.008789450025368182 -0.0026009650428227664 0.0015877114883827736 0.004983195946230823 0.002722779255969577 0.002524107488412154 -0.001116026677479394 0.004913565700842162 0.0005222122543993282 0.003289998927666366 0.0004113461515541913 -0.003334645919842703 0.003589492454894895 -0.003282602260452345 -0.002907436464427505 -0.00249688577165328 -0.0015663936989923901 0.0007102783617536968 0.003471278919908471 0.0036577934960885508 0.0028498539522111865 -0.00011239547433894147 0.0014462535487411556 0.0003818869278188446 -0.0017902583138688728 -0.002325273900267282 0.003394286692857909 -7.568538487028575e-05 -0.0007722165588135736 0.005226390337388066 0.0022262611129092915 -0.0011733042501813312 0.0012916361722950405 -0.0008965228806043962 0.002317198837079903 0.001913419815758045 -0.0012584070550650367 0.0033262749533430275 0.0005490706640370417 0.0007388119376254986 -0.002722729437120711 -0.0019223363732503436 4.5268107104234845e-05 -0.004646205894084086 0.0015431273657435412 0.0003248668431454681 -0.0009255722138502789 -0.0005947791466981939 0.0013685905106282622 0.0011190457016540278 0.000592522551626732 -0.0007494688900627188 -0.0007833903780601361 0.002565744604470984 -0.0007878939850345082 0.002889779372201422 -0.0031019716467506632 -0.0030664459153214 0.0018699797324858388 -0.001931833187989253 0.0015867107384355985 0.0031261142815853797 0.0021724885324257595 0.00429983059937626 -0.00016962907024281693 -0.0017510680857908423 -0.005401323724471905 0.0013659914043857686 -0.0032863495078560433 0.0005993823248246079 -0.0020859906819256824 0.001066828588933325 0.001972446512114697 0.0014254998282124964 0.0028024297378727065 0.0003043288908021259 -0.0019106566972620863 -0.0022301491190932724 -0.000354244052877339 0.0018252047777275171 0.002409809286337874 -0.00047723133965343596 0.0012945595856787017 -0.0025786042449784416 0.0038713045546634644 0.000691748027944879 -0.008663665913477689 -0.0002067479951317717 0.001561264716590009 -0.001368973375655891 -0.0012907518517201479 0.0022699745281923598 0.006313497085043909 -0.00021085873099592055 0.001237334073204118 0.00011348949889190288 -0.0023015762856486758 -0.006993700946462613 0.0057715571248750765 -0.0014416312191215333 2.7737586504135615e-05 -0.0019208231839838278 -0.0006467174516808163 0.0028979539655959352 0.001984961789035802 0.0006982067306073883 -0.0012838360104049636 -0.0014084166829282634 -0.00017232667160853237 0.0001537467996619868 -0.0015162986409356773 -0.0011264534967249775 -0.002018306321677199 -0.0032316888002829653 0.0038816072651526802 0.003242226145716055 0.0034678898925958597 0.0024651118739911445 -0.002057895047066914 0.0030962770274703044 0.00025831712010686633 -0.0005459058967969472 -0.00016565730508068008 0.0002999437306755016 -0.00265651557291057 -0.0001788764749496978 0.0022298750982322054 0.002376250857902483 0.0005192347156276275 0.0007336157039415757 -0.0030973926546658728 0.002379033131991191 0.0020638937769592654 -0.003857364122320725 0.0008421657246759161 0.0023932157221637817 7.276326550346276e-05 0.0016831043839057838 -0.00018312524621144646 0.0024590782282018693 -0.00022232718619749885 0.0030563964973742107 -0.0010485687446515322 0.0011578011117618196 0.0017587340777143502 0.001053858742331544 -0.0016520152167863922 -0.0012985157172906991 -0.0012292107600525692 -0.0012384487110010944 0.0008040307241549802 -0.003989184836635105 -0.0011801288950689737 -0.0034053052161490786 -0.002088008665406351 0.0010402533254488418 0.0018099191154474553 0.0023011483444979417 -0.0048937081836202476 0.00024115815472600127 0.000164847742291248 0.0032688533336818052 0.002327849653511836 -0.003742765459750879 -0.003855091066511789 -0.0015444242553930387 -0.0026615239305417303 -0.0001442239609586651 0.0006066618996763971 -1.4784746935802312e-05 6.941943453224395e-05 0.0024547395213089366 0.0012679636775397112 0.0011522940776575944 0.0026837832307132037 0.0031945739341191367 0.002190960038235426 0.0016891156474946197 -0.001344162617027699 0.0017125273249934863 -0.0021884837090545765 -0.0006079905304490113 -0.004403546456887329 0.0006132241256565531 -0.003963443193169127 -0.0019547132805044923 0.003006383611972182 0.0019789809162424838 0.0016315024301449203 -0.0012008371963805858 -0.0051107559346896024 -0.0007675411886640019 0.005349176107089967 0.002320862376040938 -0.0027657140483604856 -0.00019304371887134562 -0.002593843411101466 -0.0011678055484431618 -0.00558731051987768 0.001648506561904856 -0.0025903120547476014 -0.0005669056562192335 0.0019794276380321347 0.00302373605664638 0.0002812000344325742 0.00047637294547476567 0.00030439338691239256 -0.0010745797505704834 0.004300183474255703 0.0010699058413438725 -0.00023810966457802626 0.00280062000394657 0.004256792590679744 -0.00015265524762731578 0.0030035957266435756 -0.0008442475980505629 0.0013711544743321925 0.0012163767444095543 -0.002906819159469473 -0.0013111942180748098 0.001490114615343385 -0.006802420579209745 0.0030046882600450265 0.0026439672558586595 0.0038961706399010267 0.0018653549100198243 0.0027020390825706793 -0.005594703605731799 0.0010518878151428357 -0.0035172452855421546 -0.0018015501807699531 -0.00023787516633376327 0.0008593384247198127 -0.002204486386625613 -0.0012467052306742222 0.0011449323787499305 0.0060790756901930275 -0.0010493933750356094 -0.0008596265750315712 0.0022065055705554944 -0.0016199655485975263 0.00028539532825785934 -0.0021704558401831574 0.0003372851965839791 0.0004840485364639748 0.0013654748963851653 -0.005568342425266414 0.00023198627068467473 0.0013507231672771442 0.0032056074229162906 -0.0020942295865134706 -0.0009752992570626193 0.002241431966321759 0.003633905385171117 0.0033543885595032305 -0.0011350010063007688 -0.0010380802664989128 0.0003606500530450814 -0.0014714110764483166 0.0037987543020709495 -0.004218302545268514 0.0033335750977834424 -6.283605916086436e-05 0.0025314587643302695 0.0005968819398569487 0.0011391701852729128 0.0030694032193734 -0.001302092077632685 -0.003548870916519075 0.0012269911968593077 -0.0021253792903025833 -0.0002652336897475284 0.0006356935252175017 -0.0021012101164830056 -0.0002350080082035256 -0.004689676026682003 -0.00321775393002208 -6.517022795165167e-05 -0.0031334037291855864 -0.000739155825808713 -0.0005657062614203065 0.00035767642729514753 -0.001386656870944191 0.0008702563757671616 0.0002832555198757441 -0.0003571439429746616 0.0003501925339284144 0.002214629874861522 -0.0018621525904387141 -0.0029661090655155103 0.0016170032372486707 0.0022169844538837305 0.0009008675810130589 0.002500849138625416 0.0007694228593502125 0.005084261697924271 0.002162631152574009 0.0016530631594116583 -0.003756166781768043 -0.00011856390309769517 0.004410472205906944 -0.0022559355041709022 0.0004670963732718713 -0.0009245057276425785 0.00028082709503098166 0.0024359919794735233 -0.0022112682398187323 -0.0035519684458454152 0.0034159499696895935 0.004184496719808386 0.004538290246417723 0.004724505112645894 0.0002709238610257512 -0.002051163642949454 0.0030440733032671536 0.0018360010978280016 0.0019103467418855856 -0.0034311661820721714 0.0005481845248581824 0.00043774778671003495 0.002962475188372757 -6.641931709633602e-05 3.71410060169847e-05 -0.0004805311891209174 0.004194322736694981 -0.001355681995985861 -0.0016562370072435919 -0.000731614815236398 0.007406880070334327 -0.0016908285611290552 0.0023663016504591747 -0.0008798727169433485 -0.0033892743959077795 0.002319702549853649 0.004200626357553911 -0.0010796036568838801 0.0034413907377808654 0.0018334813246684175 -0.0022488038334251476 -0.001213313981141379 -0.0029600028758803207 0.00017358167845031366 0.0014967657643676312 0.003999015737920686 0.001001250047085135 -0.004514292903339611 -0.001993977849197696 -0.0023972176729790866 -0.0010726957908059795 -0.003933035815307199 -0.00447797446164294 0.0026838689869674204 0.0033273070067754715 -0.002675855821220079 0.0004744252742512265 -0.0020874020318733034 -0.0015425031686317717 -0.004784684904453468 0.004818279322698754 0.0015890189041987835 -0.0005427948262027298 -0.003966534345526898 0.0016808325120667297 0.0022186979448578204 -0.0008804127127910785 0.0026125589019355363 0.004493923889518286 -0.0015694437020265083 0.0003403020419515081 -0.0010715383972431066 -0.00030216662046740194 -0.0029112235312626234 0.0009076212502839389 -0.00018120864188405814 -1.8139296880630245e-05 -0.00021532477376020763 0.0010054156223946527 -0.0020133446585935207 -0.0016682175587284678 -0.004063288874114774 0.0031742189388953134 -0.0009246021774525698 0.0009647924961880905 -0.0010101486108875907 -0.0024875693890502085 0.0023898207566510387 0.0007138259450163014 -0.004118362636356186 -0.002060037429189122 0.0010725928157844578 -0.0005764975581055274 -0.00557363514277534 0.000870028845737133 0.0016814244138366949 0.002476640749151837 -0.0007232961844294966 -0.0026232947255081574 -0.003682513549293358 0.0012037628606874722 0.0026945512089477453 6.72356131161955e-05 0.0018820754456001728 -0.0010704409802894971 -0.0023300245222370986 -0.0003970356839576693 -0.0027050218439154347 -0.006090372475937754 -0.0012936937317974853 0.00015230444341799253 0.001927361945470433 0.0011669078538942702 0.0023150198567587323 0.0011346594086220957 -0.007051817721986455 0.008225276966415488 0.0016299859522127876 -0.002207223982770998 -0.0016645058727669327 -0.0002127126997297385 0.0015852426118344832 -6.909919736850196e-05 0.0005398765302896737 -0.0028483937579782815 0.0023575448719329495 -0.0021176304068491487 0.004138677817599594 0.0038661432457529924 0.00011208796139134705 -3.472271528310572e-05 0.0003117992607529585 -0.0022123667464328334 -0.004397696461964125 0.0021190437308176084 0.002176133046567657 -0.0005737130312890751 0.0012932365295135631 0.0048746242596709585 0.002033111761610885 0.0028452772642502924 -0.011063938420631858 0.00043712061145303766 -0.0025000316885572965 0.0028574193424470602 -0.003547674263186252 0.0058574282743926636 0.0008455730638594779 -0.001454044552901028 0.000358809074750876 -0.0003954993315798418 -0.002298794378128539 0.0009812784648256456 0.00039357498906260113 -0.003466283787093563 0.001224968414071251 0.0017531028124185381 0.0027299903942878167 0.00417723742660484 0.0029330870232679 -0.002700633601766579 0.004281821653931779 -0.0016635150015084249 -0.00023519773910968356 0.0005817402733558388 0.003649310649859608 0.0015667875418135906 0.001001093322913879 -0.0004352020267690298 -0.0012419577554607462 0.00039689272547658655 0.0009685703910890294 0.0062814050769029895 -0.0009622471696377613 -0.0011403182641211707 -0.0034366062295676557 0.0008313942470365013 0.0038519368055668288 -0.0007720709275228525 -0.0030182088263454847 -0.002600769111203955 -0.0008900705480940642 0.00033198472651267387 -0.002577590811330589 0.005214968267487735 -0.0011210113725133239 0.0006665600726349972 0.004858965987551239 -0.002307094479153503 -0.0015243881204219586 -0.0012007626148384536 0.0019016298792600354 -0.00022435578851539691 0.0014122074658709286 -0.006215490919524914 0.003696687321363106 0.0020143930624788474 0.004605260332112066 0.004973002758670973 -0.00036086269593572646 -0.003202883949560681 0.0002654045754676002 0.0007890775247035512 0.0020500284789782748 0.0012192293437829223 0.0015605695147850138 -0.00047941564230699054 -0.0004094912112595447 -0.0008505494812997076 -0.00196459640678456 0.0005479605945066925 -0.0010232512078276385 0.0015991972897990753 0.0013503163457932329 -0.00011276784056857811 -0.00020703357776070082 -0.0021165721992216545 0.0008570155828330037 0.0020449266170360766 0.0009238753973763971 -0.0003843517102116429 3.290718857706251e-05 0.003297446257982999 -0.002327058722988038 -0.002988277610876276 0.0013481288017284454 -0.0007275138101752972 -0.003390759003610012 0.001432833847555425 0.00267663699545787 -0.0006716013448974925 -0.005118771012921716 -0.0007599332323284732 0.0026319254709772063 0.005790679369043574 -0.0010338320570219303 -0.0003324868435377979 0.00036760625361380924 -0.0013508815356871075 -0.0014797467176155188 -0.0055261080217147785 0.0034380807063866263 -0.0038194231792833227 -7.023692667019449e-05 -0.0003612396187404164 0.0011228200043451844 -0.0006919335077477131 0.001070024652969341 0.00022202133147106108 -0.001812547990323911 0.0004848441453361139 0.0016780282530415116 -0.00043554093907645537 0.004545044278575058 0.004385440746414347 -0.003145386032565727 0.0020132681375155293 -0.0032853566208720752 -0.0006794594992100432 0.002512546170337544 0.0010687758573005043 -0.002564710101675781 -0.0009900704166169068 -0.0006975705329517965 0.00682542495721974 0.001130249620474437 0.007609104462948618 0.0018957946194749816 0.0029521649343654793 0.001118025407937973 0.0023464981372742044 0.005536926768060108 0.001378486493845164 0.0006803844798873889 -0.0015993062532879746 -0.002445269274516877 -0.00045342655936543347 0.00157330331066291 0.00030642292970767027 0.0031471771589395765 -0.005184726354331235 -0.003352231845043541 0.00048127655963287595 0.0006568902628294429 0.002885431272979558 -0.0010305929836570747 0.0025604870916018994 0.0015879555098095776 -0.0013712109202120555 0.0023949679141394083 0.005538367491186075 -0.001021686312343555 0.0038972318256127536 -0.0006916512765915434 -0.00030194559477875275 -0.0008156264736977135 0.002600081845612281 -0.0001777358456327588 0.0033748155762787064 0.0008782159499061372 0.0015390849021825407 -0.0013937033165644496 -0.0008409452282913747 -0.004237982543761838 0.0018680350966073182 -0.005752227701402395 -0.0013218051264064154 -4.9175643347616604e-05 0.0038113559756008638 -0.0006718962637592383 0.0007009034625167497 -0.002907877721617129 0.005642028783300039 -1.4493680674393408e-05 0.0036419842386338844 0.002357567776628856 -0.0034789816743297226 0.0019491321210341433 -0.00025738085827024305 0.001855503423141733 -0.0016215475449153894 0.0012630816167459123 -6.561054558826943e-05 2.519270816801089e-05 -0.0008751736520257558 -0.0043572162688041045 -0.00444389889549579 0.0020413354552379108 -0.0012762510945591632 0.0013078512761768113 -7.171862913088977e-05 -0.00015028743245096927 0.0002485476017755109 0.0002797624262215661 -0.003784527867462346 -0.0002944938410087203 -6.957597629168538e-05 0.0003990730932384049 -0.003293389314592337 -0.0012297404998577286 1.4775073571241794e-05 0.0025914874169131754 -0.0034906818364947453 0.005457221275787591 0.0011606548254965079 0.0009204699536189038 0.002676037149295143 0.0037179744513210866 -0.00011691500215897074 -0.0002679124258464142 0.0002756614680364095 -0.002614885340463839 0.00014894106247354504 -0.00215341844095755 0.004550546785035851 0.004676311336286159 -0.0003437065092235411 0.00381056530386597 -0.005147281148796025 -0.0017476596799878956 -0.0008455068561774657 -0.003451490659748656 0.0016985984592713893 0.0024563011019133473 0.001584292084031378 -0.004418245918449447 -0.0015857038234095774 -0.002093246927753393 0.0005015816126987851 -0.0033582681448412247 0.0004388052091048398 -0.0011702975899657738 -0.002148422374378661 0.0012347358626349331 0.001377653733109657 -0.0019770895978687957 0.0031756816312069652 -0.0003911693649836059 -0.005938985933331176 0.002647816930903385 -0.001835180589289501 -0.0005272116503255515 0.0011172867031068103 0.0005049826641465797 0.0018070854464533467 -0.0007287955986340704 0.00163370280486842 -0.0011204561121130397 9.795505774402058e-05 -0.0013245874645549105 -0.004974500323642209 -0.0009381200351471137 -0.002098989922980581 0.0068297170774071535 -0.00019895749180513366 0.0017297533773184463 0.0032503673006582267 0.002696296465823003 -0.00017366162095089384 0.005214900442499571 0.0012764623181668359 0.0004150402742503182 -0.0007330762801315013 -0.004248521333055655 -0.003548785388836258 -0.004021878748051705 -0.0015347146846547972 0.002658276708006208 0.0009789938175835955 0.00023164870045881128 -0.003681132821364226 -0.0037534912887768877 -0.0028869330924589593 -0.0006126542964657936 -0.0005962525211461843 0.0008010195743704672 -0.0014851778086711217 0.00243556227861655 -0.0034485172465636028 -0.001861731844050084 -0.0024312759693765 -0.0015744929685944462 0.0034836123588711967 0.0003789194224192682 0.003292263886843826 0.00248878363163025 -0.0015213302639546795 0.006197863562973099 0.006948036704304178 -0.0028952365721605176 0.0002804801241502881 -0.0018185717377767192 0.0044159407404522335 -0.0025221336941189513 -0.006262004608963112 0.0030400112734258037 -0.001938943997439131 -0.0035852104614240445 -0.0037165753697786085 9.805371968997842e-05 -0.0007870613315524694 -0.0017205847310532278 0.0022315382550940014 0.001756295739805923 -0.00011248011296222167 0.0015806227837388274 0.0014148254116936705 0.0029089405330924053 -0.0004507386194865457 0.003899721083627543 0.004112562273536741 0.00019810832652801002 -0.0025598710300480582 0.0006031268523697092 -0.00268806392420482 -0.0025975745038043824 -0.005641551443074024 -0.0010219226957374223 -0.005560510584431056 -0.0005855268825810375 0.002688328876122319 -0.0031510741318247428 0.00395104279858393 0.004171215806533689 -0.0038198149782464473 0.002891418537631063 0.0027318908666939547 0.004377146118588902 0.0009387544248914307 0.001367985458237222 0.0010825701408869398 -0.0019410582134209427 -0.004942782697812972 -0.0010510716298048665 0.0007671470295985475 -0.0014005055645981278 0.004866051283863572 -0.008711376332984192 0.006026608212500708 0.0005276271177703893 0.001080442911951835 0.0005997282154196237 -0.0011324204460245902 0.0022527550633340446 0.0016112713547509012 -0.0011969994198383327 -0.00022274352423944682 -0.0013051675616554757 0.0006517734438906463 0.00033026411995027924 0.003320254500684885 -0.002028501777763872 -0.00036638941591302874 -0.00021919663953912853 -0.002216368649144744 0.001556403771595398 -0.00030967849685949525 0.004933662585407487 -0.00020363362534793868 0.0011976934496439992 0.0007421130503761272 -0.007446098862259757 0.0023860672638066566 -0.001168830290023954 0.0008490419190817576 -0.0015841945027855373 -0.0005311410258280749 0.0010716035843607711 0.0002989530647866664 -0.0014395859182796517 -0.0007387164946761886 0.0001621688658493119 0.0018729592012098634 -0.0010713599653767232 0.00014007727307613487 -0.0014289279577651465 0.0037008065751373783 -0.0037089984917276094 5.510721459180098e-05 -0.00138126575669446 0.0006296499474309438 -0.004496087661853103 0.0006272001505852484 0.0022263579694786722 0.0010764524468763609 -0.004883507173114723 -0.004112881661822459 -0.0028393035918603993 0.003705605248805937 0.0028437465056007512 0.00032744245383730275 0.0023791087585092515 0.0008918409617731434 -0.0012710438540364654 0.002698491445408571 -0.00027838925570985995 -0.002921250081613884 0.006761228457634828 0.0007041292017075602 0.0020124534808589833 -0.002707489553398341 0.006022254034763139 -0.0017817646016676974 0.005395888940420575 0.0025020450557033808 0.0001098529747598524 -0.001874577947775431 -0.0003492651686353757 0.0013300528552538582 -0.0017928635721207581 -0.00012314613178295678 0.0037394927401279443 0.004923149592664363 0.0014093521829350443 -0.0047141195254651385 -0.004327775108118757 -0.0016403324362691293 -0.001791129688891775 -0.0009170368276066893 -0.0002477543490821231 -0.000737136056684285 0.0036082009812640355 -0.0008324386259245302 0.0016695111340829176 -0.001692152673104882 0.0003036795782298327 -0.003993011151601815 0.001159952203406905 -0.0023349535989377187 0.0013303627112751502 -0.0029090277471315153 0.0004923549036018434 0.0019953100114840244 -0.0008123203288865025 0.002317082395761172 0.008133876835459207 0.003042591543684978 0.002263552053434743 0.002383311811457508 -0.006279333100720988 -0.0023952308167111175 0.003942860832269123 0.00045995040801865753 -0.0005698407451519056 0.0007683400948902465 -0.0009564833405146768 0.0021850433933401562 -0.0007320301204107294 -0.00249770943869378 -0.0021181445695352325 -0.001585672395567845 0.0010985093526764507 0.0038915852140299495 0.000643733074191673 0.0023660385756324224 -0.005475099524496169 0.002104170790155934 0.0064464941498323025 0.00266213053933627 0.0035999468341295056 -0.0032201138471503144 -0.0002998173434138105 -0.0019338842631440336 -0.0003017415221243405 0.001568741404311285 0.0018004189078298309 0.001060266499662325 0.0005495821613193735 -0.004559333613705131 0.0017011102894383433 0.0010531503774261067 -0.0005808656701129116 -0.0018112639034241322 0.0012332766918482908 -0.0004730318197215305 0.001838961553657669 0.0007443911977828777 -2.358512349286867e-05 -0.002481064823850892 0.00010384462591912724 0.0017710610396133514 0.002166419994137448 -0.00018398611292880522 -0.0048711738318535525 -0.0016311489333320265 0.0010763112209652768 0.0006792645053960273 -0.003754544737382293 0.0005314457060981977 0.0028874523599929187 -0.001222890944243484 -0.0011328223496634526 0.0005855506973020679 0.0007737140320477979 -0.0024579348444297424 0.003072236970681153 -0.0013858409974843245 0.005383096913644919 0.0008952481416579356 0.005869984921668959 -0.002881070791249575 0.002366085295944455 0.00270576368430286 0.0013277652903613691 -0.002769613724512276 -0.0011844881770336397 0.0005091897993996505 -0.0027452458648123536 0.002089318419563259 0.003087844901437809 -0.0035127716196897553 0.0023869477059262896 -0.001633842134561211 0.0031397994436469625 -0.0017626896608016814 -0.003164567408038231 0.0013618858374777252 0.0017231278501086817 -0.004398362737880201 -0.000925208896798447 0.0043441622866358 0.0002496236374441178 0.001468576099913233 -0.0035163153584613052 0.0049424069796982825 -0.0041373832828815885 -0.004463250410247429 -0.001923402752116784 0.0021003393847524856 0.0009745368362341427 0.0014484041672276665 0.0022178281166866875 0.00019462123106076757 0.0010099985338802172 -0.002363351817067855 0.0016488444006383719 0.002636158082477096 -0.0008583617998029549 -0.007523178913965015 0.0011791117854466333 0.0012303478989577866 0.0012036303969685225 0.003642399328542151 -0.00015543801330150607 -0.000339780588448119 -0.0036664650554315507 -0.0023056322927670026 -0.0007356316148350528 0.003852046805450092 0.003257310362436002 -0.0008587982894645733 8.710029020892037e-05 -0.003917871372726883 0.00041680696963383257 -0.0006103843617654331 0.001179831654345126 -0.000759934202313809 -0.0006064208669337108 0.0009376876509603428 0.003762792539761499 -0.0037658028304408072 0.004004141886580057 0.0007161236613200733 -0.0002297299813548971 0.0010574578132324505 -0.0008636489569635939 0.005205305819337425 -0.0010180144538203888 -0.0002157170067782145 -0.003909673529755504 0.0030704400011372784 -0.0026123040442984527 0.0023853781341106385 0.0023043076757670628 0.0043189851478853255 0.0037419595117978628 0.0008126508152488708 0.00015162664615230975 0.0019782834975050822 -0.0017394280107789488 0.0009650001169007908 0.001193764870562819 -0.0014843258745125979 -0.0007601148615595448 -0.0013220662493871249 0.0011848454326771102 0.0021770760579941416 0.0008548283485606815 -0.002812292072226058 -0.0008915467800628568 -0.0008537498544189447 0.0015073981479904357 0.0038212531365688293 0.0035924490225561034 -0.004727694367363147 0.001632557068009318 0.007388897850388903 0.002175168957182287 0.004391107024640528 -0.005550900449551318 -0.0009552523866878101 0.002223602699799116 0.0020358615997116453 -0.0019385101071750235 -0.0028625384321415356 0.00043342938240678195 0.00020522429832240972 -0.000520552570790674 0.0008223981247516427 -0.0010532213746376115 -0.0008393048373635376 0.006375376481979727 -0.006677559520423884 0.0014125959344345538 -0.0018734902110971977 -0.0007250844750544235 0.0005286529244475545 0.0016544395735261556 0.0020741283004377647 -0.0039364494205500955 -0.0036419329140788574 0.0020521843441088606 -0.001971671001464381 0.002530797671703083 -0.0019237217032781878 0.0026002973371312484 -0.0009849934677718174 0.000646508012911969 -0.0006713344510022736 0.0003940927970998694 0.0015085686992319161 0.0035436721063981983 0.0002090079036847636 0.0009324341156966137 0.00631828697848866 -0.0009627479022124557 -0.005699957129615642 0.0009306958955903798 0.003962326552155153 0.0029414141379083404 0.00306883158836952 0.006792485081927279 0.002502951594200228 0.002473680477274848 0.0009970685063384564 0.0017511335000934838 -0.0011375522089748893 -0.0020769194067137846 0.0007349732912142449 3.1269070097875268e-06 0.0021160720865010326 -0.0015610766913903397 0.0024385401175171227 -0.0006095996260769695 -0.00046715239509936726 -0.0010662971562819571 -0.0034339414643548053 0.0008466368668507315 0.0013476305060085175 -0.0005703262226409037 -0.006657986904960562 -0.0015863543452662094 -0.0028294949117559534 -0.0003160585375061514 0.001603475096025856 0.0027605850987967684 -0.00032129655888431957 0.0022130305343612254 -0.0031731572027183783 -0.0024467980991503364 0.0008852507072245328 -0.001511086958930485 -0.0014835797164506727 0.00033529404217476247 0.0005496088237732971 0.0008966193610670657 -0.003675579560535489 0.007642926652785561 0.0012527792737104674 0.0019276933746718969 -0.004199613912106659 0.0036584453792705704 0.0004779729987934322 -0.00403437063899692 0.0017726069313941176 -0.00206677561882087 -0.00046600735629503633 -0.0048436754979518295 0.003984623355099684 -0.0007218269612560632 -0.0014375546709220336 0.005010818522616148 0.00287274792185445 -0.003509206028777122 0.001117691126255805 -0.0010619170406525424 0.0032451176118180386 0.0008675980674381997 -0.001874957478702161 -0.0008595600284882026 -0.00046618300312130113 -0.0014588071720605723 -0.0023030527819641283 0.0006285915882549843 0.0010084272859112366 0.0010760092061544353 -0.003363238063775513 -0.0032498123812476744 -0.0017327808269343046 0.0006049581339382986 -0.0019852719719523028 0.0016185398820453636 -0.00046664967809226666 0.0016033352176045258 0.001637145032104529 0.001576720995342019 -0.0021482963576106425 0.0024827884411819747 -0.004002705858275685 -0.0003579980019342001 -0.0011873587878559217 0.0013011604219391657 0.00032445856129181654 -0.00431133777298651 -0.0018145648878910119 -0.0004872444085700909 0.00016703906833669607 0.00302972275553987 0.003800668100145176 -0.002388182168091886 -0.00032020581275107375 0.0026186796355828 0.0015789284288004503 -0.003549827821929721 -0.002921992980280249 -0.002021346656395342 -0.003268471916118077 0.0022883262372339424 0.0009477794422025314 0.00242325664440265 0.004336350305506702 0.0011595698215742546 -0.001408997502594394 -0.001045104647693923 -0.0013743193398394417 -0.0003893592969255483 -0.0013732881342216402 0.0016699882281613568 -0.0008689128444232028 0.0020366736204780115 0.0007619074217116741 0.003733184118141742 0.0010041093459035588 -0.0021988140898019162 -0.0034436184052396746 -0.00041167810240229445 0.005536061643653583 -0.0007792790788331811 0.0019098109876953444 -0.0010508018844920977 0.0005922178424897231 0.0027004064823042896 -0.0010477228505528676 0.0013240128325994478 0.000634131020359543 -0.0010929575493888216 0.0008718021620981619 -0.0017289889296237394 0.0007809426683171724 0.00027517495239270484 0.0024506654042746896 0.003763004096729468 -0.0011028530880181132 0.004337095101631283 0.001791101541350929 -0.0027005507455843594 0.000800998830128635 0.003382940657963103 -0.002435432081468641 -0.0036270650896600147 0.0036462342847825018 -0.000491580321413249 -0.00023419292330051478 0.0026201812045347503 -0.0043225763040915495 -0.0011003781740070598 -0.0008871763322468072 0.0015222813844416358 0.0008450063027958084 0.001548496675235099 0.005464509232768772 0.0007816709125981385 -0.0003413949550883161 -0.0015983228017430312 0.0004487822903102987 0.0030063867851084698 -0.0018740343606449112 0.001287073653899166 -0.0033208847099096303 -0.0008420017307956947 0.003055435291920849 -0.0011297497009872801 0.004734096947769232 0.0005986934307105001 7.330429243147175e-05 0.003140430576770798 0.000257460923786569 -0.003119720339694782 -0.002655903719729499 -0.003169754837891412 0.0030843723415679434 0.004591071717989535 -0.0012690577440032681 0.0013177096088176144 0.003850331389145908 -0.0021122667389791667 0.000156043495894472 0.0017343627024193704 -0.002863377187926892 0.0013688775862713781 -0.0017016356885108993 -0.0014441374352236068 -0.007915435008868573 0.0012433857534141005 0.001629787065115734 -0.002454400769708842 0.005492058844233526 0.002996819926031508 0.0033289807613659326 -0.0019025642364667624 -0.001039265733219975 -0.0036966859453901662 -0.0001580682872073661 -0.003425317229109995 0.001850029897307356 -0.0023789095496440393 -0.0031666747165772016 -0.005101781528087002 -0.003075392695542493 0.0008597194688248853 -0.0006322383595601199 -0.003031112561486095 -0.001219712664811669 -0.0003349521894589203 -0.0015730889847072596 -0.0013023176541377382 -0.000619357444864747 0.00422157903149703 0.001070782360810502 -0.003961059679474071 -0.00311829067362349 -0.0023881304131163177 -0.0012818258801418428 0.0021929671935028237 0.0044245189231909825 0.0011109816292283765 0.0007709469985091973 0.0015517365925708346 -0.0015879554024580817 0.0029079047753598963 0.0010032238394624832 0.0035109325435319283 0.0027435686210684844 -0.000392893313215952 -0.004983609906259172 -0.00031255550288409304 -0.0004774449122522456 -0.0016316915493433618 0.000696838542183494 0.0005662746834267668 0.002184767306496246 0.0010032698030802095 -0.0033965733547716374 0.003528663886213161 0.0008672405193774845 0.004262620619250555 0.0032340410926594795 0.0009851485679276968 -0.002979151476566726 0.0006148626983397606 -0.003499187035322951 0.0005829472170095936 -0.003295028051923494 0.00032742951773688896 -0.0016588185352777653 0.0018086761484492058 0.0030789907432976107 0.0024616593878545073 -0.002202528411427541 -0.0031865981670138816 0.0012992387895045035 0.0006660698646533825 -0.0031785528912095457 -0.001767697860016078 -0.0010496604321066356 -0.0037247423077793264 -0.0016405598085065692 -0.0015717228292925084 -0.0007478219812635871 -0.0011455365687726075 -0.0017544011110118272 -0.0020258874232553592 -0.000911381814500855 -0.005156441123895748 -0.000567454391755486 -0.002514294268278313 -0.0007215674593078871 0.0012065835751359918 -0.00011214663989393621 -0.004360305981756315 -0.0005097746896371654 0.0025423369803827867 -0.0026196733073163437 -0.004983025772405303 0.0021866078579207927 0.0008341125487873655 0.0013783360686887825 0.002867573729004545 0.000894660503077747 -0.0017317833596666636 0.0008639967583668125 0.00382094593936356 -0.002241969903028247 -0.0013892887685902796 -0.0011462864164821919 0.0001634607009240793 -0.00026068348411770263 0.0007151850975020832 -0.0027251593391402163 0.002037796417628213 -0.007006161060922142 -0.002248798967411746 0.0049090132814878975 -0.0006499728001554157 0.005449600466983999 -0.002755095748815251 0.0006974064937915717 -0.0018988960602847162 0.007986490408547244 0.0006857721968822981 -0.002121099905395277 -0.0016864413956286172 -0.0005710620940488955 -7.263170251910839e-06 0.0014003705689882343 0.00566264602730687 -0.0018534094212308294 -0.0017580366125386098 -0.00222556706209144 0.001089220482081034 -0.0013258199684778886 -0.000541740083202457 0.000919826552503969 -0.0008087285571906395 0.005590810817472299 0.004785696933550148 -0.0002590745110154014 0.0032561809978633918 -0.004366736797828715 -0.0026207990177227795 -0.004616983177367525 -0.0012237471419594935 0.002142983180474097 0.0012235444035636567 0.002435033980278013 0.0001567780580015619 -0.0005710652403372551 0.00476840451921147 0.0007808911159469478 0.002892672906118658 -0.0015083061893878679 0.0016446109850699795 0.001764455178104489 0.00016198554239757633 -0.0020153670247470773 -0.0027306083863465947 -0.0007470883840075546 -0.00043356184769309807 -0.0002864609845129309 -0.0024382935005104025 0.00043548698462025963 -0.0016529653294925773 0.0015806595669455993 -0.003213677029586031 -0.002659591683198752 -0.0017408914384844313 0.001798632452861344 0.0031807699336162364 0.004127960168637843 -0.0025207771307895 -0.001951378272061682 -0.0008690781443480397 -0.00013646677434096458 0.0009510671648442394 0.0046204141291532955 -0.001849902565179666 -0.005340086707298589 0.003274104978919553 -0.0030742177257389956 -0.0011666147401011475 -0.0007290137734950905 -0.0012874897976874278 -0.0012087870719115698 0.0001829649499438015 -0.0009755186137972684 0.000917754084045639 -0.0016774740021584767 0.0012613517166568716 -0.0010760473659782962 -0.004431308039601206 -0.001560140777678404 -0.002310270080545631 0.004304458284132585 0.0011379858964744118 0.0022390532187333946 -0.00252141164096934 0.00196415092363585 0.002857318089000602 -0.0035393282897695348 -0.0024997889062373683 -0.0013663083452413554 0.0019216316192682806 -0.00023619687728454865 -0.0011321529495675817 -0.004377169380229799 -0.0007721661895048982 -0.00031277506722954295 -0.005638552671573681 -0.0024908081889438325 0.0026770541300096067 0.0006315885840780926 -0.0007891498824594721 -0.0009936765285901454 -0.00037801124049773163 -0.0005727542203105266 -0.0038247797038855956 0.0018481714278069414 -0.0018489018797293638 0.005964987922112203 -0.00038988369968704717 -0.0009593201876988754 0.003397843835590439 0.0050636254022965455 0.0006351914762371974 0.00030513311350937325 0.0009940621667822512 0.0009695736133982605 0.0002211188526247507 -6.518397138521782e-05 -0.0008478357392281288 0.000198995956578617 0.0031867617957786693 -0.0009350186645535905 -0.002509498828432609 -0.0007005959019804065 0.0017083145047053084 0.0013068010640198136 0.0032110481041480146 0.000614505067783648 -0.002541452140223731 0.0025140837056196606 -0.0009342971280829328 -0.0004100591210087372 -0.0026314132170787794 0.0026812383084394145 -0.0038725453252980665 -0.000977048453969089 0.00016388499890512302 -0.00205494049916245 -0.002869267473918005 0.0013721747791758773 -0.0014705098304501403 -0.003809458959504583 0.0021887956395452803 0.004332847406564314 0.00028565860931539257 -0.0016663126549449337 0.0020383273860413316 0.0004495834787766048 0.00273978406248628 0.0015148033656069025 -8.462257010484731e-05 -0.006180089611903599 -0.0007697232953449306 0.00035757055154705237 0.004395492932181031 0.0002508741455297111 0.0016358588544793187 0.0012686136272469497 -0.0006855115378687174 -0.001986955190748431 0.0033835552241984305 -0.0046100197077499445 0.00033733055967410263 0.0023769591609914993 0.0007868947746465933 -0.0004592868892040662 0.0027368809139380417 -0.001382527883882732 0.0004257472648261428 0.0029474618218804727 0.0014065011495735613 0.0015383786493083469 -0.003299033677378996 0.000523006803787583 -0.002191778590085741 -0.002028324796118065 0.0015141178220444184 0.00014879865997006122 -0.0018289784734674952 -0.002360175009662575 -0.0041156672257858466 0.0007801314365131422 -0.003591263231248717 0.0003545856005222797 0.0010278637510241603 -0.002330446510129437 0.004336259996735497 0.001687833963518595 -0.006920154779032266 0.0007967892828849524 0.0043578577700802545 2.295634533756509e-05 -0.0025022736110361455 0.002149690634280235 -0.001573407989897259 -0.0005127483642474977 -0.0036781616602236246 -0.0003231911432003673 -0.002566517036215091 0.0041469955547776376 0.004437813343560575 -0.005920718457586295 -0.0030814789037230316 0.0008934863504545057 0.001398551143471255 0.005858901229732865 -0.0016357861739603409 -0.0033747982396625993 0.0003272090094772529 0.0034547821373033054 0.004405143564030607 -0.0013025321291595497 -0.003575404721970611 0.0018368825424269022 0.0008468144881667822 0.0021722642642394126 -0.0017494923479868256 0.0007271775786360301 0.007239448935275301 -0.003463247146722602 -0.0008797934041384562 0.0032767612759977242 0.0021686553253197098 -0.003701380518462445 0.0013895591599974982 -0.00394031485804904 0.004004280019841686 -0.0033561364460199038 0.0008380827894930342 0.0011975819749636008 0.004561838403045182 0.0004049148828342689 0.003098508450661536 0.0036388219764404324 0.0022576810206258718 0.0036331988544044853 -0.00225565138334074 0.001995191590727413 -0.0012641947270296337 -0.0022368023774026785 -0.00024765382209952644 0.00015464821130419667 -0.0007055115042650033 -0.008424596756845999 -0.0029348122191862136 0.0029487363401910736 0.001004530421908105 0.0029024331799612424 -0.0028346788427723695 0.005125588334212029 -0.00016928686841317914 -7.148794263630704e-05 0.0027257406036443467 0.00013783555735595945 0.0018286226803400682 -0.003947374098764358 -0.0001330446903545755 0.0016468212246868882 0.0028640875080827716 0.00207805046020039 9.064227598356691e-05 0.0028498077191542377 -0.0017243327306916637 -0.004881717689934934 0.000397994955578088 0.0026244838646798025 -0.0011970085927261007 0.0022451657282101414 -0.0003588964739646533 -0.0029553282881071203 -0.002537384637045256 -0.0011538155552001364 0.004460865874200462 0.002916486011202051 0.004166773655892287 -2.4984258723602492e-05 -0.0022883293123835613 0.0017414561693534574 -0.002281801216549293 0.0005450116183760414 0.0006231897544563775 0.0011321547548849566 -0.006411950037266632 0.003455554165158091 -0.002775863410386628 -0.000970004708328551 -0.0017449867776764372 -3.555839675636432e-05 0.0019882676575777303 0.004762549744779768 0.0006656950342213174 0.0014687374619671855 0.004285596835433697 0.004535122157051986 -0.0016127476053508546 0.0018397980368205589 0.005676217420135473 -0.0014132803621286184 0.0024736554765952008 -0.00014007632193356292 -0.002390395525709989 -0.0011386187498011024 0.0003541021654021737 -0.003167077223968513 0.0006391122071174835 0.004382006302509848 -0.0013907924157584761 -0.0016567520370020152 -0.001598722775718678 -0.0011360074331519413 0.0006570756979618213 -0.00170991250517573 0.000678009019894048 -0.0007188609428005252 -0.000693003700000347 -0.0035773033398930074 -0.0008618995284098288 0.002564768791571796 0.004164739329131771 0.0021069603386930464 0.0009667055058256637 -0.00045858936470188796 0.0020626518041782635 0.002837512894117514 0.0017118462272691568 -0.000638229664878285 0.002885756985264486 0.00034658441192541976 0.004977577412061309 -0.002725093777467146 0.0005292029953169707 -0.0017405572841865254 -0.0001210886817568814 0.003374889912999147 -0.0009334690991136486 -0.0022048517781282206 -0.0002459171268875197 0.0010357961234049233 0.0027460745649714987 0.0006785380395022005 0.0006811695132647083 -1.3232553226208225e-05 -0.0029336075693770143 -0.0005823186385503606 0.0007591572033182673 -0.001635509396298336 0.002465514426479673 -0.0003291600381676413 0.0007665156930203354 -0.0017318730418001895 -0.0015345920000147649 -0.002228201442791953 5.948461901842012e-05 -0.0034001532825299993 0.0011731447018925375 -0.0022508320635562964 -0.002146696911002009 0.00015894056166698882 -0.0013294139938228298 -0.002629135955716515 -0.0034839146074056456 0.00095882367909711 0.004218698206250317 0.0007263811881946488 -0.005078124575068185 -0.003423724230362225 0.004725397388266145 -0.004925223553175789 -0.004760081842430874 0.0015298213531538384 0.004469415969445049 -0.003181559650844529 -0.001144812431452428 -0.0016858316241446813 0.0034108100398545288 0.0008326278252338053 -0.0013646287387890888 -0.001242950952116516 0.0034073662249158284 0.00175570978850649 -0.0011976794243977438 0.0009130497248629163 -0.004296592375405394 -0.004620729182088238 0.0003593072215628879 0.0015226269553026335 0.0025112111550295636 0.00046081594137299415 -0.000959361104398481 0.000628106526140944 0.0015888988170654516 -0.004715957566118359 -0.00838679175386389 -0.0032414638295573898 -0.002375354190649024 0.0008940795441835235 -0.0037446343876477647 0.003354131489110724 9.931147870810636e-05 -0.002553654057117305 -2.4297148804908657e-05 -0.001959202560833038 0.0009017148469138287 -0.004721761133439618 -0.0009251468454912594 -0.002197240622312324 2.9510991519537424e-05 -0.002110577532082707 -0.0066033331756228004 0.0030620727256349977 0.006148049519521806 -0.0015228570229974252 0.0020687106241067325 -0.0013939899499236736 0.0059017664487674894 -0.00035027663689236784 0.0032569691964611652 0.0003643202887653667 -0.0009211162113893146 -0.0008703153489171286 0.0031771054973130436 0.0006924954669645681 -0.0004425150656623414 0.004070817918025444 -0.001266681827618346 0.0015627946545335265 -0.00023187724096688077 -0.0024651057055449124 -0.0011718329435418677 0.001994939853666241 -0.0007735132307493761 -0.0005769371623773984 0.006759783179870637 0.004839439876578717 -0.0002570896374030986 -0.00022571709029244969 -0.0009008642949544225 -0.0036258139499058357 -0.0020484235580534157 0.0005380065045407941 -0.0013527997184146232 -0.005247136589070864 -0.004226904575534697 -7.0329433895346106e-06 -0.0012763840328721496 -0.003843354906248302 -0.0007834552144031931 -0.0023304665064537555 0.0001369149680090472 -0.0012596447522193212 -0.0006629365757659323 0.0034742183607360897 0.0029758768045330852 0.0022046169118911537 0.001241376144862826 -6.212306933947173e-05 -8.200305103234618e-05 -0.0036315680405501457 0.000993404746397179 0.0015867057848729046 0.0004724274850702776 -0.0007526623223808277 0.0024079495660415105 0.002287135916269966 -0.004126014924860913 0.002322214589767947 0.002654530511447755 -0.000698610061089727 0.001666845960650117 0.001279643165327929 0.0011710976784882023 -0.0010095949114782316 0.0006184792564256131 -0.004130201663504635 0.0079472591476528 0.0005851072444764239 0.00010783645381302015 -0.002563214061771275 -6.308508895355472e-06 -0.0016498058403177879 0.0018729261612615321 0.0029622758148552773 -0.004304822101129824 0.002586926127019025 -0.0001596295815485303 -0.0037762004138599727 0.002537555116494991 -0.004305775958895347 0.0016857949091768445 0.0014106457832599574 -0.0010938302741670502 0.002167101082564964 -0.0035256474166969628 0.0037533038127764 -0.0017142284735350384 0.0012339964776999946 -0.0060078716779302255 0.0012355182750133792 -0.0011040417947922512 -0.0017860633607361114 -0.001015290377872903 -0.0017051660457223666 0.00601090469029824 -0.0015902718944925446 -0.002044134685115588 7.92920487020212e-06 -0.002180425909069318 -0.0008600794139562118 -0.004328826323295711 -0.0011597715708787286 0.005379035568500013 0.0016747106104053522 -0.005707454567974051 -0.00045432222077057115 -0.004599546606442164 -0.0032159997003766063 -0.00031347629653114993 0.00011101255101906925 0.004796549054868777 -0.0018516569788594559 0.005322463685500025 0.00031051086741336505 0.0001240766401137092 -0.005676728087547893 0.0008153677792045134 0.0016821133595254461 -0.0014811108693346022 0.00040917332967021667 -0.0011431022561705876 -0.0015158754940062448 -0.00397340971267719 -0.001056513946280302 0.00025877475706631017 -0.002238936515424745 0.0022647623863104476 0.002654612407863069 0.0021239631353381027 0.0008179605999262454 0.0014799409207445363 0.0010738180755959189 -0.003644751494193284 -0.0031525202628043445 -0.003186484663254768 -0.0004495577077294311 0.004602039053405949 -0.0042079208860605665 -0.0037239399990757344 -0.004207424423084507 -0.001486633968148622 0.001891289050934792 -0.003919253346268818 -0.0014534466553428708 -0.004802036478674069 0.0013083898787308243 -0.0021268296802737603 0.001701376205230219 -0.0004275612603086636 -0.001985348047207064 -0.0009715241731030488 -0.0030655482365817494 0.0013094864314948669 -0.0003790597451334417 0.0007395546274521222 -0.00025787448117334325 0.002748174461740787 0.0016029374893775144 -0.0010545406976296477 -0.0008411728910184371 0.002836757816940584 -0.0003537470479755548 0.0012324649213417411 0.0014710507926203678 0.0021990738390361892 -0.0026240464326869007 0.0017062967345478784 0.0007827693167788773 0.0013285715081921918 -0.00290932638867348 0.004331087085215837 7.519536394908555e-05 -0.0022131781436384576 0.0015435065616813003 -0.004254554426784572 0.0010418788392155339 0.002400782181074269 0.0022055822914691533 0.0027335294601817154 -0.00480219792142507 0.00484289717645413 0.004168230233026609 -0.0015029242522899648 0.004843520006000433 0.0007181498326621945 -0.00011907240584357057 0.0024711043608040047 0.003483380807167649 -4.1958097899907006e-05 0.0009015413753191471 -0.0006488124664722926 -0.0051363300409237745 -0.0014875504495633263 -0.004521378905808438 -0.0019703567372768836 -0.003988193021434812 0.001656026576101494 0.002383947917286196 -0.003925170789662824 -0.0010578170947411498 0.004380988804276853 -0.001179845574839357 0.00507016039173356 -0.001987540062375363 -0.003011726803104261 -0.002588659945465293 -0.0003031940235368814 -0.0007124902299567428 0.0003690599664853769 0.0009632720196880535 0.00011101944569069034 -0.0039567994770383684 0.0010186064067206192 -5.187044720906795e-05 -0.007473817786317776 0.00013618935262274084 0.002242011893675282 -0.003107937286945429 0.0018642301192591242 0.0016837632345475789 0.0021981090353046283 -0.00393624748711364 0.00218995828929445 -0.003691546119958284 0.00027079404277513644 0.0005040387921057403 -0.0022430702928080038 -0.0022076462220517773 0.0016539546325875301 -0.0013446446506570312 -3.4743293358591504e-05 0.0012011865798953946 -0.0014222857585025424 0.001926062503298996 0.0023229755265196774 0.001491145479997578 0.0010955064070438847 0.004040864127605578 0.0007980507788074625 -0.004189217973216313 -0.0013893098768110587 -0.00022504640218953551 0.0021502601630506474 0.0011173843411823685 -5.9269943017272266e-05 7.184478479200312e-05 0.0008909859583850065 -0.00012941210540666666 0.0008775291533938078 0.001516723288956869 -0.0016233691580117204 -0.0015902719728168 0.0030344954947472903 -9.313216002937708e-06 -0.0017991473791875864 -0.0026936206336299747 0.0009103430274971049 -0.001535461339241034 0.0010739277229748954 -0.004205374153453472 -0.0007679914281430454 0.005672304232730682 0.001303832741341254 -0.001382424084945711 0.005850263202450868 0.0018435620657418275 0.001317618432284702 0.0010370428005793827 -0.0006534254857067071 0.0013206455179342114 0.0018831037896999212 0.0011281784278963643 0.004152073912264376 0.0027228181899097877 0.0013745602102657227 -0.005253698900741057 0.0014368999027251663 0.000899363939765174 -0.005848447755368834 -0.00019913558799333907 -0.00020727441646008167 0.0016070520607943649 -0.0006304079341775443 -0.0024068251516167556 -0.0017069093138273323 0.00028788104629742464 -0.003224630200817647 0.0029373008942814114 -0.006550492117728613 -0.0033140633829117617 -0.0006646595287763668 -2.1292859593749898e-05 0.0018424949850671087 0.00492421267906321 -0.0030353322539803267 0.0014205859313314267 0.002760607411823419 -0.0030465631654364223 0.0009041490251185253 -0.001333852878041301 0.0005768135518579054 0.0005118435669291207 0.0007623290138517871 0.0010948595051085345 0.0016957380370970316 -0.005007915031377928 0.0015451732658830796 -0.0009998464026546505 0.00468661442455612 0.002708851308891333 0.000613082732584859 5.271512530894456e-05 0.0012139777398069388 0.0007089559846644039 0.00015591314424243794 0.00013756787554882887 0.0017787013914898747 -0.0007602616831911772 -0.0050177464765952225 0.0005437023714281557 -0.00657097314440816 0.0010194750681013596 -0.00124361926283528 0.001159091133053682 0.0023347529266183045 0.00255138425524346 0.0005928117442851634 0.001146088666472762 0.0028830987459094425 -0.0033289331816975386 -0.0005230232220535592 -0.003094887995506793 -0.0033152394612014687 -0.001769599588102968 -0.0030958159234042736 -0.001104567824344363 -0.00244464406089118 0.004287796093979787 -0.0015222069443343058 0.0020229677718855196 0.0007404629025973713 0.001158818334940635 -0.001091824107363452 0.001883059667242222 0.003310330681991888 -0.0008051818544428887 -0.0022971879692453416 -0.00019210236271283854 0.0007886827782088557 0.0001069831852989336 0.0002670706641303806 -0.0017565834593859053 0.0016819005289458698 0.000349632939859428 -0.0030034855976736547 0.0012591045686843592 0.003341794584969971 0.0002303607196707771 0.0027164378731138186 0.004534286325880018 0.0004055681137089884 -0.0019876095627544316 -0.00233352485763313 0.005767092033036728 0.0007073516310446293 0.0003768993336457236 0.002108180501433902 0.0006752444280357541 -0.0002176787815862669 0.0012778889972654497 0.0009859938248742474 0.002824973036454435 0.001329146152031869 0.0021741091564030485 -0.0032025843098818186 -0.003007785114609718 -0.0025140989864002343 -0.0031024730894540623 0.0034534911163920943 0.003885994293432711 0.001928846134957633 0.0060448714483650285 -0.0016156771090468343 -0.0004540471484436929 -0.0001906850916569503 -0.0038209910275287346 0.001788595239723351 -0.0032509323094491644 0.0009229659640095734 0.0025529103439259466 -0.001137431800872796 -0.0009682938510938582 -0.0019941386190318227 -0.0009630235624334116 -0.001293081761855462 -0.000819106580243573 -0.00035089215697626673 -0.0022944616840108144 0.002505349432602124 -0.0008800172222978134 -0.0030722859255801886 -0.0025007172586136977 -0.0021988825585619346 0.0007850679797638902 -0.005173560516499433 -0.00043346319765642246 -0.003485118045054467 -0.0012683482460457036 0.0004160283944784741 -0.0012024555561705827 0.0002981232846462214 0.0022231330871542183 -0.00041433123845074216 0.0017950478396265785 0.0009579897038854651 0.00015442015370998707 -0.0035752821272043407 -0.0038707958898469377 0.0012252081843160444 -0.001963048394589041 0.0009321030471258081 0.0017205322957535838 -0.002188582729517661 0.0009451026737016651 -0.00043556132596105237 -0.00045597137414623906 0.0010172536415015184 -0.0017231333791858565 -0.0001806277780127117 -0.003411751678269917 -0.0013611701715813085 -0.0010630363440105176 0.005404482416584028 0.002887011695378591 0.001059685791192977 -0.006103321171966527 -0.007150894701311329 0.0005924298069222099 -0.0023386772517729353 -0.0011609239740744076 0.000771578918110485 0.0030207059105782745 -0.0006263101936258141 0.0006838013359453749 0.0011902201471619012 0.0020696777606785725 0.0003608880615901098 0.0014715552711599949 -8.145355616103419e-05 0.0021993637835004205 -0.0004992165927742066 0.00103547164541959 0.0003456364354516872 -1.1619629075553554e-05 -0.0019249539067078536 0.00021431122108983138 0.0008341939254988132 -0.0010734179225639377 -0.0036652105673429984 -0.0012459882963949957 0.000352152452967151 -0.00409695761760548 -0.0001902165880730068 -0.0005455335919009052 -0.0014329453345100257 -0.0028400237246172582 0.005214774488314211 -0.0010236279168124062 -0.0018243758721855274 -0.0023713499114590866 -0.0023077011074298806 0.0021618416091235817 -0.0026208024704795 -0.0012456164483269892 0.0012603325256307918 -0.00233252486733711 0.0011169473116065319 3.3526347881711175e-06 0.0024300419874259114 -0.0031625538857772088 0.0021150903121801034 0.0018985822978767272 0.0011060332957933544 -0.0006896342405676017 0.0027361932247873836 0.002356096366446135 -0.0006697736063320715 0.0028248699020980267 0.0013887796574580938 -0.0036632490313656344 -0.0006388086713935646 -0.0010036834171598596 0.003075929471391943 0.001581070710709425 0.00039604818784915813 0.0006213363547961279 0.0021241550672812795 0.003981176836795972 0.005742634860448586 0.0012719432931884616 0.0014104116851778772 0.0010748899489159713 0.0015016614736563351 0.0005017749375416189 -0.0023494181292468557 0.00321554168262217 4.546502817758956e-05 0.004434113297369789 -0.002222135133659451 0.0002592458834322403 0.003954881681814943 -0.0037970693820831443 -0.0070889617339245465 -0.0037627898197339737 0.0009428436581682156 -0.0003880783615294413 -0.005086180319534693 0.002183859438749583 0.0011823255144274953 -0.00424271995367148 -0.0035625079113898576 0.0011287581833218944 -0.0021483572965418697 -0.0014610839332035081 0.0018383839187232065 0.0021441934584696407 -0.0016927133121546628 0.00011527966078006092 -0.0010134979237238417 -0.0009911130706894246 0.0061009714331028845 0.0031474439959802156 0.0003874513600971663 0.0033607413700856878 0.000703207474889103 -0.0046109027310992775 0.006628001931845256 -0.0007377985188314065 -3.382360331296317e-05 0.0010682814167687386 0.0035359450950070283 -0.0008938408327063565 0.0017430700687303036 -0.0023461764048226504 0.001883953190849132 0.0008855621308422394 0.003338867169868536 0.0009357846121007331 -0.001662013016203945 -0.0007512071063980028 0.0005732243428204335 0.0018920076436515908 0.005781572648682477 0.004967751557611776 0.00014356907643533565 9.860712467368453e-05 1.732410670192287e-05 -0.002069495711088057 0.00015410964757238765 -0.0049287319018053305 -0.001648260354199587 -0.002131833024821503 -0.0013010270814347341 -0.003515565898451764 -0.0019315961906179006 -0.0029663949730316 -0.002654843097023458 0.003919400817603836 -0.0038070766272195514 9.041374990276337e-05 0.0018716368811672079 -0.00013443988703489975 -0.0009923010961071783 -0.001580040732009597 -0.0009616382580667249 0.0023099219585591894 -0.0016661540271778377 -0.0011059326412073528 -0.0002671897789581903 0.002705243078914616 0.0006142080037682264 0.0052324738146973734 -0.003366603836227563 -0.0002980926252271213 