-0.000383 0.001845 0.002611 0.002685 0.00177 0.000617 -0.001501 0.003756 -0.003832 -0.003577 0.001081 -0.003052 -0.002828 0.002557 0.00047 0.000246 0.003189 -0.001149 -0.001379 -2.4e-05 -0.003645 -0.001444 0.002478 0.003165 0.003868 -0.004157 0.001239 -0.008789 0.000438 -0.000481 0.002621 0.002077 -0.00011 0.001728 0.000621 0.001928 -0.000503 0.000288 -0.001011 0.000751 0.003067 0.002551 0.003439 0.001207 -0.000636 0.002901 0.001695 -0.001944 0.001483 0.002046 -0.002067 0.0008 -0.003669 0.001601 -0.003223 -0.000139 0.001872 0.001055 -0.000194 0.007805 -0.002101 -0.000389 -0.003792 -0.005219 0.000128 0.001669 0.002205 -0.001543 0.004455 0.00056 -0.000542 0.001417 0.000835 -0.001578 -0.00313 -0.000191 0.004451 0.004043 0.001233 -0.002355 0.002919 0.006782 0.00038 0.000767 0.002982 -0.00037 -0.001013 -0.001182 -0.001285 0.000598 0.004827 -0.00495 -0.001124 0.002358 -0.000812 -0.003781 -7e-06 -0.001302 0.001442 -0.000699 -0.003484 0.004388 -0.002178 -0.000493 -0.002196 0.005067 0.001232 0.004174 0.004529 0.006342 0.001493 -0.002534 -0.002591 -0.003672 0.000699 0.000717 0.001238 -0.003533 -0.002269 0.001036 0.000984 0.000756 0.001307 -0.00448 -0.004649 -0.001202 -0.000537 -4e-05 -0.001238 -0.003088 0.00154 0.004543 -0.002753 0.003842 0.002338 -0.001742 0.000528 -0.002185 -0.004584 0.002532 -0.000403 -0.001034 -0.004263 -0.003738 -0.000564 0.000193 -0.00282 -0.000883 0.000447 -0.001141 -0.002825 -0.001582 0.003449 0.001365 -0.001956 0.00551 -0.002627 0.000596 -0.002909 -0.002304 0.004217 0.001645 -0.002673 -0.001038 -0.001611 0.002539 0.001641 0.005796 -0.006314 0.002536 -0.000874 0.004469 -0.000431 0.001533 -0.002032 -0.001209 0.000789 0.003026 0.000376 0.000568 0.000465 0.003219 0.000514 0.000112 -0.004875 -0.002025 -0.00175 -0.002564 -0.001291 -0.002191 -0.00025 -0.002902 -0.003213 -0.004225 0.001113 -0.001517 0.001179 0.003186 -0.004925 0.001443 0.001655 0.000385 -0.00052 -0.004641 -0.000904 -0.000764 -0.00294 -0.001278 -0.002747 0.00212 -0.000466 0.002523 -0.002166 -0.000797 -0.006437 -0.000571 0.000268 -0.003061 0.001715 0.004225 0.005196 -0.001983 0.001098 -0.004686 -0.000579 0.001718 -0.000698 0.000418 -0.002501 -0.003124 -0.000505 0.003176 0.000303 -0.005809 0.003988 -0.003823 0.00211 -0.002533 -0.001293 -0.000556 -0.002025 0.00197 -0.000931 0.002999 6.9e-05 -0.000527 0.005416 0.002286 0.003356 -0.001316 0.004751 -0.00089 0.000139 0.001687 0.003173 0.002135 