0.002619 -0.001386 0.005714 0.001272 0.002682 -0.004545 0.002388 0.002039 -0.002347 0.003504 -9e-06 -0.000315 0.002719 0.002832 0.001864 -0.00352 -0.002737 -0.000555 0.002875 0.001469 0.000718 -0.005299 -0.000677 -0.001898 -0.001351 -0.001275 0.004108 0.000139 0.000258 -0.001652 -0.001547 -0.002826 -0.001255 0.000339 0.002131 0.004372 -0.001467 7.7e-05 -0.000381 -0.002424 0.003574 5.4e-05 -0.002188 -0.000107 0.002614 0.001466 0.002626 0.001655 -0.000173 -0.00022 0.001554 0.001774 0.004117 0.003894 -0.001586 0.00247 0.003349 0.004665 -0.000495 0.005116 0.001439 -0.0005 0.001288 -0.000104 -0.002706 -0.001702 -0.001918 -0.001964 0.003111 -0.000153 0.003263 -0.002916 -0.004046 0.0047 -0.000775 -0.000247 -0.000464 -1.3e-05 -0.001651 0.000759 -8e-05 -0.00035 -0.003692 -3.4e-05 -0.000934 0.001966 0.004047 0.001014 -0.000421 0.004025 0.0017 -0.002896 0.00134 0.002184 -7.9e-05 0.003429 0.000234 -0.00178 -0.00147 0.001968 0.006489 0.000324 6.7e-05 -0.00122 0.000273 0.000693 -0.001333 0.000195 0.000375 0.000776 -0.002431 -0.003445 0.001737 0.002476 -0.002847 0.000537 0.003474 -0.002652 0.003405 -0.002197 0.003589 0.001302 -0.002252 -0.004559 -0.00108 -0.000142 -0.000338 0.002127 0.001132 -0.002051 0.001431 0.00099 -0.006944 0.000723 0.000416 -0.001159 -1.3e-05 0.001937 -0.000765 0.001729 0.001652 -0.001333 -0.000491 -0.003131 0.003019 -0.002712 -0.001028 -0.004101 0.000302 -0.002024 -0.003336 0.002711 -0.001795 -0.000607 -0.00143 0.003074 0.001131 -0.002512 -0.001751 0.006587 0.001725 -0.000128 -0.003074 -0.003661 0.002773 0.000575 -0.001206 0.004288 0.004459 -0.000846 9.1e-05 -0.000613 0.004265 -0.001955 -0.001441 -0.003505 -0.001925 0.002743 -0.000432 0.002942 -0.000392 -0.000457 0.002268 0.003694 0.000977 0.004078 0.004285 -0.000771 -0.0015 -0.001535 -0.003247 0.001444 0.000305 -0.006506 -0.001204 0.006666 0.002055 0.002005 0.002753 -0.000802 0.004607 -0.001474 -0.003217 -0.004726 -0.000486 -0.001406 -0.00451 -0.00144 -0.000153 -0.002722 -0.001294 -0.000335 0.001354 0.002738 0.001388 -0.001493 -0.002208 0.004214 -0.002263 0.004033 6e-06 -0.000366 0.001194 0.002324 0.001444 0.000434 0.001674 -0.000611 0.002938 0.000653 -0.001813 0.002122 0.000477 0.00479 0.001525 0.00135 -0.002314 -0.002204 0.001094 0.005381 -0.000686 -0.000983 -0.002002 0.00171 -0.000502 0.001395 0.001978 0.00148 -0.004995 0.0027 -0.002857 -0.000526 0.002105 -7.8e-05 -0.001769 0.003263 